{"learner":{"attributes":{"scikit_learn":"{\"_estimator_type\": \"regressor\"}"},"feature_names":["lag1","lag2","lag3","rolling","temperature_2m_mean","precipitation_sum","wind_speed_10m_max","wind_direction_10m_dominant"],"feature_types":["float","float","float","float","float","float","float","float"],"gradient_booster":{"model":{"gbtree_model_param":{"num_parallel_tree":"1","num_trees":"100"},"iteration_indptr":[0,1,2,3,4,5,6,7,8,9,10,11,12,13,14,15,16,17,18,19,20,21,22,23,24,25,26,27,28,29,30,31,32,33,34,35,36,37,38,39,40,41,42,43,44,45,46,47,48,49,50,51,52,53,54,55,56,57,58,59,60,61,62,63,64,65,66,67,68,69,70,71,72,73,74,75,76,77,78,79,80,81,82,83,84,85,86,87,88,89,90,91,92,93,94,95,96,97,98,99,100],"tree_info":[0,0,0,0,0,0,0,0,0,0,0,0,0,0,0,0,0,0,0,0,0,0,0,0,0,0,0,0,0,0,0,0,0,0,0,0,0,0,0,0,0,0,0,0,0,0,0,0,0,0,0,0,0,0,0,0,0,0,0,0,0,0,0,0,0,0,0,0,0,0,0,0,0,0,0,0,0,0,0,0,0,0,0,0,0,0,0,0,0,0,0,0,0,0,0,0,0,0,0,0],"trees":[{"base_weights":[3.5308884E-7,-2.5116906E0,6.6246424E0,-4.9714127E0,-7.254019E-1,4.227382E0,1.2915253E1,-5.349426E0,7.7372046E0,-1.2218893E0,8.073028E0,3.8868344E0,1.588608E1,1.1368256E1,2.525752E1,-6.009797E0,-3.618534E0,2.0678973E0,1.45653515E1,-2.3533406E0,-1.4554447E-1,-2.8264752E-1,1.2692801E1,3.61011E0,1.3067898E1,1.716722E1,4.6120307E-1,-1.6502683E0,1.1981805E1,-2.8879696E-1,2.7069708E1,-6.1043124E0,9.383125E0,-5.695693E0,-2.2593784E0,-1.9377608E0,5.7289057E0,1.6778303E1,-1.3879696E-1,-2.8286598E0,2.0990374E0,8.96247E-1,-1.7233171E0,-1.8482035E0,2.8955724E0,1.44717E1,1.2597497E0,4.996274E0,1.9656888E0,3.8060153E0,1.6065351E1,8.306015E0,5.933491E0,-3.7402503E0,7.149374E-1,1.5602634E1,9.523754E0,8.674529E0,1.0049791E1,-1.4834692E0,-2.0274916E0,-4.3879697E-1,4.6612034E0,-1.8553747E0,9.918046E-1,-3.8776866E-1,-1.3001692E0,-1.3319543E-1,-9.850626E-1,2.1918046E0,5.149374E-1,1.3612031E0,5.4186726E0,-6.1393404E-1,-1.1777484E0,-2.535275E-1,2.0009127E0,1.01469055E-1,1.3904561E0,-9.0993685E-1,3.3928293E-1,-1.3620751E0,1.9605339E-2,1.037925E0,1.1203051E-2,1.1418046E0,4.7259336E0,7.6680464E-1,-5.88797E-1,1.863027E0,9.184258E-1,-1.2873638E0,1.0187529E0,1.3149375E0,3.1120306E-1,-1.3879696E-1,5.547777E0,4.6120307E-1,3.0149376E0,-1.6331955E0,4.6120307E-1,2.2865832E0,5.073048E0,1.6755183E0,3.9968464E0,6.112031E-1,3.9112034E0],"categories":[],"categories_nodes":[],"categories_segments":[],"categories_sizes":[],"default_left":[0,0,0,0,0,0,0,0,0,0,0,0,0,0,0,0,0,0,0,0,0,0,0,0,0,0,0,0,0,0,0,0,0,0,0,0,0,0,0,0,0,0,0,0,0,0,0,0,0,0,0,0,0,0,0,0,0,0,0,0,0,0,0,0,0,0,0,0,0,0,0,0,0,0,0,0,0,0,0,0,0,0,0,0,0,0,0,0,0,0,0,0,0,0,0,0,0,0,0,0,0,0,0,0,0,0,0],"id":0,"left_children":[1,3,5,7,9,11,13,15,17,19,21,23,25,27,29,31,33,35,37,39,41,43,45,47,49,51,-1,53,55,-1,57,59,61,63,65,67,69,71,-1,73,75,77,79,81,83,85,87,89,91,93,95,97,-1,99,-1,101,103,-1,105,-1,-1,-1,-1,-1,-1,-1,-1,-1,-1,-1,-1,-1,-1,-1,-1,-1,-1,-1,-1,-1,-1,-1,-1,-1,-1,-1,-1,-1,-1,-1,-1,-1,-1,-1,-1,-1,-1,-1,-1,-1,-1,-1,-1,-1,-1,-1,-1],"loss_changes":[3.3228188E4,6.358578E3,8.224449E3,2.967039E3,3.6792437E3,1.5224204E3,2.5959785E3,6.549297E2,6.666759E2,9.690513E2,1.7406475E3,9.41126E2,1.7581812E2,1.1060742E3,7.863125E2,6.785039E2,4.5577954E2,1.724135E2,2.7381262E2,8.2706226E2,6.7382196E2,8.9938194E1,5.715781E2,8.5408594E2,2.442378E2,6.709473E1,0E0,6.792152E1,1.00842773E3,0E0,1.8053613E2,2.888379E2,2.2296771E2,3.0650098E2,1.9897742E2,1.0603931E1,2.5427933E1,2.8061768E1,0E0,2.9320093E2,5.16989E2,5.1372504E2,6.1281E2,6.2113262E1,9.546082E0,2.817212E2,2.5902054E1,4.624419E2,1.5805308E3,1.8445015E0,3.2949536E2,3.1762207E1,0E0,5.332737E1,0E0,4.0329492E2,1.1226597E3,0E0,4.525128E1,0E0,0E0,0E0,0E0,0E0,0E0,0E0,0E0,0E0,0E0,0E0,0E0,0E0,0E0,0E0,0E0,0E0,0E0,0E0,0E0,0E0,0E0,0E0,0E0,0E0,0E0,0E0,0E0,0E0,0E0,0E0,0E0,0E0,0E0,0E0,0E0,0E0,0E0,0E0,0E0,0E0,0E0,0E0,0E0,0E0,0E0,0E0,0E0],"parents":[2147483647,0,0,1,1,2,2,3,3,4,4,5,5,6,6,7,7,8,8,9,9,10,10,11,11,12,12,13,13,14,14,15,15,16,16,17,17,18,18,19,19,20,20,21,21,22,22,23,23,24,24,25,25,27,27,28,28,30,30,31,31,32,32,33,33,34,34,35,35,36,36,37,37,39,39,40,40,41,41,42,42,43,43,44,44,45,45,46,46,47,47,48,48,49,49,50,50,51,51,53,53,55,55,56,56,58,58],"right_children":[2,4,6,8,10,12,14,16,18,20,22,24,26,28,30,32,34,36,38,40,42,44,46,48,50,52,-1,54,56,-1,58,60,62,64,66,68,70,72,-1,74,76,78,80,82,84,86,88,90,92,94,96,98,-1,100,-1,102,104,-1,106,-1,-1,-1,-1,-1,-1,-1,-1,-1,-1,-1,-1,-1,-1,-1,-1,-1,-1,-1,-1,-1,-1,-1,-1,-1,-1,-1,-1,-1,-1,-1,-1,-1,-1,-1,-1,-1,-1,-1,-1,-1,-1,-1,-1,-1,-1,-1,-1],"split_conditions":[1.7E1,9E0,2.9E1,3.7457306E1,3.509954E1,1.9957918E1,1.6037083E1,2.171248E2,1.66E1,1.2E1,2.3974998E0,4.286155E1,2.5E1,1.0137692E1,1.8333334E1,1.6895416E1,1.616496E1,1E1,5.9683337E0,1.23E1,2.9999998E0,4.4333336E-1,2.4E1,2.8E0,1.6E1,8.3462135E1,4.6120307E-1,4.5912504E0,1.6999999E0,-2.8879696E-1,6.4999995E0,3E-1,6E0,1.6333334E1,2.905019E2,6.6666665E0,8E0,4E0,-1.3879696E-1,2.4999998E0,2.907989E1,2.2378714E1,2.4023088E1,1.1E1,1.61E1,6E0,1.4E1,1.7208603E1,1.5721178E2,1.2E1,1.7204165E0,1.1E1,5.933491E0,1.9E1,7.149374E-1,1.0081317E2,2.856334E1,8.674529E0,4.4E1,-1.4834692E0,-2.0274916E0,-4.3879697E-1,4.6612034E0,-1.8553747E0,9.918046E-1,-3.8776866E-1,-1.3001692E0,-1.3319543E-1,-9.850626E-1,2.1918046E0,5.149374E-1,1.3612031E0,5.4186726E0,-6.1393404E-1,-1.1777484E0,-2.535275E-1,2.0009127E0,1.01469055E-1,1.3904561E0,-9.0993685E-1,3.3928293E-1,-1.3620751E0,1.9605339E-2,1.037925E0,1.1203051E-2,1.1418046E0,4.7259336E0,7.6680464E-1,-5.88797E-1,1.863027E0,9.184258E-1,-1.2873638E0,1.0187529E0,1.3149375E0,3.1120306E-1,-1.3879696E-1,5.547777E0,4.6120307E-1,3.0149376E0,-1.6331955E0,4.6120307E-1,2.2865832E0,5.073048E0,1.6755183E0,3.9968464E0,6.112031E-1,3.9112034E0],"split_indices":[0,0,0,6,6,4,4,7,5,0,4,6,1,6,3,4,6,1,4,5,5,4,1,5,3,7,0,4,5,0,5,5,0,3,7,3,0,0,0,5,6,6,6,0,5,1,0,6,7,1,4,2,0,1,0,7,6,0,0,0,0,0,0,0,0,0,0,0,0,0,0,0,0,0,0,0,0,0,0,0,0,0,0,0,0,0,0,0,0,0,0,0,0,0,0,0,0,0,0,0,0,0,0,0,0,0,0],"split_type":[0,0,0,0,0,0,0,0,0,0,0,0,0,0,0,0,0,0,0,0,0,0,0,0,0,0,0,0,0,0,0,0,0,0,0,0,0,0,0,0,0,0,0,0,0,0,0,0,0,0,0,0,0,0,0,0,0,0,0,0,0,0,0,0,0,0,0,0,0,0,0,0,0,0,0,0,0,0,0,0,0,0,0,0,0,0,0,0,0,0,0,0,0,0,0,0,0,0,0,0,0,0,0,0,0,0,0],"sum_hessian":[1.995E3,1.447E3,5.48E2,6.08E2,8.39E2,3.98E2,1.5E2,5.91E2,1.7E1,7.95E2,4.4E1,3.88E2,1E1,1.35E2,1.5E1,4.26E2,1.65E2,1E1,7E0,3.87E2,4.08E2,1.6E1,2.8E1,3.78E2,1E1,9E0,1E0,6E0,1.29E2,1E0,1.4E1,4.24E2,2E0,6.4E1,1.01E2,5E0,5E0,6E0,1E0,3.5E2,3.7E1,2.46E2,1.62E2,1.1E1,5E0,2.4E1,4E0,2.04E2,1.74E2,3E0,7E0,3E0,6E0,4E0,2E0,5E1,7.9E1,1.2E1,2E0,1.56E2,2.68E2,1E0,1E0,6.1E1,3E0,7E1,3.1E1,3E0,2E0,3E0,2E0,1E0,5E0,2.06E2,1.44E2,2.3E1,1.4E1,2.15E2,3.1E1,1.11E2,5.1E1,4E0,7E0,4E0,1E0,3E0,2.1E1,3E0,1E0,1.24E2,8E1,3.2E1,1.42E2,2E0,1E0,1E0,6E0,1E0,2E0,3E0,1E0,8E0,4.2E1,4E1,3.9E1,1E0,1E0],"tree_param":{"num_deleted":"0","num_feature":"8","num_nodes":"107","size_leaf_vector":"1"}},{"base_weights":[2.901868E-2,-1.9457953E0,4.374196E0,-2.3686395E0,3.9675946E0,3.233929E0,1.128271E1,-4.2705913E0,-1.366224E0,-2.0888255E0,6.7886267E0,2.8269646E0,8.99019E0,5.7334943E0,1.3776785E1,-4.5998125E0,-2.6502595E0,-2.7930877E0,-5.7801324E-1,1.290048E0,-3.3761454E0,1.8182209E0,9.411326E0,2.5408118E0,1.1377945E1,1.3441887E1,5.748646E0,5.325369E0,3.664093E0,2.1459784E1,1.1614076E1,-5.158064E0,-3.9037042E0,7.1804124E-1,-3.5455194E0,-2.1039634E0,-3.7486746E0,-9.3868756E-1,2.9198391E0,-1.9177811E0,3.2135928E0,-4.0219502E0,-9.836733E-1,-3.3853528E0,3.451733E0,1.0177562E1,-2.2073483E-1,3.6661835E0,1.2729038E0,4.2984223E0,1.4205145E1,4.2917256E0,3.3174908E-1,1.7967153E0,7.878555E0,-6.1305094E-1,5.964525E0,6.002458E-1,6.914067E0,5.5231547E0,1.4972573E1,-3.681185E-1,-1.5696083E0,-1.3465002E0,-5.402779E-1,-7.1220946E-1,2.034754E0,-1.5368646E0,-3.675338E-1,-8.1598765E-1,-2.8037536E-3,-1.5336545E0,-8.078752E-1,1.3101749E-1,-5.6848264E-1,-5.8951322E-2,1.6460134E0,-7.3553556E-1,-4.7365382E-2,2.3372342E-1,1.0634041E0,-6.201406E-1,-1.3393266E0,-1.288517E0,5.2373475E-1,-2.3063165E-1,-1.1264744E0,-1.8514752E-2,1.7079525E0,2.1397867E0,3.7684128E0,-8.889339E-1,5.0432867E-1,6.0328186E-1,1.7025285E0,-9.214975E-1,6.6797435E-1,2.802538E-1,2.2053819E0,1.8686575E0,4.9252934E0,6.7345417E-1,-2.6825094E-1,3.5027568E0,2.608533E-1,8.694603E-1,-1.4111829E0,4.0317255E-1,2.333337E0,6.424279E-1,2.9716058E0,4.91515E0,4.0518346E-1],"categories":[],"categories_nodes":[],"categories_segments":[],"categories_sizes":[],"default_left":[0,0,0,0,0,0,0,0,0,0,0,0,0,0,0,0,0,0,0,0,0,0,0,0,0,0,0,0,0,0,0,0,0,0,0,0,0,0,0,0,0,0,0,0,0,0,0,0,0,0,0,0,0,0,0,0,0,0,0,0,0,0,0,0,0,0,0,0,0,0,0,0,0,0,0,0,0,0,0,0,0,0,0,0,0,0,0,0,0,0,0,0,0,0,0,0,0,0,0,0,0,0,0,0,0,0,0,0,0,0,0,0,0],"id":1,"left_children":[1,3,5,7,9,11,13,15,17,19,21,23,25,27,29,31,33,35,37,39,41,43,45,47,49,51,53,-1,55,57,59,61,63,65,67,69,71,73,75,77,79,81,83,85,87,89,91,93,95,97,99,-1,-1,101,103,105,107,-1,-1,109,111,-1,-1,-1,-1,-1,-1,-1,-1,-1,-1,-1,-1,-1,-1,-1,-1,-1,-1,-1,-1,-1,-1,-1,-1,-1,-1,-1,-1,-1,-1,-1,-1,-1,-1,-1,-1,-1,-1,-1,-1,-1,-1,-1,-1,-1,-1,-1,-1,-1,-1,-1,-1],"loss_changes":[1.7136021E4,3.442505E3,4.8791045E3,2.4383564E3,1.5860331E3,1.2325571E3,1.1389443E3,2.2359277E2,9.4423267E2,1.3484612E2,8.041487E2,1.2018757E3,4.2779053E2,6.561737E2,7.4773047E2,1.2209375E2,2.3473962E2,1.8901001E2,6.8778186E2,6.1696594E1,3.0035248E1,2.0718765E2,3.0484375E2,6.91645E2,2.5918384E2,1.3337402E2,1.7102405E2,0E0,2.5947784E2,3.2448828E2,9.196655E2,5.173047E1,1.9721753E2,3.348823E2,2.1699146E2,2.2706293E2,1.6473523E2,6.492431E2,4.0904016E2,3.3720675E0,2.0746346E0,5.475586E0,6.1727875E1,2.9152527E0,1.421048E2,1.8623022E2,2.5843428E1,8.464995E2,9.639441E2,5.4755783E1,9.185962E1,0E0,0E0,1.2860113E1,3.6246387E2,1.5727448E2,1.3198016E2,0E0,0E0,2.6035712E2,5.7381934E2,0E0,0E0,0E0,0E0,0E0,0E0,0E0,0E0,0E0,0E0,0E0,0E0,0E0,0E0,0E0,0E0,0E0,0E0,0E0,0E0,0E0,0E0,0E0,0E0,0E0,0E0,0E0,0E0,0E0,0E0,0E0,0E0,0E0,0E0,0E0,0E0,0E0,0E0,0E0,0E0,0E0,0E0,0E0,0E0,0E0,0E0,0E0,0E0,0E0,0E0,0E0,0E0],"parents":[2147483647,0,0,1,1,2,2,3,3,4,4,5,5,6,6,7,7,8,8,9,9,10,10,11,11,12,12,13,13,14,14,15,15,16,16,17,17,18,18,19,19,20,20,21,21,22,22,23,23,24,24,25,25,26,26,28,28,29,29,30,30,31,31,32,32,33,33,34,34,35,35,36,36,37,37,38,38,39,39,40,40,41,41,42,42,43,43,44,44,45,45,46,46,47,47,48,48,49,49,50,50,53,53,54,54,55,55,56,56,59,59,60,60],"right_children":[2,4,6,8,10,12,14,16,18,20,22,24,26,28,30,32,34,36,38,40,42,44,46,48,50,52,54,-1,56,58,60,62,64,66,68,70,72,74,76,78,80,82,84,86,88,90,92,94,96,98,100,-1,-1,102,104,106,108,-1,-1,110,112,-1,-1,-1,-1,-1,-1,-1,-1,-1,-1,-1,-1,-1,-1,-1,-1,-1,-1,-1,-1,-1,-1,-1,-1,-1,-1,-1,-1,-1,-1,-1,-1,-1,-1,-1,-1,-1,-1,-1,-1,-1,-1,-1,-1,-1,-1,-1,-1,-1,-1,-1,-1],"split_conditions":[1.6E1,3.365422E1,3.5E1,8E0,2.0959029E2,1.6662085E1,3.4620829E0,1.6E1,1.5308332E0,-6.154583E0,1.2500002E1,4.286155E1,1.4428097E1,-2.0233333E0,2.4666666E1,1.1741353E2,3E-1,2.1E0,2.7194895E1,6E0,3.9756783E1,3.558177E1,3.3E1,2.8E0,2.4E1,2.5E1,1.7555307E1,5.325369E0,4E1,1.0664089E2,3.1E1,6.361697E0,2.4023088E1,1.2E1,2.1113889E2,1.3E1,1.311062E2,9.0000004E-1,2.2106587E2,1E1,7.3333335E0,-3.2733333E0,-4.04E0,5E0,8E0,1E1,1E1,1.9333334E1,1.7259314E2,1.1E1,1.6666666E1,4.2917256E0,3.3174908E-1,2.5E1,2.1313093E1,1.8E1,1.2E1,6.002458E-1,6.914067E0,2.1E1,5E1,-3.681185E-1,-1.5696083E0,-1.3465002E0,-5.402779E-1,-7.1220946E-1,2.034754E0,-1.5368646E0,-3.675338E-1,-8.1598765E-1,-2.8037536E-3,-1.5336545E0,-8.078752E-1,1.3101749E-1,-5.6848264E-1,-5.8951322E-2,1.6460134E0,-7.3553556E-1,-4.7365382E-2,2.3372342E-1,1.0634041E0,-6.201406E-1,-1.3393266E0,-1.288517E0,5.2373475E-1,-2.3063165E-1,-1.1264744E0,-1.8514752E-2,1.7079525E0,2.1397867E0,3.7684128E0,-8.889339E-1,5.0432867E-1,6.0328186E-1,1.7025285E0,-9.214975E-1,6.6797435E-1,2.802538E-1,2.2053819E0,1.8686575E0,4.9252934E0,6.7345417E-1,-2.6825094E-1,3.5027568E0,2.608533E-1,8.694603E-1,-1.4111829E0,4.0317255E-1,2.333337E0,6.424279E-1,2.9716058E0,4.91515E0,4.0518346E-1],"split_indices":[0,6,0,0,7,4,4,2,4,4,5,6,6,4,3,7,5,5,6,1,6,6,2,5,0,1,6,0,0,7,3,7,6,1,7,0,7,5,7,0,3,4,4,2,1,1,0,3,7,2,3,0,0,0,6,1,2,0,0,2,1,0,0,0,0,0,0,0,0,0,0,0,0,0,0,0,0,0,0,0,0,0,0,0,0,0,0,0,0,0,0,0,0,0,0,0,0,0,0,0,0,0,0,0,0,0,0,0,0,0,0,0,0],"split_type":[0,0,0,0,0,0,0,0,0,0,0,0,0,0,0,0,0,0,0,0,0,0,0,0,0,0,0,0,0,0,0,0,0,0,0,0,0,0,0,0,0,0,0,0,0,0,0,0,0,0,0,0,0,0,0,0,0,0,0,0,0,0,0,0,0,0,0,0,0,0,0,0,0,0,0,0,0,0,0,0,0,0,0,0,0,0,0,0,0,0,0,0,0,0,0,0,0,0,0,0,0,0,0,0,0,0,0,0,0,0,0,0,0],"sum_hessian":[1.995E3,1.372E3,6.23E2,1.281E3,9.1E1,5.36E2,8.7E1,4.41E2,8.4E2,2.9E1,6.2E1,5.02E2,3.4E1,2.8E1,5.9E1,3.65E2,7.6E1,2.98E2,5.42E2,8E0,2.1E1,2.2E1,4E1,4.87E2,1.5E1,1.3E1,2.1E1,3E0,2.5E1,1.1E1,4.8E1,1.99E2,1.66E2,1.6E1,6E1,1.75E2,1.23E2,4.92E2,5E1,3E0,5E0,1.6E1,5E0,5E0,1.7E1,3.7E1,3E0,2.57E2,2.3E2,5E0,1E1,1.2E1,1E0,8E0,1.3E1,9E0,1.6E1,1E0,1E1,1.8E1,3E1,4E0,1.95E2,1.29E2,3.7E1,1.1E1,5E0,3.5E1,2.5E1,1.35E2,4E1,5.2E1,7.1E1,2.02E2,2.9E2,2.3E1,2.7E1,2E0,1E0,1E0,4E0,4E0,1.2E1,2E0,3E0,1E0,4E0,7E0,1E1,1.8E1,1.9E1,1E0,2E0,1.42E2,1.15E2,4.1E1,1.89E2,3E0,2E0,3E0,7E0,7E0,1E0,8E0,5E0,5E0,4E0,5E0,1.1E1,1.1E1,7E0,2.7E1,3E0],"tree_param":{"num_deleted":"0","num_feature":"8","num_nodes":"113","size_leaf_vector":"1"}},{"base_weights":[4.1015398E-2,-1.1757011E0,3.722972E0,-2.8014526E0,-4.3873072E-1,2.3446953E0,6.856487E0,-2.9983594E0,9.662571E-1,-7.206854E-1,4.406716E0,1.8276547E0,4.683596E0,5.8686733E0,1.4824369E1,-3.1624913E0,-1.3039253E0,-2.3485723E0,4.476801E0,-1.1844269E0,5.5115926E-1,2.755981E-1,8.385879E0,3.9274035E0,7.062495E-1,-5.051421E-1,6.8177423E0,-2.79738E0,6.2901635E0,-2.846054E-1,1.5939153E1,-3.4097843E0,-1.816501E0,-3.5578518E0,-3.4503937E-3,2.146057E0,-3.3608737E0,1.1198303E0,7.6471334E0,-1.6691158E0,-8.188382E-2,6.2330756E0,1.3146268E-1,-1.8035698E0,2.6321044E0,1.0228221E1,1.1344837E0,1.1362031E1,3.411072E0,-1.6019474E0,1.6554568E0,-1.2214255E0,1.858194E0,1.9213703E0,7.692154E0,-4.3323154E0,6.9330627E-1,6.759865E0,-7.758037E-1,1.684753E1,6.6897964E0,-1.2718341E0,-8.989063E-1,1.5497508E0,-7.453379E-1,-1.3311357E0,-2.7356815E-1,1.0608823E0,-9.2129457E-1,9.742128E-1,-8.487225E-3,-1.1158804E0,3.3959627E-2,8.5941654E-1,-6.4847976E-1,2.5024722E0,6.262396E-1,-1.7417043E-1,-7.343596E-1,-3.1201613E-1,6.9673365E-1,7.507188E-1,5.599457E0,-1.3634625E-1,7.277275E-1,-1.5709942E-2,-1.0644683E0,1.208461E0,3.244514E-1,-5.678635E-2,3.3688138E0,8.147166E-1,-5.637224E-1,6.829469E-1,3.8171527E0,-5.8470094E-1,1.2004616E0,1.2689734E0,-6.8091947E-1,7.018014E-1,-6.976318E-1,-1.435719E-1,-1.4328493E0,-9.918061E-1,9.421287E-1,2.4101813E0,-6.918061E-1,-1.69294E0,1.3664332E-1,4.037663E-1,-9.177847E-2,2.7998354E0,1.5239315E0,-9.1981864E-1,8.5606045E-1,1.3662649E0,5.2477365E0,4.2315847E-1,2.58725E0],"categories":[],"categories_nodes":[],"categories_segments":[],"categories_sizes":[],"default_left":[0,0,0,0,0,0,0,0,0,0,0,0,0,0,0,0,0,0,0,0,0,0,0,0,0,0,0,0,0,0,0,0,0,0,0,0,0,0,0,0,0,0,0,0,0,0,0,0,0,0,0,0,0,0,0,0,0,0,0,0,0,0,0,0,0,0,0,0,0,0,0,0,0,0,0,0,0,0,0,0,0,0,0,0,0,0,0,0,0,0,0,0,0,0,0,0,0,0,0,0,0,0,0,0,0,0,0,0,0,0,0,0,0,0,0,0,0,0,0],"id":2,"left_children":[1,3,5,7,9,11,13,15,17,19,21,23,25,27,29,31,33,35,37,39,41,43,45,47,49,51,53,55,57,-1,59,61,63,65,67,69,71,73,75,77,79,81,83,85,87,89,91,93,95,97,99,101,-1,103,105,107,109,111,113,115,117,-1,-1,-1,-1,-1,-1,-1,-1,-1,-1,-1,-1,-1,-1,-1,-1,-1,-1,-1,-1,-1,-1,-1,-1,-1,-1,-1,-1,-1,-1,-1,-1,-1,-1,-1,-1,-1,-1,-1,-1,-1,-1,-1,-1,-1,-1,-1,-1,-1,-1,-1,-1,-1,-1,-1,-1,-1,-1],"loss_changes":[8.946252E3,1.7971653E3,2.1260737E3,3.501006E2,1.4158232E3,4.0985986E2,1.1014873E3,1.1963599E2,2.897986E2,5.774842E2,9.34677E2,6.683072E2,6.9000244E2,5.143574E2,2.9645776E2,1.2861157E2,1.201659E2,6.636158E1,1.1914903E2,3.8302124E2,6.23967E2,1.4683476E2,3.7582324E2,3.4127783E2,4.12361E2,9.8736404E1,1.7360425E2,4.050948E1,4.367002E2,0E0,1.3322266E1,1.0426294E2,3.1598865E2,3.0851364E1,3.040317E2,7.2758207E0,1.41297455E1,4.6272552E1,5.752411E0,4.2073645E2,5.0924176E2,7.881152E2,3.3046643E2,4.869819E1,2.5950554E1,2.4200537E2,3.8459114E1,4.5270996E1,3.0530383E2,2.2379398E2,3.6752722E2,4.5245903E1,0E0,6.136229E1,1.4496289E2,3.3949944E1,2.3679905E0,4.799668E2,8.355821E1,2.3402832E1,1.8471558E1,0E0,0E0,0E0,0E0,0E0,0E0,0E0,0E0,0E0,0E0,0E0,0E0,0E0,0E0,0E0,0E0,0E0,0E0,0E0,0E0,0E0,0E0,0E0,0E0,0E0,0E0,0E0,0E0,0E0,0E0,0E0,0E0,0E0,0E0,0E0,0E0,0E0,0E0,0E0,0E0,0E0,0E0,0E0,0E0,0E0,0E0,0E0,0E0,0E0,0E0,0E0,0E0,0E0,0E0,0E0,0E0,0E0,0E0],"parents":[2147483647,0,0,1,1,2,2,3,3,4,4,5,5,6,6,7,7,8,8,9,9,10,10,11,11,12,12,13,13,14,14,15,15,16,16,17,17,18,18,19,19,20,20,21,21,22,22,23,23,24,24,25,25,26,26,27,27,28,28,30,30,31,31,32,32,33,33,34,34,35,35,36,36,37,37,38,38,39,39,40,40,41,41,42,42,43,43,44,44,45,45,46,46,47,47,48,48,49,49,50,50,51,51,53,53,54,54,55,55,56,56,57,57,58,58,59,59,60,60],"right_children":[2,4,6,8,10,12,14,16,18,20,22,24,26,28,30,32,34,36,38,40,42,44,46,48,50,52,54,56,58,-1,60,62,64,66,68,70,72,74,76,78,80,82,84,86,88,90,92,94,96,98,100,102,-1,104,106,108,110,112,114,116,118,-1,-1,-1,-1,-1,-1,-1,-1,-1,-1,-1,-1,-1,-1,-1,-1,-1,-1,-1,-1,-1,-1,-1,-1,-1,-1,-1,-1,-1,-1,-1,-1,-1,-1,-1,-1,-1,-1,-1,-1,-1,-1,-1,-1,-1,-1,-1,-1,-1,-1,-1,-1,-1,-1,-1,-1,-1,-1],"split_conditions":[1.8E1,8E0,2.9E1,3.4162083E1,3.509954E1,2.7811018E1,1.6037083E1,1.5E1,7.3E0,1.0891251E1,3.22875E0,2E-1,1.7204165E0,1.0137692E1,1.8333334E1,1.0457917E1,9.9749994E-1,-7.3837504E0,2.3588368E2,2.3464476E2,1.1141251E1,7.912498E-1,6.224583E0,1.2E1,2.024583E0,4.1E1,2.133251E2,4.5912504E0,3.2023672E2,-2.846054E-1,6.4999995E0,1.616496E1,1.069125E1,1.7E1,5.5204163E0,6E0,4.0796116E1,6E0,1.4E1,5E-1,2.4821732E1,1.5E1,1.5E1,8E0,1.2E1,2.2106587E2,1.2E1,4E0,1.3E1,5.5931095E1,2.9E1,3E1,1.858194E0,2.1E1,4.4E1,1.9E1,3.4E1,1.6999999E0,3.6E1,3.2E1,4.4E1,-1.2718341E0,-8.989063E-1,1.5497508E0,-7.453379E-1,-1.3311357E0,-2.7356815E-1,1.0608823E0,-9.2129457E-1,9.742128E-1,-8.487225E-3,-1.1158804E0,3.3959627E-2,8.5941654E-1,-6.4847976E-1,2.5024722E0,6.262396E-1,-1.7417043E-1,-7.343596E-1,-3.1201613E-1,6.9673365E-1,7.507188E-1,5.599457E0,-1.3634625E-1,7.277275E-1,-1.5709942E-2,-1.0644683E0,1.208461E0,3.244514E-1,-5.678635E-2,3.3688138E0,8.147166E-1,-5.637224E-1,6.829469E-1,3.8171527E0,-5.8470094E-1,1.2004616E0,1.2689734E0,-6.8091947E-1,7.018014E-1,-6.976318E-1,-1.435719E-1,-1.4328493E0,-9.918061E-1,9.421287E-1,2.4101813E0,-6.918061E-1,-1.69294E0,1.3664332E-1,4.037663E-1,-9.177847E-2,2.7998354E0,1.5239315E0,-9.1981864E-1,8.5606045E-1,1.3662649E0,5.2477365E0,4.2315847E-1,2.58725E0],"split_indices":[0,0,0,6,6,6,4,1,5,4,4,5,4,6,3,4,4,4,7,7,4,4,4,3,4,1,7,4,7,0,5,6,4,2,4,0,6,0,1,5,6,2,0,2,1,7,0,1,3,7,1,2,0,0,1,1,0,5,1,0,0,0,0,0,0,0,0,0,0,0,0,0,0,0,0,0,0,0,0,0,0,0,0,0,0,0,0,0,0,0,0,0,0,0,0,0,0,0,0,0,0,0,0,0,0,0,0,0,0,0,0,0,0,0,0,0,0,0,0],"split_type":[0,0,0,0,0,0,0,0,0,0,0,0,0,0,0,0,0,0,0,0,0,0,0,0,0,0,0,0,0,0,0,0,0,0,0,0,0,0,0,0,0,0,0,0,0,0,0,0,0,0,0,0,0,0,0,0,0,0,0,0,0,0,0,0,0,0,0,0,0,0,0,0,0,0,0,0,0,0,0,0,0,0,0,0,0,0,0,0,0,0,0,0,0,0,0,0,0,0,0,0,0,0,0,0,0,0,0,0,0,0,0,0,0,0,0,0,0,0,0],"sum_hessian":[1.995E3,1.5E3,4.95E2,4.67E2,1.033E3,3.45E2,1.5E2,4.44E2,2.3E1,9.77E2,5.6E1,2.84E2,6.1E1,1.35E2,1.5E1,4.04E2,4E1,1.2E1,1.1E1,7.16E2,2.61E2,2.8E1,2.8E1,9.8E1,1.86E2,1.8E1,4.3E1,6E0,1.29E2,1E0,1.4E1,3.4E2,6.4E1,1.4E1,2.6E1,2E0,1E1,6E0,5E0,4.97E2,2.19E2,1.7E1,2.44E2,1.5E1,1.3E1,2.2E1,6E0,5E0,9.3E1,5.4E1,1.32E2,1.7E1,1E0,7E0,3.6E1,4E0,2E0,1.21E2,8E0,1.2E1,2E0,1.1E2,2.3E2,5E0,5.9E1,1E1,4E0,1.2E1,1.4E1,1E0,1E0,9E0,1E0,4E0,2E0,4E0,1E0,2.08E2,2.89E2,1.57E2,6.2E1,1.4E1,3E0,1.95E2,4.9E1,8E0,7E0,6E0,7E0,2E0,2E1,4E0,2E0,1E0,4E0,9E0,8.4E1,5E0,4.9E1,1.13E2,1.9E1,1.5E1,2E0,1E0,6E0,3.5E1,1E0,3E0,1E0,1E0,1E0,4.6E1,7.5E1,5E0,3E0,1E0,1.1E1,1E0,1E0],"tree_param":{"num_deleted":"0","num_feature":"8","num_nodes":"119","size_leaf_vector":"1"}},{"base_weights":[4.416145E-2,-9.684853E-1,2.272238E0,-1.0909957E0,4.7468576E0,1.7844982E0,6.9127216E0,-1.6244022E0,-7.1365274E-2,4.790714E-1,6.3498683E0,1.4497879E0,5.72243E0,9.328276E0,3.0013614E0,-1.887812E0,-1.6370368E-1,-1.1794206E0,7.041289E-1,1.112947E0,-6.8879E-1,-9.1319036E-1,7.6111107E0,1.2476848E0,7.0505843E0,8.25749E0,3.465485E0,3.4916704E0,1.2475414E1,6.3392787E0,9.361979E-1,-2.1488225E0,-5.570108E-1,-1.889933E0,2.0543523E0,-4.3596706E-1,-2.0088964E0,-9.766956E-1,1.7124376E0,1.3840398E0,-1.1770535E-1,7.071419E-1,-8.3670413E-1,8.89074E0,9.097233E-1,1.3896186E0,-4.241773E0,2.1352131E0,9.330336E0,8.974084E0,-8.036688E-1,8.7717056E-1,4.866589E0,3.4971979E0,2.049167E-1,-1.2771492E0,1.3429494E1,-7.80118E-2,7.196698E0,6.557406E0,-2.2150245E0,-7.0575964E-1,-2.1333769E-1,5.8812845E-2,-8.4674877E-1,2.1788792E-1,-6.6113687E-1,1.1343913E0,-1.6306136E-2,7.113298E-2,-8.6828923E-1,1.2425226E0,-6.805781E-1,4.9442723E-1,-5.255769E-1,3.1181407E-1,1.5338154E0,1.4434434E-2,5.7263607E-1,1.2116231E0,3.5029967E0,-8.798923E-2,6.778178E-1,3.5437432E-1,2.1500328E0,2.0829831E-1,-1.5607101E0,2.63062E-1,1.4527878E0,5.964514E-1,3.467045E0,1.0060755E0,3.0747936E0,3.830752E-1,-4.080826E-1,2.048936E0,1.3688898E-1,5.4881996E-1,-2.405987E0,4.240951E0,-2.1265441E-1,2.3499942E0,4.110592E-1,2.6324627E0,-6.794918E-1,-1.4807105E0,-3.1860548E-1],"categories":[],"categories_nodes":[],"categories_segments":[],"categories_sizes":[],"default_left":[0,0,0,0,0,0,0,0,0,0,0,0,0,0,0,0,0,0,0,0,0,0,0,0,0,0,0,0,0,0,0,0,0,0,0,0,0,0,0,0,0,0,0,0,0,0,0,0,0,0,0,0,0,0,0,0,0,0,0,0,0,0,0,0,0,0,0,0,0,0,0,0,0,0,0,0,0,0,0,0,0,0,0,0,0,0,0,0,0,0,0,0,0,0,0,0,0,0,0,0,0,0,0,0,0,0,0],"id":3,"left_children":[1,3,5,7,9,11,13,15,17,19,21,23,25,27,29,31,33,35,37,39,-1,41,43,45,47,49,51,53,55,57,59,61,63,65,67,69,71,73,75,77,-1,-1,-1,79,81,83,85,87,89,91,-1,93,95,-1,97,-1,99,-1,101,103,105,-1,-1,-1,-1,-1,-1,-1,-1,-1,-1,-1,-1,-1,-1,-1,-1,-1,-1,-1,-1,-1,-1,-1,-1,-1,-1,-1,-1,-1,-1,-1,-1,-1,-1,-1,-1,-1,-1,-1,-1,-1,-1,-1,-1,-1,-1],"loss_changes":[4.505685E3,9.6653796E2,1.3999939E3,7.313992E2,1.953559E2,7.377294E2,5.294404E2,3.3943628E2,3.9868192E2,1.8386549E1,1.993205E2,5.8320667E2,2.2312952E2,6.177095E2,1.5950548E2,2.5862305E2,5.246094E2,1.16909454E2,4.6435022E2,3.8076315E0,0E0,3.1112339E1,1.4626721E2,4.0013898E2,1.817826E2,1.8077954E2,8.6393585E1,3.7335022E2,4.2434814E2,5.2796906E1,2.979436E2,1.8137256E2,2.1210124E2,6.482684E1,2.187036E2,1.6946011E2,1.5315326E2,2.124723E2,3.8603378E2,4.815318E0,0E0,0E0,0E0,1.5559961E2,7.1573954E0,5.8620715E2,6.525276E1,1.9601545E1,1.7318921E2,1.0180908E2,0E0,1.0681077E1,1.3541599E2,0E0,1.6164455E2,0E0,2.299314E2,0E0,1.8940704E1,1.3725504E2,2.9264725E1,0E0,0E0,0E0,0E0,0E0,0E0,0E0,0E0,0E0,0E0,0E0,0E0,0E0,0E0,0E0,0E0,0E0,0E0,0E0,0E0,0E0,0E0,0E0,0E0,0E0,0E0,0E0,0E0,0E0,0E0,0E0,0E0,0E0,0E0,0E0,0E0,0E0,0E0,0E0,0E0,0E0,0E0,0E0,0E0,0E0,0E0],"parents":[2147483647,0,0,1,1,2,2,3,3,4,4,5,5,6,6,7,7,8,8,9,9,10,10,11,11,12,12,13,13,14,14,15,15,16,16,17,17,18,18,19,19,21,21,22,22,23,23,24,24,25,25,26,26,27,27,28,28,29,29,30,30,31,31,32,32,33,33,34,34,35,35,36,36,37,37,38,38,39,39,43,43,44,44,45,45,46,46,47,47,48,48,49,49,51,51,52,52,54,54,56,56,58,58,59,59,60,60],"right_children":[2,4,6,8,10,12,14,16,18,20,22,24,26,28,30,32,34,36,38,40,-1,42,44,46,48,50,52,54,56,58,60,62,64,66,68,70,72,74,76,78,-1,-1,-1,80,82,84,86,88,90,92,-1,94,96,-1,98,-1,100,-1,102,104,106,-1,-1,-1,-1,-1,-1,-1,-1,-1,-1,-1,-1,-1,-1,-1,-1,-1,-1,-1,-1,-1,-1,-1,-1,-1,-1,-1,-1,-1,-1,-1,-1,-1,-1,-1,-1,-1,-1,-1,-1,-1,-1,-1,-1,-1,-1],"split_conditions":[1.6E1,4.0796116E1,3.9E1,1.1E1,2.1433334E0,1.6293333E1,2.3363626E2,2.6932714E1,1.6279802E1,1.4E1,5E0,4.286155E1,1.4428097E1,4.00375E0,2.7E0,1.7E1,2.066777E2,7.0000005E-1,1.5308332E0,1.4058334E0,-6.8879E-1,4E0,1.6E1,4.5E1,1.6666666E1,3.4986023E2,1.7555307E1,-2.0233333E0,7.729527E0,9.826088E0,4.1E1,1.2907917E1,4.5999994E0,-7.3837504E0,2.4893393E2,1.4934577E1,5E0,1.8442753E1,2.2E1,7E0,-1.1770535E-1,7.071419E-1,-8.3670413E-1,9E0,2.2E1,3.9E1,1.0137692E1,3.4E1,1.7954167E0,4.126634E1,-8.036688E-1,2.5E1,2.1605999E1,3.4971979E0,3.9745839E0,-1.2771492E0,3.55E1,-7.80118E-2,4.4E1,3.6E1,1.4982228E1,-7.0575964E-1,-2.1333769E-1,5.8812845E-2,-8.4674877E-1,2.1788792E-1,-6.6113687E-1,1.1343913E0,-1.6306136E-2,7.113298E-2,-8.6828923E-1,1.2425226E0,-6.805781E-1,4.9442723E-1,-5.255769E-1,3.1181407E-1,1.5338154E0,1.4434434E-2,5.7263607E-1,1.2116231E0,3.5029967E0,-8.798923E-2,6.778178E-1,3.5437432E-1,2.1500328E0,2.0829831E-1,-1.5607101E0,2.63062E-1,1.4527878E0,5.964514E-1,3.467045E0,1.0060755E0,3.0747936E0,3.830752E-1,-4.080826E-1,2.048936E0,1.3688898E-1,5.4881996E-1,-2.405987E0,4.240951E0,-2.1265441E-1,2.3499942E0,4.110592E-1,2.6324627E0,-6.794918E-1,-1.4807105E0,-3.1860548E-1],"split_indices":[0,6,0,0,4,4,7,6,6,0,1,6,6,4,5,2,7,5,4,4,0,0,1,1,3,7,6,4,6,6,0,4,5,4,7,6,2,6,2,0,0,0,0,1,1,1,6,0,4,7,0,0,6,0,4,0,5,0,1,1,6,0,0,0,0,0,0,0,0,0,0,0,0,0,0,0,0,0,0,0,0,0,0,0,0,0,0,0,0,0,0,0,0,0,0,0,0,0,0,0,0,0,0,0,0,0,0],"split_type":[0,0,0,0,0,0,0,0,0,0,0,0,0,0,0,0,0,0,0,0,0,0,0,0,0,0,0,0,0,0,0,0,0,0,0,0,0,0,0,0,0,0,0,0,0,0,0,0,0,0,0,0,0,0,0,0,0,0,0,0,0,0,0,0,0,0,0,0,0,0,0,0,0,0,0,0,0,0,0,0,0,0,0,0,0,0,0,0,0,0,0,0,0,0,0,0,0,0,0,0,0,0,0,0,0,0,0],"sum_hessian":[1.995E3,1.372E3,6.23E2,1.344E3,2.8E1,5.65E2,5.8E1,8.82E2,4.62E2,8E0,2E1,5.22E2,4.3E1,3.5E1,2.3E1,7.47E2,1.35E2,1.9E2,2.72E2,7E0,1E0,3E0,1.7E1,5.05E2,1.7E1,1.9E1,2.4E1,1.3E1,2.2E1,8E0,1.5E1,6.24E2,1.23E2,7.6E1,5.9E1,1.01E2,8.9E1,1.02E2,1.7E2,6E0,1E0,1E0,2E0,1.4E1,3E0,4.93E2,1.2E1,6E0,1.1E1,1.8E1,1E0,9E0,1.5E1,3E0,1E1,1E0,2.1E1,1E0,7E0,5E0,1E1,5.46E2,7.8E1,9.3E1,3E1,8E0,6.8E1,3.2E1,2.7E1,8E1,2.1E1,3E0,8.6E1,2.3E1,7.9E1,1.43E2,2.7E1,2E0,4E0,6E0,8E0,2E0,1E0,4.77E2,1.6E1,2E0,1E1,5E0,1E0,3E0,8E0,4E0,1.4E1,8E0,1E0,1E1,5E0,9E0,1E0,2E1,1E0,6E0,1E0,4E0,1E0,2E0,8E0],"tree_param":{"num_deleted":"0","num_feature":"8","num_nodes":"107","size_leaf_vector":"1"}},{"base_weights":[4.34882E-2,-5.844876E-1,1.943787E0,-1.1611493E0,-1.6195025E-2,1.1658832E0,3.7133958E0,-1.2480906E0,2.6354027E0,-2.7850708E-1,1.6335E0,4.4967306E-1,2.2684894E0,3.1985686E0,8.167923E0,-2.139525E0,-1.003645E0,2.1920055E-1,4.758782E0,-5.508352E-1,1.2537447E0,-1.7039885E-1,4.0023985E0,-2.1662691E-1,2.8443713E0,1.0917554E1,1.9236878E0,-2.6772454E0,3.488127E0,4.4389963E0,3.5386238E0,-2.393924E0,-7.1071696E-1,-1.8265444E-1,-1.4592558E0,-3.6442322E-1,4.5237678E-1,7.196334E0,-8.724117E-2,-1.272488E0,-1.4815432E-1,2.3062438E-1,3.8398488E0,-1.1541438E0,2.0131636E0,-2.1858873E0,5.399484E0,1.3579019E0,-1.3788657E0,-1.225146E0,4.663071E0,5.693145E0,4.158368E0,3.600742E0,6.011166E-1,1.2961979E0,-1.9021617E0,6.5568533E0,2.7738903E0,5.669714E0,8.765602E-2,2.5373188E-1,-7.584392E-1,-1.5663026E-2,-1.0002908E0,-2.4652678E-1,6.174514E-1,-8.463121E-1,-2.350385E-1,-4.431925E-1,2.0182705E-2,6.0107064E-1,2.3502522E0,-4.189932E-1,5.761451E-1,-1.1155064E-1,-7.7398777E-1,-2.2894014E-1,2.3780446E-1,-2.4690281E-1,7.1165514E-1,3.828362E-1,2.7331119E0,-8.8116676E-1,-4.73111E-2,-4.126232E-1,1.2313348E0,-9.5182955E-1,8.5637003E-1,9.181038E-1,2.8447447E0,1.1618813E0,-1.10959254E-1,2.4327145E0,-5.316365E-1,5.067826E-1,-6.2835735E-1,3.4266891E0,8.964945E-1,1.7848346E0,4.7345755E-1,1.8466386E0,4.8491028E-1,3.3964837E-1,-1.708377E0,3.1321418E0,5.409584E-1,-3.9681175E-1,1.0823718E0,-2.6244795E-1,2.0718827E0,3.159033E-1,-2.7645808E-1],"categories":[],"categories_nodes":[],"categories_segments":[],"categories_sizes":[],"default_left":[0,0,0,0,0,0,0,0,0,0,0,0,0,0,0,0,0,0,0,0,0,0,0,0,0,0,0,0,0,0,0,0,0,0,0,0,0,0,0,0,0,0,0,0,0,0,0,0,0,0,0,0,0,0,0,0,0,0,0,0,0,0,0,0,0,0,0,0,0,0,0,0,0,0,0,0,0,0,0,0,0,0,0,0,0,0,0,0,0,0,0,0,0,0,0,0,0,0,0,0,0,0,0,0,0,0,0,0,0,0,0,0,0],"id":4,"left_children":[1,3,5,7,9,11,13,15,17,19,21,23,25,27,29,31,33,35,37,39,41,43,45,47,49,51,53,55,57,59,-1,61,63,65,67,69,-1,71,73,75,77,79,81,83,85,87,89,91,93,95,97,-1,99,101,103,-1,-1,105,107,109,111,-1,-1,-1,-1,-1,-1,-1,-1,-1,-1,-1,-1,-1,-1,-1,-1,-1,-1,-1,-1,-1,-1,-1,-1,-1,-1,-1,-1,-1,-1,-1,-1,-1,-1,-1,-1,-1,-1,-1,-1,-1,-1,-1,-1,-1,-1,-1,-1,-1,-1,-1,-1],"loss_changes":[2.383046E3,4.918778E2,6.7845703E2,2.491969E2,3.2803525E2,2.7221536E2,3.201643E2,1.5670703E2,8.61756E1,2.7358856E2,4.4510028E2,3.372851E2,3.845788E2,2.4242896E2,1.5053986E2,5.5002625E1,2.1443933E2,7.318681E0,1.0693973E2,1.6138272E2,2.610581E2,1.312076E2,4.0085315E2,3.056488E2,3.461696E2,1.9346747E2,2.906146E2,2.0684299E2,2.6893738E2,4.770047E1,0E0,5.9530396E1,4.301714E1,2.96707E2,3.3737543E2,3.4624057E0,0E0,4.1765747E0,1.3197913E1,2.3337854E2,2.0774182E2,1.644145E2,3.667154E2,7.4159485E1,1.4028836E2,5.382566E1,3.2435608E2,3.0995544E2,3.7256323E2,4.1544247E1,3.2810828E2,0E0,9.095848E0,2.8408276E2,2.5719476E2,0E0,0E0,4.2424744E2,3.7376782E2,6.269084E1,3.8930368E0,0E0,0E0,0E0,0E0,0E0,0E0,0E0,0E0,0E0,0E0,0E0,0E0,0E0,0E0,0E0,0E0,0E0,0E0,0E0,0E0,0E0,0E0,0E0,0E0,0E0,0E0,0E0,0E0,0E0,0E0,0E0,0E0,0E0,0E0,0E0,0E0,0E0,0E0,0E0,0E0,0E0,0E0,0E0,0E0,0E0,0E0,0E0,0E0,0E0,0E0,0E0,0E0],"parents":[2147483647,0,0,1,1,2,2,3,3,4,4,5,5,6,6,7,7,8,8,9,9,10,10,11,11,12,12,13,13,14,14,15,15,16,16,17,17,18,18,19,19,20,20,21,21,22,22,23,23,24,24,25,25,26,26,27,27,28,28,29,29,31,31,32,32,33,33,34,34,35,35,37,37,38,38,39,39,40,40,41,41,42,42,43,43,44,44,45,45,46,46,47,47,48,48,49,49,50,50,52,52,53,53,54,54,57,57,58,58,59,59,60,60],"right_children":[2,4,6,8,10,12,14,16,18,20,22,24,26,28,30,32,34,36,38,40,42,44,46,48,50,52,54,56,58,60,-1,62,64,66,68,70,-1,72,74,76,78,80,82,84,86,88,90,92,94,96,98,-1,100,102,104,-1,-1,106,108,110,112,-1,-1,-1,-1,-1,-1,-1,-1,-1,-1,-1,-1,-1,-1,-1,-1,-1,-1,-1,-1,-1,-1,-1,-1,-1,-1,-1,-1,-1,-1,-1,-1,-1,-1,-1,-1,-1,-1,-1,-1,-1,-1,-1,-1,-1,-1,-1,-1,-1,-1,-1,-1],"split_conditions":[1.8E1,1E1,2.9E1,4.0796116E1,1.2E1,1.7E1,1.6145418E1,-3.2733333E0,1.66E1,1.3895416E1,2.9882166E1,2.6302181E1,-3.4920828E0,9.055093E1,3E1,2.7811018E1,1.3E0,2.716022E2,1.4E1,1E1,1.5E1,2.4784006E2,2.3974998E0,1.3E1,2.133251E2,2.0666666E1,1.7208603E1,2E1,1E-1,2.6E1,3.5386238E0,7.108692E1,3.558177E1,1.1333333E1,1.4638435E2,5E0,4.5237678E-1,4E0,1.8E1,4.7683334E0,5.724583E0,1.2581309E2,1.6333334E1,4.155834E0,2.4023088E1,2.8499998E1,2.4140092E2,2E-1,9.3876505E0,-7.0358334E0,2.899062E1,5.693145E0,1.9E1,2.2E1,4.1E1,1.2961979E0,-1.9021617E0,1.5215058E1,1.6266667E0,1.8333334E1,3.7E1,2.5373188E-1,-7.584392E-1,-1.5663026E-2,-1.0002908E0,-2.4652678E-1,6.174514E-1,-8.463121E-1,-2.350385E-1,-4.431925E-1,2.0182705E-2,6.0107064E-1,2.3502522E0,-4.189932E-1,5.761451E-1,-1.1155064E-1,-7.7398777E-1,-2.2894014E-1,2.3780446E-1,-2.4690281E-1,7.1165514E-1,3.828362E-1,2.7331119E0,-8.8116676E-1,-4.73111E-2,-4.126232E-1,1.2313348E0,-9.5182955E-1,8.5637003E-1,9.181038E-1,2.8447447E0,1.1618813E0,-1.10959254E-1,2.4327145E0,-5.316365E-1,5.067826E-1,-6.2835735E-1,3.4266891E0,8.964945E-1,1.7848346E0,4.7345755E-1,1.8466386E0,4.8491028E-1,3.3964837E-1,-1.708377E0,3.1321418E0,5.409584E-1,-3.9681175E-1,1.0823718E0,-2.6244795E-1,2.0718827E0,3.159033E-1,-2.7645808E-1],"split_indices":[0,0,0,6,5,2,4,4,5,4,6,6,4,7,3,6,5,7,2,2,0,7,4,1,7,3,6,3,5,3,0,7,6,3,7,0,0,0,1,4,4,7,3,4,6,5,7,5,6,4,6,0,1,2,2,0,0,6,4,3,0,0,0,0,0,0,0,0,0,0,0,0,0,0,0,0,0,0,0,0,0,0,0,0,0,0,0,0,0,0,0,0,0,0,0,0,0,0,0,0,0,0,0,0,0,0,0,0,0,0,0,0,0],"split_type":[0,0,0,0,0,0,0,0,0,0,0,0,0,0,0,0,0,0,0,0,0,0,0,0,0,0,0,0,0,0,0,0,0,0,0,0,0,0,0,0,0,0,0,0,0,0,0,0,0,0,0,0,0,0,0,0,0,0,0,0,0,0,0,0,0,0,0,0,0,0,0,0,0,0,0,0,0,0,0,0,0,0,0,0,0,0,0,0,0,0,0,0,0,0,0,0,0,0,0,0,0,0,0,0,0,0,0,0,0,0,0,0,0],"sum_hessian":[1.995E3,1.5E3,4.95E2,7.44E2,7.56E2,3.45E2,1.5E2,7.28E2,1.6E1,6.53E2,1.03E2,2.1E2,1.35E2,1.36E2,1.4E1,1.55E2,5.73E2,8E0,8E0,5.55E2,9.8E1,5.9E1,4.4E1,1.65E2,4.5E1,4E0,1.31E2,6E0,1.3E2,8E0,6E0,1.31E2,2.4E1,2.05E2,3.68E2,6E0,2E0,5E0,3E0,1.98E2,3.57E2,7.1E1,2.7E1,4.1E1,1.8E1,8E0,3.6E1,7E1,9.5E1,1.4E1,3.1E1,1E0,3E0,5.7E1,7.4E1,2E0,4E0,2.3E1,1.07E2,6E0,2E0,5E0,1.26E2,2E1,4E0,1.6E2,4.5E1,1.21E2,2.47E2,1E0,5E0,1E0,4E0,2E0,1E0,1.18E2,8E1,2.16E2,1.41E2,4.8E1,2.3E1,1.9E1,8E0,1.4E1,2.7E1,7E0,1.1E1,7E0,1E0,2.4E1,1.2E1,2.8E1,4.2E1,3E0,9.2E1,3E0,1.1E1,5E0,2.6E1,1E0,2E0,2.4E1,3.3E1,6.9E1,5E0,1.2E1,1.1E1,1.8E1,8.9E1,1E0,5E0,1E0,1E0],"tree_param":{"num_deleted":"0","num_feature":"8","num_nodes":"113","size_leaf_vector":"1"}},{"base_weights":[4.6662405E-2,-5.5973196E-1,1.1481988E0,-8.582802E-1,3.5363287E-1,1.4914433E0,-1.3556702E0,-9.55491E-1,3.190041E0,-7.8170615E-1,1.2624719E0,1.0692428E0,3.0273309E0,-1.5463756E0,2.228143E0,-1.0740479E0,7.5796133E-1,5.72921E0,1.1484889E0,-8.991897E-2,-2.6726522E0,3.781969E0,6.148355E-1,5.800277E-1,2.1062992E0,-2.730315E0,3.2716606E0,-2.440153E0,-4.296086E-1,-6.037826E-1,-1.4344436E0,4.515694E0,-1.4107314E-1,3.6813235E-1,7.4833813E0,-6.739329E-1,3.0671868E0,-9.426499E-1,2.676526E0,-4.6395664E0,-1.804484E0,1.3106372E0,6.789219E0,1.190138E0,-7.3737556E-1,5.1179237E0,4.7961015E-1,4.9117618E0,1.1374449E0,-1.1781534E0,-2.2439258E-1,2.6608183E0,5.9711585E0,-3.0373409E0,8.5080564E-1,2.162744E0,-2.1399434E0,1.1577563E0,-2.0525841E-1,-5.0469846E-1,-2.1139538E-1,3.13504E-2,2.2954853E0,1.2096946E0,-3.3941346E-1,1.7307216E-1,2.561493E0,-6.044873E-1,3.5124937E-1,3.342929E-1,1.589876E0,9.449935E-1,-3.93618E-1,1.1520977E0,-8.29765E-2,-1.4848254E0,-2.3115808E-1,-7.3913157E-1,-1.11416705E-1,-5.4933846E-1,5.8079827E-1,3.402897E0,1.297814E0,6.0613847E-1,-1.0263509E-1,-1.5884092E-2,-5.343103E-1,5.77549E-1,-9.259837E-2,8.3743834E-1,3.5714576E0,-3.8493788E-1,5.931662E-1,1.2768918E-1,-2.2866584E-1,1.2980574E0,3.1988016E-1,-3.3827713E-1,2.5628786E0,-1.0369107E0,-1.7044696E-1,4.925165E-1,-7.028409E-1,-9.822186E-2,1.1068726E0,5.4916936E-1,-9.843479E-1],"categories":[],"categories_nodes":[],"categories_segments":[],"categories_sizes":[],"default_left":[0,0,0,0,0,0,0,0,0,0,0,0,0,0,0,0,0,0,0,0,0,0,0,0,0,0,0,0,0,0,0,0,0,0,0,0,0,0,0,0,0,0,0,0,0,0,0,0,0,0,0,0,0,0,0,0,0,0,0,0,0,0,0,0,0,0,0,0,0,0,0,0,0,0,0,0,0,0,0,0,0,0,0,0,0,0,0,0,0,0,0,0,0,0,0,0,0,0,0,0,0,0,0,0,0,0,0],"id":5,"left_children":[1,3,5,7,9,11,13,15,17,19,21,23,25,27,-1,29,31,33,35,37,39,41,43,45,47,49,51,53,55,57,59,61,63,-1,65,67,69,71,73,75,77,79,81,83,85,-1,87,89,91,-1,93,95,97,99,101,103,105,-1,-1,-1,-1,-1,-1,-1,-1,-1,-1,-1,-1,-1,-1,-1,-1,-1,-1,-1,-1,-1,-1,-1,-1,-1,-1,-1,-1,-1,-1,-1,-1,-1,-1,-1,-1,-1,-1,-1,-1,-1,-1,-1,-1,-1,-1,-1,-1,-1,-1],"loss_changes":[1.3339017E3,3.5151974E2,6.113643E2,3.8517615E2,3.2911212E2,4.0139734E2,1.555291E2,1.9359558E2,1.1264851E2,1.8551445E2,2.8648874E2,2.4788403E2,1.9743909E2,8.379367E1,0E0,1.4963354E2,2.1009358E2,6.979169E1,5.1020554E1,2.5022151E2,5.6517242E1,2.586507E2,1.1134369E2,5.4619366E2,4.2115247E2,1.7114243E1,1.9682849E2,9.4954254E1,1.77546E2,1.4152576E2,8.962842E1,1.6519836E2,2.1534137E2,0E0,4.6075012E1,2.2150171E1,2.4611847E1,1.2659343E2,8.698297E1,9.373444E0,2.5539993E1,4.4804276E1,1.3039728E2,1.27917984E2,3.062102E1,0E0,3.8118326E2,5.598667E2,2.4239993E2,0E0,1.3732237E0,2.7964105E2,4.2952893E2,3.9422516E1,2.4053238E1,6.204061E1,1.1475535E2,0E0,0E0,0E0,0E0,0E0,0E0,0E0,0E0,0E0,0E0,0E0,0E0,0E0,0E0,0E0,0E0,0E0,0E0,0E0,0E0,0E0,0E0,0E0,0E0,0E0,0E0,0E0,0E0,0E0,0E0,0E0,0E0,0E0,0E0,0E0,0E0,0E0,0E0,0E0,0E0,0E0,0E0,0E0,0E0,0E0,0E0,0E0,0E0,0E0,0E0],"parents":[2147483647,0,0,1,1,2,2,3,3,4,4,5,5,6,6,7,7,8,8,9,9,10,10,11,11,12,12,13,13,15,15,16,16,17,17,18,18,19,19,20,20,21,21,22,22,23,23,24,24,25,25,26,26,27,27,28,28,29,29,30,30,31,31,32,32,34,34,35,35,36,36,37,37,38,38,39,39,40,40,41,41,42,42,43,43,44,44,46,46,47,47,48,48,50,50,51,51,52,52,53,53,54,54,55,55,56,56],"right_children":[2,4,6,8,10,12,14,16,18,20,22,24,26,28,-1,30,32,34,36,38,40,42,44,46,48,50,52,54,56,58,60,62,64,-1,66,68,70,72,74,76,78,80,82,84,86,-1,88,90,92,-1,94,96,98,100,102,104,106,-1,-1,-1,-1,-1,-1,-1,-1,-1,-1,-1,-1,-1,-1,-1,-1,-1,-1,-1,-1,-1,-1,-1,-1,-1,-1,-1,-1,-1,-1,-1,-1,-1,-1,-1,-1,-1,-1,-1,-1,-1,-1,-1,-1,-1,-1,-1,-1,-1,-1],"split_conditions":[1.5E1,2.4140092E2,3.021601E2,1.8422499E1,1.616496E1,2.9E1,4.6E1,1.63E1,1.0544517E2,5.3999987E0,3.1E0,2.3464476E2,9.96524E0,2.2E1,2.228143E0,6E-1,6E0,7.534512E1,1.8218275E1,1.2666667E1,6.399999E0,1.1666667E1,2.926491E2,9.3876505E0,2.4649643E2,4.5912504E0,4.5E1,2.436325E1,2.7E1,4E0,8.855833E0,2.133251E2,8.666667E0,3.6813235E-1,1E1,1.5E1,1.5E1,1.6266667E0,1.3450708E1,1.0285E1,3.0993677E2,1E-1,2E-1,5.9683337E0,1.1E1,5.1179237E0,1E-1,2.4E1,2.5329163E0,-1.1781534E0,3.4E1,2.4666666E1,1.5E1,1.4305833E1,2.7E1,1.6933331E0,1.4E1,1.1577563E0,-2.0525841E-1,-5.0469846E-1,-2.1139538E-1,3.13504E-2,2.2954853E0,1.2096946E0,-3.3941346E-1,1.7307216E-1,2.561493E0,-6.044873E-1,3.5124937E-1,3.342929E-1,1.589876E0,9.449935E-1,-3.93618E-1,1.1520977E0,-8.29765E-2,-1.4848254E0,-2.3115808E-1,-7.3913157E-1,-1.11416705E-1,-5.4933846E-1,5.8079827E-1,3.402897E0,1.297814E0,6.0613847E-1,-1.0263509E-1,-1.5884092E-2,-5.343103E-1,5.77549E-1,-9.259837E-2,8.3743834E-1,3.5714576E0,-3.8493788E-1,5.931662E-1,1.2768918E-1,-2.2866584E-1,1.2980574E0,3.1988016E-1,-3.3827713E-1,2.5628786E0,-1.0369107E0,-1.7044696E-1,4.925165E-1,-7.028409E-1,-9.822186E-2,1.1068726E0,5.4916936E-1,-9.843479E-1],"split_indices":[3,7,7,4,6,0,0,5,7,5,5,7,6,2,0,5,2,7,6,3,5,3,7,6,7,4,0,6,2,2,4,7,3,0,0,2,1,4,6,4,7,5,5,4,3,0,5,0,4,0,0,3,2,4,0,4,1,0,0,0,0,0,0,0,0,0,0,0,0,0,0,0,0,0,0,0,0,0,0,0,0,0,0,0,0,0,0,0,0,0,0,0,0,0,0,0,0,0,0,0,0,0,0,0,0,0,0],"split_type":[0,0,0,0,0,0,0,0,0,0,0,0,0,0,0,0,0,0,0,0,0,0,0,0,0,0,0,0,0,0,0,0,0,0,0,0,0,0,0,0,0,0,0,0,0,0,0,0,0,0,0,0,0,0,0,0,0,0,0,0,0,0,0,0,0,0,0,0,0,0,0,0,0,0,0,0,0,0,0,0,0,0,0,0,0,0,0,0,0,0,0,0,0,0,0,0,0,0,0,0,0,0,0,0,0,0,0],"sum_hessian":[1.995E3,1.287E3,7.08E2,9.7E2,3.17E2,6.23E2,8.5E1,9.48E2,2.2E1,1.41E2,1.76E2,4.9E2,1.33E2,8.4E1,1E0,8.87E2,6.1E1,9E0,1.3E1,1.04E2,3.7E1,3.5E1,1.41E2,3.34E2,1.56E2,5E0,1.28E2,4.6E1,3.8E1,3.86E2,5.01E2,1.1E1,5E1,3E0,6E0,7E0,6E0,8E1,2.4E1,1E1,2.7E1,2E1,1.5E1,9.9E1,4.2E1,1E0,3.33E2,3.9E1,1.17E2,3E0,2E0,1.06E2,2.2E1,3.9E1,7E0,1.5E1,2.3E1,6E0,3.8E2,3.73E2,1.28E2,5E0,6E0,9E0,4.1E1,1E0,5E0,4E0,3E0,4E0,2E0,6E0,7.4E1,1.7E1,7E0,9E0,1E0,1.8E1,9E0,3E0,1.7E1,4E0,1.1E1,6.4E1,3.5E1,2.6E1,1.6E1,1.17E2,2.16E2,3.1E1,8E0,3E1,8.7E1,1E0,1E0,5.1E1,5.5E1,6E0,1.6E1,3.3E1,6E0,6E0,1E0,6E0,9E0,5E0,1.8E1],"tree_param":{"num_deleted":"0","num_feature":"8","num_nodes":"107","size_leaf_vector":"1"}},{"base_weights":[4.5746814E-2,-4.6583647E-1,7.0169044E-1,-6.970136E-1,5.969057E-1,5.163326E-1,3.3526797E0,-1.0969558E0,-5.080328E-1,-5.1242495E-1,1.998675E0,-1.4388148E0,7.067067E-1,2.862843E0,7.8744116E0,-5.701196E-1,-1.6841236E0,2.1597576E0,-5.635088E-1,-1.1234565E0,2.7994382E-1,-2.3876107E0,2.461365E0,9.7908294E-1,-3.1484895E0,4.350235E0,6.687779E-1,1.4154708E0,4.6891775E0,2.6290073E0,6.4779454E-1,4.86445E-1,-1.0259831E0,-2.4411817E0,-9.030067E-1,6.7475038E0,-6.2896323E-1,-8.8259137E-1,-1.0832693E-1,1.0111554E0,-1.53748E0,-1.6292126E0,7.9796326E-1,-3.354054E0,8.0159026E-1,4.2506075E0,1.4880289E0,3.25892E0,-2.0220706E0,-4.0010285E0,-8.7332016E-1,2.076497E0,2.9002E-1,3.4425194E0,1.2846813E-1,5.8063526E0,1.3061559E0,-5.8545407E-2,1.9161613E0,-4.4788036E-1,6.364467E-2,-1.0549912E0,-5.822E-1,-6.4454323E-1,-1.08554654E-1,3.494426E0,-1.2067413E-1,-5.42067E-1,3.885503E-1,-1.8259108E-1,-6.239174E-1,2.014801E0,-6.486593E-2,5.869457E-1,-3.3968818E-1,-5.965516E-1,-1.8059579E-1,-5.5481076E-2,-7.2842807E-1,1.2010344E0,1.571699E-1,-6.95725E-2,-1.1300836E0,1.578655E-1,1.7142158E0,1.3971965E-1,1.1056895E0,-4.007997E-1,1.4001548E0,-1.14020355E-1,-8.676194E-1,-4.3979803E-1,-1.3296453E0,-1.6219312E-2,-8.109389E-1,2.2268875E-1,1.1229525E0,-2.6342517E-1,2.8043637E-1,8.351584E-2,1.6988536E0,-1.6599534E-1,8.9818245E-1,7.763067E-1,2.1980228E0,8.168805E-1,-4.4715834E-1],"categories":[],"categories_nodes":[],"categories_segments":[],"categories_sizes":[],"default_left":[0,0,0,0,0,0,0,0,0,0,0,0,0,0,0,0,0,0,0,0,0,0,0,0,0,0,0,0,0,0,0,0,0,0,0,0,0,0,0,0,0,0,0,0,0,0,0,0,0,0,0,0,0,0,0,0,0,0,0,0,0,0,0,0,0,0,0,0,0,0,0,0,0,0,0,0,0,0,0,0,0,0,0,0,0,0,0,0,0,0,0,0,0,0,0,0,0,0,0,0,0,0,0,0,0,0,0],"id":6,"left_children":[1,3,5,7,9,11,13,15,17,19,21,23,25,27,29,31,33,35,37,39,41,43,45,47,49,-1,51,53,55,-1,-1,57,59,61,63,65,67,69,71,73,75,77,79,81,-1,83,85,87,89,91,93,95,97,99,101,103,105,-1,-1,-1,-1,-1,-1,-1,-1,-1,-1,-1,-1,-1,-1,-1,-1,-1,-1,-1,-1,-1,-1,-1,-1,-1,-1,-1,-1,-1,-1,-1,-1,-1,-1,-1,-1,-1,-1,-1,-1,-1,-1,-1,-1,-1,-1,-1,-1,-1,-1],"loss_changes":[6.701242E2,2.7607095E2,4.2822787E2,6.912872E1,3.1358435E2,3.0585626E2,1.03706604E2,9.029553E1,9.4160065E1,5.5024837E1,1.8650146E2,3.0485138E2,3.8112686E2,1.334621E2,6.4792175E0,7.6118004E1,7.999338E1,1.7056517E2,8.9372604E1,5.811653E1,5.074906E1,5.2970078E1,1.3473926E2,2.1869612E2,7.991165E1,0E0,3.971537E2,8.0431076E1,7.9342804E1,0E0,0E0,1.942994E2,6.3912933E1,3.0855103E1,4.6402313E1,1.7987518E2,2.2738592E1,1.1745569E2,1.8920767E2,2.4504257E1,2.1587257E1,1.2242802E1,3.3042873E1,9.439262E0,0E0,1.4960541E2,1.1959999E2,1.2271068E2,1.8900272E1,2.738272E1,1.934192E1,3.4856342E2,4.4442953E2,8.2728424E1,4.0729385E1,6.42323E1,3.179459E1,0E0,0E0,0E0,0E0,0E0,0E0,0E0,0E0,0E0,0E0,0E0,0E0,0E0,0E0,0E0,0E0,0E0,0E0,0E0,0E0,0E0,0E0,0E0,0E0,0E0,0E0,0E0,0E0,0E0,0E0,0E0,0E0,0E0,0E0,0E0,0E0,0E0,0E0,0E0,0E0,0E0,0E0,0E0,0E0,0E0,0E0,0E0,0E0,0E0,0E0],"parents":[2147483647,0,0,1,1,2,2,3,3,4,4,5,5,6,6,7,7,8,8,9,9,10,10,11,11,12,12,13,13,14,14,15,15,16,16,17,17,18,18,19,19,20,20,21,21,22,22,23,23,24,24,26,26,27,27,28,28,31,31,32,32,33,33,34,34,35,35,36,36,37,37,38,38,39,39,40,40,41,41,42,42,43,43,45,45,46,46,47,47,48,48,49,49,50,50,51,51,52,52,53,53,54,54,55,55,56,56],"right_children":[2,4,6,8,10,12,14,16,18,20,22,24,26,28,30,32,34,36,38,40,42,44,46,48,50,-1,52,54,56,-1,-1,58,60,62,64,66,68,70,72,74,76,78,80,82,-1,84,86,88,90,92,94,96,98,100,102,104,106,-1,-1,-1,-1,-1,-1,-1,-1,-1,-1,-1,-1,-1,-1,-1,-1,-1,-1,-1,-1,-1,-1,-1,-1,-1,-1,-1,-1,-1,-1,-1,-1,-1,-1,-1,-1,-1,-1,-1,-1,-1,-1,-1,-1,-1,-1,-1,-1,-1,-1],"split_conditions":[1.3E1,2.664E1,1.7299583E1,7E0,3.22875E0,9.176539E1,4.5E1,4.357917E0,4E0,1.8505013E2,5E0,2.7683334E0,9.388894E1,1E-1,5E1,2E-1,9.49125E0,4E-1,1.4903639E2,-7.3837504E0,-8.6500007E-1,1.82E1,4.7683334E0,1.7208603E1,1.3139168E1,4.350235E0,1E-1,1.3590894E1,2.9999998E0,2.6290073E0,6.4779454E-1,1.8E1,2.3464476E2,5.3333335E0,9.519183E1,1.0978752E1,4.89125E0,2.138897E1,1.5198161E2,1E-1,3.2587456E1,5.6999993E0,2.7194895E1,4E0,8.0159026E-1,2.2106587E2,1.1E1,1.6E1,1.7000002E0,1.5E1,1.6E1,1.6E1,2.15379E2,1.2429127E1,1.19178314E2,1.4333333E1,2.4666666E1,-5.8545407E-2,1.9161613E0,-4.4788036E-1,6.364467E-2,-1.0549912E0,-5.822E-1,-6.4454323E-1,-1.08554654E-1,3.494426E0,-1.2067413E-1,-5.42067E-1,3.885503E-1,-1.8259108E-1,-6.239174E-1,2.014801E0,-6.486593E-2,5.869457E-1,-3.3968818E-1,-5.965516E-1,-1.8059579E-1,-5.5481076E-2,-7.2842807E-1,1.2010344E0,1.571699E-1,-6.95725E-2,-1.1300836E0,1.578655E-1,1.7142158E0,1.3971965E-1,1.1056895E0,-4.007997E-1,1.4001548E0,-1.14020355E-1,-8.676194E-1,-4.3979803E-1,-1.3296453E0,-1.6219312E-2,-8.109389E-1,2.2268875E-1,1.1229525E0,-2.6342517E-1,2.8043637E-1,8.351584E-2,1.6988536E0,-1.6599534E-1,8.9818245E-1,7.763067E-1,2.1980228E0,8.168805E-1,-4.4715834E-1],"split_indices":[0,6,4,0,4,7,0,4,2,7,1,4,7,5,0,5,4,5,7,4,4,5,4,6,4,0,5,6,5,0,0,2,7,3,7,4,4,6,7,5,6,5,6,1,0,7,3,0,5,0,1,2,7,6,7,3,3,0,0,0,0,0,0,0,0,0,0,0,0,0,0,0,0,0,0,0,0,0,0,0,0,0,0,0,0,0,0,0,0,0,0,0,0,0,0,0,0,0,0,0,0,0,0,0,0,0,0],"split_type":[0,0,0,0,0,0,0,0,0,0,0,0,0,0,0,0,0,0,0,0,0,0,0,0,0,0,0,0,0,0,0,0,0,0,0,0,0,0,0,0,0,0,0,0,0,0,0,0,0,0,0,0,0,0,0,0,0,0,0,0,0,0,0,0,0,0,0,0,0,0,0,0,0,0,0,0,0,0,0,0,0,0,0,0,0,0,0,0,0,0,0,0,0,0,0,0,0,0,0,0,0,0,0,0,0,0,0],"sum_hessian":[1.995E3,1.121E3,8.74E2,9.21E2,2E2,8.18E2,5.6E1,2.94E2,6.27E2,1.12E2,8.8E1,7.2E1,7.46E2,5.2E1,4E0,1.56E2,1.38E2,1.2E1,6.15E2,6.3E1,4.9E1,8E0,8E1,3E1,4.2E1,1E0,7.45E2,3E1,2.2E1,3E0,1E0,4.7E1,1.09E2,6.9E1,6.9E1,4E0,8E0,3.61E2,2.54E2,1E1,5.3E1,1E1,3.9E1,7E0,1E0,2.7E1,5.3E1,1.7E1,1.3E1,3E1,1.2E1,1.57E2,5.88E2,1.1E1,1.9E1,1.6E1,6E0,4.3E1,4E0,7.9E1,3E1,2E1,4.9E1,2E1,4.9E1,2E0,2E0,5E0,3E0,2.95E2,6.6E1,3E0,2.51E2,7E0,3E0,3.5E1,1.8E1,4E0,6E0,2E0,3.7E1,1E0,6E0,8E0,1.9E1,3.7E1,1.6E1,4E0,1.3E1,5E0,8E0,5E0,2.5E1,9E0,3E0,8.8E1,6.9E1,2.09E2,3.79E2,5E0,6E0,1.6E1,3E0,6E0,1E1,4E0,2E0],"tree_param":{"num_deleted":"0","num_feature":"8","num_nodes":"107","size_leaf_vector":"1"}},{"base_weights":[4.128142E-2,-1.1532375E-1,1.4175158E0,-1.9269802E-1,1.2395159E0,1.081843E0,4.4516125E0,-2.4371296E-1,1.8233364E0,-4.8833585E-1,2.1797585E0,2.1001477E0,-2.2285856E-1,6.7001843E0,9.588928E-1,-4.897214E-4,-5.583529E-1,9.7265774E-1,5.3171387E0,-5.5314183E-2,-1.1491276E0,3.1744595E0,-6.9851744E-1,-3.0918312E-1,3.3802226E0,-2.7121344E0,1.5089422E0,9.940866E0,1.8026911E0,1.3393806E0,-6.805387E-1,-1.5346946E-1,1.1482534E0,-9.678521E-1,1.818622E-1,3.0282068E0,2.5145033E-1,7.218137E0,2.7329123E0,-9.841083E-1,3.9142725E-1,-1.6209173E-1,4.198464E0,1.7901337E0,-2.6195867E0,1.6360666E0,-3.271287E0,8.304199E0,2.3880851E0,-3.9988961E0,2.8223603E0,-2.2644358E0,2.5345376E0,3.2556975E0,6.708178E-1,7.7736455E-1,2.2818762E-1,1.9763647E0,-6.41572E-1,-1.0406339E-2,-6.5005183E-1,-2.9435772E-1,5.9888375E-1,-2.0850803E-1,-8.6110514E-1,-2.8040292E-2,1.0388882E0,3.8222525E-2,1.5970092E0,-4.9504247E-2,1.0914513E0,4.6082726E-1,2.5800366E0,-2.6513445E-1,1.1574093E0,2.0791386E-1,-7.360857E-1,2.1967138E-1,-9.2674804E-1,5.550338E-1,1.6826319E0,-8.1521267E-1,1.1236598E0,-1.5456858E0,-2.1721935E-2,9.781373E-1,-5.451672E-1,-1.9129261E0,-5.8909065E-1,3.2008064E0,4.49352E-1,3.2615152E-1,1.8134677E0,3.8311732E-1,-1.404928E0,-1.2362835E0,1.3999206E0,-1.0784721E0,7.44537E-1,1.6284239E0,8.569059E-2,8.3573973E-1,5.362444E-2],"categories":[],"categories_nodes":[],"categories_segments":[],"categories_sizes":[],"default_left":[0,0,0,0,0,0,0,0,0,0,0,0,0,0,0,0,0,0,0,0,0,0,0,0,0,0,0,0,0,0,0,0,0,0,0,0,0,0,0,0,0,0,0,0,0,0,0,0,0,0,0,0,0,0,0,0,0,0,0,0,0,0,0,0,0,0,0,0,0,0,0,0,0,0,0,0,0,0,0,0,0,0,0,0,0,0,0,0,0,0,0,0,0,0,0,0,0,0,0,0,0,0,0],"id":7,"left_children":[1,3,5,7,9,11,13,15,17,19,21,23,25,27,29,31,33,35,37,39,-1,41,43,45,47,49,51,53,55,-1,57,59,61,63,65,67,69,71,73,-1,75,77,79,81,83,85,87,89,91,93,95,97,99,-1,-1,-1,-1,101,-1,-1,-1,-1,-1,-1,-1,-1,-1,-1,-1,-1,-1,-1,-1,-1,-1,-1,-1,-1,-1,-1,-1,-1,-1,-1,-1,-1,-1,-1,-1,-1,-1,-1,-1,-1,-1,-1,-1,-1,-1,-1,-1,-1,-1],"loss_changes":[4.303522E2,1.8819852E2,2.0295059E2,1.7497723E2,1.5865067E2,2.4625604E2,1.5064786E2,1.26729675E2,1.1965657E2,5.044002E1,1.8258786E2,3.2179395E2,3.575887E2,1.725343E2,5.476467E1,1.644879E2,2.1902686E2,5.112526E1,1.9574326E1,4.7388405E1,0E0,1.6126279E2,8.596422E1,2.1854721E2,3.1236664E2,2.5341986E2,1.9536725E2,2.4891846E1,2.959219E0,0E0,3.1343596E1,1.974639E2,2.0059938E2,2.3936313E2,2.3339685E2,5.9241844E1,3.8682465E1,1.8199448E1,2.3755703E1,0E0,2.6585947E1,3.3675167E1,1.0885162E2,8.068985E1,6.413936E1,1.3494336E2,4.838553E1,1.6109808E2,2.6934518E2,1.0705475E2,1.0885619E2,7.83837E1,2.52234E2,0E0,0E0,0E0,0E0,3.8672018E0,0E0,0E0,0E0,0E0,0E0,0E0,0E0,0E0,0E0,0E0,0E0,0E0,0E0,0E0,0E0,0E0,0E0,0E0,0E0,0E0,0E0,0E0,0E0,0E0,0E0,0E0,0E0,0E0,0E0,0E0,0E0,0E0,0E0,0E0,0E0,0E0,0E0,0E0,0E0,0E0,0E0,0E0,0E0,0E0,0E0],"parents":[2147483647,0,0,1,1,2,2,3,3,4,4,5,5,6,6,7,7,8,8,9,9,10,10,11,11,12,12,13,13,14,14,15,15,16,16,17,17,18,18,19,19,21,21,22,22,23,23,24,24,25,25,26,26,27,27,28,28,30,30,31,31,32,32,33,33,34,34,35,35,36,36,37,37,38,38,40,40,41,41,42,42,43,43,44,44,45,45,46,46,47,47,48,48,49,49,50,50,51,51,52,52,57,57],"right_children":[2,4,6,8,10,12,14,16,18,20,22,24,26,28,30,32,34,36,38,40,-1,42,44,46,48,50,52,54,56,-1,58,60,62,64,66,68,70,72,74,-1,76,78,80,82,84,86,88,90,92,94,96,98,100,-1,-1,-1,-1,102,-1,-1,-1,-1,-1,-1,-1,-1,-1,-1,-1,-1,-1,-1,-1,-1,-1,-1,-1,-1,-1,-1,-1,-1,-1,-1,-1,-1,-1,-1,-1,-1,-1,-1,-1,-1,-1,-1,-1,-1,-1,-1,-1,-1,-1],"split_conditions":[2.6E1,3.509954E1,3.9756783E1,1.8422499E1,2.2302625E2,2.7000003E0,1.61E1,2.9999998E0,1.9137648E1,1.9333334E1,2.1800001E1,1.6E1,2.3664352E1,2.6853424E2,2.9E1,1.9666666E1,2.4037247E1,1.35515E1,1.1996592E2,7.0000005E-1,-1.1491276E0,8E0,1.3E1,7.8808346E0,1.8E1,1.3587083E1,2.0959029E2,3.7E1,1.1E1,1.3393806E0,3.0266669E0,1.8E1,1.3779114E1,2.1E1,2.2E1,1.2429127E1,2.6E1,1E1,1.219601E2,-9.841083E-1,2.2106587E2,1.0666667E1,2.89125E0,9E0,2.3464476E2,8.000001E-1,1.0128751E1,1.2232918E1,4E1,1E1,2.9E0,1.4380834E1,2.3654349E2,3.2556975E0,6.708178E-1,7.7736455E-1,2.2818762E-1,3.5E1,-6.41572E-1,-1.0406339E-2,-6.5005183E-1,-2.9435772E-1,5.9888375E-1,-2.0850803E-1,-8.6110514E-1,-2.8040292E-2,1.0388882E0,3.8222525E-2,1.5970092E0,-4.9504247E-2,1.0914513E0,4.6082726E-1,2.5800366E0,-2.6513445E-1,1.1574093E0,2.0791386E-1,-7.360857E-1,2.1967138E-1,-9.2674804E-1,5.550338E-1,1.6826319E0,-8.1521267E-1,1.1236598E0,-1.5456858E0,-2.1721935E-2,9.781373E-1,-5.451672E-1,-1.9129261E0,-5.8909065E-1,3.2008064E0,4.49352E-1,3.2615152E-1,1.8134677E0,3.8311732E-1,-1.404928E0,-1.2362835E0,1.3999206E0,-1.0784721E0,7.44537E-1,1.6284239E0,8.569059E-2,8.3573973E-1,5.362444E-2],"split_indices":[0,6,6,4,7,5,5,5,6,3,5,2,6,7,0,3,6,6,7,5,0,1,1,4,2,4,7,0,1,0,4,3,6,1,0,6,2,2,7,0,7,3,4,1,7,5,4,4,0,1,5,4,7,0,0,0,0,0,0,0,0,0,0,0,0,0,0,0,0,0,0,0,0,0,0,0,0,0,0,0,0,0,0,0,0,0,0,0,0,0,0,0,0,0,0,0,0,0,0,0,0,0,0],"split_type":[0,0,0,0,0,0,0,0,0,0,0,0,0,0,0,0,0,0,0,0,0,0,0,0,0,0,0,0,0,0,0,0,0,0,0,0,0,0,0,0,0,0,0,0,0,0,0,0,0,0,0,0,0,0,0,0,0,0,0,0,0,0,0,0,0,0,0,0,0,0,0,0,0,0,0,0,0,0,0,0,0,0,0,0,0,0,0,0,0,0,0,0,0,0,0,0,0,0,0,0,0,0,0],"sum_hessian":[1.995E3,1.792E3,2.03E2,1.696E3,9.6E1,1.84E2,1.9E1,1.655E3,4.1E1,3.4E1,6.2E1,1.03E2,8.1E1,1.1E1,8E0,9.34E2,7.21E2,3.4E1,7E0,3.1E1,3E0,4.6E1,1.6E1,3.6E1,6.7E1,3.3E1,4.8E1,6E0,5E0,2E0,6E0,8.25E2,1.09E2,4.64E2,2.57E2,8E0,2.6E1,3E0,4E0,3E0,2.8E1,1.1E1,3.5E1,7E0,9E0,2.2E1,1.4E1,1E1,5.7E1,2.7E1,6E0,1E1,3.8E1,5E0,1E0,2E0,3E0,2E0,4E0,7.8E2,4.5E1,3.1E1,7.8E1,4.07E2,5.7E1,2.38E2,1.9E1,4E0,4E0,2.4E1,2E0,1E0,2E0,1E0,3E0,2.6E1,2E0,9E0,2E0,1.4E1,2.1E1,2E0,5E0,4E0,5E0,1.5E1,7E0,3E0,1.1E1,7E0,3E0,4.3E1,1.4E1,3E0,2.4E1,1E0,5E0,8E0,2E0,1.6E1,2.2E1,1E0,1E0],"tree_param":{"num_deleted":"0","num_feature":"8","num_nodes":"103","size_leaf_vector":"1"}},{"base_weights":[3.619553E-2,-2.2671752E-1,5.1376367E-1,-2.441282E-1,4.289691E0,6.8439627E-1,-1.7488619E0,-5.142073E-1,4.0578257E-2,1.7428235E0,4.020221E-1,1.2953196E-1,1.0828676E0,-2.3821912E0,-1.1228097E-1,-1.2352787E-1,-1.1057194E0,-7.2749704E-1,4.4986883E-1,1.353468E0,-9.6206766E-1,-2.3696919E-1,1.9580711E0,-3.1334867E0,-3.898388E-1,-7.486673E-1,4.4634292E-1,-1.9022043E-1,4.2654233E0,-5.5516213E-1,-2.3973527E0,-1.1035728E0,9.736293E-1,2.836221E0,2.3979059E-1,2.2405477E0,-4.514521E-1,-2.1871016E0,-4.278285E-2,-1.7101952E0,1.1471423E0,3.021485E0,8.591362E-1,-3.3587399E0,3.746767E-1,-1.1041306E0,3.0726433E-1,1.8735505E0,-6.798557E-1,9.6215345E-2,-2.131992E-1,4.1117287E-1,2.0110235E0,-5.6256153E-2,-6.921267E-1,-5.220769E-1,-1.1409928E0,1.0265324E0,-3.840901E-1,-3.361196E-1,4.5964465E-1,1.1507071E0,-6.9020176E-1,2.6693027E0,5.0966423E-2,1.1053414E0,9.9574134E-2,-5.592377E-1,5.705581E-1,-1.5627423E-1,-9.39641E-1,-4.1184545E-1,3.683306E-1,-8.946031E-1,1.5934126E-1,7.222078E-1,-8.261629E-1,1.6092508E0,5.3441155E-1,7.16738E-1,-4.721821E-1,-1.1411891E0,-5.8114326E-1,3.7378684E-1,-1.5785685E-1,7.258824E-1,1.562872E-1,-5.391951E-1,5.345056E-1],"categories":[],"categories_nodes":[],"categories_segments":[],"categories_sizes":[],"default_left":[0,0,0,0,0,0,0,0,0,0,0,0,0,0,0,0,0,0,0,0,0,0,0,0,0,0,0,0,0,0,0,0,0,0,0,0,0,0,0,0,0,0,0,0,0,0,0,0,0,0,0,0,0,0,0,0,0,0,0,0,0,0,0,0,0,0,0,0,0,0,0,0,0,0,0,0,0,0,0,0,0,0,0,0,0,0,0,0,0],"id":8,"left_children":[1,3,5,7,9,11,13,15,17,-1,-1,19,21,23,25,27,29,31,33,35,37,39,41,43,45,-1,47,49,51,53,55,57,59,61,63,65,67,69,71,73,75,77,79,81,-1,-1,83,85,87,-1,-1,-1,-1,-1,-1,-1,-1,-1,-1,-1,-1,-1,-1,-1,-1,-1,-1,-1,-1,-1,-1,-1,-1,-1,-1,-1,-1,-1,-1,-1,-1,-1,-1,-1,-1,-1,-1,-1,-1],"loss_changes":[2.5073203E2,1.0232756E2,2.7492596E2,9.875181E1,1.4627922E1,1.4578412E2,5.1557236E1,1.5215282E2,1.9712039E2,0E0,0E0,3.7138745E2,4.440323E2,5.2664886E1,2.10842E1,1.17310104E2,1.8498203E2,1.405405E2,2.0436002E2,2.1075665E2,1.6545125E2,3.1598462E2,2.6735596E2,2.9860779E1,2.6363602E1,0E0,2.2168896E1,1.0473232E2,3.315809E1,1.187224E2,6.544144E1,1.4753676E2,4.8498833E1,1.7825223E2,2.2665178E2,2.4129819E2,1.4982162E2,9.756854E1,1.4532516E2,2.1537589E2,3.9991992E2,3.3035217E2,4.3185742E2,8.454376E0,0E0,0E0,8.479171E0,3.1710472E0,2.5207663E1,0E0,0E0,0E0,0E0,0E0,0E0,0E0,0E0,0E0,0E0,0E0,0E0,0E0,0E0,0E0,0E0,0E0,0E0,0E0,0E0,0E0,0E0,0E0,0E0,0E0,0E0,0E0,0E0,0E0,0E0,0E0,0E0,0E0,0E0,0E0,0E0,0E0,0E0,0E0,0E0],"parents":[2147483647,0,0,1,1,2,2,3,3,4,4,5,5,6,6,7,7,8,8,11,11,12,12,13,13,14,14,15,15,16,16,17,17,18,18,19,19,20,20,21,21,22,22,23,23,24,24,26,26,27,27,28,28,29,29,30,30,31,31,32,32,33,33,34,34,35,35,36,36,37,37,38,38,39,39,40,40,41,41,42,42,43,43,46,46,47,47,48,48],"right_children":[2,4,6,8,10,12,14,16,18,-1,-1,20,22,24,26,28,30,32,34,36,38,40,42,44,46,-1,48,50,52,54,56,58,60,62,64,66,68,70,72,74,76,78,80,82,-1,-1,84,86,88,-1,-1,-1,-1,-1,-1,-1,-1,-1,-1,-1,-1,-1,-1,-1,-1,-1,-1,-1,-1,-1,-1,-1,-1,-1,-1,-1,-1,-1,-1,-1,-1,-1,-1,-1,-1,-1,-1,-1,-1],"split_conditions":[1.5E1,2.1618334E1,3.2261737E2,1.2984695E2,1.1E1,3.6495838E0,2.1659918E1,1.935314E1,1.5941944E1,1.7428235E0,4.020221E-1,2.2E0,1.7592018E2,2.5E1,-2.9420831E0,1.9191748E1,1.1E1,1.3139168E1,1.2E0,1.08491554E2,2.3265056E2,2E1,8.505835E0,3.1E1,3.2502783E2,-7.486673E-1,1.7E1,2.7683334E0,1.5E1,1.1281284E2,1.5308332E0,1.311062E2,1.030883E1,1.5E1,1.5986593E1,1.6923828E1,1.3000002E0,1.8333334E1,2.5338476E1,1.3455834E1,3.4E1,5.1E0,2.4E1,2.5000002E0,3.746767E-1,-1.1041306E0,2.7E1,9.9749994E-1,5.1999993E0,9.6215345E-2,-2.131992E-1,4.1117287E-1,2.0110235E0,-5.6256153E-2,-6.921267E-1,-5.220769E-1,-1.1409928E0,1.0265324E0,-3.840901E-1,-3.361196E-1,4.5964465E-1,1.1507071E0,-6.9020176E-1,2.6693027E0,5.0966423E-2,1.1053414E0,9.9574134E-2,-5.592377E-1,5.705581E-1,-1.5627423E-1,-9.39641E-1,-4.1184545E-1,3.683306E-1,-8.946031E-1,1.5934126E-1,7.222078E-1,-8.261629E-1,1.6092508E0,5.3441155E-1,7.16738E-1,-4.721821E-1,-1.1411891E0,-5.8114326E-1,3.7378684E-1,-1.5785685E-1,7.258824E-1,1.562872E-1,-5.391951E-1,5.345056E-1],"split_indices":[3,4,7,7,1,4,6,6,6,0,0,5,7,0,4,6,1,4,5,7,7,2,4,1,7,0,0,4,0,7,4,7,6,2,6,6,5,3,6,4,2,5,1,5,0,0,0,4,5,0,0,0,0,0,0,0,0,0,0,0,0,0,0,0,0,0,0,0,0,0,0,0,0,0,0,0,0,0,0,0,0,0,0,0,0,0,0,0,0],"split_type":[0,0,0,0,0,0,0,0,0,0,0,0,0,0,0,0,0,0,0,0,0,0,0,0,0,0,0,0,0,0,0,0,0,0,0,0,0,0,0,0,0,0,0,0,0,0,0,0,0,0,0,0,0,0,0,0,0,0,0,0,0,0,0,0,0,0,0,0,0,0,0,0,0,0,0,0,0,0,0,0,0,0,0,0,0,0,0,0,0],"sum_hessian":[1.995E3,1.287E3,7.08E2,1.283E3,4E0,6.59E2,4.9E1,6.58E2,6.25E2,2E0,2E0,2.76E2,3.83E2,3.5E1,1.4E1,3.97E2,2.61E2,2.17E2,4.08E2,1.3E2,1.46E2,1.53E2,2.3E2,2.5E1,1E1,2E0,1.2E1,3.92E2,5E0,1.84E2,7.7E1,1.78E2,3.9E1,3.2E1,3.76E2,8.7E1,4.3E1,6.2E1,8.4E1,7.4E1,7.9E1,1.16E2,1.14E2,2.4E1,1E0,1E0,9E0,5E0,7E0,1.98E2,1.94E2,3E0,2E0,1.53E2,3.1E1,5.4E1,2.3E1,6E0,1.72E2,8E0,3.1E1,2.7E1,5E0,2E0,3.74E2,4.9E1,3.8E1,2.7E1,1.6E1,2.3E1,3.9E1,4.1E1,4.3E1,4.7E1,2.7E1,6E1,1.9E1,3.9E1,7.7E1,7E1,4.4E1,1.7E1,7E0,4E0,5E0,3E0,2E0,5E0,2E0],"tree_param":{"num_deleted":"0","num_feature":"8","num_nodes":"89","size_leaf_vector":"1"}},{"base_weights":[2.8094504E-2,-5.351727E-2,1.0780842E0,-8.2990855E-2,2.9557614E0,-2.6942903E-1,1.7546475E0,-9.589491E-2,4.6616535E0,1.6952027E0,5.194345E0,8.1646025E-1,-1.8847915E0,1.4729791E0,5.7341776E0,2.4003383E-2,-5.2519083E-1,1.6558615E0,1.8451738E-1,2.5753314E0,-6.291009E-1,8.428294E-1,2.1478186E0,3.607624E-1,1.439246E0,-3.3564346E0,-7.7505015E-2,1.9233799E0,-2.3676054E0,-8.68473E-1,2.411693E0,-2.834682E-1,4.311027E-1,-1.0468091E0,5.106586E-2,1.3942587E0,1.5984509E0,3.1455803E-1,6.47152E-2,-9.490192E-1,1.1411421E0,-1.1397749E0,-1.3380817E0,8.1123704E-1,-1.1284945E0,2.3133667E0,-5.4432344E-1,2.6122838E-1,-1.2491097E0,-1.2492285E-1,8.2095124E-2,1.7272633E-2,3.4959292E-1,-2.5578544E-1,-1.0044261E0,1.5796787E0,-2.6589947E-2,2.8116915E-1,7.8254455E-1,1.2388107E-2,-6.43696E-1,5.597865E-1,-3.349687E-1,-6.0518855E-1,3.5301115E-2,4.4722512E-2,4.2711222E-1,-4.7769216E-1,-8.65551E-2,-2.7968627E-1,8.048782E-1,8.5715127E-1,-4.5310184E-1,-2.7139902E-1,4.020132E-1],"categories":[],"categories_nodes":[],"categories_segments":[],"categories_sizes":[],"default_left":[0,0,0,0,0,0,0,0,0,0,0,0,0,0,0,0,0,0,0,0,0,0,0,0,0,0,0,0,0,0,0,0,0,0,0,0,0,0,0,0,0,0,0,0,0,0,0,0,0,0,0,0,0,0,0,0,0,0,0,0,0,0,0,0,0,0,0,0,0,0,0,0,0,0,0],"id":9,"left_children":[1,3,5,7,9,11,13,15,17,19,21,23,25,27,29,31,33,-1,-1,35,-1,37,-1,39,-1,41,43,45,47,-1,-1,49,51,53,55,-1,57,-1,-1,59,61,63,-1,65,67,69,71,73,-1,-1,-1,-1,-1,-1,-1,-1,-1,-1,-1,-1,-1,-1,-1,-1,-1,-1,-1,-1,-1,-1,-1,-1,-1,-1,-1],"loss_changes":[1.71098E2,1.645957E2,1.3175436E2,1.12856415E2,4.1988113E1,8.749E1,9.916086E1,9.430902E1,1.3962723E1,4.8789642E1,4.527153E1,5.2693596E1,5.2933464E1,1.6196579E2,1.4260204E2,1.794929E2,1.2028786E2,0E0,0E0,1.4838341E1,0E0,1.6080046E-1,0E0,2.970252E1,0E0,2.1831459E1,1.0256062E1,8.0173706E1,4.8303997E1,0E0,0E0,6.0624306E1,1.6914288E2,9.099176E1,1.3960344E2,0E0,3.5659294E0,0E0,0E0,1.3124064E1,3.1538889E1,5.754545E0,0E0,2.2210882E0,1.488553E0,8.76633E1,4.374607E1,7.5012E0,0E0,0E0,0E0,0E0,0E0,0E0,0E0,0E0,0E0,0E0,0E0,0E0,0E0,0E0,0E0,0E0,0E0,0E0,0E0,0E0,0E0,0E0,0E0,0E0,0E0,0E0,0E0],"parents":[2147483647,0,0,1,1,2,2,3,3,4,4,5,5,6,6,7,7,8,8,9,9,10,10,11,11,12,12,13,13,14,14,15,15,16,16,19,19,21,21,23,23,25,25,26,26,27,27,28,28,31,31,32,32,33,33,34,34,36,36,39,39,40,40,41,41,43,43,44,44,45,45,46,46,47,47],"right_children":[2,4,6,8,10,12,14,16,18,20,22,24,26,28,30,32,34,-1,-1,36,-1,38,-1,40,-1,42,44,46,48,-1,-1,50,52,54,56,-1,58,-1,-1,60,62,64,-1,66,68,70,72,74,-1,-1,-1,-1,-1,-1,-1,-1,-1,-1,-1,-1,-1,-1,-1,-1,-1,-1,-1,-1,-1,-1,-1,-1,-1,-1,-1],"split_conditions":[3.4162083E1,2.084125E1,2.2302625E2,5.5E1,2.1E1,1.4E1,3.2333332E1,7.2000003E0,4E1,1.9E1,1.3397612E1,2.2E1,3.8349712E1,2.5333334E1,2.2E1,1.3E1,2.4037247E1,1.6558615E0,1.8451738E-1,1.2E1,-6.291009E-1,3.2E1,2.1478186E0,7E0,1.439246E0,3.668822E1,2.3E1,3.2699997E1,7.9000006E0,-8.68473E-1,2.411693E0,2.4649643E2,1.9121557E1,2.5E1,2.436325E1,1.3942587E0,1.7E1,3.1455803E-1,6.47152E-2,6.6666665E0,1E1,1E1,-1.3380817E0,1.7E1,1.7E1,3.509954E1,3.602204E1,3.0333334E1,-1.2491097E0,-1.2492285E-1,8.2095124E-2,1.7272633E-2,3.4959292E-1,-2.5578544E-1,-1.0044261E0,1.5796787E0,-2.6589947E-2,2.8116915E-1,7.8254455E-1,1.2388107E-2,-6.43696E-1,5.597865E-1,-3.349687E-1,-6.0518855E-1,3.5301115E-2,4.4722512E-2,4.2711222E-1,-4.7769216E-1,-8.65551E-2,-2.7968627E-1,8.048782E-1,8.5715127E-1,-4.5310184E-1,-2.7139902E-1,4.020132E-1],"split_indices":[6,4,7,0,3,1,3,5,1,2,6,0,6,3,0,0,6,0,0,3,0,0,0,3,0,6,1,5,5,0,0,7,6,0,6,0,0,0,0,3,1,0,0,2,0,6,6,3,0,0,0,0,0,0,0,0,0,0,0,0,0,0,0,0,0,0,0,0,0,0,0,0,0,0,0],"split_type":[0,0,0,0,0,0,0,0,0,0,0,0,0,0,0,0,0,0,0,0,0,0,0,0,0,0,0,0,0,0,0,0,0,0,0,0,0,0,0,0,0,0,0,0,0,0,0,0,0,0,0,0,0,0,0,0,0,0,0,0,0,0,0,0,0,0,0,0,0,0,0,0,0,0,0],"sum_hessian":[1.995E3,1.852E3,1.43E2,1.835E3,1.7E1,4.8E1,9.5E1,1.831E3,4E0,1.2E1,5E0,2.9E1,1.9E1,9E1,5E0,1.432E3,3.99E2,3E0,1E0,1E1,2E0,2E0,3E0,2.7E1,2E0,1E1,9E0,8.1E1,9E0,1E0,4E0,8.16E2,6.16E2,2.09E2,1.9E2,2E0,8E0,1E0,1E0,1E1,1.7E1,4E0,6E0,5E0,4E0,7E1,1.1E1,4E0,5E0,6.59E2,1.57E2,4.09E2,2.07E2,1.94E2,1.5E1,4E0,1.86E2,6E0,2E0,6E0,4E0,1.3E1,4E0,2E0,2E0,3E0,2E0,2E0,2E0,7E0,6.3E1,2E0,9E0,2E0,2E0],"tree_param":{"num_deleted":"0","num_feature":"8","num_nodes":"75","size_leaf_vector":"1"}},{"base_weights":[2.3273092E-2,-4.6173125E-3,2.1366851E0,7.345588E-2,-5.255936E-1,3.5922456E0,-1.0118449E0,-5.827527E-3,1.4562893E0,-4.3235505E-1,-3.0467935E0,-4.3899974E-1,4.775387E0,-1.4836264E0,9.802985E-2,-1.8431114E-1,3.5346848E-1,4.6968417E0,7.219298E-1,-1.1546288E-2,-9.99941E-1,-1.162447E0,-9.912618E-2,8.0719763E-1,-1.894079E0,-3.2426578E-1,5.3090143E0,-4.0757048E-1,1.2437023E0,-1.869253E-2,-6.8663865E-1,7.818383E-1,-6.9378704E-1,1.7215831E0,7.1502285E0,-1.0660311E0,1.2462859E0,3.0406587E0,-2.8684637E-1,-2.5680394E0,-5.586766E-1,-1.9485313E-1,1.5024634E-1,-6.2136844E-2,-7.16207E-1,5.6022625E0,2.6850587E-1,4.169884E-2,4.4553897E-1,-4.8241022E-1,8.811468E-3,-8.3685055E-2,-5.212421E-1,2.049326E-1,2.0614512E0,8.0559656E-2,-5.6809455E-1,9.2295843E-1,-1.3676966E0,3.2577097E-1,2.3317595E0,1.2183144E-1,-1.4924417E0,1.064329E-1,8.6551577E-1,2.8090447E-1,1.7398272E0,-1.4527278E-1,8.574E-1,-4.365693E-1,-1.1607502E0,-4.179419E-1,2.738778E-1,4.4798872E-1,1.7520152E0],"categories":[],"categories_nodes":[],"categories_segments":[],"categories_sizes":[],"default_left":[0,0,0,0,0,0,0,0,0,0,0,0,0,0,0,0,0,0,0,0,0,0,0,0,0,0,0,0,0,0,0,0,0,0,0,0,0,0,0,0,0,0,0,0,0,0,0,0,0,0,0,0,0,0,0,0,0,0,0,0,0,0,0,0,0,0,0,0,0,0,0,0,0,0,0],"id":10,"left_children":[1,3,5,7,9,11,13,15,17,19,21,23,25,-1,27,29,31,33,35,37,39,-1,41,-1,43,-1,45,-1,47,49,51,53,55,57,59,61,63,65,67,69,71,-1,-1,-1,-1,73,-1,-1,-1,-1,-1,-1,-1,-1,-1,-1,-1,-1,-1,-1,-1,-1,-1,-1,-1,-1,-1,-1,-1,-1,-1,-1,-1,-1,-1],"loss_changes":[1.1766193E2,8.02076E1,1.2278956E2,1.8803378E2,5.909646E1,8.7948E1,3.977679E1,1.0414563E2,2.1792412E2,5.946089E1,2.1582718E1,2.7865824E1,4.948941E1,0E0,1.5039929E1,9.025351E1,2.4234467E2,1.1178113E2,7.3518265E1,1.21871414E2,7.191156E1,0E0,1.315893E0,0E0,2.834077E0,0E0,1.1812988E1,0E0,1.1271048E0,6.2458065E1,1.1475848E2,2.2557741E2,1.8178853E2,9.061432E1,2.5524384E1,1.0559673E2,8.663502E1,6.4233284E1,8.394781E1,2.767131E1,1.0442366E2,0E0,0E0,0E0,0E0,3.0038757E0,0E0,0E0,0E0,0E0,0E0,0E0,0E0,0E0,0E0,0E0,0E0,0E0,0E0,0E0,0E0,0E0,0E0,0E0,0E0,0E0,0E0,0E0,0E0,0E0,0E0,0E0,0E0,0E0,0E0],"parents":[2147483647,0,0,1,1,2,2,3,3,4,4,5,5,6,6,7,7,8,8,9,9,10,10,11,11,12,12,14,14,15,15,16,16,17,17,18,18,19,19,20,20,22,22,24,24,26,26,28,28,29,29,30,30,31,31,32,32,33,33,34,34,35,35,36,36,37,37,38,38,39,39,40,40,45,45],"right_children":[2,4,6,8,10,12,14,16,18,20,22,24,26,-1,28,30,32,34,36,38,40,-1,42,-1,44,-1,46,-1,48,50,52,54,56,58,60,62,64,66,68,70,72,-1,-1,-1,-1,74,-1,-1,-1,-1,-1,-1,-1,-1,-1,-1,-1,-1,-1,-1,-1,-1,-1,-1,-1,-1,-1,-1,-1,-1,-1,-1,-1,-1,-1],"split_conditions":[4.5E1,2.926491E2,4.5E1,2.7370044E2,1.75E1,1.5E1,6.361697E0,1.5E1,1.2E0,7.518334E0,3.319379E2,4.6E1,7.729527E0,-1.4836264E0,2E1,1.2E1,2.2666666E1,1E-1,8E0,1.2144331E1,1.0137692E1,-1.162447E0,2.2E1,8.0719763E-1,4.8E1,-3.2426578E-1,3.558177E1,-4.0757048E-1,4.6E1,4.6666665E0,2.1605999E1,3.6E1,2.7000003E0,1.8E1,6E0,9E0,1.1600003E1,1.1252519E1,3.6E1,1.5E1,1.2535003E1,-1.9485313E-1,1.5024634E-1,-6.2136844E-2,-7.16207E-1,-4.287917E0,2.6850587E-1,4.169884E-2,4.4553897E-1,-4.8241022E-1,8.811468E-3,-8.3685055E-2,-5.212421E-1,2.049326E-1,2.0614512E0,8.0559656E-2,-5.6809455E-1,9.2295843E-1,-1.3676966E0,3.2577097E-1,2.3317595E0,1.2183144E-1,-1.4924417E0,1.064329E-1,8.6551577E-1,2.8090447E-1,1.7398272E0,-1.4527278E-1,8.574E-1,-4.365693E-1,-1.1607502E0,-4.179419E-1,2.738778E-1,4.4798872E-1,1.7520152E0],"split_indices":[0,7,1,7,5,2,7,3,5,4,7,0,6,0,2,3,3,5,2,6,6,0,0,0,0,0,6,0,0,3,6,0,5,0,1,1,5,6,2,1,4,0,0,0,0,4,0,0,0,0,0,0,0,0,0,0,0,0,0,0,0,0,0,0,0,0,0,0,0,0,0,0,0,0,0],"split_type":[0,0,0,0,0,0,0,0,0,0,0,0,0,0,0,0,0,0,0,0,0,0,0,0,0,0,0,0,0,0,0,0,0,0,0,0,0,0,0,0,0,0,0,0,0,0,0,0,0,0,0,0,0,0,0,0,0,0,0,0,0,0,0,0,0,0,0,0,0,0,0,0,0,0,0],"sum_hessian":[1.995E3,1.97E3,2.5E1,1.714E3,2.56E2,1.7E1,8E0,1.622E3,9.2E1,2.48E2,8E0,4E0,1.3E1,1E0,7E0,1.084E3,5.38E2,1.6E1,7.6E1,1.43E2,1.05E2,6E0,2E0,1E0,3E0,1E0,1.2E1,3E0,4E0,8.16E2,2.68E2,3.82E2,1.56E2,8E0,8E0,1.7E1,5.9E1,1.1E1,1.32E2,2.2E1,8.3E1,1E0,1E0,1E0,2E0,1.1E1,1E0,1E0,3E0,2.3E1,7.93E2,1.94E2,7.4E1,3.77E2,5E0,8.7E1,6.9E1,7E0,1E0,1E0,7E0,1.3E1,4E0,3.9E1,2E1,7E0,4E0,1.25E2,7E0,1.3E1,9E0,5.3E1,3E1,1E0,1E1],"tree_param":{"num_deleted":"0","num_feature":"8","num_nodes":"75","size_leaf_vector":"1"}},{"base_weights":[1.7828371E-2,-3.2493647E-2,8.726887E-1,-3.875971E-1,1.4130008E-1,3.8965912E0,6.316896E-1,-2.6270947E-1,-2.1919003E0,-2.706632E-1,4.648694E-1,5.377803E-1,9.315349E0,-6.157195E-1,1.5935392E0,-5.389662E-1,7.2909766E-1,-3.196444E0,1.6233554E0,2.684563E-1,-8.985869E-1,3.1561239E0,3.3735096E-1,2.4293673E-1,-1.2333956E-1,1.8056718E-1,4.01134E0,1.2881093E0,-8.2023317E-1,9.565971E-1,2.7877467E0,-3.096808E-1,-1.4162251E0,1.2221771E0,-1.9699867E0,-3.8293488E0,9.8711205E-1,-5.495284E-1,1.3430526E0,5.8744017E-2,4.000285E0,-1.7622662E-1,-1.5352976E0,8.187006E0,1.138038E0,-8.370038E-1,6.0383356E-1,-1.9608951E0,2.5954995E-1,2.9160708E-1,2.3152988E0,4.39847E0,1.0700213E0,1.2010631E-1,-2.7192378E-1,-3.34166E-1,-9.6430284E-1,-1.7618965E-1,8.0386394E-1,-8.3925843E-1,1.2815942E-1,-7.9902565E-1,-1.6985044E0,-9.679031E-2,5.9034634E-1,-1.7273713E-2,-3.0668548E-1,7.941433E-2,-1.0300654E0,2.0404086E0,-1.7181683E-1,-1.2268635E-1,1.3174013E0,-2.1040493E-1,-7.426683E-1,-1.3560753E-1,3.2159626E0,-1.9987875E0,6.4501077E-1,7.946519E-1,-2.7437663E-1,3.6297864E-1,5.5695944E-2,1.0053154E0,-7.1202564E-1,-1.5551825E-2,1.1132258E0,4.589058E-1,-1.1260833E-1,-1.6033766E-1,8.6460716E-1,3.2691006E-2,1.6371672E0,-3.3396196E-2,6.2190795E-1],"categories":[],"categories_nodes":[],"categories_segments":[],"categories_sizes":[],"default_left":[0,0,0,0,0,0,0,0,0,0,0,0,0,0,0,0,0,0,0,0,0,0,0,0,0,0,0,0,0,0,0,0,0,0,0,0,0,0,0,0,0,0,0,0,0,0,0,0,0,0,0,0,0,0,0,0,0,0,0,0,0,0,0,0,0,0,0,0,0,0,0,0,0,0,0,0,0,0,0,0,0,0,0,0,0,0,0,0,0,0,0,0,0,0,0],"id":11,"left_children":[1,3,5,7,9,11,13,15,17,19,21,23,25,27,29,31,33,35,37,39,41,43,45,-1,-1,-1,-1,-1,47,49,51,53,55,57,59,61,63,65,-1,67,69,71,73,75,77,79,81,83,85,87,89,91,93,-1,-1,-1,-1,-1,-1,-1,-1,-1,-1,-1,-1,-1,-1,-1,-1,-1,-1,-1,-1,-1,-1,-1,-1,-1,-1,-1,-1,-1,-1,-1,-1,-1,-1,-1,-1,-1,-1,-1,-1,-1,-1],"loss_changes":[8.589288E1,1.164488E2,7.843067E1,1.3913196E2,1.6901526E2,1.4059506E2,1.2576247E2,1.5958311E2,1.5849261E2,1.891387E2,2.4259628E2,1.8816048E0,9.797177E1,4.9707798E1,4.2211075E1,9.108133E1,1.7142732E2,8.850937E1,5.826281E1,2.3533073E2,1.1839255E2,3.1557095E2,2.1299515E2,0E0,0E0,0E0,0E0,0E0,5.5933983E1,3.5465767E1,5.062915E1,1.5374248E2,4.7521744E1,2.8637775E2,4.0870483E1,4.4738953E1,7.057287E0,1.3365711E0,0E0,2.0663141E2,2.0884485E2,1.3148178E2,1.0568964E2,2.0177948E2,2.0378696E2,3.6499146E1,1.4019063E2,5.6162132E1,2.5984386E1,2.3695438E1,2.2535698E1,4.482057E1,1.3264584E1,0E0,0E0,0E0,0E0,0E0,0E0,0E0,0E0,0E0,0E0,0E0,0E0,0E0,0E0,0E0,0E0,0E0,0E0,0E0,0E0,0E0,0E0,0E0,0E0,0E0,0E0,0E0,0E0,0E0,0E0,0E0,0E0,0E0,0E0,0E0,0E0,0E0,0E0,0E0,0E0,0E0,0E0],"parents":[2147483647,0,0,1,1,2,2,3,3,4,4,5,5,6,6,7,7,8,8,9,9,10,10,11,11,12,12,13,13,14,14,15,15,16,16,17,17,18,18,19,19,20,20,21,21,22,22,28,28,29,29,30,30,31,31,32,32,33,33,34,34,35,35,36,36,37,37,39,39,40,40,41,41,42,42,43,43,44,44,45,45,46,46,47,47,48,48,49,49,50,50,51,51,52,52],"right_children":[2,4,6,8,10,12,14,16,18,20,22,24,26,28,30,32,34,36,38,40,42,44,46,-1,-1,-1,-1,-1,48,50,52,54,56,58,60,62,64,66,-1,68,70,72,74,76,78,80,82,84,86,88,90,92,94,-1,-1,-1,-1,-1,-1,-1,-1,-1,-1,-1,-1,-1,-1,-1,-1,-1,-1,-1,-1,-1,-1,-1,-1,-1,-1,-1,-1,-1,-1,-1,-1,-1,-1,-1,-1,-1,-1,-1,-1,-1,-1],"split_conditions":[1.6293333E1,1.5941944E1,9E0,2.9E1,1.3689026E2,1.6895416E1,1.5E1,1.7E1,1.2155834E1,6E-1,1.6516901E1,8E0,6E0,5E0,8E-1,4.5999994E0,1.5281989E1,4.9E1,6E-1,2.9E1,9.666667E0,2.1868013E2,1.1120834E0,2.4293673E-1,-1.2333956E-1,1.8056718E-1,4.01134E0,1.2881093E0,1.7966251E1,2.084125E1,2.9999998E0,6.380834E0,1.8E1,1.2429127E1,5.418333E0,6.1141677E0,2.5329163E0,1E-1,1.3430526E0,1.3455834E1,2.2378714E1,1.4E1,1.3412501E0,9E0,2.3127097E2,4.6666665E0,7.2000003E0,9.3876505E0,2.664E1,1.7580833E1,1.2325728E1,1.6E1,1.9222502E1,1.2010631E-1,-2.7192378E-1,-3.34166E-1,-9.6430284E-1,-1.7618965E-1,8.0386394E-1,-8.3925843E-1,1.2815942E-1,-7.9902565E-1,-1.6985044E0,-9.679031E-2,5.9034634E-1,-1.7273713E-2,-3.0668548E-1,7.941433E-2,-1.0300654E0,2.0404086E0,-1.7181683E-1,-1.2268635E-1,1.3174013E0,-2.1040493E-1,-7.426683E-1,-1.3560753E-1,3.2159626E0,-1.9987875E0,6.4501077E-1,7.946519E-1,-2.7437663E-1,3.6297864E-1,5.5695944E-2,1.0053154E0,-7.1202564E-1,-1.5551825E-2,1.1132258E0,4.589058E-1,-1.1260833E-1,-1.6033766E-1,8.6460716E-1,3.2691006E-2,1.6371672E0,-3.3396196E-2,6.2190795E-1],"split_indices":[4,6,0,2,7,4,0,2,4,5,6,0,0,1,5,5,6,2,5,2,3,7,4,0,0,0,0,0,4,4,5,4,0,6,4,4,4,5,0,4,6,0,4,2,7,3,5,6,6,4,6,0,4,0,0,0,0,0,0,0,0,0,0,0,0,0,0,0,0,0,0,0,0,0,0,0,0,0,0,0,0,0,0,0,0,0,0,0,0,0,0,0,0,0,0],"split_type":[0,0,0,0,0,0,0,0,0,0,0,0,0,0,0,0,0,0,0,0,0,0,0,0,0,0,0,0,0,0,0,0,0,0,0,0,0,0,0,0,0,0,0,0,0,0,0,0,0,0,0,0,0,0,0,0,0,0,0,0,0,0,0,0,0,0,0,0,0,0,0,0,0,0,0,0,0,0,0,0,0,0,0,0,0,0,0,0,0,0,0,0,0,0,0],"sum_hessian":[1.995E3,1.885E3,1.1E2,6.19E2,1.266E3,7E0,1.03E2,5.8E2,3.9E1,5.57E2,7.09E2,5E0,2E0,4.5E1,5.8E1,4.54E2,1.26E2,3.1E1,8E0,3E2,2.57E2,3.1E1,6.78E2,4E0,1E0,1E0,1E0,1E0,4.4E1,3.9E1,1.9E1,3.61E2,9.3E1,1.07E2,1.9E1,2.7E1,4E0,5E0,3E0,2.85E2,1.5E1,1.21E2,1.36E2,8E0,2.3E1,1.25E2,5.53E2,2.1E1,2.3E1,2.7E1,1.2E1,9E0,1E1,1.65E2,1.96E2,8.1E1,1.2E1,4.8E1,5.9E1,1.4E1,5E0,1.8E1,9E0,2E0,2E0,3E0,2E0,2.7E2,1.5E1,9E0,6E0,1.16E2,5E0,7.3E1,6.3E1,2E0,6E0,2E0,2.1E1,2E0,1.23E2,2.25E2,3.28E2,1E0,2E1,2.2E1,1E0,9E0,1.8E1,2E0,1E1,2E0,7E0,5E0,5E0],"tree_param":{"num_deleted":"0","num_feature":"8","num_nodes":"95","size_leaf_vector":"1"}},{"base_weights":[1.8294519E-2,-3.2456104E-2,7.654234E-1,-7.5846724E-2,7.7015644E-1,-2.5820613E-1,1.3499316E0,-1.0630507E0,-4.36611E-2,4.347963E0,5.2579385E-1,4.7650978E-1,-1.3660249E0,3.4445984E0,7.813274E-1,-1.2643721E0,2.9150848E0,3.30895E-1,-1.5778384E-1,6.713702E-1,3.4096391E0,-4.8589373E-1,1.3288016E0,-5.360629E-2,3.8031368E0,-3.256807E-1,-2.7557878E0,8.911541E-1,6.9650683E0,7.581704E-2,2.2559295E0,-2.3470888E0,-5.584479E-1,2.0078431E-1,1.1110039E0,-1.0716897E0,6.8269145E-1,-9.8563E-2,-9.284962E-1,7.5464165E-1,5.0742675E-2,2.0581396E0,-7.4090004E-1,7.5357074E-1,2.4349358E0,3.48143E-1,-5.431746E-1,2.5452977E-1,1.3515683E0,-5.5561227E-1,3.8888836E-1,-3.7574904E0,1.6621304E-1,2.2468305E0,-2.0429869E0,5.457487E-1,2.255858E0,8.4218556E-1,-2.1018786E0,2.0338168E0,1.1253867E0,-1.0221044E0,-2.521408E-1,2.1742229E-1,-3.8739356E-1,-5.8854032E-2,-6.8285495E-1,-7.321839E-1,2.3718597E-1,-3.504602E-2,8.08703E-1,-1.1221801E0,-1.6475728E-1,2.65081E-1,5.516353E-2,9.8307496E-1,-2.397287E-1,-5.5271906E-1,1.7271511E-2,9.0457335E-2,8.664622E-1,1.5125059E0,4.5486784E-1,-4.3276224E-1,1.7980152E-1,-7.0724264E-2,2.80724E-1,-1.8180428E-1,-1.2799749E0,-2.0509386E-2,9.530526E-2,-2.5956768E-1,1.2861327E0,-1.8324758E-1,-9.509208E-1,1.6648759E0,-4.8240047E-2,-1.0298319E0,-5.9656624E-2,-2.9700822E-1,6.796788E-1],"categories":[],"categories_nodes":[],"categories_segments":[],"categories_sizes":[],"default_left":[0,0,0,0,0,0,0,0,0,0,0,0,0,0,0,0,0,0,0,0,0,0,0,0,0,0,0,0,0,0,0,0,0,0,0,0,0,0,0,0,0,0,0,0,0,0,0,0,0,0,0,0,0,0,0,0,0,0,0,0,0,0,0,0,0,0,0,0,0,0,0,0,0,0,0,0,0,0,0,0,0,0,0,0,0,0,0,0,0,0,0,0,0,0,0,0,0,0,0,0,0],"id":12,"left_children":[1,3,5,7,9,11,13,15,17,19,21,23,25,27,29,31,33,35,37,39,-1,41,43,45,47,49,51,53,55,57,59,61,63,-1,-1,65,67,69,71,73,-1,75,77,79,81,83,-1,-1,-1,-1,85,87,89,91,93,-1,-1,95,97,-1,99,-1,-1,-1,-1,-1,-1,-1,-1,-1,-1,-1,-1,-1,-1,-1,-1,-1,-1,-1,-1,-1,-1,-1,-1,-1,-1,-1,-1,-1,-1,-1,-1,-1,-1,-1,-1,-1,-1,-1,-1],"loss_changes":[7.570769E1,6.518276E1,7.633519E1,5.635204E1,8.164494E1,3.890573E1,9.378256E1,4.853524E1,7.3574234E1,1.4717252E2,7.4573425E1,5.134533E1,2.65733E1,1.4661159E2,6.745152E1,3.996234E1,2.832262E0,1.9908823E2,6.0110588E1,8.146429E-2,0E0,2.8123398E1,3.0615517E1,1.89828E1,4.4754944E0,1.3808515E1,2.4040348E1,4.8345444E1,6.2930603E0,7.687146E1,9.976382E1,3.0671509E1,3.290956E1,0E0,0E0,8.497165E1,1.1047359E2,6.2858795E1,9.82104E1,1.3195086E-1,0E0,1.65479E1,3.3527603E1,3.2902542E1,3.306806E1,1.0760425E1,0E0,0E0,0E0,0E0,3.2948852E0,7.040741E0,1.2831359E-1,5.4505005E1,4.518593E0,0E0,0E0,1.6142186E2,2.9710041E1,0E0,4.5659264E1,0E0,0E0,0E0,0E0,0E0,0E0,0E0,0E0,0E0,0E0,0E0,0E0,0E0,0E0,0E0,0E0,0E0,0E0,0E0,0E0,0E0,0E0,0E0,0E0,0E0,0E0,0E0,0E0,0E0,0E0,0E0,0E0,0E0,0E0,0E0,0E0,0E0,0E0,0E0,0E0],"parents":[2147483647,0,0,1,1,2,2,3,3,4,4,5,5,6,6,7,7,8,8,9,9,10,10,11,11,12,12,13,13,14,14,15,15,16,16,17,17,18,18,19,19,21,21,22,22,23,23,24,24,25,25,26,26,27,27,28,28,29,29,30,30,31,31,32,32,35,35,36,36,37,37,38,38,39,39,41,41,42,42,43,43,44,44,45,45,50,50,51,51,52,52,53,53,54,54,57,57,58,58,60,60],"right_children":[2,4,6,8,10,12,14,16,18,20,22,24,26,28,30,32,34,36,38,40,-1,42,44,46,48,50,52,54,56,58,60,62,64,-1,-1,66,68,70,72,74,-1,76,78,80,82,84,-1,-1,-1,-1,86,88,90,92,94,-1,-1,96,98,-1,100,-1,-1,-1,-1,-1,-1,-1,-1,-1,-1,-1,-1,-1,-1,-1,-1,-1,-1,-1,-1,-1,-1,-1,-1,-1,-1,-1,-1,-1,-1,-1,-1,-1,-1,-1,-1,-1,-1,-1,-1],"split_conditions":[3.509954E1,1.6662085E1,2.253386E2,-9.308749E0,9E0,1.4E1,3.668822E1,3.2E0,1E-1,8E0,1.5E1,1.4E1,1.2999999E1,3.3037493E0,2.5E1,1.0151143E2,7E0,9.388894E1,3.1E1,8E0,3.4096391E0,3.0882362E1,8E-1,2.171248E2,1E1,6.9999986E0,4.197822E1,2.7834283E2,1.2E1,2.1800001E1,9E0,-1.1583751E1,8.333333E0,2.0078431E-1,1.1110039E0,6.352494E1,9.659814E0,3E1,3.3E1,6E0,5.0742675E-2,1.5E1,1.7966251E1,3.2E1,1E0,7.0000005E-1,-5.431746E-1,2.5452977E-1,1.3515683E0,-5.5561227E-1,3.8803257E1,8E0,1.3E1,2.6502634E2,1.6E1,5.457487E-1,2.255858E0,2.3127097E2,2.3588368E2,2.0338168E0,3.3037493E0,-1.0221044E0,-2.521408E-1,2.1742229E-1,-3.8739356E-1,-5.8854032E-2,-6.8285495E-1,-7.321839E-1,2.3718597E-1,-3.504602E-2,8.08703E-1,-1.1221801E0,-1.6475728E-1,2.65081E-1,5.516353E-2,9.8307496E-1,-2.397287E-1,-5.5271906E-1,1.7271511E-2,9.0457335E-2,8.664622E-1,1.5125059E0,4.5486784E-1,-4.3276224E-1,1.7980152E-1,-7.0724264E-2,2.80724E-1,-1.8180428E-1,-1.2799749E0,-2.0509386E-2,9.530526E-2,-2.5956768E-1,1.2861327E0,-1.8324758E-1,-9.509208E-1,1.6648759E0,-4.8240047E-2,-1.0298319E0,-5.9656624E-2,-2.9700822E-1,6.796788E-1],"split_indices":[6,4,7,4,0,1,6,5,5,0,0,3,5,4,0,7,0,7,2,1,0,7,5,7,0,5,6,7,0,5,1,4,3,0,0,7,6,2,2,0,0,1,4,1,5,5,0,0,0,0,6,0,0,7,0,0,0,7,7,0,4,0,0,0,0,0,0,0,0,0,0,0,0,0,0,0,0,0,0,0,0,0,0,0,0,0,0,0,0,0,0,0,0,0,0,0,0,0,0,0,0],"split_type":[0,0,0,0,0,0,0,0,0,0,0,0,0,0,0,0,0,0,0,0,0,0,0,0,0,0,0,0,0,0,0,0,0,0,0,0,0,0,0,0,0,0,0,0,0,0,0,0,0,0,0,0,0,0,0,0,0,0,0,0,0,0,0,0,0,0,0,0,0,0,0,0,0,0,0,0,0,0,0,0,0,0,0,0,0,0,0,0,0,0,0,0,0,0,0,0,0,0,0,0,0],"sum_hessian":[1.995E3,1.869E3,1.26E2,1.774E3,9.5E1,4.6E1,8E1,5.5E1,1.719E3,5E0,9E1,2.8E1,1.8E1,1.6E1,6.4E1,5.3E1,2E0,4.01E2,1.318E3,4E0,1E0,4E1,5E1,2.5E1,3E0,1.1E1,7E0,1E1,6E0,4.4E1,2E1,2E1,3.3E1,1E0,1E0,8E1,3.21E2,1.225E3,9.3E1,3E0,1E0,3E0,3.7E1,3.4E1,1.6E1,2.1E1,4E0,1E0,2E0,3E0,8E0,5E0,2E0,7E0,3E0,1E0,5E0,3.3E1,1.1E1,3E0,1.7E1,1.1E1,9E0,1.2E1,2.1E1,4.7E1,3.3E1,1E1,3.11E2,1.218E3,7E0,1E1,8.3E1,2E0,1E0,2E0,1E0,1.5E1,2.2E1,2.9E1,5E0,3E0,1.3E1,2E0,1.9E1,4E0,4E0,1E0,4E0,1E0,1E0,3E0,4E0,2E0,1E0,5E0,2.8E1,6E0,5E0,6E0,1.1E1],"tree_param":{"num_deleted":"0","num_feature":"8","num_nodes":"101","size_leaf_vector":"1"}},{"base_weights":[1.7688373E-2,-2.9731464E-1,1.1436293E-1,1.3601295E0,-4.9834648E-1,-9.220154E-2,4.4201624E-1,3.828293E0,6.6476536E-1,-5.7323705E-2,-8.0522335E-1,3.5909817E0,-1.19766004E-1,2.2483091E0,2.598939E-1,-5.91379E-1,5.3361125E0,-2.7900237E-1,1.886191E0,-4.745695E-1,6.787335E-1,3.5247406E-1,-1.0509757E0,-1.8239509E-1,1.317642E0,-1.7109597E-2,-8.1426513E-1,-1.413336E0,3.968885E0,-3.3139536E-1,5.9701574E-1,1.148328E0,7.238617E0,1.4576377E0,-2.1371121E0,8.675807E-1,5.2344317E0,-9.098416E-1,2.6218334E-1,2.1859865E0,-2.4258667E-1,-4.4913036E-1,3.519728E0,-1.3207713E0,2.0244718E-1,6.1439783E-3,-4.7216816E0,-1.2540125E0,6.0887367E-1,2.1163404E0,-2.3264108E0,1.1798317E-1,6.8972874E0,-7.710376E-2,-2.4468205E0,3.0784352E0,4.1735947E-1,-2.6834178E-1,6.3822573E-1,-3.2026193E-1,2.734007E0,1.0847794E-1,9.4169706E-1,-2.816085E-1,-1.0881473E0,4.28372E-1,-5.549076E-1,2.7212965E-1,1.912353E0,-3.4633818E-1,7.5032914E-1,3.637229E-1,-2.2373302E-1,2.7462128E-1,2.0493357E0,-2.7270538E-1,1.8673243E-1,1.1414802E0,-2.8534937E-1,5.0681514E-1,1.3938379E0,-4.9318656E-1,-1.1178534E-1,8.815258E-1,-3.2042873E-1,-1.3244383E-2,1.5160284E0,-1.7260455E0,-2.439407E-1,-5.4521924E-1,9.856646E-2,6.872642E-1,-2.1395494E-1,-1.1062881E0,-3.0143908E-1,-4.4410762E-1,9.88501E-1,3.069924E0,3.937665E-1,1.2448632E-2,-1.2424486E0,-1.6756828E-1,-9.494661E-1,2.0889914E0,3.8930964E-1,-2.9752314E-1,2.337041E-1],"categories":[],"categories_nodes":[],"categories_segments":[],"categories_sizes":[],"default_left":[0,0,0,0,0,0,0,0,0,0,0,0,0,0,0,0,0,0,0,0,0,0,0,0,0,0,0,0,0,0,0,0,0,0,0,0,0,0,0,0,0,0,0,0,0,0,0,0,0,0,0,0,0,0,0,0,0,0,0,0,0,0,0,0,0,0,0,0,0,0,0,0,0,0,0,0,0,0,0,0,0,0,0,0,0,0,0,0,0,0,0,0,0,0,0,0,0,0,0,0,0,0,0,0,0,0,0],"id":13,"left_children":[1,3,5,7,9,11,13,15,17,19,21,23,25,27,29,-1,31,33,35,37,39,41,43,-1,-1,45,47,49,51,53,55,57,59,61,63,65,67,69,71,73,75,77,79,81,83,85,87,89,91,-1,93,95,97,99,101,103,105,-1,-1,-1,-1,-1,-1,-1,-1,-1,-1,-1,-1,-1,-1,-1,-1,-1,-1,-1,-1,-1,-1,-1,-1,-1,-1,-1,-1,-1,-1,-1,-1,-1,-1,-1,-1,-1,-1,-1,-1,-1,-1,-1,-1,-1,-1,-1,-1,-1,-1],"loss_changes":[6.081775E1,1.5694817E2,1.03458145E2,8.498498E1,5.666117E1,9.5660515E1,1.9383478E2,1.067104E2,4.778868E1,5.3453312E1,7.064363E1,2.6218597E1,6.6432816E1,3.4581683E2,1.0744091E2,0E0,6.339319E1,8.055996E1,5.6848648E1,3.583491E1,8.801605E1,1.1329174E2,6.925365E1,0E0,0E0,8.896968E1,7.586212E1,1.5558287E2,4.164348E2,1.05246574E2,1.5162546E2,9.903269E0,1.0316016E2,2.2821846E1,1.8023563E1,2.5479568E1,1.3951683E1,6.1294037E1,4.1131367E1,1.3539534E2,2.362508E1,8.050379E1,1.0706177E1,5.086731E1,1.317568E2,2.0583156E2,1.1453041E1,8.262381E1,6.612138E1,0E0,2.6877724E1,9.120318E1,3.7778815E2,8.5009766E1,2.6706024E1,1.5007608E2,1.6435675E2,0E0,0E0,0E0,0E0,0E0,0E0,0E0,0E0,0E0,0E0,0E0,0E0,0E0,0E0,0E0,0E0,0E0,0E0,0E0,0E0,0E0,0E0,0E0,0E0,0E0,0E0,0E0,0E0,0E0,0E0,0E0,0E0,0E0,0E0,0E0,0E0,0E0,0E0,0E0,0E0,0E0,0E0,0E0,0E0,0E0,0E0,0E0,0E0,0E0,0E0],"parents":[2147483647,0,0,1,1,2,2,3,3,4,4,5,5,6,6,7,7,8,8,9,9,10,10,11,11,12,12,13,13,14,14,16,16,17,17,18,18,19,19,20,20,21,21,22,22,25,25,26,26,27,27,28,28,29,29,30,30,31,31,32,32,33,33,34,34,35,35,36,36,37,37,38,38,39,39,40,40,41,41,42,42,43,43,44,44,45,45,46,46,47,47,48,48,50,50,51,51,52,52,53,53,54,54,55,55,56,56],"right_children":[2,4,6,8,10,12,14,16,18,20,22,24,26,28,30,-1,32,34,36,38,40,42,44,-1,-1,46,48,50,52,54,56,58,60,62,64,66,68,70,72,74,76,78,80,82,84,86,88,90,92,-1,94,96,98,100,102,104,106,-1,-1,-1,-1,-1,-1,-1,-1,-1,-1,-1,-1,-1,-1,-1,-1,-1,-1,-1,-1,-1,-1,-1,-1,-1,-1,-1,-1,-1,-1,-1,-1,-1,-1,-1,-1,-1,-1,-1,-1,-1,-1,-1,-1,-1,-1,-1,-1,-1,-1],"split_conditions":[-4.6083334E-1,9.519183E1,2.0431387E1,-4.9420834E0,9E0,-2.5250006E-1,3E-1,7E0,-2.3295834E0,9E0,-8.34625E0,9E0,2.4E1,1E1,2.1455623E2,-5.91379E-1,6E0,1.1E1,1.8E1,2.279684E1,1.8864824E1,-9.00875E0,2E1,-1.8239509E-1,1.317642E0,4E1,3.9E1,4E0,1.08491554E2,2.3666666E1,2.8999996E0,9E0,-8.023334E0,2.7999995E0,1.8666666E1,5.6E0,1.7000002E0,1E1,1.0832278E2,-1.8879167E0,1.3000001E0,9.936929E1,-8.583751E0,3.7E0,-3.4920828E0,3.5E1,4.3E1,1.4305833E1,4.4E1,2.1163404E0,2.2378714E1,2.2E1,1.1141251E1,2.133251E2,1.9E1,2.1749481E1,2.4023088E1,-2.6834178E-1,6.3822573E-1,-3.2026193E-1,2.734007E0,1.0847794E-1,9.4169706E-1,-2.816085E-1,-1.0881473E0,4.28372E-1,-5.549076E-1,2.7212965E-1,1.912353E0,-3.4633818E-1,7.5032914E-1,3.637229E-1,-2.2373302E-1,2.7462128E-1,2.0493357E0,-2.7270538E-1,1.8673243E-1,1.1414802E0,-2.8534937E-1,5.0681514E-1,1.3938379E0,-4.9318656E-1,-1.1178534E-1,8.815258E-1,-3.2042873E-1,-1.3244383E-2,1.5160284E0,-1.7260455E0,-2.439407E-1,-5.4521924E-1,9.856646E-2,6.872642E-1,-2.1395494E-1,-1.1062881E0,-3.0143908E-1,-4.4410762E-1,9.88501E-1,3.069924E0,3.937665E-1,1.2448632E-2,-1.2424486E0,-1.6756828E-1,-9.494661E-1,2.0889914E0,3.8930964E-1,-2.9752314E-1,2.337041E-1],"split_indices":[4,7,6,4,1,4,5,0,4,0,4,0,1,1,7,0,2,1,1,6,6,4,3,0,0,0,1,1,7,3,5,1,4,5,3,5,5,3,7,4,5,7,4,5,4,0,0,4,1,0,6,2,4,7,2,6,6,0,0,0,0,0,0,0,0,0,0,0,0,0,0,0,0,0,0,0,0,0,0,0,0,0,0,0,0,0,0,0,0,0,0,0,0,0,0,0,0,0,0,0,0,0,0,0,0,0,0],"split_type":[0,0,0,0,0,0,0,0,0,0,0,0,0,0,0,0,0,0,0,0,0,0,0,0,0,0,0,0,0,0,0,0,0,0,0,0,0,0,0,0,0,0,0,0,0,0,0,0,0,0,0,0,0,0,0,0,0,0,0,0,0,0,0,0,0,0,0,0,0,0,0,0,0,0,0,0,0,0,0,0,0,0,0,0,0,0,0,0,0,0,0,0,0,0,0,0,0,0,0,0,0,0,0,0,0,0,0],"sum_hessian":[1.995E3,4.68E2,1.527E3,5E1,4.18E2,9.37E2,5.9E2,1E1,4E1,1.72E2,2.46E2,6E0,9.31E2,5.3E1,5.37E2,2E0,8E0,2.3E1,1.7E1,1.1E2,6.2E1,4.3E1,2.03E2,1E0,5E0,8.12E2,1.19E2,1.7E1,3.6E1,1.95E2,3.42E2,3E0,5E0,1.2E1,1.1E1,1.4E1,3E0,6.9E1,4.1E1,2.3E1,3.9E1,3.5E1,8E0,1.67E2,3.6E1,8.09E2,3E0,9.1E1,2.8E1,1E0,1.6E1,1.6E1,2E1,1.75E2,2E1,2.2E1,3.2E2,1E0,2E0,1E0,4E0,8E0,4E0,7E0,4E0,1.2E1,2E0,1E0,2E0,6.5E1,4E0,2.1E1,2E1,1.9E1,4E0,2.2E1,1.7E1,3E0,3.2E1,4E0,4E0,1.24E2,4.3E1,1.1E1,2.5E1,8.02E2,7E0,2E0,1E0,6.7E1,2.4E1,1.2E1,1.6E1,7E0,9E0,1.1E1,5E0,1.2E1,8E0,1.71E2,4E0,6E0,1.4E1,6E0,1.6E1,6.5E1,2.55E2],"tree_param":{"num_deleted":"0","num_feature":"8","num_nodes":"107","size_leaf_vector":"1"}},{"base_weights":[1.9849107E-2,4.0903E-2,-1.1962873E0,7.465632E-2,-7.6499474E-1,1.3238426E0,-1.5764327E0,5.9445918E-2,4.8281403E0,-1.0335683E0,2.6749108E0,5.9641603E-2,4.666202E-1,-8.720657E-1,-8.678154E-1,2.953188E-2,1.0704367E0,2.548469E0,8.7103724E-1,-5.4118335E-1,-5.0280952E0,2.7811798E-1,1.712125E0,-1.4818043E0,-4.4247247E-2,-4.2438823E-1,9.03366E-2,2.6939684E-1,2.3163853E0,6.447917E-1,-4.445652E-1,-1.5425568E0,6.022737E-1,-1.8288792E0,-3.6471796E-1,2.96015E-1,-2.0741801E0,-5.827732E-1,3.8252026E-1,-6.448663E-2,-7.7536863E-1,-4.8088035E-1,3.4432095E-2,2.3511134E-1,-2.6316583E-1,9.306513E-1,-2.4556905E-1,-1.4554815E-1,-7.718999E-1,-8.245874E-1,4.4438228E-1,-7.605551E-1,3.1122753E-1,4.268245E-1,-1.1241556E-1],"categories":[],"categories_nodes":[],"categories_segments":[],"categories_sizes":[],"default_left":[0,0,0,0,0,0,0,0,0,0,0,0,0,0,0,0,0,0,0,0,0,0,0,0,0,0,0,0,0,0,0,0,0,0,0,0,0,0,0,0,0,0,0,0,0,0,0,0,0,0,0,0,0,0,0],"id":14,"left_children":[1,3,5,7,9,11,13,15,17,19,21,-1,-1,-1,23,25,27,-1,29,31,33,-1,-1,35,37,39,41,43,45,-1,-1,47,49,-1,-1,-1,51,-1,53,-1,-1,-1,-1,-1,-1,-1,-1,-1,-1,-1,-1,-1,-1,-1,-1],"loss_changes":[5.1155315E1,5.34541E1,3.4659485E1,1.3600302E2,7.5750244E1,9.933348E-1,2.5760818E1,5.6824883E1,7.965903E1,1.428254E2,2.65079E1,0E0,0E0,0E0,1.0553329E1,5.0464424E1,5.3270912E1,0E0,1.5215682E1,7.7645874E1,2.5166641E1,0E0,0E0,1.9594133E1,8.844531E0,9.716527E1,6.688617E1,2.0737738E1,5.427069E1,0E0,0E0,3.797679E1,9.8325584E1,0E0,0E0,0E0,1.6974667E1,0E0,7.6224394E0,0E0,0E0,0E0,0E0,0E0,0E0,0E0,0E0,0E0,0E0,0E0,0E0,0E0,0E0,0E0,0E0],"parents":[2147483647,0,0,1,1,2,2,3,3,4,4,5,5,6,6,7,7,8,8,9,9,10,10,14,14,15,15,16,16,18,18,19,19,20,20,23,23,24,24,25,25,26,26,27,27,28,28,31,31,32,32,36,36,38,38],"right_children":[2,4,6,8,10,12,14,16,18,20,22,-1,-1,-1,24,26,28,-1,30,32,34,-1,-1,36,38,40,42,44,46,-1,-1,48,50,-1,-1,-1,52,-1,54,-1,-1,-1,-1,-1,-1,-1,-1,-1,-1,-1,-1,-1,-1,-1,-1],"split_conditions":[3.4986023E2,2.22E1,5E0,2.1800001E1,1.3224584E1,4E0,4E-1,3.8803257E1,1.3E1,1.0978752E1,2.5460934E1,5.9641603E-2,4.666202E-1,-8.720657E-1,3.544007E2,6E0,3.895417E0,2.548469E0,1.3E1,4.89125E0,1.2E1,2.7811798E-1,1.712125E0,1.2904882E1,7E0,1.1666667E1,6.361697E0,1.3399999E1,2.5476466E2,6.447917E-1,-4.445652E-1,1.3E1,2.4023088E1,-1.8288792E0,-3.6471796E-1,2.96015E-1,2.9999998E0,-5.827732E-1,1.1E1,-6.448663E-2,-7.7536863E-1,-4.8088035E-1,3.4432095E-2,2.3511134E-1,-2.6316583E-1,9.306513E-1,-2.4556905E-1,-1.4554815E-1,-7.718999E-1,-8.245874E-1,4.4438228E-1,-7.605551E-1,3.1122753E-1,4.268245E-1,-1.1241556E-1],"split_indices":[7,5,2,5,4,2,5,6,1,4,6,0,0,0,7,2,4,0,0,4,2,0,0,6,1,3,7,5,7,0,0,1,6,0,0,0,5,0,2,0,0,0,0,0,0,0,0,0,0,0,0,0,0,0,0],"split_type":[0,0,0,0,0,0,0,0,0,0,0,0,0,0,0,0,0,0,0,0,0,0,0,0,0,0,0,0,0,0,0,0,0,0,0,0,0,0,0,0,0,0,0,0,0,0,0,0,0,0,0,0,0,0,0],"sum_hessian":[1.995E3,1.962E3,3.3E1,1.884E3,7.8E1,4E0,2.9E1,1.879E3,5E0,7.3E1,5E0,1E0,3E0,9E0,2E1,1.826E3,5.3E1,2E0,3E0,6.6E1,7E0,4E0,1E0,1.1E1,9E0,2.15E2,1.611E3,3.3E1,2E1,2E0,1E0,3.5E1,3.1E1,5E0,2E0,2E0,9E0,1E0,8E0,1.97E2,1.8E1,2.2E1,1.589E3,2.3E1,1E1,1.6E1,4E0,1.8E1,1.7E1,6E0,2.5E1,8E0,1E0,3E0,5E0],"tree_param":{"num_deleted":"0","num_feature":"8","num_nodes":"55","size_leaf_vector":"1"}},{"base_weights":[1.38197E-2,3.5200035E-3,2.0589876E0,-2.1001825E0,1.2018033E-2,-2.586638E-1,2.6707335E0,-6.751705E-1,-1.5712237E-1,1.1538708E0,-6.140662E-3,1.3073015E-1,-2.4712887E-1,1.4257723E-1,8.749437E-1,-1.0091524E0,2.231937E0,1.6273143E-2,-7.78694E-1,8.210521E-2,-1.1648045E0,-9.250043E-1,3.0291586E0,-3.782494E-1,6.2760025E-2,4.2390704E-1,-9.629047E-1,5.0695326E-2,-3.9953378E-1,-4.7409567E-1,2.5443807E-1,2.2174997E0,4.6990788E-1,-2.372283E-3,-2.8361452E-1,1.8881217E-1,3.7788784E-3,-1.3605367E-1,3.1231833E-1,-5.9898907E-1,-1.6886029E-1],"categories":[],"categories_nodes":[],"categories_segments":[],"categories_sizes":[],"default_left":[0,0,0,0,0,0,0,0,0,0,0,0,0,0,0,0,0,0,0,0,0,0,0,0,0,0,0,0,0,0,0,0,0,0,0,0,0,0,0,0,0],"id":15,"left_children":[1,3,5,7,9,11,13,-1,-1,15,17,-1,-1,-1,-1,19,21,23,25,-1,27,29,31,33,35,37,39,-1,-1,-1,-1,-1,-1,-1,-1,-1,-1,-1,-1,-1,-1],"loss_changes":[4.2037712E1,3.554749E1,1.48689575E1,7.1788025E-1,4.106151E1,1.5362357E0,2.930153E0,0E0,0E0,7.45407E1,3.37786E1,0E0,0E0,0E0,0E0,2.5152254E0,5.565441E1,3.4796608E1,1.2592442E1,0E0,2.4521418E0,7.1501036E0,9.690698E1,4.199908E1,4.8226723E1,4.8041563E0,1.8725533E1,0E0,0E0,0E0,0E0,0E0,0E0,0E0,0E0,0E0,0E0,0E0,0E0,0E0,0E0],"parents":[2147483647,0,0,1,1,2,2,3,3,4,4,5,5,6,6,9,9,10,10,15,15,16,16,17,17,18,18,20,20,21,21,22,22,23,23,24,24,25,25,26,26],"right_children":[2,4,6,8,10,12,14,-1,-1,16,18,-1,-1,-1,-1,20,22,24,26,-1,28,30,32,34,36,38,40,-1,-1,-1,-1,-1,-1,-1,-1,-1,-1,-1,-1,-1,-1],"split_conditions":[2.1618334E1,3E0,3.0882362E1,1.3E1,4E0,1.6E1,1.1E1,-6.751705E-1,-1.5712237E-1,7E0,3.4458286E2,1.3073015E-1,-2.4712887E-1,1.4257723E-1,8.749437E-1,5.4051156E0,1.4428097E1,7E0,6E0,8.210521E-2,-3.069167E0,1.1E1,4E-1,4.357917E0,8E0,3.4986023E2,1E1,5.0695326E-2,-3.9953378E-1,-4.7409567E-1,2.5443807E-1,2.2174997E0,4.6990788E-1,-2.372283E-3,-2.8361452E-1,1.8881217E-1,3.7788784E-3,-1.3605367E-1,3.1231833E-1,-5.9898907E-1,-1.6886029E-1],"split_indices":[4,0,7,2,2,0,0,0,0,0,7,0,0,0,0,7,6,3,2,0,4,0,5,4,3,7,3,0,0,0,0,0,0,0,0,0,0,0,0,0,0],"split_type":[0,0,0,0,0,0,0,0,0,0,0,0,0,0,0,0,0,0,0,0,0,0,0,0,0,0,0,0,0,0,0,0,0,0,0,0,0,0,0,0,0],"sum_hessian":[1.995E3,1.986E3,9E0,7E0,1.979E3,2E0,7E0,6E0,1E0,3E1,1.949E3,1E0,1E0,1E0,6E0,1E1,2E1,1.895E3,5.4E1,1E0,9E0,4E0,1.6E1,1.99E2,1.696E3,7E0,4.7E1,1E0,8E0,3E0,1E0,3E0,1.3E1,1.21E2,7.8E1,1.37E2,1.559E3,3E0,4E0,1.2E1,3.5E1],"tree_param":{"num_deleted":"0","num_feature":"8","num_nodes":"41","size_leaf_vector":"1"}},{"base_weights":[1.0468059E-2,-2.2163211E-1,8.1701376E-2,1.2890575E0,-3.6549374E-1,2.8147775E-1,-1.1175234E-1,5.1391606E0,7.3393387E-1,-4.0054044E-1,1.8045417E0,7.253875E-1,-1.6436121E-1,-4.3656892E-1,2.541935E-1,5.944255E-1,1.9751549E0,1.2400542E0,-9.7844684E-1,-1.1614555E-1,-6.7774785E-1,2.4156704E0,-5.7877964E-1,-4.5281884E-1,1.1239067E0,-3.5353813E-1,2.6249642E0,-6.94441E-1,5.347284E-1,-3.1257079E0,3.288036E-1,9.158226E-1,1.5477811E0,-7.939534E-1,1.7682617E0,-2.5446954E-1,3.9316032E0,-3.9754665E-1,-1.343031E0,4.972361E-1,-1.2410965E0,2.9657743E0,-1.0239934E0,-1.5121792E-1,1.5782838E0,-2.0597367E0,-1.4117214E-1,5.8185863E0,1.0525465E0,-5.204699E-1,-3.1963801E0,-1.6392165E-1,1.287185E0,-1.7632139E0,-1.899475E0,2.6972696E-2,1.2441673E0,3.5870153E-1,-3.1865686E-1,2.2502089E-2,6.923033E-1,-1.222652E-1,4.3601876E-1,6.9375234E-3,2.74056E0,-3.0003005E-1,-1.0691822E-2,-4.6267238E-1,2.4195193E-1,3.462646E-2,1.8912978E-1,-4.398574E-1,-8.487182E-2,4.2223096E-1,3.483625E0,-6.9587654E-1,5.319074E-3,5.1836336E-1,-2.8914642E-1,1.2284977E0,3.4921378E-1,4.1077718E-1,-8.5578555E-1,-1.01239525E-1,5.648648E-1,-3.4036818E-1,1.062487E0,-9.963853E-2,-4.9032286E-1,-1.2556639E0,-7.7625276E-3,5.82734E-2,-7.752214E-1,7.485814E-1,-2.4957287E-1,-6.622995E-1,-1.3041726E-1,2.530707E-1,-5.834215E-2,1.203225E0,1.4588726E-1],"categories":[],"categories_nodes":[],"categories_segments":[],"categories_sizes":[],"default_left":[0,0,0,0,0,0,0,0,0,0,0,0,0,0,0,0,0,0,0,0,0,0,0,0,0,0,0,0,0,0,0,0,0,0,0,0,0,0,0,0,0,0,0,0,0,0,0,0,0,0,0,0,0,0,0,0,0,0,0,0,0,0,0,0,0,0,0,0,0,0,0,0,0,0,0,0,0,0,0,0,0,0,0,0,0,0,0,0,0,0,0,0,0,0,0,0,0,0,0,0,0],"id":16,"left_children":[1,3,5,7,9,11,13,15,17,19,21,23,25,27,29,-1,-1,31,33,35,37,-1,39,41,43,45,47,49,51,53,55,57,-1,-1,59,61,63,65,67,69,71,73,75,77,79,81,83,-1,85,87,89,91,93,95,-1,97,99,-1,-1,-1,-1,-1,-1,-1,-1,-1,-1,-1,-1,-1,-1,-1,-1,-1,-1,-1,-1,-1,-1,-1,-1,-1,-1,-1,-1,-1,-1,-1,-1,-1,-1,-1,-1,-1,-1,-1,-1,-1,-1,-1,-1],"loss_changes":[3.3018505E1,1.0239904E2,5.908481E1,8.38568E1,3.3349342E1,1.4894925E2,9.246931E1,9.76442E0,3.328015E1,3.3269066E1,1.08892296E2,1.775247E2,1.993342E2,1.0356516E2,9.332369E1,0E0,0E0,3.2126305E1,4.591491E1,1.1857964E2,3.9358498E1,0E0,4.893098E0,1.9048781E2,1.6362598E2,1.27614716E2,6.124645E2,1.4023282E2,4.5947227E1,2.3779953E1,9.915278E1,1.6769283E1,0E0,0E0,3.480383E0,5.3926476E1,1.4215573E2,3.3110764E1,2.8221039E1,7.9803646E-2,4.4794035E-1,1.7229088E2,1.1206223E2,1.16187355E2,2.1207648E2,1.09938644E2,1.2578732E2,0E0,1.2922737E2,6.3656265E1,6.575096E1,4.037548E1,1.095979E2,3.1734142E0,0E0,4.9169636E1,1.8465836E2,0E0,0E0,0E0,0E0,0E0,0E0,0E0,0E0,0E0,0E0,0E0,0E0,0E0,0E0,0E0,0E0,0E0,0E0,0E0,0E0,0E0,0E0,0E0,0E0,0E0,0E0,0E0,0E0,0E0,0E0,0E0,0E0,0E0,0E0,0E0,0E0,0E0,0E0,0E0,0E0,0E0,0E0,0E0,0E0],"parents":[2147483647,0,0,1,1,2,2,3,3,4,4,5,5,6,6,7,7,8,8,9,9,10,10,11,11,12,12,13,13,14,14,17,17,18,18,19,19,20,20,22,22,23,23,24,24,25,25,26,26,27,27,28,28,29,29,30,30,31,31,34,34,35,35,36,36,37,37,38,38,39,39,40,40,41,41,42,42,43,43,44,44,45,45,46,46,48,48,49,49,50,50,51,51,52,52,53,53,55,55,56,56],"right_children":[2,4,6,8,10,12,14,16,18,20,22,24,26,28,30,-1,-1,32,34,36,38,-1,40,42,44,46,48,50,52,54,56,58,-1,-1,60,62,64,66,68,70,72,74,76,78,80,82,84,-1,86,88,90,92,94,96,-1,98,100,-1,-1,-1,-1,-1,-1,-1,-1,-1,-1,-1,-1,-1,-1,-1,-1,-1,-1,-1,-1,-1,-1,-1,-1,-1,-1,-1,-1,-1,-1,-1,-1,-1,-1,-1,-1,-1,-1,-1,-1,-1,-1,-1,-1],"split_conditions":[-4.6083334E-1,8.3462135E1,2.9999998E0,-4.9420834E0,1.63E1,9.368335E0,2.3759998E1,6E0,1.6333334E1,4E-1,8.666667E0,1.0261931E2,2.2545315E1,1.1416249E1,3.4E0,5.944255E-1,1.9751549E0,1.8E1,-2.4170835E0,1.14140755E2,1.5E1,2.4156704E0,1E1,9.3876505E0,1.6579167E0,1.0457917E1,2.2657131E1,2.5E1,1.6766108E1,2.4E1,2.2E1,5.6E0,1.5477811E0,-7.939534E-1,1.7E1,2E1,-5.585833E0,1.8792551E1,2.4E1,9E0,1.6E1,1.9E1,1.2E1,1E-1,1.05861145E2,6.3333335E0,2.2E0,5.8185863E0,1.2E1,2.1E1,2.2104116E1,1.616496E1,2.065848E1,3.0724995E0,-1.899475E0,7.6666665E0,1.7333334E1,3.5870153E-1,-3.1865686E-1,2.2502089E-2,6.923033E-1,-1.222652E-1,4.3601876E-1,6.9375234E-3,2.74056E0,-3.0003005E-1,-1.0691822E-2,-4.6267238E-1,2.4195193E-1,3.462646E-2,1.8912978E-1,-4.398574E-1,-8.487182E-2,4.2223096E-1,3.483625E0,-6.9587654E-1,5.319074E-3,5.1836336E-1,-2.8914642E-1,1.2284977E0,3.4921378E-1,4.1077718E-1,-8.5578555E-1,-1.01239525E-1,5.648648E-1,-3.4036818E-1,1.062487E0,-9.963853E-2,-4.9032286E-1,-1.2556639E0,-7.7625276E-3,5.82734E-2,-7.752214E-1,7.485814E-1,-2.4957287E-1,-6.622995E-1,-1.3041726E-1,2.530707E-1,-5.834215E-2,1.203225E0,1.4588726E-1],"split_indices":[4,7,5,4,5,4,6,2,3,5,3,7,6,4,5,0,0,1,4,7,2,0,0,6,4,4,6,0,6,1,0,5,0,0,0,3,4,6,0,0,0,1,2,5,7,3,5,0,2,1,6,6,6,4,0,3,3,0,0,0,0,0,0,0,0,0,0,0,0,0,0,0,0,0,0,0,0,0,0,0,0,0,0,0,0,0,0,0,0,0,0,0,0,0,0,0,0,0,0,0,0],"split_type":[0,0,0,0,0,0,0,0,0,0,0,0,0,0,0,0,0,0,0,0,0,0,0,0,0,0,0,0,0,0,0,0,0,0,0,0,0,0,0,0,0,0,0,0,0,0,0,0,0,0,0,0,0,0,0,0,0,0,0,0,0,0,0,0,0,0,0,0,0,0,0,0,0,0,0,0,0,0,0,0,0,0,0,0,0,0,0,0,0,0,0,0,0,0,0,0,0,0,0,0,0],"sum_hessian":[1.995E3,4.68E2,1.527E3,4E1,4.28E2,7.51E2,7.76E2,4E0,3.6E1,4.22E2,6E0,3.76E2,3.75E2,4.11E2,3.65E2,2E0,2E0,2.8E1,8E0,2.09E2,2.13E2,1E0,5E0,9.5E1,2.81E2,3.52E2,2.3E1,3.25E2,8.6E1,7E0,3.58E2,2.7E1,1E0,5E0,3E0,2.03E2,6E0,1.51E2,6.2E1,2E0,3E0,1.3E1,8.2E1,7.4E1,2.07E2,3.8E1,3.14E2,1E0,2.2E1,3.05E2,2E1,4.5E1,4.1E1,6E0,1E0,2.7E2,8.8E1,2.4E1,3E0,1E0,2E0,1.87E2,1.6E1,4E0,2E0,5.6E1,9.5E1,5.7E1,5E0,1E0,1E0,2E0,1E0,1.2E1,1E0,3.6E1,4.6E1,2.2E1,5.2E1,2.8E1,1.79E2,7E0,3.1E1,2.87E2,2.7E1,1.2E1,1E1,2.62E2,4.3E1,1.5E1,5E0,4E1,5E0,2.6E1,1.5E1,4E0,2E0,5.7E1,2.13E2,1.8E1,7E1],"tree_param":{"num_deleted":"0","num_feature":"8","num_nodes":"101","size_leaf_vector":"1"}},{"base_weights":[1.5887046E-2,4.143004E-2,-6.044592E-1,2.9724933E-2,3.766504E0,-8.1088614E-1,2.0422165E0,-1.3961765E-1,1.297855E-1,5.8850946E0,-3.1378493E-1,-4.5170656E-1,-3.7176545E0,1.6205549E-1,1.4328561E0,1.2920702E-1,-4.9380127E-1,-3.0376103E0,1.4554058E-1,5.3099203E-1,2.0000434E0,2.5912714E-1,-4.0033036E-1,-6.488563E-1,1.1911318E0,-1.3682301E0,-2.3766355E-1,-1.8864231E-2,1.2053748E0,-5.6128156E-1,3.694264E0,-3.693688E0,3.641653E-2,-1.3698986E-1,2.9601327E-1,-7.684676E-1,1.0509402E0,5.0516043E-2,-5.2391547E-1,1.9644512E0,2.5160974E-1,-1.2619686E-1,-9.6997327E-1,1.9913001E0,-1.441681E-1,-1.3256742E0,-1.1891756E-1,4.835868E-1,-8.893726E-2,1.9803854E-2,2.9085058E-1,-6.869016E-3,-4.2769527E-1],"categories":[],"categories_nodes":[],"categories_segments":[],"categories_sizes":[],"default_left":[0,0,0,0,0,0,0,0,0,0,0,0,0,0,0,0,0,0,0,0,0,0,0,0,0,0,0,0,0,0,0,0,0,0,0,0,0,0,0,0,0,0,0,0,0,0,0,0,0,0,0,0,0],"id":17,"left_children":[1,3,5,7,9,11,13,15,17,19,21,23,25,-1,-1,27,29,31,33,-1,-1,-1,-1,35,-1,-1,-1,37,39,41,43,45,-1,47,49,51,-1,-1,-1,-1,-1,-1,-1,-1,-1,-1,-1,-1,-1,-1,-1,-1,-1],"loss_changes":[3.1652666E1,8.351744E1,4.4817276E1,3.2432976E1,5.3713432E1,7.558054E1,2.2059036E1,6.7760445E1,6.0474907E1,1.0673523E0,4.7582006E0,6.0988503E1,1.6118721E1,0E0,0E0,6.4559296E1,8.883536E1,1.2883663E1,5.0971268E1,0E0,0E0,0E0,0E0,3.4972668E1,0E0,0E0,0E0,1.1577643E2,9.050266E1,1.1249083E2,6.463074E1,1.0204803E1,0E0,1.1677929E2,1.2106989E2,3.132586E1,0E0,0E0,0E0,0E0,0E0,0E0,0E0,0E0,0E0,0E0,0E0,0E0,0E0,0E0,0E0,0E0,0E0],"parents":[2147483647,0,0,1,1,2,2,3,3,4,4,5,5,6,6,7,7,8,8,9,9,10,10,11,11,12,12,15,15,16,16,17,17,18,18,23,23,27,27,28,28,29,29,30,30,31,31,33,33,34,34,35,35],"right_children":[2,4,6,8,10,12,14,16,18,20,22,24,26,-1,-1,28,30,32,34,-1,-1,-1,-1,36,-1,-1,-1,38,40,42,44,46,-1,48,50,52,-1,-1,-1,-1,-1,-1,-1,-1,-1,-1,-1,-1,-1,-1,-1,-1,-1],"split_conditions":[2.22E1,2.1800001E1,1.3224584E1,1E1,1.5E1,1.0978752E1,2.5460934E1,4.7683334E0,4E0,6E0,1.3E1,1.0637084E1,1.2E1,1.6205549E-1,1.4328561E0,1.5E1,2.0666666E1,1.3E1,1.8558332E0,5.3099203E-1,2.0000434E0,2.5912714E-1,-4.0033036E-1,4.3E1,1.1911318E0,-1.3682301E0,-2.3766355E-1,1.2E1,9.3876505E0,2.9784426E1,3.2E1,9.11625E0,3.641653E-2,6.5984886E1,2.2437273E1,1.3E1,1.0509402E0,5.0516043E-2,-5.2391547E-1,1.9644512E0,2.5160974E-1,-1.2619686E-1,-9.6997327E-1,1.9913001E0,-1.441681E-1,-1.3256742E0,-1.1891756E-1,4.835868E-1,-8.893726E-2,1.9803854E-2,2.9085058E-1,-6.869016E-3,-4.2769527E-1],"split_indices":[5,5,4,2,1,4,6,4,1,0,0,4,2,0,0,1,3,2,4,0,0,0,0,0,0,0,0,1,6,6,0,4,0,7,6,0,0,0,0,0,0,0,0,0,0,0,0,0,0,0,0,0,0],"split_type":[0,0,0,0,0,0,0,0,0,0,0,0,0,0,0,0,0,0,0,0,0,0,0,0,0,0,0,0,0,0,0,0,0,0,0,0,0,0,0,0,0,0,0,0,0,0,0,0,0,0,0,0,0],"sum_hessian":[1.995E3,1.917E3,7.8E1,1.912E3,5E0,7.3E1,5E0,7.1E2,1.202E3,3E0,2E0,6.6E1,7E0,4E0,1E0,4.04E2,3.06E2,5E0,1.197E3,1E0,2E0,1E0,1E0,6.4E1,2E0,5E0,2E0,3.56E2,4.8E1,3.02E2,4E0,4E0,1E0,4.16E2,7.81E2,6.3E1,1E0,3.22E2,3.4E1,2E0,4.6E1,2.88E2,1.4E1,2E0,2E0,3E0,1E0,3.4E1,3.82E2,5.83E2,1.98E2,3E1,3.3E1],"tree_param":{"num_deleted":"0","num_feature":"8","num_nodes":"53","size_leaf_vector":"1"}},{"base_weights":[1.4115444E-2,5.650885E-2,-3.5653383E-1,1.11984074E-1,-5.139504E-1,-1.1514587E0,4.265322E-1,4.2839374E-2,1.4724547E0,-1.0717273E0,8.380226E-1,-1.7272946E0,2.2311051E-1,1.2058015E0,-1.0171661E0,1.8693723E-2,1.4629991E0,7.686615E0,1.1260191E0,-5.76387E-1,-2.7070432E0,-7.209858E-1,2.4961612E0,-1.9498073E0,1.644336E0,2.973257E0,-1.2280668E0,2.5193518E-1,2.7369726E0,-2.7627318E0,-6.87854E-2,3.559975E-2,-1.3285437E0,3.3293493E0,-2.4322567E0,3.9489532E0,1.4733692E0,-2.025868E0,2.0002868E0,-1.2292429E0,1.2157804E0,1.9901491E0,-3.9201913E0,-2.8373082E0,1.1445038E0,4.536728E0,-1.4234157E-1,-2.5502038E0,-9.4364196E-1,9.9399686E-1,-1.7182884E-1,1.0257603E0,1.837481E0,-1.6393658E0,1.7861824E0,9.4492555E-1,-2.4710202E0,1.0659552E0,4.9187274E0,7.237034E-1,-3.8810325E0,-3.1243768E0,6.620118E-1,6.2712096E-3,3.5701415E-1,-1.644529E-1,-1.2353632E0,3.3040574E-1,2.6705613E0,-1.2546133E0,-2.5810677E-1,-1.3992248E-1,8.029387E-1,6.6338205E-1,-1.0499105E0,2.248835E0,1.8406415E-1,-2.6736889E-2,-7.669236E-1,-4.2607877E-1,7.1542645E-1,1.0659447E0,-2.2717E-1,-1.7737603E0,-4.714402E-1,-1.1437117E0,4.0760252E-1,6.503458E-1,-5.86722E-1,2.299633E-2,1.6022047E0,5.5721796E-1,-6.355058E-1,-4.0311673E-1,-1.0465319E0,5.3282487E-3,-8.6052626E-1,-6.321416E-2,5.4293627E-1,-8.922795E-1,-2.3834068E-1,9.059192E-1,-1.02137096E-1,1.9445263E0,1.7743134E-1,2.1846057E-1,-1.2575996E0,4.9179748E-2,9.0528554E-1,1.9351093E0,-3.9472744E-1,3.2275772E-1,-4.9914554E-2,-5.1984316E-1,-1.7048079E0,-1.1157271E0,-1.1182852E-1,6.8167245E-1,-1.5110596E-1],"categories":[],"categories_nodes":[],"categories_segments":[],"categories_sizes":[],"default_left":[0,0,0,0,0,0,0,0,0,0,0,0,0,0,0,0,0,0,0,0,0,0,0,0,0,0,0,0,0,0,0,0,0,0,0,0,0,0,0,0,0,0,0,0,0,0,0,0,0,0,0,0,0,0,0,0,0,0,0,0,0,0,0,0,0,0,0,0,0,0,0,0,0,0,0,0,0,0,0,0,0,0,0,0,0,0,0,0,0,0,0,0,0,0,0,0,0,0,0,0,0,0,0,0,0,0,0,0,0,0,0,0,0,0,0,0,0,0,0],"id":18,"left_children":[1,3,5,7,9,11,13,15,17,19,21,23,25,27,29,31,33,35,37,39,41,43,45,47,49,51,53,55,57,59,61,63,65,67,69,-1,71,73,75,77,79,81,83,85,87,89,91,93,95,-1,-1,97,-1,99,101,103,105,107,109,111,113,115,117,-1,-1,-1,-1,-1,-1,-1,-1,-1,-1,-1,-1,-1,-1,-1,-1,-1,-1,-1,-1,-1,-1,-1,-1,-1,-1,-1,-1,-1,-1,-1,-1,-1,-1,-1,-1,-1,-1,-1,-1,-1,-1,-1,-1,-1,-1,-1,-1,-1,-1,-1,-1,-1,-1,-1,-1],"loss_changes":[3.1383467E1,5.6767822E1,1.2809926E2,1.536462E2,1.20799904E2,8.112106E1,1.18229576E2,5.3328953E1,1.6141638E2,8.997398E1,1.23297134E2,5.7222687E1,1.2737083E2,9.862668E1,6.106201E1,3.491801E1,1.9711554E2,1.1671466E2,2.1347739E2,1.0445686E2,1.5595992E2,1.0194675E2,1.2447873E2,3.867221E1,2.0399292E1,6.1234024E1,2.8963118E1,8.347516E1,8.954637E1,5.3494194E1,5.7893814E1,2.5643826E1,3.9100075E1,2.1367598E2,2.1156387E1,0E0,8.249521E0,1.139011E2,4.5267786E2,9.8125755E1,7.734216E1,2.8455511E1,8.897739E1,5.427601E1,4.865508E1,4.620462E1,4.740109E1,4.285498E1,5.001412E1,0E0,0E0,8.136783E0,0E0,1.9066227E1,8.898024E0,6.466848E1,5.260474E1,2.7672424E1,1.1352576E2,1.4327974E0,2.8856644E1,6.7957764E0,4.0562374E1,0E0,0E0,0E0,0E0,0E0,0E0,0E0,0E0,0E0,0E0,0E0,0E0,0E0,0E0,0E0,0E0,0E0,0E0,0E0,0E0,0E0,0E0,0E0,0E0,0E0,0E0,0E0,0E0,0E0,0E0,0E0,0E0,0E0,0E0,0E0,0E0,0E0,0E0,0E0,0E0,0E0,0E0,0E0,0E0,0E0,0E0,0E0,0E0,0E0,0E0,0E0,0E0,0E0,0E0,0E0,0E0],"parents":[2147483647,0,0,1,1,2,2,3,3,4,4,5,5,6,6,7,7,8,8,9,9,10,10,11,11,12,12,13,13,14,14,15,15,16,16,17,17,18,18,19,19,20,20,21,21,22,22,23,23,24,24,25,25,26,26,27,27,28,28,29,29,30,30,31,31,32,32,33,33,34,34,36,36,37,37,38,38,39,39,40,40,41,41,42,42,43,43,44,44,45,45,46,46,47,47,48,48,51,51,53,53,54,54,55,55,56,56,57,57,58,58,59,59,60,60,61,61,62,62],"right_children":[2,4,6,8,10,12,14,16,18,20,22,24,26,28,30,32,34,36,38,40,42,44,46,48,50,52,54,56,58,60,62,64,66,68,70,-1,72,74,76,78,80,82,84,86,88,90,92,94,96,-1,-1,98,-1,100,102,104,106,108,110,112,114,116,118,-1,-1,-1,-1,-1,-1,-1,-1,-1,-1,-1,-1,-1,-1,-1,-1,-1,-1,-1,-1,-1,-1,-1,-1,-1,-1,-1,-1,-1,-1,-1,-1,-1,-1,-1,-1,-1,-1,-1,-1,-1,-1,-1,-1,-1,-1,-1,-1,-1,-1,-1,-1,-1,-1,-1,-1],"split_conditions":[2.6E1,2.4E1,2.2E1,2E1,9.578751E0,2.4712561E2,7.0975E0,2.3E1,-3.4920828E0,2.1E1,6E-1,4.7E1,2.6974423E2,3.4620829E0,1.1699584E1,2.4E1,1.8333334E1,2E1,1.08043526E2,2.2E1,2.6E1,1.486E1,1.9734436E1,3.1E0,3.4E1,2.557967E2,9.637082E0,3.6E1,4E1,1.2979984E1,2.8333334E1,4.4784927E1,1.9E1,1.7E1,1.9E1,3.9489532E0,3E1,2.3454168E0,1E0,2.1433334E0,1.3779114E1,3.1E1,2.1455623E2,1E-1,3E-1,1.5E1,2.9E1,1.7208603E1,1.3399999E1,9.9399686E-1,-1.7182884E-1,1.5496736E1,1.837481E0,2.8649963E2,1.8E1,2.1E1,1.7204165E0,2.2748572E2,4.6E1,1.8E1,3.3E1,2.1E1,3.6E1,6.2712096E-3,3.5701415E-1,-1.644529E-1,-1.2353632E0,3.3040574E-1,2.6705613E0,-1.2546133E0,-2.5810677E-1,-1.3992248E-1,8.029387E-1,6.6338205E-1,-1.0499105E0,2.248835E0,1.8406415E-1,-2.6736889E-2,-7.669236E-1,-4.2607877E-1,7.1542645E-1,1.0659447E0,-2.2717E-1,-1.7737603E0,-4.714402E-1,-1.1437117E0,4.0760252E-1,6.503458E-1,-5.86722E-1,2.299633E-2,1.6022047E0,5.5721796E-1,-6.355058E-1,-4.0311673E-1,-1.0465319E0,5.3282487E-3,-8.6052626E-1,-6.321416E-2,5.4293627E-1,-8.922795E-1,-2.3834068E-1,9.059192E-1,-1.02137096E-1,1.9445263E0,1.7743134E-1,2.1846057E-1,-1.2575996E0,4.9179748E-2,9.0528554E-1,1.9351093E0,-3.9472744E-1,3.2275772E-1,-4.9914554E-2,-5.1984316E-1,-1.7048079E0,-1.1157271E0,-1.1182852E-1,6.8167245E-1,-1.5110596E-1],"split_indices":[1,2,2,3,4,7,4,2,4,0,5,0,7,4,4,1,3,0,7,3,2,4,6,5,1,7,4,0,1,6,3,6,0,3,3,0,0,4,5,4,6,0,7,5,5,1,2,6,5,0,0,6,0,7,0,3,4,7,1,0,2,0,3,0,0,0,0,0,0,0,0,0,0,0,0,0,0,0,0,0,0,0,0,0,0,0,0,0,0,0,0,0,0,0,0,0,0,0,0,0,0,0,0,0,0,0,0,0,0,0,0,0,0,0,0,0,0,0,0],"split_type":[0,0,0,0,0,0,0,0,0,0,0,0,0,0,0,0,0,0,0,0,0,0,0,0,0,0,0,0,0,0,0,0,0,0,0,0,0,0,0,0,0,0,0,0,0,0,0,0,0,0,0,0,0,0,0,0,0,0,0,0,0,0,0,0,0,0,0,0,0,0,0,0,0,0,0,0,0,0,0,0,0,0,0,0,0,0,0,0,0,0,0,0,0,0,0,0,0,0,0,0,0,0,0,0,0,0,0,0,0,0,0,0,0,0,0,0,0,0,0],"sum_hessian":[1.995E3,1.791E3,2.04E2,1.633E3,1.58E2,1.01E2,1.03E2,1.555E3,7.8E1,1.12E2,4.6E1,7.1E1,3E1,6.7E1,3.6E1,1.53E3,2.5E1,3E0,7.5E1,8.7E1,2.5E1,2.4E1,2.2E1,6.7E1,4E0,1E1,2E1,4.2E1,2.5E1,1.2E1,2.4E1,1.512E3,1.8E1,1.7E1,8E0,1E0,2E0,1.6E1,5.9E1,6.4E1,2.3E1,5E0,2E1,1.1E1,1.3E1,1.2E1,1E1,4.1E1,2.6E1,2E0,2E0,7E0,3E0,1.8E1,2E0,3.4E1,8E0,1.5E1,1E1,3E0,9E0,4E0,2E1,1.494E3,1.8E1,1.5E1,3E0,1.3E1,4E0,3E0,5E0,1E0,1E0,4E0,1.2E1,1.1E1,4.8E1,3.5E1,2.9E1,7E0,1.6E1,3E0,2E0,1E1,1E1,9E0,2E0,1E1,3E0,2E0,1E1,5E0,5E0,1.9E1,2.2E1,1.8E1,8E0,3E0,4E0,6E0,1.2E1,1E0,1E0,1E0,3.3E1,3E0,5E0,1.1E1,4E0,8E0,2E0,2E0,1E0,5E0,4E0,3E0,1E0,8E0,1.2E1],"tree_param":{"num_deleted":"0","num_feature":"8","num_nodes":"119","size_leaf_vector":"1"}},{"base_weights":[1.3643377E-2,5.602901E-2,-3.2190737E-1,-4.5666625E-3,9.4623595E-1,-8.828481E-1,3.4563312E-1,2.844623E-2,-1.0472962E0,-1.1193376E0,1.4865417E0,-6.172668E-1,-2.4868934E0,8.9525974E-1,-6.1807716E-1,