{"learner":{"attributes":{"scikit_learn":"{\"_estimator_type\": \"regressor\"}"},"feature_names":["lag1","lag2","lag3","rolling","temperature_2m_mean","precipitation_sum","wind_speed_10m_max","wind_direction_10m_dominant"],"feature_types":["float","float","float","float","float","float","float","float"],"gradient_booster":{"model":{"gbtree_model_param":{"num_parallel_tree":"1","num_trees":"100"},"iteration_indptr":[0,1,2,3,4,5,6,7,8,9,10,11,12,13,14,15,16,17,18,19,20,21,22,23,24,25,26,27,28,29,30,31,32,33,34,35,36,37,38,39,40,41,42,43,44,45,46,47,48,49,50,51,52,53,54,55,56,57,58,59,60,61,62,63,64,65,66,67,68,69,70,71,72,73,74,75,76,77,78,79,80,81,82,83,84,85,86,87,88,89,90,91,92,93,94,95,96,97,98,99,100],"tree_info":[0,0,0,0,0,0,0,0,0,0,0,0,0,0,0,0,0,0,0,0,0,0,0,0,0,0,0,0,0,0,0,0,0,0,0,0,0,0,0,0,0,0,0,0,0,0,0,0,0,0,0,0,0,0,0,0,0,0,0,0,0,0,0,0,0,0,0,0,0,0,0,0,0,0,0,0,0,0,0,0,0,0,0,0,0,0,0,0,0,0,0,0,0,0,0,0,0,0,0,0],"trees":[{"base_weights":[-4.3081798E-8,-3.4815876E0,1.095589E1,9.885509E-1,-5.986474E0,1.8515608E1,5.480633E0,1.15015135E1,-2.4774775E-1,-7.7818475E0,-3.982301E0,1.4370697E1,2.4035477E1,8.190491E0,-7.4631304E-1,1.7383314E1,1.6213055E0,-2.730885E0,1.7322254E0,6.4921417E0,-7.910308E0,5.440462E-1,-5.147016E0,1.5920421E1,2.0533788E0,1.4396918E1,2.667197E1,6.7512646E0,1.8939487E1,-1.8574533E0,1.174158E1,1.335057E1,7.4905033E0,5.2571654E0,-1.8119375E0,6.929774E-1,-4.249552E0,-1.8166851E0,2.2601547E0,-2.7565486E0,4.0730357E0,-6.15991E0,-8.831609E0,7.254777E0,2.4251316E-2,-3.4846673E0,-7.8671575E0,1.7023722E1,9.402519E0,-1.1713406E0,8.092142E0,2.4546824E1,5.584746E0,2.7232397E1,-1.2952235E0,1.0591769E1,4.087087E0,1.5293325E1,9.457166E0,-3.8758736E0,6.0503334E-1,9.101181E-1,1.5892141E1,1.7086848E0,5.42225E0,-9.027735E-1,1.6730355E0,5.978598E0,-8.0815834E-1,-2.3740988E0,-9.845956E-1,1.992625E-2,-2.454141E0,1.9068143E0,4.1986635E-1,-1.1452235E0,-9.5223434E-2,-1.9987881E0,-4.298665E-1,-2.880745E0,-1.499546E0,2.8640475E0,-2.9889393E-1,-1.939548E0,-8.1605554E-1,-2.4737234E0,-8.5495174E-1,4.262203E0,6.273978E0,-5.1783514E-1,3.5731566E0,-1.1489545E0,1.132165E0,6.547766E-1,2.707165E0,8.491295E0,3.832165E0,2.973806E-1,4.357165E0,8.545097E0,4.5208592E0,-9.087058E-1,3.5109665E0,9.764728E-1,3.6973808E0,4.8368006E0,5.4776575E-2,-1.5778518E0,-8.348941E-2,1.161682E0,-8.6319983E-1,-3.9522344E-1,8.047766E-1,5.2571654E0,1.4047766E0],"categories":[],"categories_nodes":[],"categories_segments":[],"categories_sizes":[],"default_left":[0,0,0,0,0,0,0,0,0,0,0,0,0,0,0,0,0,0,0,0,0,0,0,0,0,0,0,0,0,0,0,0,0,0,0,0,0,0,0,0,0,0,0,0,0,0,0,0,0,0,0,0,0,0,0,0,0,0,0,0,0,0,0,0,0,0,0,0,0,0,0,0,0,0,0,0,0,0,0,0,0,0,0,0,0,0,0,0,0,0,0,0,0,0,0,0,0,0,0,0,0,0,0,0,0,0,0,0,0,0,0,0,0,0,0],"id":0,"left_children":[1,3,5,7,9,11,13,15,17,19,21,23,25,27,29,31,33,35,37,39,41,43,45,47,49,51,53,55,57,59,61,63,-1,-1,65,67,69,71,73,75,-1,77,79,-1,81,83,85,87,89,91,93,95,97,99,-1,101,103,105,-1,107,109,111,113,-1,-1,-1,-1,-1,-1,-1,-1,-1,-1,-1,-1,-1,-1,-1,-1,-1,-1,-1,-1,-1,-1,-1,-1,-1,-1,-1,-1,-1,-1,-1,-1,-1,-1,-1,-1,-1,-1,-1,-1,-1,-1,-1,-1,-1,-1,-1,-1,-1,-1,-1,-1],"loss_changes":[7.434244E4,1.6566559E4,1.9352477E4,6.9173394E3,3.3801406E3,4.161828E3,4.629626E3,3.226168E3,2.3499224E3,9.6634766E2,2.3751567E3,2.1624824E3,1.7252031E3,2.8269502E3,1.1873767E3,7.3725586E2,1.2328953E3,1.1052827E3,5.0247675E2,3.6504337E2,7.4385547E2,1.1421226E3,1.5913984E3,5.7343555E2,2.8210507E2,1.6517671E3,1.2290781E3,1.6961133E3,5.273594E2,3.9003094E2,3.0023297E2,8.010288E2,0E0,0E0,1.848668E2,4.353463E3,4.9518213E2,4.199722E2,8.088876E2,6.5510807E0,0E0,4.0393848E2,9.0346484E2,0E0,9.0360425E2,4.9280518E2,2.3293262E2,6.4495703E2,4.950398E2,1.4592255E2,7.835449E0,3.657422E1,4.783436E2,5.295547E2,0E0,1.0800308E3,6.591023E2,2.3516357E2,0E0,2.1257843E2,4.2073993E2,1.5378763E1,9.398193E0,0E0,0E0,0E0,0E0,0E0,0E0,0E0,0E0,0E0,0E0,0E0,0E0,0E0,0E0,0E0,0E0,0E0,0E0,0E0,0E0,0E0,0E0,0E0,0E0,0E0,0E0,0E0,0E0,0E0,0E0,0E0,0E0,0E0,0E0,0E0,0E0,0E0,0E0,0E0,0E0,0E0,0E0,0E0,0E0,0E0,0E0,0E0,0E0,0E0,0E0,0E0,0E0],"parents":[2147483647,0,0,1,1,2,2,3,3,4,4,5,5,6,6,7,7,8,8,9,9,10,10,11,11,12,12,13,13,14,14,15,15,16,16,17,17,18,18,19,19,20,20,21,21,22,22,23,23,24,24,25,25,26,26,27,27,28,28,29,29,30,30,31,31,34,34,35,35,36,36,37,37,38,38,39,39,41,41,42,42,44,44,45,45,46,46,47,47,48,48,49,49,50,50,51,51,52,52,53,53,55,55,56,56,57,57,59,59,60,60,61,61,62,62],"right_children":[2,4,6,8,10,12,14,16,18,20,22,24,26,28,30,32,34,36,38,40,42,44,46,48,50,52,54,56,58,60,62,64,-1,-1,66,68,70,72,74,76,-1,78,80,-1,82,84,86,88,90,92,94,96,98,100,-1,102,104,106,-1,108,110,112,114,-1,-1,-1,-1,-1,-1,-1,-1,-1,-1,-1,-1,-1,-1,-1,-1,-1,-1,-1,-1,-1,-1,-1,-1,-1,-1,-1,-1,-1,-1,-1,-1,-1,-1,-1,-1,-1,-1,-1,-1,-1,-1,-1,-1,-1,-1,-1,-1,-1,-1,-1,-1],"split_conditions":[2.5E1,8.000001E-1,1E-1,-4.994833E0,1.2E1,3.8E1,1.8089775E1,1.27279215E1,1.3666667E1,-6.9448338E0,1.2964998E1,1.5893093E1,1.1849874E2,5.1E1,5.3E1,1.956423E2,-1.1376083E1,1.1367109E1,-2.2198331E0,8E0,1.9197499E0,8.333333E0,6.2E0,2.3186589E2,1.2963498E1,1.0041354E1,7.5E1,8.000001E-1,1.46135E1,2.7E1,1.6E1,1.5E1,7.4905033E0,5.2571654E0,1.8241348E2,6E0,8E0,3.2E1,8.9058334E-1,8E0,4.0730357E0,2E1,1.076975E1,7.254777E0,-4.70525E0,1.2333333E1,1.2726001E1,1.8326761E2,1E1,3.4E1,1.6E1,3.1E1,5.1E1,2.2201123E2,-1.2952235E0,1.7666666E1,1.4190586E1,1.3398914E1,9.457166E0,3.5E1,3.4666668E1,5.4E1,4.1E1,1.7086848E0,5.42225E0,-9.027735E-1,1.6730355E0,5.978598E0,-8.0815834E-1,-2.3740988E0,-9.845956E-1,1.992625E-2,-2.454141E0,1.9068143E0,4.1986635E-1,-1.1452235E0,-9.5223434E-2,-1.9987881E0,-4.298665E-1,-2.880745E0,-1.499546E0,2.8640475E0,-2.9889393E-1,-1.939548E0,-8.1605554E-1,-2.4737234E0,-8.5495174E-1,4.262203E0,6.273978E0,-5.1783514E-1,3.5731566E0,-1.1489545E0,1.132165E0,6.547766E-1,2.707165E0,8.491295E0,3.832165E0,2.973806E-1,4.357165E0,8.545097E0,4.5208592E0,-9.087058E-1,3.5109665E0,9.764728E-1,3.6973808E0,4.8368006E0,5.4776575E-2,-1.5778518E0,-8.348941E-2,1.161682E0,-8.6319983E-1,-3.9522344E-1,8.047766E-1,5.2571654E0,1.4047766E0],"split_indices":[0,5,5,4,0,0,6,6,3,4,6,6,7,0,0,7,4,6,4,1,4,3,5,7,4,6,0,5,4,1,1,3,0,0,7,1,0,1,4,0,0,3,4,0,4,3,4,7,2,0,1,1,0,7,0,3,4,4,0,0,3,0,2,0,0,0,0,0,0,0,0,0,0,0,0,0,0,0,0,0,0,0,0,0,0,0,0,0,0,0,0,0,0,0,0,0,0,0,0,0,0,0,0,0,0,0,0,0,0,0,0,0,0,0,0],"split_type":[0,0,0,0,0,0,0,0,0,0,0,0,0,0,0,0,0,0,0,0,0,0,0,0,0,0,0,0,0,0,0,0,0,0,0,0,0,0,0,0,0,0,0,0,0,0,0,0,0,0,0,0,0,0,0,0,0,0,0,0,0,0,0,0,0,0,0,0,0,0,0,0,0,0,0,0,0,0,0,0,0,0,0,0,0,0,0,0,0,0,0,0,0,0,0,0,0,0,0,0,0,0,0,0,0,0,0,0,0,0,0,0,0,0,0],"sum_hessian":[1.947E3,1.478E3,4.69E2,5.31E2,9.47E2,1.96E2,2.73E2,5.5E1,4.76E2,4.98E2,4.49E2,1.14E2,8.2E1,1.9E2,8.3E1,3.4E1,2.1E1,2.11E2,2.65E2,4E0,4.94E2,9.2E1,3.57E2,1.01E2,1.3E1,1.9E1,6.3E1,1.69E2,2.1E1,7.7E1,6E0,2.4E1,1E1,3E0,1.8E1,6.5E1,1.46E2,3.4E1,2.31E2,2E0,2E0,1.73E2,3.21E2,1E0,9.1E1,2.23E2,1.34E2,8.5E1,1.6E1,9E0,4E0,8E0,1.1E1,6.2E1,1E0,6.8E1,1.01E2,1.8E1,3E0,4.2E1,3.5E1,2E0,4E0,1E1,1.4E1,1.6E1,2E0,9E0,5.6E1,2.9E1,1.17E2,2.7E1,7E0,3.9E1,1.92E2,1E0,1E0,1.56E2,1.7E1,2.66E2,5.5E1,8E0,8.3E1,4.4E1,1.79E2,1.24E2,1E1,5.2E1,3.3E1,3E0,1.3E1,6E0,3E0,1E0,3E0,5E0,3E0,8E0,3E0,5.5E1,7E0,5E0,6.3E1,9.3E1,8E0,1.7E1,1E0,3E1,1.2E1,1.8E1,1.7E1,1E0,1E0,3E0,1E0],"tree_param":{"num_deleted":"0","num_feature":"8","num_nodes":"115","size_leaf_vector":"1"}},{"base_weights":[4.883541E-2,-2.2050273E0,8.695046E0,1.8237234E0,-3.729104E0,1.2619419E1,3.3511531E0,1.6609213E1,1.3168774E0,-6.6449016E-1,-4.5142465E0,1.4770995E1,7.4290423E0,2.1652544E0,1.4036391E1,3.537789E0,6.445202E0,3.1440287E0,-1.0323821E0,8.212962E0,-1.3666033E0,-5.9238763E0,-3.4045067E0,1.34733095E1,2.9977432E1,2.0949657E0,1.4072075E1,7.3664045E0,7.6361555E-1,9.275892E0,7.081923E0,-1.7598076E0,7.355249E0,7.5889225E0,6.170817E-1,-2.8982246E0,1.3069075E0,-3.166308E0,1.08775425E1,-8.005248E0,-7.1608865E-1,-3.9092853E0,-7.1036367E0,-1.6199424E0,-4.590811E0,1.3901058E1,-1.882719E0,2.223012E0,9.406611E0,8.6182874E-1,3.8933225E0,9.575199E0,2.400053E1,1.1270574E1,4.9302337E-1,1.9487665E0,-2.305733E0,1.0519618E1,1.6236E0,2.6764505E0,3.9847386E-1,1.1786982E1,1.7789251E0,-5.375735E-1,1.9791609E0,-9.992933E-1,1.8230482E0,3.5126948E0,2.270138E-1,-1.2125634E0,-8.093977E-2,-7.483063E-2,3.5257955E0,-8.893547E-2,-2.6684182E0,-4.6165147E-1,9.747993E-1,-8.5416573E-1,-1.7384535E0,-2.4840972E0,-1.9040738E0,3.0729753E-1,-8.645996E-1,-1.7062457E0,-1.0920019E0,3.4115355E0,5.546599E0,1.3065648E-1,-1.6733524E0,-8.374084E-1,1.2319826E0,5.3445296E0,1.1978741E0,8.1431465E0,-1.7186852E-1,1.2321854E0,4.1586213E0,-1.2867111E0,9.2848295E-1,3.2696122E-1,2.2322302E0,1.233289E0,-9.7989166E-1,7.925663E-2,3.4556227E0,4.6560004E-2,6.8406004E-1],"categories":[],"categories_nodes":[],"categories_segments":[],"categories_sizes":[],"default_left":[0,0,0,0,0,0,0,0,0,0,0,0,0,0,0,0,0,0,0,0,0,0,0,0,0,0,0,0,0,0,0,0,0,0,0,0,0,0,0,0,0,0,0,0,0,0,0,0,0,0,0,0,0,0,0,0,0,0,0,0,0,0,0,0,0,0,0,0,0,0,0,0,0,0,0,0,0,0,0,0,0,0,0,0,0,0,0,0,0,0,0,0,0,0,0,0,0,0,0,0,0,0,0,0,0,0,0],"id":1,"left_children":[1,3,5,7,9,11,13,15,17,19,21,23,25,27,29,31,-1,33,35,37,39,41,43,45,47,49,51,53,55,57,-1,-1,59,61,63,65,67,69,71,73,75,77,79,81,83,85,87,-1,-1,89,-1,91,93,95,97,99,101,103,105,-1,-1,-1,-1,-1,-1,-1,-1,-1,-1,-1,-1,-1,-1,-1,-1,-1,-1,-1,-1,-1,-1,-1,-1,-1,-1,-1,-1,-1,-1,-1,-1,-1,-1,-1,-1,-1,-1,-1,-1,-1,-1,-1,-1,-1,-1,-1,-1],"loss_changes":[3.7980574E4,9.499436E3,8.409197E3,3.163064E3,2.696709E3,2.481121E3,2.1491245E3,8.160801E2,1.7717362E3,1.4448083E3,1.3767734E3,2.8126133E3,2.4509304E3,1.1316357E3,5.555166E2,2.2263948E2,0E0,2.6011438E3,7.9380676E2,5.498982E2,9.184341E2,9.0391016E2,1.055315E3,1.0245879E3,1.4081348E2,5.256135E2,1.1542485E3,8.7999316E2,4.5556085E2,1.06645874E2,0E0,0E0,2.5909271E1,4.1852065E3,2.1583262E3,4.1252374E2,4.547164E2,9.053886E0,1.392539E2,1.2764258E2,6.4445935E2,2.778816E2,1.6649023E2,6.7706946E2,2.9315723E2,1.507041E3,4.5260178E1,0E0,0E0,4.5005353E2,0E0,9.868076E2,7.1072314E2,3.3290088E2,1.7502728E2,4.1642566E2,2.2915724E2,1.0966785E2,2.538567E0,0E0,0E0,0E0,0E0,0E0,0E0,0E0,0E0,0E0,0E0,0E0,0E0,0E0,0E0,0E0,0E0,0E0,0E0,0E0,0E0,0E0,0E0,0E0,0E0,0E0,0E0,0E0,0E0,0E0,0E0,0E0,0E0,0E0,0E0,0E0,0E0,0E0,0E0,0E0,0E0,0E0,0E0,0E0,0E0,0E0,0E0,0E0,0E0],"parents":[2147483647,0,0,1,1,2,2,3,3,4,4,5,5,6,6,7,7,8,8,9,9,10,10,11,11,12,12,13,13,14,14,15,15,17,17,18,18,19,19,20,20,21,21,22,22,23,23,24,24,25,25,26,26,27,27,28,28,29,29,32,32,33,33,34,34,35,35,36,36,37,37,38,38,39,39,40,40,41,41,42,42,43,43,44,44,45,45,46,46,49,49,51,51,52,52,53,53,54,54,55,55,56,56,57,57,58,58],"right_children":[2,4,6,8,10,12,14,16,18,20,22,24,26,28,30,32,-1,34,36,38,40,42,44,46,48,50,52,54,56,58,-1,-1,60,62,64,66,68,70,72,74,76,78,80,82,84,86,88,-1,-1,90,-1,92,94,96,98,100,102,104,106,-1,-1,-1,-1,-1,-1,-1,-1,-1,-1,-1,-1,-1,-1,-1,-1,-1,-1,-1,-1,-1,-1,-1,-1,-1,-1,-1,-1,-1,-1,-1,-1,-1,-1,-1,-1,-1,-1,-1,-1,-1,-1,-1,-1,-1,-1,-1,-1],"split_conditions":[2.7E1,3E-1,7.0000005E-1,-8.934417E0,1.3044722E1,1.2964998E1,5.4E1,1.4684402E2,1.3570615E1,-4.70525E0,1.2333333E1,5.6E1,5.9280834E0,1.0440001E1,1.46135E1,1.2E1,6.445202E0,1.30725E0,1.8241348E2,8E0,7E0,1.9197499E0,3.2999995E0,4.7333332E1,1.2730405E2,5.0666668E1,4.1E1,2.2E1,4.7E0,3.1999996E0,7.081923E0,-1.7598076E0,1.3E1,6E0,2E1,1.7753086E1,1.835198E2,9E0,-9.878167E0,6.489992E0,2.2E1,5.299999E0,7E0,1.4E1,2.1230302E2,4E1,1.0467666E1,2.223012E0,9.406611E0,1.539184E1,3.8933225E0,2.4333334E1,1.90548E2,8E0,3.5E1,1.2034333E1,-4.994833E0,3.9666668E1,6.6E1,2.6764505E0,3.9847386E-1,1.1786982E1,1.7789251E0,-5.375735E-1,1.9791609E0,-9.992933E-1,1.8230482E0,3.5126948E0,2.270138E-1,-1.2125634E0,-8.093977E-2,-7.483063E-2,3.5257955E0,-8.893547E-2,-2.6684182E0,-4.6165147E-1,9.747993E-1,-8.5416573E-1,-1.7384535E0,-2.4840972E0,-1.9040738E0,3.0729753E-1,-8.645996E-1,-1.7062457E0,-1.0920019E0,3.4115355E0,5.546599E0,1.3065648E-1,-1.6733524E0,-8.374084E-1,1.2319826E0,5.3445296E0,1.1978741E0,8.1431465E0,-1.7186852E-1,1.2321854E0,4.1586213E0,-1.2867111E0,9.2848295E-1,3.2696122E-1,2.2322302E0,1.233289E0,-9.7989166E-1,7.925663E-2,3.4556227E0,4.6560004E-2,6.8406004E-1],"split_indices":[0,5,5,4,6,6,0,7,6,4,3,0,4,6,4,1,0,4,7,1,0,4,5,3,7,3,0,2,5,5,0,0,0,1,0,4,7,0,4,6,0,5,0,1,7,0,4,0,0,6,0,3,7,2,1,4,4,3,0,0,0,0,0,0,0,0,0,0,0,0,0,0,0,0,0,0,0,0,0,0,0,0,0,0,0,0,0,0,0,0,0,0,0,0,0,0,0,0,0,0,0,0,0,0,0,0,0],"split_type":[0,0,0,0,0,0,0,0,0,0,0,0,0,0,0,0,0,0,0,0,0,0,0,0,0,0,0,0,0,0,0,0,0,0,0,0,0,0,0,0,0,0,0,0,0,0,0,0,0,0,0,0,0,0,0,0,0,0,0,0,0,0,0,0,0,0,0,0,0,0,0,0,0,0,0,0,0,0,0,0,0,0,0,0,0,0,0,0,0,0,0,0,0,0,0,0,0,0,0,0,0,0,0,0,0,0,0],"sum_hessian":[1.947E3,1.545E3,4.02E2,4.24E2,1.121E3,2.31E2,1.71E2,1.3E1,4.11E2,2.29E2,8.92E2,1.62E2,6.9E1,1.55E2,1.6E1,4E0,9E0,2.31E2,1.8E2,1.6E1,2.13E2,3.91E2,5.01E2,1.51E2,1.1E1,3.9E1,3E1,3.2E1,1.23E2,1.2E1,4E0,1E0,3E0,8.3E1,1.48E2,1E2,8E1,3E0,1.3E1,1.8E1,1.95E2,1.46E2,2.45E2,2.01E2,3E2,1.47E2,4E0,1E0,1E1,3.6E1,3E0,2.2E1,8E0,2E1,1.2E1,8.9E1,3.4E1,1E1,2E0,2E0,1E0,3E0,8E1,1.06E2,4.2E1,9.6E1,4E0,3E0,7.7E1,2E0,1E0,1E0,1.2E1,2E0,1.6E1,1.62E2,3.3E1,9.5E1,5.1E1,9.2E1,1.53E2,6.5E1,1.36E2,1.37E2,1.63E2,9.7E1,5E1,3E0,1E0,1.7E1,1.9E1,8E0,1.4E1,7E0,1E0,6E0,1.4E1,4E0,8E0,7.8E1,1.1E1,4E0,3E1,1E0,9E0,1E0,1E0],"tree_param":{"num_deleted":"0","num_feature":"8","num_nodes":"107","size_leaf_vector":"1"}},{"base_weights":[7.2145365E-2,-1.5325824E0,6.2280684E0,7.8587717E-1,-2.9408634E0,9.371166E0,2.7595625E0,6.6399302E0,1.5361464E-1,-3.564182E0,-7.586155E-1,1.6098835E1,8.167139E0,1.9578412E0,1.0445307E1,9.901502E0,5.771635E-1,-2.8522205E0,1.1301271E0,-2.874257E0,-4.73364E0,7.415334E-1,-2.5571764E0,2.2859522E1,9.186534E0,1.0250616E1,4.1981163E0,3.7982938E0,-3.5003477E-1,7.022226E0,5.3822613E0,3.7307966E0,1.3088518E1,2.9067886E0,-1.4798192E0,-1.6572816E0,-5.7016177E0,1.5470311E1,9.827949E-1,-6.223518E0,-2.5841038E0,-5.083582E0,2.6734227E-1,3.485436E0,-9.97659E-1,-3.302703E0,1.7882512E0,1.0624094E1,8.374448E0,1.0529966E1,-1.8462573E0,-1.935287E0,1.0742404E1,2.2765257E0,1.2335298E1,9.181962E0,2.9403174E0,5.0576687E0,-9.460291E-1,8.151473E0,2.1612391E0,-2.5318557E-1,2.1802058E0,1.0739508E0,4.443379E0,-7.571292E-1,2.4400864E0,-2.4076908E0,-2.379947E-1,-1.913295E0,-8.4439933E-1,1.028994E1,-6.7183495E-1,1.5498531E-1,1.2849183E0,-1.9535013E0,6.224994E-1,1.3090472E0,-8.627116E-1,-1.3097619E0,-1.7940558E0,-3.09937E-1,1.6207106E0,7.345308E-1,3.4497447E0,-7.9437655E-1,3.598463E-1,1.7963002E0,-1.0460328E0,1.766149E0,-2.549764E-1,4.0231876E0,-4.9628422E-1,7.224604E-1,3.6656923E0,2.7131164E0,3.955149E0,-7.70068E-1,1.45223E0,5.854036E0,1.8921119E0,1.47285E-1,4.3657427E0,4.536936E0,7.4106413E-1,1.2147007E-1,3.8031948E0,8.1943643E-1,-6.947728E-1,6.7368224E-2,2.6765127E0,8.3811176E-1,3.957596E-2],"categories":[],"categories_nodes":[],"categories_segments":[],"categories_sizes":[],"default_left":[0,0,0,0,0,0,0,0,0,0,0,0,0,0,0,0,0,0,0,0,0,0,0,0,0,0,0,0,0,0,0,0,0,0,0,0,0,0,0,0,0,0,0,0,0,0,0,0,0,0,0,0,0,0,0,0,0,0,0,0,0,0,0,0,0,0,0,0,0,0,0,0,0,0,0,0,0,0,0,0,0,0,0,0,0,0,0,0,0,0,0,0,0,0,0,0,0,0,0,0,0,0,0,0,0,0,0,0,0,0,0,0,0],"id":2,"left_children":[1,3,5,7,9,11,13,15,17,19,21,23,25,27,29,31,33,35,37,39,41,43,45,47,49,51,53,55,57,59,-1,61,63,-1,65,67,69,71,73,75,77,79,81,83,85,87,89,91,-1,93,-1,-1,95,97,99,101,103,105,107,109,111,-1,-1,-1,-1,-1,-1,-1,-1,-1,-1,-1,-1,-1,-1,-1,-1,-1,-1,-1,-1,-1,-1,-1,-1,-1,-1,-1,-1,-1,-1,-1,-1,-1,-1,-1,-1,-1,-1,-1,-1,-1,-1,-1,-1,-1,-1,-1,-1,-1,-1,-1,-1],"loss_changes":[1.925302E4,5.050067E3,4.367586E3,2.1642397E3,1.3058438E3,1.5776816E3,1.168782E3,1.1214116E3,1.5559629E3,5.8991016E2,5.8198975E2,1.2386895E3,1.4537217E3,7.4889594E2,3.358578E2,6.7881665E2,4.079518E2,4.331819E2,8.299038E2,4.4357788E2,4.8437354E2,5.665939E2,3.2338995E2,6.312378E2,4.1516028E2,1.0385088E3,9.7264355E2,4.2567004E2,2.5939862E2,5.92323E1,0E0,2.3263722E2,3.4012256E2,0E0,2.0117355E2,5.0532297E2,5.6212646E1,1.4106755E3,6.0857544E2,1.0198779E2,8.978789E2,1.3991455E2,1.3246187E2,3.5411517E2,2.678646E2,1.645263E2,1.6720818E2,2.2746936E2,0E0,1.9005786E2,0E0,0E0,3.5769727E2,6.7066943E2,3.9618933E2,5.9963293E2,4.5518036E2,2.784866E2,3.6904105E2,6.515802E1,4.76536E0,0E0,0E0,0E0,0E0,0E0,0E0,0E0,0E0,0E0,0E0,0E0,0E0,0E0,0E0,0E0,0E0,0E0,0E0,0E0,0E0,0E0,0E0,0E0,0E0,0E0,0E0,0E0,0E0,0E0,0E0,0E0,0E0,0E0,0E0,0E0,0E0,0E0,0E0,0E0,0E0,0E0,0E0,0E0,0E0,0E0,0E0,0E0,0E0,0E0,0E0,0E0,0E0],"parents":[2147483647,0,0,1,1,2,2,3,3,4,4,5,5,6,6,7,7,8,8,9,9,10,10,11,11,12,12,13,13,14,14,15,15,16,16,17,17,18,18,19,19,20,20,21,21,22,22,23,23,24,24,25,25,26,26,27,27,28,28,29,29,31,31,32,32,34,34,35,35,36,36,37,37,38,38,39,39,40,40,41,41,42,42,43,43,44,44,45,45,46,46,47,47,49,49,52,52,53,53,54,54,55,55,56,56,57,57,58,58,59,59,60,60],"right_children":[2,4,6,8,10,12,14,16,18,20,22,24,26,28,30,32,34,36,38,40,42,44,46,48,50,52,54,56,58,60,-1,62,64,-1,66,68,70,72,74,76,78,80,82,84,86,88,90,92,-1,94,-1,-1,96,98,100,102,104,106,108,110,112,-1,-1,-1,-1,-1,-1,-1,-1,-1,-1,-1,-1,-1,-1,-1,-1,-1,-1,-1,-1,-1,-1,-1,-1,-1,-1,-1,-1,-1,-1,-1,-1,-1,-1,-1,-1,-1,-1,-1,-1,-1,-1,-1,-1,-1,-1,-1,-1,-1,-1,-1,-1],"split_conditions":[2.7E1,9.0000004E-1,4E-1,-5.1865E0,1.8E1,-8.482333E0,5.4E1,1.27279215E1,1E1,6.2E0,1.9E1,2E1,1.1966954E1,2.4999998E0,1.46135E1,1.5E1,-1.1376083E1,1.0290583E1,5E0,7E0,1.2823917E1,3.4000003E0,3.0225467E2,2.4E1,1E-1,1.7666666E1,1.509475E1,1.1E1,-4.70525E0,1.7373497E1,5.3822613E0,1.4684402E2,1.1E1,2.9067886E0,2.3210928E1,5.6666665E0,1.5517629E1,1.1E1,2.4E1,5.7000003E0,6E0,4.0572505E0,1.5E1,2.4336637E1,1.6666666E1,-6.6865005E0,1.2964998E1,2.2E1,8.374448E0,2.3E1,-1.8462573E0,-1.935287E0,4E1,1.5124489E2,1.4386494E1,1.7666666E1,-8.482333E0,-5.0719166E0,3E1,3.9666668E1,5.6E1,-2.5318557E-1,2.1802058E0,1.0739508E0,4.443379E0,-7.571292E-1,2.4400864E0,-2.4076908E0,-2.379947E-1,-1.913295E0,-8.4439933E-1,1.028994E1,-6.7183495E-1,1.5498531E-1,1.2849183E0,-1.9535013E0,6.224994E-1,1.3090472E0,-8.627116E-1,-1.3097619E0,-1.7940558E0,-3.09937E-1,1.6207106E0,7.345308E-1,3.4497447E0,-7.9437655E-1,3.598463E-1,1.7963002E0,-1.0460328E0,1.766149E0,-2.549764E-1,4.0231876E0,-4.9628422E-1,7.224604E-1,3.6656923E0,2.7131164E0,3.955149E0,-7.70068E-1,1.45223E0,5.854036E0,1.8921119E0,1.47285E-1,4.3657427E0,4.536936E0,7.4106413E-1,1.2147007E-1,3.8031948E0,8.1943643E-1,-6.947728E-1,6.7368224E-2,2.6765127E0,8.3811176E-1,3.957596E-2],"split_indices":[0,5,5,4,0,4,0,6,0,5,1,2,6,5,4,1,4,4,1,3,4,5,7,3,5,3,4,1,4,6,0,7,2,0,6,3,6,0,0,5,1,4,5,6,3,4,6,1,0,1,0,0,0,7,6,3,4,4,0,3,1,0,0,0,0,0,0,0,0,0,0,0,0,0,0,0,0,0,0,0,0,0,0,0,0,0,0,0,0,0,0,0,0,0,0,0,0,0,0,0,0,0,0,0,0,0,0,0,0,0,0,0,0],"split_type":[0,0,0,0,0,0,0,0,0,0,0,0,0,0,0,0,0,0,0,0,0,0,0,0,0,0,0,0,0,0,0,0,0,0,0,0,0,0,0,0,0,0,0,0,0,0,0,0,0,0,0,0,0,0,0,0,0,0,0,0,0,0,0,0,0,0,0,0,0,0,0,0,0,0,0,0,0,0,0,0,0,0,0,0,0,0,0,0,0,0,0,0,0,0,0,0,0,0,0,0,0,0,0,0,0,0,0,0,0,0,0,0,0],"sum_hessian":[1.947E3,1.545E3,4.02E2,5.84E2,9.61E2,2.1E2,1.92E2,5.6E1,5.28E2,7.47E2,2.14E2,3E1,1.8E2,1.75E2,1.7E1,3.6E1,2E1,1.29E2,3.99E2,4.72E2,2.75E2,1.17E2,9.7E1,1.4E1,1.6E1,1.17E2,6.3E1,9.7E1,7.8E1,1.3E1,4E0,1.3E1,2.3E1,3E0,1.7E1,9.2E1,3.7E1,3E0,3.96E2,3.6E1,4.36E2,2.57E2,1.8E1,4.5E1,7.2E1,8.3E1,1.4E1,5E0,9E0,1.5E1,1E0,3E0,1.14E2,5.2E1,1.1E1,1.2E1,8.5E1,7E0,7.1E1,1E1,3E0,6E0,7E0,4E0,1.9E1,1.6E1,1E0,1E1,8.2E1,2.9E1,8E0,1E0,2E0,3.48E2,4.8E1,3.5E1,1E0,1.7E1,4.19E2,1.46E2,1.11E2,1.5E1,3E0,4.1E1,4E0,4.1E1,3.1E1,1E0,8.2E1,5E0,9E0,4E0,1E0,3E0,1.2E1,7E1,4.4E1,1.8E1,3.4E1,4E0,7E0,5E0,7E0,2E0,8.3E1,5E0,2E0,1.9E1,5.2E1,1E0,9E0,2E0,1E0],"tree_param":{"num_deleted":"0","num_feature":"8","num_nodes":"113","size_leaf_vector":"1"}},{"base_weights":[8.719112E-2,-1.5944556E0,3.0943031E0,-1.9987686E-1,-2.6376722E0,4.8639135E0,-1.8414205E-1,1.5150424E0,-1.7968705E0,-2.7557154E0,6.9283586E0,1.1734235E1,4.189994E0,-1.1578776E0,3.1402795E0,3.965477E0,-1.2829234E-1,-2.6728964E0,1.9725395E0,-3.8560443E0,-1.9902004E0,1.255317E1,2.0237577E0,1.5407689E1,4.5846305E0,5.80085E0,2.3428695E0,3.0233698E0,-1.3907777E0,6.1580796E0,1.0064656E0,2.6183578E1,3.04629E0,5.8041487E0,-5.743783E-1,-3.179407E0,8.775166E-1,6.039451E0,1.2361845E0,-4.326349E0,-1.7764509E0,-1.2704518E0,-3.5454836E0,4.3649373E0,9.8449665E-1,-2.9018664E-1,1.3303294E0,9.654328E0,1.7885685E1,-2.6026583E0,6.598341E0,1.2939491E0,6.5019655E0,1.796871E0,8.775061E0,-1.6687638E0,6.0355444E0,2.3215532E0,1.3061373E1,-3.003102E0,2.3556826E0,1.2880595E0,9.614725E0,-2.927008E-1,1.358084E0,2.511382E0,-2.3434132E-1,1.4007583E-2,-9.580241E-1,1.515287E0,-1.0125424E0,1.4875599E0,-5.6757355E-1,1.5486557E0,-1.484869E-1,-4.737228E-1,-1.4495261E0,-1.21860705E-1,-1.6210102E0,1.8293118E0,-5.352739E-1,-1.4422076E0,-5.8533347E-1,2.184329E-1,-5.017614E-1,1.0197644E0,3.9773605E0,6.0155344E0,2.6030102E0,5.1490786E-3,-1.5693187E0,2.3937619E0,-6.1196517E-2,1.1833836E0,-1.6871217E0,5.500939E0,1.8057085E0,8.952928E-1,-2.545639E-2,8.8716096E-1,4.5004754E0,-9.407868E-1,-1.9721363E-1,3.2264693E0,5.990473E-1,1.8465778E0,-1.7825885E-1,4.4405494E0,1.3172379E-1,-1.2780944E-1,-1.8353797E0,-8.766558E-1,1.125441E0],"categories":[],"categories_nodes":[],"categories_segments":[],"categories_sizes":[],"default_left":[0,0,0,0,0,0,0,0,0,0,0,0,0,0,0,0,0,0,0,0,0,0,0,0,0,0,0,0,0,0,0,0,0,0,0,0,0,0,0,0,0,0,0,0,0,0,0,0,0,0,0,0,0,0,0,0,0,0,0,0,0,0,0,0,0,0,0,0,0,0,0,0,0,0,0,0,0,0,0,0,0,0,0,0,0,0,0,0,0,0,0,0,0,0,0,0,0,0,0,0,0,0,0,0,0,0,0,0,0,0,0,0,0],"id":3,"left_children":[1,3,5,7,9,11,13,15,17,19,21,23,25,27,29,31,33,35,37,39,41,43,45,47,49,51,53,-1,55,57,59,61,63,65,67,69,71,-1,73,75,77,79,81,-1,-1,83,-1,85,87,89,91,93,95,97,99,101,103,105,107,109,111,-1,-1,-1,-1,-1,-1,-1,-1,-1,-1,-1,-1,-1,-1,-1,-1,-1,-1,-1,-1,-1,-1,-1,-1,-1,-1,-1,-1,-1,-1,-1,-1,-1,-1,-1,-1,-1,-1,-1,-1,-1,-1,-1,-1,-1,-1,-1,-1,-1,-1,-1,-1],"loss_changes":[9.855774E3,1.818032E3,4.0561948E3,1.4706738E3,8.264751E2,2.052874E3,7.999645E2,1.0434717E3,9.232566E2,5.878447E2,2.2288248E2,9.799116E2,1.2212217E3,5.138276E2,3.5440985E2,2.0441868E3,4.1616888E2,4.092107E2,6.8380035E2,2.7496875E2,4.6452966E2,2.6299377E1,3.47558E1,1.9800293E2,2.3426999E2,6.899155E2,6.690659E2,0E0,3.9818185E2,5.788246E2,1.9100677E2,3.759812E2,6.0588586E2,1.9249686E2,2.3763342E2,3.360183E2,3.371415E2,0E0,3.5597104E2,3.1866406E2,2.7114285E2,1.101167E3,2.561908E2,0E0,0E0,6.8483634E0,0E0,1.8033923E2,1.65125E2,2.7633585E1,1.1434479E2,5.9061365E2,9.812593E2,4.046856E2,4.990127E2,2.680076E2,1.1194536E2,1.8250745E2,1.6924951E2,6.963781E1,2.0249878E2,0E0,0E0,0E0,0E0,0E0,0E0,0E0,0E0,0E0,0E0,0E0,0E0,0E0,0E0,0E0,0E0,0E0,0E0,0E0,0E0,0E0,0E0,0E0,0E0,0E0,0E0,0E0,0E0,0E0,0E0,0E0,0E0,0E0,0E0,0E0,0E0,0E0,0E0,0E0,0E0,0E0,0E0,0E0,0E0,0E0,0E0,0E0,0E0,0E0,0E0,0E0,0E0],"parents":[2147483647,0,0,1,1,2,2,3,3,4,4,5,5,6,6,7,7,8,8,9,9,10,10,11,11,12,12,13,13,14,14,15,15,16,16,17,17,18,18,19,19,20,20,21,21,22,22,23,23,24,24,25,25,26,26,28,28,29,29,30,30,31,31,32,32,33,33,34,34,35,35,36,36,38,38,39,39,40,40,41,41,42,42,45,45,47,47,48,48,49,49,50,50,51,51,52,52,53,53,54,54,55,55,56,56,57,57,58,58,59,59,60,60],"right_children":[2,4,6,8,10,12,14,16,18,20,22,24,26,28,30,32,34,36,38,40,42,44,46,48,50,52,54,-1,56,58,60,62,64,66,68,70,72,-1,74,76,78,80,82,-1,-1,84,-1,86,88,90,92,94,96,98,100,102,104,106,108,110,112,-1,-1,-1,-1,-1,-1,-1,-1,-1,-1,-1,-1,-1,-1,-1,-1,-1,-1,-1,-1,-1,-1,-1,-1,-1,-1,-1,-1,-1,-1,-1,-1,-1,-1,-1,-1,-1,-1,-1,-1,-1,-1,-1,-1,-1,-1,-1,-1,-1,-1,-1,-1],"split_conditions":[2E1,1.5893093E1,1.5893093E1,5.709335E0,1.6661417E1,-8.482333E0,1.0467666E1,2E-1,1.4444748E1,2.0099188E2,2E-1,2.7E1,3E-1,-8.934417E0,2.3E1,5E0,-5.8760834E0,1.9666666E1,5E0,1.0365582E1,5.709335E0,1.6E1,1.9013502E1,2.4E1,1.7272513E2,-5.0719166E0,5.1E1,3.0233698E0,5.3E1,2.2E1,1.6850458E2,-1.81775E0,9.511537E1,1.5E0,5.2000003E0,6.4096174E0,2.1666666E1,6.039451E0,8.419539E1,1.7373497E1,1.6666666E1,9.000001E-1,1.1E1,4.3649373E0,9.8449665E-1,1.5E1,1.3303294E0,9.746631E0,2.1E1,2.9E1,5.7E1,1.2984975E1,-4.313583E0,2.4999998E0,1.2261157E1,1.897275E2,1.8084663E2,2.5E1,8.299999E0,3.4333332E1,2.6E1,1.2880595E0,9.614725E0,-2.927008E-1,1.358084E0,2.511382E0,-2.3434132E-1,1.4007583E-2,-9.580241E-1,1.515287E0,-1.0125424E0,1.4875599E0,-5.6757355E-1,1.5486557E0,-1.484869E-1,-4.737228E-1,-1.4495261E0,-1.21860705E-1,-1.6210102E0,1.8293118E0,-5.352739E-1,-1.4422076E0,-5.8533347E-1,2.184329E-1,-5.017614E-1,1.0197644E0,3.9773605E0,6.0155344E0,2.6030102E0,5.1490786E-3,-1.5693187E0,2.3937619E0,-6.1196517E-2,1.1833836E0,-1.6871217E0,5.500939E0,1.8057085E0,8.952928E-1,-2.545639E-2,8.8716096E-1,4.5004754E0,-9.407868E-1,-1.9721363E-1,3.2264693E0,5.990473E-1,1.8465778E0,-1.7825885E-1,4.4405494E0,1.3172379E-1,-1.2780944E-1,-1.8353797E0,-8.766558E-1,1.125441E0],"split_indices":[0,6,6,4,4,4,4,5,4,7,5,2,5,4,2,1,4,3,1,4,4,0,4,3,7,4,0,0,0,3,7,4,7,5,5,6,3,0,7,6,3,5,0,0,0,0,0,6,2,0,2,6,4,5,6,7,7,0,5,3,1,0,0,0,0,0,0,0,0,0,0,0,0,0,0,0,0,0,0,0,0,0,0,0,0,0,0,0,0,0,0,0,0,0,0,0,0,0,0,0,0,0,0,0,0,0,0,0,0,0,0,0,0],"split_type":[0,0,0,0,0,0,0,0,0,0,0,0,0,0,0,0,0,0,0,0,0,0,0,0,0,0,0,0,0,0,0,0,0,0,0,0,0,0,0,0,0,0,0,0,0,0,0,0,0,0,0,0,0,0,0,0,0,0,0,0,0,0,0,0,0,0,0,0,0,0,0,0,0,0,0,0,0,0,0,0,0,0,0,0,0,0,0,0,0,0,0,0,0,0,0,0,0,0,0,0,0,0,0,0,0,0,0,0,0,0,0,0,0],"sum_hessian":[1.947E3,1.249E3,6.98E2,5.35E2,7.14E2,4.53E2,2.45E2,2.58E2,2.77E2,7.06E2,8E0,3.9E1,4.14E2,1.9E2,5.5E1,1.03E2,1.55E2,2.25E2,5.2E1,2.88E2,4.18E2,3E0,5E0,2.5E1,1.4E1,2.2E2,1.94E2,3E0,1.87E2,2.2E1,3.3E1,3E0,1E2,1E1,1.45E2,1.97E2,2.8E1,1E0,5.1E1,2.34E2,5.4E1,2.87E2,1.31E2,2E0,1E0,3E0,2E0,9E0,1.6E1,3E0,1.1E1,3E1,1.9E2,1.8E2,1.4E1,1.81E2,6E0,1.5E1,7E0,8E0,2.5E1,1E0,2E0,2.7E1,7.3E1,7E0,3E0,1.18E2,2.7E1,4E0,1.93E2,1.1E1,1.7E1,1.5E1,3.6E1,3.7E1,1.97E2,4E1,1.4E1,1.8E1,2.69E2,7.2E1,5.9E1,2E0,1E0,4E0,5E0,1.2E1,4E0,2E0,1E0,9E0,2E0,2.2E1,8E0,6E0,1.84E2,1.1E2,7E1,8E0,6E0,7.3E1,1.08E2,2E0,4E0,6E0,9E0,6E0,1E0,5E0,3E0,5E0,2E1],"tree_param":{"num_deleted":"0","num_feature":"8","num_nodes":"113","size_leaf_vector":"1"}},{"base_weights":[9.2780106E-2,-7.6031184E-1,3.3652055E0,4.1599438E-1,-1.6771995E0,4.229503E0,-2.9026005E-1,2.145119E0,-5.001324E-1,-1.7869099E0,6.3068686E0,3.6454911E0,9.87024E0,5.454083E-1,-2.312311E0,-2.2727125E0,2.929603E0,-1.5790927E0,8.36171E-1,-2.885466E0,-1.3355535E0,8.923449E0,2.2030475E0,-5.905944E-1,4.589274E0,1.1148557E1,-1.2259526E0,-6.994901E-1,5.1683264E0,-3.1383247E0,1.272167E0,5.3140674E0,-3.123452E0,1.2967409E1,2.3887253E0,-4.983537E-1,-3.1257145E0,2.4400296E0,-5.1050156E-1,5.6570965E-1,-3.239195E0,-2.574249E-1,-1.9344685E0,3.1949027E0,9.2157614E-1,-7.7051926E-1,3.8824606E0,-3.7971368E0,1.0719705E0,1.6357977E1,4.013973E0,1.2513287E1,4.2864537E0,2.3798943E-1,-1.0925558E0,-5.5197E-2,-4.8781953E0,2.6495054E0,3.5524867E0,-3.9106703E0,1.1531524E-1,-4.1914618E-1,2.405058E0,-6.979905E-1,-1.8964072E0,5.7795696E0,8.449622E-1,4.659878E-1,1.9473723E0,-1.0840315E0,7.1638554E-2,-7.3798615E-1,-1.6213756E0,4.7696194E-1,2.1006982E0,-2.3742987E-1,2.9038646E0,5.1151615E-1,-1.2314426E0,4.0091598E-1,-1.0438532E0,4.056048E-1,-4.3018946E-1,-4.9424285E-1,-1.0988985E0,7.9763606E-2,-4.2649728E-1,1.8235588E-1,1.4314138E0,-4.0184686E-1,-1.9137073E0,6.714473E-1,-2.0517776E0,7.847472E-1,6.3552923E0,1.6707743E0,3.2462245E-1,2.9197824E0,4.6345267E0,9.915162E-2,2.43967E0,1.6308742E0,-1.9421245E-1,-1.9112293E0,-3.7861177E-1,1.1132987E0,-3.1929076E-1,-1.3123623E0,-8.632851E-2,6.3760704E-1,-5.799494E-1],"categories":[],"categories_nodes":[],"categories_segments":[],"categories_sizes":[],"default_left":[0,0,0,0,0,0,0,0,0,0,0,0,0,0,0,0,0,0,0,0,0,0,0,0,0,0,0,0,0,0,0,0,0,0,0,0,0,0,0,0,0,0,0,0,0,0,0,0,0,0,0,0,0,0,0,0,0,0,0,0,0,0,0,0,0,0,0,0,0,0,0,0,0,0,0,0,0,0,0,0,0,0,0,0,0,0,0,0,0,0,0,0,0,0,0,0,0,0,0,0,0,0,0,0,0,0,0,0,0,0,0],"id":4,"left_children":[1,3,5,7,9,11,13,15,17,19,21,23,25,27,29,31,33,35,37,39,41,43,45,47,49,51,53,55,57,59,-1,61,63,65,67,69,71,73,75,77,79,81,83,-1,-1,85,87,89,91,93,95,97,99,-1,-1,101,103,105,-1,107,109,-1,-1,-1,-1,-1,-1,-1,-1,-1,-1,-1,-1,-1,-1,-1,-1,-1,-1,-1,-1,-1,-1,-1,-1,-1,-1,-1,-1,-1,-1,-1,-1,-1,-1,-1,-1,-1,-1,-1,-1,-1,-1,-1,-1,-1,-1,-1,-1,-1,-1],"loss_changes":[5.440751E3,1.6681216E3,1.2744702E3,1.075091E3,7.7245825E2,1.0379468E3,1.3306274E2,8.211019E2,6.4148773E2,4.215774E2,1.0919693E2,1.1900999E3,4.3920068E2,3.2589874E2,1.378017E2,2.489557E2,1.0548696E3,4.0962994E2,4.3106018E2,3.058069E2,3.9338367E2,3.7992493E1,3.2954597E1,2.972801E2,1.579581E3,1.9921558E2,2.2402306E1,1.20884735E2,1.703316E2,5.322258E1,0E0,8.375691E1,6.938132E1,5.8502246E2,6.44546E2,3.3611987E2,1.3994049E2,3.4182587E2,3.1969543E2,1.3471075E2,2.5315552E2,4.166309E2,1.8842627E2,0E0,0E0,2.402504E0,8.74313E0,1.12017334E2,3.5666833E2,6.7415137E2,1.0564324E3,2.9203125E1,8.859449E1,0E0,0E0,1.3359573E2,2.434401E1,4.3371307E1,0E0,2.73107E1,2.469631E1,0E0,0E0,0E0,0E0,0E0,0E0,0E0,0E0,0E0,0E0,0E0,0E0,0E0,0E0,0E0,0E0,0E0,0E0,0E0,0E0,0E0,0E0,0E0,0E0,0E0,0E0,0E0,0E0,0E0,0E0,0E0,0E0,0E0,0E0,0E0,0E0,0E0,0E0,0E0,0E0,0E0,0E0,0E0,0E0,0E0,0E0,0E0,0E0,0E0,0E0],"parents":[2147483647,0,0,1,1,2,2,3,3,4,4,5,5,6,6,7,7,8,8,9,9,10,10,11,11,12,12,13,13,14,14,15,15,16,16,17,17,18,18,19,19,20,20,21,21,22,22,23,23,24,24,25,25,26,26,27,27,28,28,29,29,31,31,32,32,33,33,34,34,35,35,36,36,37,37,38,38,39,39,40,40,41,41,42,42,45,45,46,46,47,47,48,48,49,49,50,50,51,51,52,52,55,55,56,56,57,57,59,59,60,60],"right_children":[2,4,6,8,10,12,14,16,18,20,22,24,26,28,30,32,34,36,38,40,42,44,46,48,50,52,54,56,58,60,-1,62,64,66,68,70,72,74,76,78,80,82,84,-1,-1,86,88,90,92,94,96,98,100,-1,-1,102,104,106,-1,108,110,-1,-1,-1,-1,-1,-1,-1,-1,-1,-1,-1,-1,-1,-1,-1,-1,-1,-1,-1,-1,-1,-1,-1,-1,-1,-1,-1,-1,-1,-1,-1,-1,-1,-1,-1,-1,-1,-1,-1,-1,-1,-1,-1,-1,-1,-1,-1,-1,-1,-1],"split_conditions":[2.7E1,1.5617529E1,1.8440998E1,1.6489167E0,1.6661417E1,1.5721835E1,4.8999996E0,6.829936E1,1.5333333E1,1.872348E2,4E-1,1.4288617E2,4.4E1,3.3999994E0,5.4E1,6.130579E0,6E0,2.2135426E2,2E1,-4.70525E0,3.1000001E0,1.9E1,1.5567871E2,2.6E1,1.5226587E2,4.2E1,3.8E1,2.7999995E0,3.7E1,3.7E1,1.272167E0,1.3E1,4.1E1,1.1E1,2.9E1,7.3333335E0,3.4684027E2,2.1333334E1,1.7753086E1,4E1,8.838078E0,3.026E0,1.43E1,3.1949027E0,9.2157614E-1,1.5E1,9E0,3.2E1,1.3278032E2,-5.0719166E0,8E-1,1.1874544E1,1.0819482E1,2.3798943E-1,-1.0925558E0,1.1E1,2.1E1,2.7E1,3.5524867E0,3.0633865E1,2.9E1,-4.1914618E-1,2.405058E0,-6.979905E-1,-1.8964072E0,5.7795696E0,8.449622E-1,4.659878E-1,1.9473723E0,-1.0840315E0,7.1638554E-2,-7.3798615E-1,-1.6213756E0,4.7696194E-1,2.1006982E0,-2.3742987E-1,2.9038646E0,5.1151615E-1,-1.2314426E0,4.0091598E-1,-1.0438532E0,4.056048E-1,-4.3018946E-1,-4.9424285E-1,-1.0988985E0,7.9763606E-2,-4.2649728E-1,1.8235588E-1,1.4314138E0,-4.0184686E-1,-1.9137073E0,6.714473E-1,-2.0517776E0,7.847472E-1,6.3552923E0,1.6707743E0,3.2462245E-1,2.9197824E0,4.6345267E0,9.915162E-2,2.43967E0,1.6308742E0,-1.9421245E-1,-1.9112293E0,-3.7861177E-1,1.1132987E0,-3.1929076E-1,-1.3123623E0,-8.632851E-2,6.3760704E-1,-5.799494E-1],"split_indices":[0,6,6,4,4,4,5,7,3,7,5,7,2,5,0,6,1,7,1,4,5,1,7,1,7,1,0,5,1,2,0,1,2,0,2,3,7,3,4,2,7,4,5,0,0,0,1,0,7,4,5,6,6,0,0,1,2,2,0,6,1,0,0,0,0,0,0,0,0,0,0,0,0,0,0,0,0,0,0,0,0,0,0,0,0,0,0,0,0,0,0,0,0,0,0,0,0,0,0,0,0,0,0,0,0,0,0,0,0,0,0],"split_type":[0,0,0,0,0,0,0,0,0,0,0,0,0,0,0,0,0,0,0,0,0,0,0,0,0,0,0,0,0,0,0,0,0,0,0,0,0,0,0,0,0,0,0,0,0,0,0,0,0,0,0,0,0,0,0,0,0,0,0,0,0,0,0,0,0,0,0,0,0,0,0,0,0,0,0,0,0,0,0,0,0,0,0,0,0,0,0,0,0,0,0,0,0,0,0,0,0,0,0,0,0,0,0,0,0,0,0,0,0,0,0],"sum_hessian":[1.947E3,1.545E3,4.02E2,6.77E2,8.68E2,3.25E2,7.7E1,2.34E2,4.43E2,8.57E2,1.1E1,2.96E2,2.9E1,5.5E1,2.2E1,3.5E1,1.99E2,2.45E2,1.98E2,2.48E2,6.09E2,6E0,5E0,5.4E1,2.42E2,2.6E1,3E0,4.4E1,1.1E1,2E1,2E0,3E0,3.2E1,9E0,1.9E2,1.45E2,1E2,9E1,1.08E2,2.3E1,2.25E2,2.18E2,3.91E2,4E0,2E0,2E0,3E0,1.8E1,3.6E1,1E1,2.32E2,2.1E1,5E0,2E0,1E0,3.9E1,5E0,9E0,2E0,1.6E1,4E0,1E0,2E0,2.7E1,5E0,5E0,4E0,1.59E2,3.1E1,2.7E1,1.18E2,7.9E1,2.1E1,7.7E1,1.3E1,1.06E2,2E0,1.9E1,4E0,1.1E1,2.14E2,9.2E1,1.26E2,3.37E2,5.4E1,1E0,1E0,1E0,2E0,1E1,8E0,3.2E1,4E0,3E0,7E0,1.51E2,8.1E1,1.3E1,8E0,3E0,2E0,3E0,3.6E1,3E0,2E0,7E0,2E0,1.4E1,2E0,2E0,2E0],"tree_param":{"num_deleted":"0","num_feature":"8","num_nodes":"111","size_leaf_vector":"1"}},{"base_weights":[8.0760926E-2,-8.116895E-1,1.6765867E0,2.9099607E0,-9.5629567E-1,7.2754536E0,1.3075945E0,5.7459846E0,3.9832672E-1,-1.5192901E0,-2.2772257E-1,1.0119385E1,1.8438579E0,2.6495738E0,3.7037295E-1,3.0577898E-1,8.264362E0,-1.6481719E0,1.7193648E0,-2.5366125E0,-1.2358648E0,3.6709275E0,-4.3779424E-1,5.8276258E0,1.2179938E1,3.5407135E-1,2.4544728E0,1.7176207E0,4.6927366E0,2.9944245E-2,5.3122E0,4.1324596E0,-1.366205E0,1.159265E1,2.8045118E0,5.0707803E0,6.928957E-1,-3.112096E0,-1.8848915E-1,3.1904516E0,-1.4417387E0,1.0620962E1,1.1794435E0,-9.217519E-1,8.132524E-1,7.3066837E-1,2.0637293E0,1.3835032E1,5.109687E0,-3.4659843E0,1.7109942E0,-3.3390048E-1,3.0640497E0,7.673177E0,2.9817193E0,-2.6041038E0,4.67454E-1,2.3073335E0,8.926818E0,1.9048938E0,1.6133615E-1,1.0876099E0,4.0053325E0,1.6204472E0,-7.37587E-1,1.8500079E0,1.0306979E-1,1.1919572E0,-1.584392E-1,-7.423941E-1,-1.3322135E0,1.3908806E0,-2.0960872E-1,6.437304E0,4.389845E-1,3.6862833E0,-4.478558E-1,3.137206E-1,3.6127632E0,1.0068436E0,-1.0960228E0,5.3177364E-3,-5.246341E-1,9.129736E-1,-1.0393687E-1,-8.2542235E-1,1.1542231E0,4.3193297E0,9.779263E-1,2.600668E-1,2.2947767E0,5.2473165E-2,-1.4213759E0,-4.6789744E-1,9.3973386E-1,1.1209135E0,-5.0544065E-1,-2.0772237E-1,1.2928852E0,4.1307197E0,1.1810337E0,1.3239829E-2,1.2884226E0,-9.086475E-1,5.9821177E-1,1.0266334E0,2.8536784E-2,4.0367413E-2,2.474648E0,3.2058194E0,2.0204201E-1],"categories":[],"categories_nodes":[],"categories_segments":[],"categories_sizes":[],"default_left":[0,0,0,0,0,0,0,0,0,0,0,0,0,0,0,0,0,0,0,0,0,0,0,0,0,0,0,0,0,0,0,0,0,0,0,0,0,0,0,0,0,0,0,0,0,0,0,0,0,0,0,0,0,0,0,0,0,0,0,0,0,0,0,0,0,0,0,0,0,0,0,0,0,0,0,0,0,0,0,0,0,0,0,0,0,0,0,0,0,0,0,0,0,0,0,0,0,0,0,0,0,0,0,0,0,0,0,0,0,0,0],"id":5,"left_children":[1,3,5,7,9,11,13,15,17,19,21,23,25,27,29,31,33,-1,35,37,39,41,43,45,47,49,-1,51,53,55,57,59,-1,61,63,65,67,69,71,73,75,77,79,81,83,85,-1,87,89,91,93,95,97,99,101,103,105,107,109,-1,-1,-1,-1,-1,-1,-1,-1,-1,-1,-1,-1,-1,-1,-1,-1,-1,-1,-1,-1,-1,-1,-1,-1,-1,-1,-1,-1,-1,-1,-1,-1,-1,-1,-1,-1,-1,-1,-1,-1,-1,-1,-1,-1,-1,-1,-1,-1,-1,-1,-1,-1],"loss_changes":[2.7756934E3,6.7549994E2,1.4345775E3,3.3249475E2,4.935138E2,6.455657E2,8.2534863E2,2.988838E2,2.1182648E2,1.9264453E2,4.3239896E2,1.7663525E2,1.481727E2,5.060553E2,6.5258875E2,1.6759438E2,2.4006763E2,0E0,7.21692E1,1.9805548E2,4.9030316E2,4.5500247E2,3.0347644E2,5.3926025E1,1.3994238E2,7.8499565E1,0E0,5.175596E2,4.0548584E2,4.206988E2,2.509389E2,3.643553E1,0E0,7.768848E1,1.0895798E2,2.3784393E1,7.4194244E1,8.8948E1,7.708804E1,7.258159E2,3.762411E2,8.269049E1,2.3317459E2,2.8051892E2,3.631142E2,4.3143993E1,0E0,3.6381348E1,4.72433E1,1.9352642E1,5.602537E1,4.18686E2,5.3170215E2,6.290941E2,2.1195181E2,1.0759186E2,3.4400943E2,1.9253299E2,1.5251959E2,0E0,0E0,0E0,0E0,0E0,0E0,0E0,0E0,0E0,0E0,0E0,0E0,0E0,0E0,0E0,0E0,0E0,0E0,0E0,0E0,0E0,0E0,0E0,0E0,0E0,0E0,0E0,0E0,0E0,0E0,0E0,0E0,0E0,0E0,0E0,0E0,0E0,0E0,0E0,0E0,0E0,0E0,0E0,0E0,0E0,0E0,0E0,0E0,0E0,0E0,0E0,0E0],"parents":[2147483647,0,0,1,1,2,2,3,3,4,4,5,5,6,6,7,7,8,8,9,9,10,10,11,11,12,12,13,13,14,14,15,15,16,16,18,18,19,19,20,20,21,21,22,22,23,23,24,24,25,25,27,27,28,28,29,29,30,30,31,31,33,33,34,34,35,35,36,36,37,37,38,38,39,39,40,40,41,41,42,42,43,43,44,44,45,45,47,47,48,48,49,49,50,50,51,51,52,52,53,53,54,54,55,55,56,56,57,57,58,58],"right_children":[2,4,6,8,10,12,14,16,18,20,22,24,26,28,30,32,34,-1,36,38,40,42,44,46,48,50,-1,52,54,56,58,60,-1,62,64,66,68,70,72,74,76,78,80,82,84,86,-1,88,90,92,94,96,98,100,102,104,106,108,110,-1,-1,-1,-1,-1,-1,-1,-1,-1,-1,-1,-1,-1,-1,-1,-1,-1,-1,-1,-1,-1,-1,-1,-1,-1,-1,-1,-1,-1,-1,-1,-1,-1,-1,-1,-1,-1,-1,-1,-1,-1,-1,-1,-1,-1,-1,-1,-1,-1,-1,-1,-1],"split_conditions":[2E1,-5.4365005E0,-8.482333E0,1.1E1,1.2E1,2.7E1,1.1966954E1,1.1E1,1.3278032E2,1.700544E2,8.287822E0,9.227524E0,2.0266927E2,3.6E1,5.1E1,1E1,1.1874544E1,-1.6481719E0,1.5391447E2,1.8E1,1.7718732E2,4.4891667E-1,1.0365582E1,1.8326761E2,2E1,1.7272513E2,2.4544728E0,9.028754E0,8.287822E0,1E1,5.9280834E0,1E1,-1.366205E0,1.2E1,6E-1,1.5E1,1.2333333E1,1.1333333E1,7E0,8.759178E0,6.4096174E0,1.4E1,6E-1,1.30725E0,1.2181624E1,3.2E1,2.0637293E0,1.7935081E1,-1.0640669E1,2.9E1,2.8E1,1.6E1,1.7666666E1,3.0666666E1,1.6850458E2,3.2E1,1.2E1,5.6E1,3.5E1,1.9048938E0,1.6133615E-1,1.0876099E0,4.0053325E0,1.6204472E0,-7.37587E-1,1.8500079E0,1.0306979E-1,1.1919572E0,-1.584392E-1,-7.423941E-1,-1.3322135E0,1.3908806E0,-2.0960872E-1,6.437304E0,4.389845E-1,3.6862833E0,-4.478558E-1,3.137206E-1,3.6127632E0,1.0068436E0,-1.0960228E0,5.3177364E-3,-5.246341E-1,9.129736E-1,-1.0393687E-1,-8.2542235E-1,1.1542231E0,4.3193297E0,9.779263E-1,2.600668E-1,2.2947767E0,5.2473165E-2,-1.4213759E0,-4.6789744E-1,9.3973386E-1,1.1209135E0,-5.0544065E-1,-2.0772237E-1,1.2928852E0,4.1307197E0,1.1810337E0,1.3239829E-2,1.2884226E0,-9.086475E-1,5.9821177E-1,1.0266334E0,2.8536784E-2,4.0367413E-2,2.474648E0,3.2058194E0,2.0204201E-1],"split_indices":[0,4,4,0,0,2,6,3,7,7,6,6,7,0,0,2,6,0,7,1,7,4,4,7,2,7,0,6,6,2,4,0,0,2,5,0,3,3,0,6,6,1,5,4,6,0,0,6,4,1,1,1,3,3,7,1,1,1,2,0,0,0,0,0,0,0,0,0,0,0,0,0,0,0,0,0,0,0,0,0,0,0,0,0,0,0,0,0,0,0,0,0,0,0,0,0,0,0,0,0,0,0,0,0,0,0,0,0,0,0,0],"split_type":[0,0,0,0,0,0,0,0,0,0,0,0,0,0,0,0,0,0,0,0,0,0,0,0,0,0,0,0,0,0,0,0,0,0,0,0,0,0,0,0,0,0,0,0,0,0,0,0,0,0,0,0,0,0,0,0,0,0,0,0,0,0,0,0,0,0,0,0,0,0,0,0,0,0,0,0,0,0,0,0,0,0,0,0,0,0,0,0,0,0,0,0,0,0,0,0,0,0,0,0,0,0,0,0,0,0,0,0,0,0,0],"sum_hessian":[1.947E3,1.249E3,6.98E2,4.6E1,1.203E3,4.2E1,6.56E2,2.1E1,2.5E1,6.78E2,5.25E2,2.7E1,1.5E1,2.69E2,3.87E2,7E0,1.4E1,4E0,2.1E1,1.46E2,5.32E2,2.6E1,4.99E2,1E1,1.7E1,1.3E1,2E0,1.86E2,8.3E1,3.63E2,2.4E1,4E0,3E0,8E0,6E0,4E0,1.7E1,1.17E2,2.9E1,2.3E1,5.09E2,6E0,2E1,3.6E2,1.39E2,2E0,8E0,1.3E1,4E0,3E0,1E1,7.4E1,1.12E2,2.9E1,5.4E1,5.1E1,3.12E2,1.4E1,1E1,2E0,2E0,2E0,6E0,4E0,2E0,3E0,1E0,4E0,1.3E1,8.1E1,3.6E1,2E0,2.7E1,1E0,2.2E1,1E0,5.08E2,1E0,5E0,1.4E1,6E0,1.69E2,1.91E2,4.7E1,9.2E1,1E0,1E0,1.2E1,1E0,2E0,2E0,1E0,2E0,3E0,7E0,1.8E1,5.6E1,2.8E1,8.4E1,1E1,1.9E1,1.7E1,3.7E1,4.7E1,4E0,3.4E1,2.78E2,1.1E1,3E0,8E0,2E0],"tree_param":{"num_deleted":"0","num_feature":"8","num_nodes":"111","size_leaf_vector":"1"}},{"base_weights":[8.124856E-2,1.4393792E0,-4.942058E-1,5.3510127E0,1.1319062E0,-1.0278302E0,2.3347948E-1,2.4089472E0,7.4571886E0,-5.6555867E-2,1.8906708E0,-1.1386721E0,8.325232E-1,6.7464366E0,1.1900829E-1,4.2885113E0,-2.3781936E0,5.0596523E0,3.767091E0,-5.207569E-1,6.043721E0,6.5520444E0,1.5677598E0,-7.8544766E-1,-1.6525103E0,3.1091673E0,-4.0943775E-1,2.6837893E0,1.2106552E0,-3.39586E-1,1.2889663E0,6.1668366E-1,6.9652967E0,8.391062E-2,-3.6302233E0,-1.8067913E-1,5.8050337E0,2.327809E0,-1.1721618E0,1.333439E0,9.035749E0,-1.9449375E0,8.665742E0,2.166263E0,-1.0596644E0,-2.0919614E0,-1.1174359E-1,-2.2831595E0,-3.494609E-1,3.7249842E0,-9.1921294E-1,-1.5646865E0,2.459997E0,-6.0558703E-2,5.2463454E-1,1.8997408E0,-7.428467E-1,-3.829285E0,1.5464796E0,1.2098541E0,-4.6690533E-1,2.399429E0,7.7337915E-1,4.4602204E-2,-6.8424228E-3,-3.3432055E-1,-1.229209E0,2.6387541E0,1.0937852E0,2.456419E0,-2.4379058E-1,-4.4912648E-1,1.1651809E0,-1.0019505E0,2.6033247E0,3.0911574E0,-1.6636792E-1,-1.0457989E0,6.3289464E-1,1.1546983E0,3.4957702E0,5.4346406E-1,2.931927E0,-5.254663E-1,1.5685924E0,-4.0287015E-1,-1.2852278E0,5.5379814E-1,-2.4817517E-1,-8.563709E-2,-7.5692147E-1,1.6765796E0,-2.3638175E-1,-2.2775918E-2,1.5342098E0,-1.1686348E0,-2.4909768E-1,-2.3816071E-1,8.8978916E-1,-5.913053E-1,1.1237794E0,2.189224E0,-2.5716573E-1,-1.76035E0,4.57272E-1,3.5282612E-1,1.4701135E0],"categories":[],"categories_nodes":[],"categories_segments":[],"categories_sizes":[],"default_left":[0,0,0,0,0,0,0,0,0,0,0,0,0,0,0,0,0,0,0,0,0,0,0,0,0,0,0,0,0,0,0,0,0,0,0,0,0,0,0,0,0,0,0,0,0,0,0,0,0,0,0,0,0,0,0,0,0,0,0,0,0,0,0,0,0,0,0,0,0,0,0,0,0,0,0,0,0,0,0,0,0,0,0,0,0,0,0,0,0,0,0,0,0,0,0,0,0,0,0,0,0,0,0,0,0,0,0],"id":6,"left_children":[1,3,5,7,9,11,13,15,17,19,21,23,25,27,29,31,33,35,-1,37,39,41,43,45,47,49,51,-1,53,55,57,59,61,63,65,-1,67,69,71,73,75,77,79,81,83,85,87,89,91,93,-1,95,97,-1,-1,99,101,103,105,-1,-1,-1,-1,-1,-1,-1,-1,-1,-1,-1,-1,-1,-1,-1,-1,-1,-1,-1,-1,-1,-1,-1,-1,-1,-1,-1,-1,-1,-1,-1,-1,-1,-1,-1,-1,-1,-1,-1,-1,-1,-1,-1,-1,-1,-1,-1,-1],"loss_changes":[1.5231555E3,6.91522E2,5.318372E2,2.422893E2,4.8615723E2,1.6385004E2,4.3161383E2,1.8115591E2,2.2991199E2,6.006476E2,4.8494177E2,1.3410114E2,1.2851065E2,1.1093048E2,3.0679977E2,1.3330634E2,1.880038E1,7.946127E1,0E0,3.6827585E2,1.9935083E2,3.9401544E2,4.8820483E2,3.9057663E2,2.4819763E2,7.223857E1,1.0329645E2,0E0,3.393467E0,3.7255762E2,2.1812274E2,5.824062E1,1.5631653E1,2.4125362E-2,1.3485336E-1,0E0,7.124939E1,6.8759454E2,2.7031506E2,2.6923605E2,1.1516803E2,3.859601E1,1.9972461E2,6.6225854E2,2.6150555E2,2.4219489E2,4.1335486E2,9.705139E1,2.6477448E2,7.9582855E1,0E0,3.4421165E1,1.7171726E1,0E0,0E0,4.575912E2,3.2719E2,9.6251335E1,1.8554465E2,0E0,0E0,0E0,0E0,0E0,0E0,0E0,0E0,0E0,0E0,0E0,0E0,0E0,0E0,0E0,0E0,0E0,0E0,0E0,0E0,0E0,0E0,0E0,0E0,0E0,0E0,0E0,0E0,0E0,0E0,0E0,0E0,0E0,0E0,0E0,0E0,0E0,0E0,0E0,0E0,0E0,0E0,0E0,0E0,0E0,0E0,0E0,0E0],"parents":[2147483647,0,0,1,1,2,2,3,3,4,4,5,5,6,6,7,7,8,8,9,9,10,10,11,11,12,12,13,13,14,14,15,15,16,16,17,17,19,19,20,20,21,21,22,22,23,23,24,24,25,25,26,26,28,28,29,29,30,30,31,31,32,32,33,33,34,34,36,36,37,37,38,38,39,39,40,40,41,41,42,42,43,43,44,44,45,45,46,46,47,47,48,48,49,49,51,51,52,52,55,55,56,56,57,57,58,58],"right_children":[2,4,6,8,10,12,14,16,18,20,22,24,26,28,30,32,34,36,-1,38,40,42,44,46,48,50,52,-1,54,56,58,60,62,64,66,-1,68,70,72,74,76,78,80,82,84,86,88,90,92,94,-1,96,98,-1,-1,100,102,104,106,-1,-1,-1,-1,-1,-1,-1,-1,-1,-1,-1,-1,-1,-1,-1,-1,-1,-1,-1,-1,-1,-1,-1,-1,-1,-1,-1,-1,-1,-1,-1,-1,-1,-1,-1,-1,-1,-1,-1,-1,-1,-1,-1,-1,-1,-1,-1,-1],"split_conditions":[2E-1,-8.934417E0,1.6E1,1.9188075E2,1.6333334E1,3.8E1,6.130579E0,3.3333332E1,3.8E1,2.2539564E1,1.7333334E1,5.4614167E0,1.4982228E1,3.4E1,9.930166E0,1.3E1,9.904906E0,1.966704E2,3.767091E0,7E0,9.333333E0,1.3E1,1.5617529E1,1.9712866E2,1.1065583E1,5.9E1,1.3E1,2.6837893E0,3.5E1,-3.4302495E0,1.5172982E1,1.3E1,1.6287042E2,2.9E1,2.9E1,-1.8067913E-1,2.7E1,3.6864173E0,2E1,4.8010006E0,1.8E1,1.8843591E2,1.3E1,1.5141414E1,4.7E1,1.5E1,2.1865987E2,1.0630672E1,6E0,-3.6385832E0,-9.1921294E-1,8.000001E-1,1.1E1,-6.0558703E-2,5.2463454E-1,1.7084718E2,6.527753E0,2.7E1,4.2E1,1.2098541E0,-4.6690533E-1,2.399429E0,7.7337915E-1,4.4602204E-2,-6.8424228E-3,-3.3432055E-1,-1.229209E0,2.6387541E0,1.0937852E0,2.456419E0,-2.4379058E-1,-4.4912648E-1,1.1651809E0,-1.0019505E0,2.6033247E0,3.0911574E0,-1.6636792E-1,-1.0457989E0,6.3289464E-1,1.1546983E0,3.4957702E0,5.4346406E-1,2.931927E0,-5.254663E-1,1.5685924E0,-4.0287015E-1,-1.2852278E0,5.5379814E-1,-2.4817517E-1,-8.563709E-2,-7.5692147E-1,1.6765796E0,-2.3638175E-1,-2.2775918E-2,1.5342098E0,-1.1686348E0,-2.4909768E-1,-2.3816071E-1,8.8978916E-1,-5.913053E-1,1.1237794E0,2.189224E0,-2.5716573E-1,-1.76035E0,4.57272E-1,3.5282612E-1,1.4701135E0],"split_indices":[5,4,0,7,3,2,6,3,1,6,3,4,6,1,4,2,6,7,0,1,3,0,6,7,4,2,0,0,1,4,7,0,7,0,0,0,0,4,2,4,1,7,2,6,0,3,7,6,1,4,0,5,1,0,0,7,7,2,0,0,0,0,0,0,0,0,0,0,0,0,0,0,0,0,0,0,0,0,0,0,0,0,0,0,0,0,0,0,0,0,0,0,0,0,0,0,0,0,0,0,0,0,0,0,0,0,0],"split_type":[0,0,0,0,0,0,0,0,0,0,0,0,0,0,0,0,0,0,0,0,0,0,0,0,0,0,0,0,0,0,0,0,0,0,0,0,0,0,0,0,0,0,0,0,0,0,0,0,0,0,0,0,0,0,0,0,0,0,0,0,0,0,0,0,0,0,0,0,0,0,0,0,0,0,0,0,0,0,0,0,0,0,0,0,0,0,0,0,0,0,0,0,0,0,0,0,0,0,0,0,0,0,0,0,0,0,0],"sum_hessian":[1.947E3,5.79E2,1.368E3,4.1E1,5.38E2,7.89E2,5.79E2,1.8E1,2.3E1,2.1E2,3.28E2,7.45E2,4.4E1,9E0,5.7E2,1.3E1,5E0,1.7E1,6E0,1.96E2,1.4E1,2E1,3.08E2,4.43E2,3.02E2,1.5E1,2.9E1,6E0,3E0,4.1E2,1.6E2,6E0,7E0,2E0,3E0,2E0,1.5E1,3.6E1,1.6E2,6E0,8E0,4E0,1.6E1,2.51E2,5.7E1,1.5E2,2.93E2,2.03E2,9.9E1,1.4E1,1E0,2.1E1,8E0,1E0,2E0,6.2E1,3.48E2,7E0,1.53E2,2E0,4E0,5E0,2E0,1E0,1E0,1E0,2E0,5E0,1E1,1.2E1,2.4E1,1.51E2,9E0,4E0,2E0,7E0,1E0,3E0,1E0,7E0,9E0,2.41E2,1E1,5.2E1,5E0,1.13E2,3.7E1,7.8E1,2.15E2,2.2E1,1.81E2,6E0,9.3E1,4E0,1E1,4E0,1.7E1,1E0,7E0,2E1,4.2E1,4E0,3.44E2,5E0,2E0,1.39E2,1.4E1],"tree_param":{"num_deleted":"0","num_feature":"8","num_nodes":"107","size_leaf_vector":"1"}},{"base_weights":[7.283575E-2,-2.656737E-1,1.3712546E0,1.9036285E0,-3.80677E-1,1.0325892E0,4.4188275E0,1.0192088E0,4.5963416E0,-1.5502849E0,-2.1718083E-1,-1.104578E0,1.5096282E0,7.871042E0,2.658198E0,3.305968E-1,8.527822E0,6.454013E0,-1.8959405E0,-2.1274107E0,1.1854033E0,2.1706724E0,-3.2124463E-1,-1.5614709E0,6.481852E0,9.121357E0,1.1861078E0,9.157145E0,2.6880255E0,-3.202394E-1,4.60426E0,8.111494E-1,-4.7332697E0,1.0760703E1,-6.0555413E-2,7.7161603E0,3.274765E0,-7.370819E-1,5.2208234E-2,-2.2807593E0,2.7451837E0,4.103845E0,-1.3502353E-1,9.382278E0,1.0765051E-1,-3.8723892E-1,2.2586384E0,-3.1756253E0,-2.178056E-1,2.5655801E0,4.0741254E-2,1.3228229E1,-2.3994436E0,1.8854403E0,-8.8981825E-1,6.357872E-1,1.0651696E1,-3.9852622E-1,1.3408945E0,-4.0460777E0,1.3712709E0,6.978741E0,-9.1207886E-1,1.3283954E0,7.2938345E-2,2.5647128E-1,-2.623106E0,9.3523526E-1,3.6807911E0,2.4464447E0,5.652386E-1,2.9878923E-1,1.2495524E0,-5.2933687E-1,-9.679339E-1,-4.3531582E-1,1.2471019E0,2.7374573E0,-2.2929169E-1,-8.738832E-1,6.6777325E-1,4.8592405E0,-3.9746907E-2,-8.5079414E-1,5.357642E-1,6.3842842E-3,-2.3337494E-1,1.0987362E0,-1.2603006E0,6.474041E-1,-1.1622137E0,9.233107E-1,-2.5458595E-1,5.455374E-1,4.8685155E0,-1.3820962E0,-3.8380053E-2,6.9531456E-2,1.0564954E0,-1.2050519E0,1.3507925E-1,3.6351666E0,1.251024E0,-1.5875274E0,-5.600796E-1,9.325463E-1,-1.9206001E-1,-9.078369E-2,2.300458E0,1.3303952E-1,-1.1534698E0],"categories":[],"categories_nodes":[],"categories_segments":[],"categories_sizes":[],"default_left":[0,0,0,0,0,0,0,0,0,0,0,0,0,0,0,0,0,0,0,0,0,0,0,0,0,0,0,0,0,0,0,0,0,0,0,0,0,0,0,0,0,0,0,0,0,0,0,0,0,0,0,0,0,0,0,0,0,0,0,0,0,0,0,0,0,0,0,0,0,0,0,0,0,0,0,0,0,0,0,0,0,0,0,0,0,0,0,0,0,0,0,0,0,0,0,0,0,0,0,0,0,0,0,0,0,0,0,0,0,0,0],"id":7,"left_children":[1,3,5,7,9,11,13,15,17,19,21,23,25,27,29,31,33,35,37,39,41,43,45,47,49,51,53,55,57,59,61,63,65,67,-1,69,71,-1,-1,73,75,77,79,81,83,85,87,89,91,-1,-1,93,95,97,99,-1,101,-1,-1,103,105,107,109,-1,-1,-1,-1,-1,-1,-1,-1,-1,-1,-1,-1,-1,-1,-1,-1,-1,-1,-1,-1,-1,-1,-1,-1,-1,-1,-1,-1,-1,-1,-1,-1,-1,-1,-1,-1,-1,-1,-1,-1,-1,-1,-1,-1,-1,-1,-1,-1],"loss_changes":[8.565629E2,3.8641608E2,4.1137634E2,1.8107147E2,2.8057492E2,3.727699E2,2.2220001E2,3.07412E2,2.4138641E2,2.8671234E2,3.2124817E2,2.4235567E2,7.23021E2,6.204193E1,1.6376875E2,1.4011282E2,9.96337E1,3.492151E1,6.233824E0,1.1759485E2,1.23868965E2,8.0238586E2,2.1148328E2,1.381169E2,5.1385956E1,5.9951373E2,4.1833356E2,8.261035E1,3.4560734E1,8.11758E1,2.290387E2,1.0575433E2,1.1952953E2,7.8735046E0,0E0,1.0217834E1,8.0260315E0,0E0,0E0,6.510498E1,3.5653732E1,2.5140457E2,1.5732915E2,7.802854E2,2.174886E2,1.9265315E2,2.964984E2,1.1638876E2,7.7450516E1,0E0,0E0,2.7856897E2,1.9468441E1,5.8092017E2,3.0771268E2,0E0,2.5462036E1,0E0,0E0,9.787216E-1,3.343931E1,6.2562195E1,2.555848E1,0E0,0E0,0E0,0E0,0E0,0E0,0E0,0E0,0E0,0E0,0E0,0E0,0E0,0E0,0E0,0E0,0E0,0E0,0E0,0E0,0E0,0E0,0E0,0E0,0E0,0E0,0E0,0E0,0E0,0E0,0E0,0E0,0E0,0E0,0E0,0E0,0E0,0E0,0E0,0E0,0E0,0E0,0E0,0E0,0E0,0E0,0E0,0E0],"parents":[2147483647,0,0,1,1,2,2,3,3,4,4,5,5,6,6,7,7,8,8,9,9,10,10,11,11,12,12,13,13,14,14,15,15,16,16,17,17,18,18,19,19,20,20,21,21,22,22,23,23,24,24,25,25,26,26,27,27,28,28,29,29,30,30,31,31,32,32,33,33,35,35,36,36,39,39,40,40,41,41,42,42,43,43,44,44,45,45,46,46,47,47,48,48,51,51,52,52,53,53,54,54,56,56,59,59,60,60,61,61,62,62],"right_children":[2,4,6,8,10,12,14,16,18,20,22,24,26,28,30,32,34,36,38,40,42,44,46,48,50,52,54,56,58,60,62,64,66,68,-1,70,72,-1,-1,74,76,78,80,82,84,86,88,90,92,-1,-1,94,96,98,100,-1,102,-1,-1,104,106,108,110,-1,-1,-1,-1,-1,-1,-1,-1,-1,-1,-1,-1,-1,-1,-1,-1,-1,-1,-1,-1,-1,-1,-1,-1,-1,-1,-1,-1,-1,-1,-1,-1,-1,-1,-1,-1,-1,-1,-1,-1,-1,-1,-1,-1,-1,-1,-1,-1],"split_conditions":[2.7E1,-5.1865E0,1.5721835E1,1.9782162E2,7E0,1.4288617E2,2.4666666E1,-5.5469165E0,2.360536E2,1.4E1,6E0,4.9E1,1.5226587E2,1.5517629E1,3.8E1,2.5E1,3.4E1,2.1159389E2,2.4E1,1.3573917E1,1.5893093E1,1.1440978E1,1.700725E1,2.8E1,5.2E1,4.7E1,2.4686998E2,1.9666666E1,1.1E1,3E1,1.5893093E1,9E0,1.4E1,9.178235E0,-6.0555413E-2,2.5E1,-6.9448338E0,-7.370819E-1,5.2208234E-2,8.040583E0,1E-1,4.948917E0,4.1E0,2.1787502E2,2.0099188E2,1.6831684E1,3E1,7E0,1.8E1,2.5655801E0,4.0741254E-2,-5.0719166E0,5E1,1.9316823E2,2.8573764E2,6.357872E-1,1.8013684E2,-3.9852622E-1,1.3408945E0,2.6E1,3.6666668E1,1.5172982E1,4.1E1,1.3283954E0,7.2938345E-2,2.5647128E-1,-2.623106E0,9.3523526E-1,3.6807911E0,2.4464447E0,5.652386E-1,2.9878923E-1,1.2495524E0,-5.2933687E-1,-9.679339E-1,-4.3531582E-1,1.2471019E0,2.7374573E0,-2.2929169E-1,-8.738832E-1,6.6777325E-1,4.8592405E0,-3.9746907E-2,-8.5079414E-1,5.357642E-1,6.3842842E-3,-2.3337494E-1,1.0987362E0,-1.2603006E0,6.474041E-1,-1.1622137E0,9.233107E-1,-2.5458595E-1,5.455374E-1,4.8685155E0,-1.3820962E0,-3.8380053E-2,6.9531456E-2,1.0564954E0,-1.2050519E0,1.3507925E-1,3.6351666E0,1.251024E0,-1.5875274E0,-5.600796E-1,9.325463E-1,-1.9206001E-1,-9.078369E-2,2.300458E0,1.3303952E-1,-1.1534698E0],"split_indices":[0,4,4,7,0,7,3,4,7,1,1,2,7,6,0,0,1,7,1,4,6,6,4,1,1,0,7,3,2,1,6,0,2,6,0,0,4,0,0,4,5,4,5,7,7,6,2,2,2,0,0,4,0,7,7,0,7,0,0,3,3,7,2,0,0,0,0,0,0,0,0,0,0,0,0,0,0,0,0,0,0,0,0,0,0,0,0,0,0,0,0,0,0,0,0,0,0,0,0,0,0,0,0,0,0,0,0,0,0,0,0],"split_type":[0,0,0,0,0,0,0,0,0,0,0,0,0,0,0,0,0,0,0,0,0,0,0,0,0,0,0,0,0,0,0,0,0,0,0,0,0,0,0,0,0,0,0,0,0,0,0,0,0,0,0,0,0,0,0,0,0,0,0,0,0,0,0,0,0,0,0,0,0,0,0,0,0,0,0,0,0,0,0,0,0,0,0,0,0,0,0,0,0,0,0,0,0,0,0,0,0,0,0,0,0,0,0,0,0,0,0,0,0,0,0],"sum_hessian":[1.947E3,1.545E3,4.02E2,7.7E1,1.468E3,3.63E2,3.9E1,5.9E1,1.8E1,1.79E2,1.289E3,6.6E1,2.97E2,1.2E1,2.7E1,5.5E1,4E0,1.4E1,4E0,1.48E2,3.1E1,5.3E1,1.236E3,6.3E1,3E0,1.1E1,2.86E2,9E0,3E0,1.1E1,1.6E1,5.1E1,4E0,3E0,1E0,9E0,5E0,3E0,1E0,1.44E2,4E0,9E0,2.2E1,1.1E1,4.2E1,1.206E3,3E1,2.8E1,3.5E1,2E0,1E0,8E0,3E0,2.14E2,7.2E1,2E0,7E0,1E0,2E0,3E0,8E0,1.1E1,5E0,6E0,4.5E1,2E0,2E0,1E0,2E0,8E0,1E0,2E0,3E0,9.5E1,4.9E1,1E0,3E0,4E0,5E0,1E1,1.2E1,6E0,5E0,1.5E1,2.7E1,5.9E2,6.16E2,2.5E1,5E0,3E0,2.5E1,5E0,3E1,2E0,6E0,1E0,2E0,1.07E2,1.07E2,2.1E1,5.1E1,5E0,2E0,1E0,2E0,4E0,4E0,1E0,1E1,4E0,1E0],"tree_param":{"num_deleted":"0","num_feature":"8","num_nodes":"111","size_leaf_vector":"1"}},{"base_weights":[6.4462565E-2,-1.531994E-2,3.5172172E0,3.4378406E-1,-6.2157124E-1,3.4425926E0,2.8650389E0,2.8745687E0,2.4699177E-1,-1.4726536E0,-3.182833E-1,-4.413367E0,3.3392932E0,1.7465944E0,6.5350213E0,-4.2438474E-1,6.3898E-1,-3.3753393E0,-8.769136E-1,-7.277904E-1,5.9312695E-1,-1.9589356E0,-2.7079584E-2,3.7960103E0,-3.5588882E0,4.018278E0,9.246779E-1,5.460812E-1,7.4861755E0,-6.9705296E-1,1.5501341E0,7.68431E0,5.7971066E-1,5.6515217E-1,-4.0123944E0,-2.71641E0,-4.4491944E-1,-6.170796E-1,-6.254256E0,3.6668448E0,6.1967276E-2,5.2368016E0,1.9041979E0,-1.8126403E0,2.1114065E-1,-7.177019E-2,1.3741113E0,-8.352608E-2,6.725217E-1,5.308102E-1,2.4150288E0,-1.2697268E-1,-1.2631483E0,1.5192501E-1,3.3779385E0,-1.497345E-1,3.5702403E0,-2.5370172E-3,3.345408E-1,-9.3285257E-1,1.2295575E0,-1.3092754E0,2.083447E-2,-8.936011E-1,1.1236916E-1,2.1842304E-1,-4.7142014E-1,1.729047E0,-2.0628978E-1,8.0144264E-2,-2.2157042E0,1.758751E0,-1.931924E-1,3.3906233E-1,-4.2712688E-1,1.0570221E0,2.2741928E0,2.1685262E-1,1.75747E0],"categories":[],"categories_nodes":[],"categories_segments":[],"categories_sizes":[],"default_left":[0,0,0,0,0,0,0,0,0,0,0,0,0,0,0,0,0,0,0,0,0,0,0,0,0,0,0,0,0,0,0,0,0,0,0,0,0,0,0,0,0,0,0,0,0,0,0,0,0,0,0,0,0,0,0,0,0,0,0,0,0,0,0,0,0,0,0,0,0,0,0,0,0,0,0,0,0,0,0],"id":8,"left_children":[1,3,5,7,9,-1,11,13,15,17,19,21,23,25,27,29,31,33,35,37,39,-1,-1,41,43,45,47,-1,49,51,53,55,57,59,61,63,65,67,69,71,73,75,77,-1,-1,-1,-1,-1,-1,-1,-1,-1,-1,-1,-1,-1,-1,-1,-1,-1,-1,-1,-1,-1,-1,-1,-1,-1,-1,-1,-1,-1,-1,-1,-1,-1,-1,-1,-1],"loss_changes":[5.366682E2,4.14946E2,1.95487E2,2.9250763E2,1.8254053E2,0E0,1.5971378E2,1.7025739E2,3.039713E2,2.0787222E2,1.9600368E2,2.6859062E1,1.3953033E2,6.163408E1,3.1217682E1,2.3043405E2,2.9995505E2,1.1272125E2,1.1242661E2,2.1762648E2,2.6589227E2,0E0,0E0,9.360492E1,3.6008392E1,2.263385E1,4.3407097E1,0E0,1.1546997E1,3.5897473E2,5.212732E2,2.1297195E2,2.2801137E2,1.0363202E2,5.4879578E1,2.300299E1,1.5574297E2,1.64223E2,5.3622437E1,2.3093735E2,2.2380453E2,5.7624756E1,7.984563E1,0E0,0E0,0E0,0E0,0E0,0E0,0E0,0E0,0E0,0E0,0E0,0E0,0E0,0E0,0E0,0E0,0E0,0E0,0E0,0E0,0E0,0E0,0E0,0E0,0E0,0E0,0E0,0E0,0E0,0E0,0E0,0E0,0E0,0E0,0E0,0E0],"parents":[2147483647,0,0,1,1,2,2,3,3,4,4,6,6,7,7,8,8,9,9,10,10,11,11,12,12,13,13,14,14,15,15,16,16,17,17,18,18,19,19,20,20,23,23,24,24,25,25,26,26,28,28,29,29,30,30,31,31,32,32,33,33,34,34,35,35,36,36,37,37,38,38,39,39,40,40,41,41,42,42],"right_children":[2,4,6,8,10,-1,12,14,16,18,20,22,24,26,28,30,32,34,36,38,40,-1,-1,42,44,46,48,-1,50,52,54,56,58,60,62,64,66,68,70,72,74,76,78,-1,-1,-1,-1,-1,-1,-1,-1,-1,-1,-1,-1,-1,-1,-1,-1,-1,-1,-1,-1,-1,-1,-1,-1,-1,-1,-1,-1,-1,-1,-1,-1,-1,-1,-1,-1],"split_conditions":[5.3E1,2.9E0,7.729527E0,-8.482333E0,1.9316823E2,3.4425926E0,8.759178E0,2.0266927E2,1.3E1,3.9E0,1.8E1,5.5E1,7.8E1,1.4E1,5.937272E0,1.2823917E1,5E0,6.3509216E1,8E0,2.5E1,1.6E1,-1.9589356E0,-2.7079584E-2,4.6666668E1,1.05E2,1.0666667E1,1.1966954E1,5.460812E-1,4E0,2.6E1,2.1E0,-7.6566654E-1,1.8326761E2,1.1666667E1,3.4E1,2.7E1,1.8E1,1.9406442E2,1.9406442E2,2.383896E1,6.5E0,3.9666668E1,6.0666668E1,-1.8126403E0,2.1114065E-1,-7.177019E-2,1.3741113E0,-8.352608E-2,6.725217E-1,5.308102E-1,2.4150288E0,-1.2697268E-1,-1.2631483E0,1.5192501E-1,3.3779385E0,-1.497345E-1,3.5702403E0,-2.5370172E-3,3.345408E-1,-9.3285257E-1,1.2295575E0,-1.3092754E0,2.083447E-2,-8.936011E-1,1.1236916E-1,2.1842304E-1,-4.7142014E-1,1.729047E0,-2.0628978E-1,8.0144264E-2,-2.2157042E0,1.758751E0,-1.931924E-1,3.3906233E-1,-4.2712688E-1,1.0570221E0,2.2741928E0,2.1685262E-1,1.75747E0],"split_indices":[0,5,6,4,7,0,6,7,2,5,3,0,0,0,6,4,1,7,2,0,1,0,0,3,0,3,6,0,1,1,5,4,7,3,1,0,2,7,7,6,5,3,3,0,0,0,0,0,0,0,0,0,0,0,0,0,0,0,0,0,0,0,0,0,0,0,0,0,0,0,0,0,0,0,0,0,0,0,0],"split_type":[0,0,0,0,0,0,0,0,0,0,0,0,0,0,0,0,0,0,0,0,0,0,0,0,0,0,0,0,0,0,0,0,0,0,0,0,0,0,0,0,0,0,0,0,0,0,0,0,0,0,0,0,0,0,0,0,0,0,0,0,0,0,0,0,0,0,0,0,0,0,0,0,0,0,0,0,0,0,0],"sum_hessian":[1.947E3,1.904E3,4.3E1,1.196E3,7.08E2,2E0,4.1E1,4.3E1,1.153E3,1.85E2,5.23E2,2E0,3.9E1,3.4E1,9E0,4.25E2,7.28E2,4.3E1,1.42E2,3.61E2,1.62E2,1E0,1E0,3.7E1,2E0,8E0,2.6E1,2E0,7E0,3.74E2,5.1E1,5E0,7.23E2,6E0,3.7E1,2.6E1,1.16E2,3.55E2,6E0,2.3E1,1.39E2,2E1,1.7E1,1E0,1E0,1E0,7E0,1.4E1,1.2E1,1E0,6E0,3.48E2,2.6E1,4.7E1,4E0,2E0,3E0,3.45E2,3.78E2,3E0,3E0,3.4E1,3E0,2.4E1,2E0,5.7E1,5.9E1,3E0,3.52E2,1E0,5E0,1.5E1,8E0,8.1E1,5.8E1,1.3E1,7E0,1.4E1,3E0],"tree_param":{"num_deleted":"0","num_feature":"8","num_nodes":"79","size_leaf_vector":"1"}},{"base_weights":[5.296505E-2,7.1808463E-1,-2.288628E-1,-8.159155E-1,1.0316696E0,3.0862465E0,-2.6292083E-1,-1.5804051E-1,-5.1558547E0,6.5157623E0,8.5369295E-1,-4.54887E-1,4.5481887E0,-8.233654E-2,-7.148687E-1,-1.5097772E0,1.8933904E0,-1.0998688E0,-6.262664E0,2.2363803E0,9.980674E0,1.1009332E0,-1.8193015E0,-3.1103343E-1,2.7863312E-1,1.9642336E0,1.2394428E0,3.1084794E-1,-5.411605E-1,1.0081903E-2,-1.5573257E0,1.6123941E0,-1.8851398E0,2.8167362E0,8.9725566E-1,2.2231151E-1,-5.881552E-1,-5.486099E-1,-1.9656413E0,-2.308279E0,5.424832E0,1.2322903E0,3.3761246E0,6.819029E-1,3.1350827E0,-3.9539247E0,2.001999E0,1.11516096E-1,1.386881E-2,5.63653E-1,1.8689473E-1,-1.1162624E0,6.980458E-1,-9.959095E-1,4.8759374E-1,-1.7482952E0,5.310203E-1,2.855536E-1,-2.1421006E0,-8.379801E-1,5.0132215E-1,-5.7933398E-2,1.4457033E0,3.5920945E-1,-1.1627847E0,2.035618E-1,1.9325311E0,3.2983822E-1,-4.468908E-1,1.3882284E0,-3.137971E-2,-2.1782978E-1,-1.5314724E0,2.7920907E0,4.867102E-2,9.700928E-2,-1.2906647E-2,-3.798525E-1,2.3286028E0,-1.6546153E-1,4.6561635E-1,-5.006922E-1,-1.1938131E-1,-7.2288907E-1,2.661926E-1,-1.5966431E0,-3.605309E-2,1.8066556E0,5.059497E-2,-1.5720396E-1,1.3918654E0,-6.8877304E-1,1.6326293E0],"categories":[],"categories_nodes":[],"categories_segments":[],"categories_sizes":[],"default_left":[0,0,0,0,0,0,0,0,0,0,0,0,0,0,0,0,0,0,0,0,0,0,0,0,0,0,0,0,0,0,0,0,0,0,0,0,0,0,0,0,0,0,0,0,0,0,0,0,0,0,0,0,0,0,0,0,0,0,0,0,0,0,0,0,0,0,0,0,0,0,0,0,0,0,0,0,0,0,0,0,0,0,0,0,0,0,0,0,0,0,0,0,0],"id":9,"left_children":[1,3,5,7,9,11,13,15,17,19,21,23,25,27,29,31,33,35,37,39,41,43,45,-1,47,-1,49,51,53,55,57,-1,59,-1,61,-1,-1,-1,-1,63,65,-1,-1,67,69,71,73,-1,-1,-1,75,77,79,81,83,85,87,89,91,-1,-1,-1,-1,-1,-1,-1,-1,-1,-1,-1,-1,-1,-1,-1,-1,-1,-1,-1,-1,-1,-1,-1,-1,-1,-1,-1,-1,-1,-1,-1,-1,-1,-1],"loss_changes":[3.6531543E2,2.798445E2,1.553798E2,2.8184375E2,4.6488898E2,7.454596E1,1.1061067E2,2.4410909E2,5.1471527E1,2.000946E2,3.11291E2,2.423025E0,5.8035126E1,1.7515862E2,2.3637196E2,1.470922E2,2.5291208E2,7.7903137E0,8.532715E-1,1.2844543E2,1.3588257E1,3.635291E2,3.341972E2,0E0,4.771705E-2,0E0,3.0138526E0,2.8977545E2,2.1007117E2,1.9237366E2,1.935145E2,0E0,1.693719E2,0E0,1.3776749E2,0E0,0E0,0E0,0E0,2.6623693E1,1.9762451E1,0E0,0E0,3.2534503E2,3.5341895E2,9.288785E1,2.0008115E2,0E0,0E0,0E0,1.0804176E-1,1.5889595E2,4.405241E2,1.2450513E2,1.6195084E2,2.7865546E2,3.213377E2,1.5752467E2,1.7114166E2,0E0,0E0,0E0,0E0,0E0,0E0,0E0,0E0,0E0,0E0,0E0,0E0,0E0,0E0,0E0,0E0,0E0,0E0,0E0,0E0,0E0,0E0,0E0,0E0,0E0,0E0,0E0,0E0,0E0,0E0,0E0,0E0,0E0,0E0],"parents":[2147483647,0,0,1,1,2,2,3,3,4,4,5,5,6,6,7,7,8,8,9,9,10,10,11,11,12,12,13,13,14,14,15,15,16,16,17,17,18,18,19,19,20,20,21,21,22,22,24,24,26,26,27,27,28,28,29,29,30,30,32,32,34,34,39,39,40,40,43,43,44,44,45,45,46,46,50,50,51,51,52,52,53,53,54,54,55,55,56,56,57,57,58,58],"right_children":[2,4,6,8,10,12,14,16,18,20,22,24,26,28,30,32,34,36,38,40,42,44,46,-1,48,-1,50,52,54,56,58,-1,60,-1,62,-1,-1,-1,-1,64,66,-1,-1,68,70,72,74,-1,-1,-1,76,78,80,82,84,86,88,90,92,-1,-1,-1,-1,-1,-1,-1,-1,-1,-1,-1,-1,-1,-1,-1,-1,-1,-1,-1,-1,-1,-1,-1,-1,-1,-1,-1,-1,-1,-1,-1,-1,-1,-1],"split_conditions":[2E-1,6.3509216E1,6.130579E0,5.375306E1,7.227726E1,1.6E1,2.5168681E2,2.1E1,6.4096174E0,-6.365E-1,4.1E1,9E0,3.1E1,1.872E1,2.6614165E0,-6.0739994E0,1.4E1,7E0,9E0,1.1E1,7.072878E0,3.3E1,4.3E1,-3.1103343E-1,1.3E1,1.9642336E0,3.6E1,9E0,2.1230302E2,1.5273505E1,1.1720751E1,1.6123941E0,1.2348915E1,2.8167362E0,3.8E1,2.2231151E-1,-5.881552E-1,-5.486099E-1,-1.9656413E0,7E0,1.2E1,1.2322903E0,3.3761246E0,2.5E1,1.3379461E1,1.0163227E1,1.654087E2,1.11516096E-1,1.386881E-2,5.63653E-1,2.9E1,1.859845E1,1.718865E2,1.3E1,1.3000002E0,2.7605536E2,1.665754E1,1.1212135E1,3.029566E1,-8.379801E-1,5.0132215E-1,-5.7933398E-2,1.4457033E0,3.5920945E-1,-1.1627847E0,2.035618E-1,1.9325311E0,3.2983822E-1,-4.468908E-1,1.3882284E0,-3.137971E-2,-2.1782978E-1,-1.5314724E0,2.7920907E0,4.867102E-2,9.700928E-2,-1.2906647E-2,-3.798525E-1,2.3286028E0,-1.6546153E-1,4.6561635E-1,-5.006922E-1,-1.1938131E-1,-7.2288907E-1,2.661926E-1,-1.5966431E0,-3.605309E-2,1.8066556E0,5.059497E-2,-1.5720396E-1,1.3918654E0,-6.8877304E-1,1.6326293E0],"split_indices":[5,7,6,7,7,0,7,2,6,4,2,0,1,6,4,4,1,2,0,1,6,1,0,0,0,0,2,2,7,6,6,0,4,0,0,0,0,0,0,1,2,0,0,1,6,6,7,0,0,0,0,6,7,1,5,7,6,6,6,0,0,0,0,0,0,0,0,0,0,0,0,0,0,0,0,0,0,0,0,0,0,0,0,0,0,0,0,0,0,0,0,0,0],"split_type":[0,0,0,0,0,0,0,0,0,0,0,0,0,0,0,0,0,0,0,0,0,0,0,0,0,0,0,0,0,0,0,0,0,0,0,0,0,0,0,0,0,0,0,0,0,0,0,0,0,0,0,0,0,0,0,0,0,0,0,0,0,0,0,0,0,0,0,0,0,0,0,0,0,0,0,0,0,0,0,0,0,0,0,0,0,0,0,0,0,0,0,0,0],"sum_hessian":[1.947E3,5.79E2,1.368E3,9.8E1,4.81E2,1.3E1,1.355E3,8.6E1,1.2E1,1.4E1,4.67E2,4E0,9E0,9.69E2,3.86E2,5.2E1,3.4E1,3E0,9E0,7E0,7E0,4.28E2,3.9E1,2E0,2E0,5E0,4E0,5.22E2,4.47E2,2.08E2,1.78E2,2E0,5E1,3E0,3.1E1,1E0,2E0,1E0,8E0,3E0,4E0,2E0,5E0,3.56E2,7.2E1,2.5E1,1.4E1,1E0,1E0,2E0,2E0,1.11E2,4.11E2,3.1E2,1.37E2,4.7E1,1.61E2,4.3E1,1.35E2,4E1,1E1,2.5E1,6E0,1E0,2E0,1E0,3E0,2.99E2,5.7E1,4.9E1,2.3E1,7E0,1.8E1,2E0,1.2E1,1E0,1E0,1.1E2,1E0,1.67E2,2.44E2,1.45E2,1.65E2,1.6E1,1.21E2,1.4E1,3.3E1,9E0,1.52E2,3.7E1,6E0,1.33E2,2E0],"tree_param":{"num_deleted":"0","num_feature":"8","num_nodes":"93","size_leaf_vector":"1"}},{"base_weights":[4.573764E-2,-2.1583372E-1,5.1343215E-1,3.8816486E-2,-7.7123845E-1,5.4419465E0,4.412603E-1,-1.9301681E-1,6.879831E-1,-4.9197978E-1,-1.8927064E0,2.9072468E0,3.1683745E0,9.888778E-1,4.864985E-3,6.462512E-1,-5.025672E-1,1.9374304E-2,3.1670039E0,-2.4925725E0,-3.11542E-1,-2.7049284E0,-1.6422643E-1,7.384696E-1,4.4786234E0,1.7946714E0,1.16512485E-1,-8.174014E-1,5.105901E-1,9.860975E0,3.0929583E-1,-1.227308E0,-2.5675377E-1,2.0420022E0,-2.9192343E-1,4.483905E0,2.529574E-1,-4.309147E0,1.4175286E0,5.004192E0,-3.842899E-1,1.2189763E0,-2.9647422E0,7.257935E-1,-1.2142407E0,-2.437603E-1,4.578947E-1,1.5935438E0,1.7188025E-1,6.4988214E-1,3.2784562E0,-1.9577948E0,1.2604892E0,-1.7281178E0,9.8395085E-1,1.7652438E0,-1.5595037E-1,-2.4223739E-1,4.619117E0,6.1162836E-3,1.3135266E0,5.9642833E-2,-9.2303103E-1,1.3397985E0,-1.6777931E-1,1.659809E-1,3.683612E0,-1.3732815E0,-3.5909455E-2,3.4977906E0,9.276451E-1,-7.1711886E-1,3.999825E-1,-4.8654434E-1,-1.7615489E0,9.022184E-1,-3.9649567E-1,1.1663704E-1,1.9239188E0,3.9507784E-2,-3.2325965E-1,-7.596185E-1,9.940029E-1,-1.0433717E0,-7.216988E-2,4.669124E-1,-1.0202744E0,-2.4615064E-1,7.154599E-1,1.2493385E0,-7.09627E-1,6.6304696E-1,-7.314004E-1,5.0752276E-1,-1.1084297E0,2.9408145E-1,-7.049277E-1,3.6530178E0,7.917105E-2,9.9169946E-1,-1.3253437E-1,1.2446346E0,-1.3372709E-1],"categories":[],"categories_nodes":[],"categories_segments":[],"categories_sizes":[],"default_left":[0,0,0,0,0,0,0,0,0,0,0,0,0,0,0,0,0,0,0,0,0,0,0,0,0,0,0,0,0,0,0,0,0,0,0,0,0,0,0,0,0,0,0,0,0,0,0,0,0,0,0,0,0,0,0,0,0,0,0,0,0,0,0,0,0,0,0,0,0,0,0,0,0,0,0,0,0,0,0,0,0,0,0,0,0,0,0,0,0,0,0,0,0,0,0,0,0,0,0,0,0,0,0],"id":10,"left_children":[1,3,5,7,9,11,13,15,17,19,21,-1,23,25,27,29,31,33,35,37,39,41,43,45,47,49,51,53,55,57,59,61,63,65,67,69,71,73,75,77,79,81,83,85,-1,-1,-1,-1,-1,87,89,91,93,95,97,99,101,-1,-1,-1,-1,-1,-1,-1,-1,-1,-1,-1,-1,-1,-1,-1,-1,-1,-1,-1,-1,-1,-1,-1,-1,-1,-1,-1,-1,-1,-1,-1,-1,-1,-1,-1,-1,-1,-1,-1,-1,-1,-1,-1,-1,-1,-1],"loss_changes":[2.3842035E2,1.7682234E2,2.4623299E2,1.2926045E2,1.2214844E2,6.5897095E1,1.6488982E2,1.6477548E2,3.7453253E2,1.1329393E2,1.090607E2,0E0,2.2162918E1,2.1489243E2,1.6051605E2,5.2789655E2,8.216882E1,1.1330157E2,1.8306631E2,1.9078604E2,1.14455215E2,5.7646637E1,9.279787E1,6.1279936E0,1.322757E1,2.6795007E2,3.5366574E2,2.4285698E2,2.0014563E2,3.6680035E2,1.95061E2,3.0920508E2,4.9825015E2,3.5895975E2,1.14596054E2,2.9349866E2,4.8877632E1,6.606705E1,4.3169098E1,2.3516678E1,1.0315976E2,3.981378E1,6.906067E1,8.069954E1,0E0,0E0,0E0,0E0,0E0,2.3410626E2,3.5488593E2,1.1146666E2,2.1139969E2,1.6730069E2,3.997529E2,2.8363947E2,1.9771307E2,0E0,0E0,0E0,0E0,0E0,0E0,0E0,0E0,0E0,0E0,0E0,0E0,0E0,0E0,0E0,0E0,0E0,0E0,0E0,0E0,0E0,0E0,0E0,0E0,0E0,0E0,0E0,0E0,0E0,0E0,0E0,0E0,0E0,0E0,0E0,0E0,0E0,0E0,0E0,0E0,0E0,0E0,0E0,0E0,0E0,0E0],"parents":[2147483647,0,0,1,1,2,2,3,3,4,4,5,5,6,6,7,7,8,8,9,9,10,10,12,12,13,13,14,14,15,15,16,16,17,17,18,18,19,19,20,20,21,21,22,22,23,23,24,24,25,25,26,26,27,27,28,28,29,29,30,30,31,31,32,32,33,33,34,34,35,35,36,36,37,37,38,38,39,39,40,40,41,41,42,42,43,43,49,49,50,50,51,51,52,52,53,53,54,54,55,55,56,56],"right_children":[2,4,6,8,10,12,14,16,18,20,22,-1,24,26,28,30,32,34,36,38,40,42,44,46,48,50,52,54,56,58,60,62,64,66,68,70,72,74,76,78,80,82,84,86,-1,-1,-1,-1,-1,88,90,92,94,96,98,100,102,-1,-1,-1,-1,-1,-1,-1,-1,-1,-1,-1,-1,-1,-1,-1,-1,-1,-1,-1,-1,-1,-1,-1,-1,-1,-1,-1,-1,-1,-1,-1,-1,-1,-1,-1,-1,-1,-1,-1,-1,-1,-1,-1,-1,-1,-1],"split_conditions":[2E1,2.360536E2,5E0,2.0216151E2,2.3E1,9.178235E0,3E-1,1.2181624E1,2.1E1,1.0041354E1,2.3666666E1,2.9072468E0,1.5E0,2.2E1,1.9082149E2,5E0,1.5048042E1,-1.3156668E0,2.2608458E1,3.5E0,1.024578E1,8E0,5.3E1,9E0,6.8E1,1.4E1,2.9E1,5.709335E0,1.3527572E1,7E0,3.3E1,1.4E1,1.5484185E1,1.8E1,-5.344165E-1,2.0359857E2,1.7E1,1E1,1.5E1,1.4E1,4.948917E0,7E0,9.930166E0,4.898917E0,-1.2142407E0,-2.437603E-1,4.578947E-1,1.5935438E0,1.7188025E-1,1.8642642E2,3.414382E2,2.0666666E1,3.3611624E2,1.01376915E1,6.5614166E0,2.4999998E0,8E0,-2.4223739E-1,4.619117E0,6.1162836E-3,1.3135266E0,5.9642833E-2,-9.2303103E-1,1.3397985E0,-1.6777931E-1,1.659809E-1,3.683612E0,-1.3732815E0,-3.5909455E-2,3.4977906E0,9.276451E-1,-7.1711886E-1,3.999825E-1,-4.8654434E-1,-1.7615489E0,9.022184E-1,-3.9649567E-1,1.1663704E-1,1.9239188E0,3.9507784E-2,-3.2325965E-1,-7.596185E-1,9.940029E-1,-1.0433717E0,-7.216988E-2,4.669124E-1,-1.0202744E0,-2.4615064E-1,7.154599E-1,1.2493385E0,-7.09627E-1,6.6304696E-1,-7.314004E-1,5.0752276E-1,-1.1084297E0,2.9408145E-1,-7.049277E-1,3.6530178E0,7.917105E-2,9.9169946E-1,-1.3253437E-1,1.2446346E0,-1.3372709E-1],"split_indices":[0,7,2,7,2,6,5,6,2,6,3,0,5,2,7,1,6,4,6,5,6,1,2,1,0,2,2,4,6,0,1,0,6,2,4,7,1,0,2,0,4,1,4,4,0,0,0,0,0,7,7,3,7,6,4,5,1,0,0,0,0,0,0,0,0,0,0,0,0,0,0,0,0,0,0,0,0,0,0,0,0,0,0,0,0,0,0,0,0,0,0,0,0,0,0,0,0,0,0,0,0,0,0],"split_type":[0,0,0,0,0,0,0,0,0,0,0,0,0,0,0,0,0,0,0,0,0,0,0,0,0,0,0,0,0,0,0,0,0,0,0,0,0,0,0,0,0,0,0,0,0,0,0,0,0,0,0,0,0,0,0,0,0,0,0,0,0,0,0,0,0,0,0,0,0,0,0,0,0,0,0,0,0,0,0,0,0,0,0,0,0,0,0,0,0,0,0,0,0,0,0,0,0,0,0,0,0,0,0],"sum_hessian":[1.947E3,1.249E3,6.98E2,8.57E2,3.92E2,9E0,6.89E2,6.32E2,2.25E2,3.15E2,7.7E1,2E0,7E0,3.05E2,3.84E2,1.7E2,4.62E2,1.78E2,4.7E1,2.5E1,2.9E2,5.2E1,2.5E1,3E0,4E0,1.58E2,1.47E2,1.46E2,2.38E2,5E0,1.65E2,1.16E2,3.46E2,2.3E1,1.55E2,3.2E1,1.5E1,1.7E1,8E0,3E0,2.87E2,3E0,4.9E1,2.1E1,4E0,1E0,2E0,3E0,1E0,9E1,6.8E1,5.2E1,9.5E1,9.7E1,4.9E1,8.2E1,1.56E2,2E0,3E0,1.55E2,1E1,6.6E1,5E1,2E1,3.26E2,2.1E1,2E0,5E0,1.5E2,4E0,2.8E1,4E0,1.1E1,7E0,1E1,5E0,3E0,1E0,2E0,1.65E2,1.22E2,1E0,2E0,4.1E1,8E0,1.8E1,3E0,4.9E1,4.1E1,5.9E1,9E0,5E0,4.7E1,8.8E1,7E0,1.8E1,7.9E1,2E0,4.7E1,4.8E1,3.4E1,9E0,1.47E2],"tree_param":{"num_deleted":"0","num_feature":"8","num_nodes":"103","size_leaf_vector":"1"}},{"base_weights":[4.2507846E-2,-6.088688E-3,1.6844851E0,1.6541909E0,-5.5740286E-2,2.2497587E0,-3.4010885E0,2.6211553E0,3.889875E-1,-3.6492772E-2,-3.572461E0,-1.2895867E0,2.7485871E0,-5.5762987E0,6.3288814E-1,1.4639466E0,5.2872267E0,9.090493E-1,-2.5685992E0,-4.2842915E-3,-1.6882054E0,-1.267029E0,-1.4694732E0,5.2282205E0,2.1219552E0,-4.895036E-1,-1.9041837E0,2.4237557E-1,4.242411E-2,2.3724401E-1,3.7343583E0,5.7191405E0,2.7478755E-1,-8.209937E-2,2.3498306E0,-1.1838404E0,-2.3821278E-1,-4.327227E-1,1.4528638E-1,1.2910998E0,-2.349134E0,-3.837331E-2,-6.220025E-1,7.0706697E0,1.1574917E0,6.7431874E0,1.70128E0,-1.2068021E0,2.3682503E-1,1.8804274E-1,1.6420579E0,2.0028007E0,5.697113E-1,-3.911844E-1,3.9780828E-1,8.9668995E-1,-4.1448843E-1,1.5444409E0,-1.4038475E-1,1.0364356E0,2.8429344E-2,-4.362079E-1,5.972876E-1,-9.4598556E-1,-6.35301E-2,-1.0836124E-3,-1.6184378E-2,2.6144743E-1,2.4408622E0,8.8589406E-1,-1.2759934E-1,5.7366514E-1,2.4607694E0,2.4311733E-1,1.0692021E0],"categories":[],"categories_nodes":[],"categories_segments":[],"categories_sizes":[],"default_left":[0,0,0,0,0,0,0,0,0,0,0,0,0,0,0,0,0,0,0,0,0,0,0,0,0,0,0,0,0,0,0,0,0,0,0,0,0,0,0,0,0,0,0,0,0,0,0,0,0,0,0,0,0,0,0,0,0,0,0,0,0,0,0,0,0,0,0,0,0,0,0,0,0,0,0],"id":11,"left_children":[1,3,5,7,9,11,13,15,17,19,21,-1,23,25,27,29,31,33,35,37,39,41,-1,43,45,-1,-1,-1,-1,47,49,51,-1,53,55,-1,-1,57,59,61,63,65,-1,67,69,71,73,-1,-1,-1,-1,-1,-1,-1,-1,-1,-1,-1,-1,-1,-1,-1,-1,-1,-1,-1,-1,-1,-1,-1,-1,-1,-1,-1,-1],"loss_changes":[1.5544975E2,1.5614267E2,1.6863712E2,6.6267746E1,1.2434809E2,1.784076E2,5.6177666E1,8.790105E1,4.0788177E1,9.734723E1,2.435881E1,0E0,6.3489227E1,1.8081818E0,1.4381814E-1,6.3171803E1,1.1753586E1,3.1609547E1,6.644657E0,1.1515382E2,7.195175E1,4.8738422E0,0E0,5.9316772E1,6.628943E1,0E0,0E0,0E0,0E0,4.0810936E1,3.980555E1,1.6564484E1,0E0,2.5816319E1,2.5593826E1,0E0,0E0,9.382525E1,2.223859E2,1.6343307E1,4.9176468E1,1.429318E-3,0E0,3.2542084E1,1.2623753E1,5.4655457E0,6.0172104E1,0E0,0E0,0E0,0E0,0E0,0E0,0E0,0E0,0E0,0E0,0E0,0E0,0E0,0E0,0E0,0E0,0E0,0E0,0E0,0E0,0E0,0E0,0E0,0E0,0E0,0E0,0E0,0E0],"parents":[2147483647,0,0,1,1,2,2,3,3,4,4,5,5,6,6,7,7,8,8,9,9,10,10,12,12,13,13,14,14,15,15,16,16,17,17,18,18,19,19,20,20,21,21,23,23,24,24,29,29,30,30,31,31,33,33,34,34,37,37,38,38,39,39,40,40,41,41,43,43,44,44,45,45,46,46],"right_children":[2,4,6,8,10,12,14,16,18,20,22,-1,24,26,28,30,32,34,36,38,40,42,-1,44,46,-1,-1,-1,-1,48,50,52,-1,54,56,-1,-1,58,60,62,64,66,-1,68,70,72,74,-1,-1,-1,-1,-1,-1,-1,-1,-1,-1,-1,-1,-1,-1,-1,-1,-1,-1,-1,-1,-1,-1,-1,-1,-1,-1,-1,-1],"split_conditions":[1.700725E1,-8.482333E0,4.1E1,2E1,3.5809085E2,8.666667E0,4.6E1,2.6E1,1E-1,2.0300001E1,1.1E1,-1.2895867E0,6.6146065E1,4.3E1,3.3E1,1.4E1,2.0456714E2,1.1367109E1,4.5E1,1E1,9E0,1.2E1,-1.4694732E0,1.1113451E1,1.1E1,-4.895036E-1,-1.9041837E0,2.4237557E-1,4.242411E-2,8.049329E1,7E0,1.2620554E1,2.7478755E-1,-9.878167E0,5.7E1,-1.1838404E0,-2.3821278E-1,-7.2156672E0,5E0,1.8218336E0,2.1E1,6E0,-6.220025E-1,1.5E1,1.6E1,5E0,3E1,-1.2068021E0,2.3682503E-1,1.8804274E-1,1.6420579E0,2.0028007E0,5.697113E-1,-3.911844E-1,3.9780828E-1,8.9668995E-1,-4.1448843E-1,1.5444409E0,-1.4038475E-1,1.0364356E0,2.8429344E-2,-4.362079E-1,5.972876E-1,-9.4598556E-1,-6.35301E-2,-1.0836124E-3,-1.6184378E-2,2.6144743E-1,2.4408622E0,8.8589406E-1,-1.2759934E-1,5.7366514E-1,2.4607694E0,2.4311733E-1,1.0692021E0],"split_indices":[4,4,2,2,7,3,2,3,5,5,2,0,7,2,0,2,7,6,0,0,0,0,0,6,0,0,0,0,0,7,1,6,0,4,2,0,0,4,2,4,2,0,0,1,0,0,1,0,0,0,0,0,0,0,0,0,0,0,0,0,0,0,0,0,0,0,0,0,0,0,0,0,0,0,0],"split_type":[0,0,0,0,0,0,0,0,0,0,0,0,0,0,0,0,0,0,0,0,0,0,0,0,0,0,0,0,0,0,0,0,0,0,0,0,0,0,0,0,0,0,0,0,0,0,0,0,0,0,0,0,0,0,0,0,0,0,0,0,0,0,0,0,0,0,0,0,0,0,0,0,0,0,0],"sum_hessian":[1.947E3,1.892E3,5.5E1,5.4E1,1.838E3,5E1,5E0,3E1,2.4E1,1.829E3,9E0,3E0,4.7E1,3E0,2E0,2.2E1,8E0,2.1E1,3E0,1.795E3,3.4E1,4E0,5E0,8E0,3.9E1,1E0,2E0,1E0,1E0,1.5E1,7E0,7E0,1E0,1.3E1,8E0,1E0,2E0,4.64E2,1.331E3,6E0,2.8E1,2E0,2E0,5E0,3E0,2E0,3.7E1,1E0,1.4E1,3E0,4E0,5E0,2E0,7E0,6E0,7E0,1E0,2E0,4.62E2,1.9E1,1.312E3,1E0,5E0,2E1,8E0,1E0,1E0,1E0,4E0,1E0,2E0,1E0,1E0,2.6E1,1.1E1],"tree_param":{"num_deleted":"0","num_feature":"8","num_nodes":"75","size_leaf_vector":"1"}},{"base_weights":[3.319231E-2,1.8125764E-1,-3.9138624E-1,6.044573E-1,-2.2722997E-2,-6.0331124E-1,5.642268E-1,-4.5865464E-1,9.115406E-1,-5.559183E-1,2.7894473E-1,-2.7162236E-1,-1.53751E0,1.0267029E0,-1.6967037E0,-8.959043E-1,2.0568688E0,1.4275366E0,-3.627093E-1,-3.6776704E-1,-3.5129874E0,5.9755955E0,2.2327615E-1,-5.218103E-1,1.118175E0,1.4203322E0,-1.8207517E0,-4.8602793E-1,2.2341187E0,-2.4108415E0,1.0484202E0,-1.7548424E-1,-2.1567795E0,-2.971573E-1,3.499E0,1.8764582E0,-4.9546328E-1,-1.0601206E0,1.4394034E0,-1.3063195E0,9.4771065E-2,1.4436766E0,-4.1107244E0,1.2586124E0,3.0819123E0,4.1542873E-2,2.0143738E0,-2.0380951E-1,-3.047823E0,2.0222E0,-1.6870815E0,-7.6295894E-1,2.729114E0,-4.2149987E0,-1.1994305E0,-1.478091E0,2.5441644E0,1.161668E0,4.619646E0,-3.1384363E0,1.085639E-2,5.938099E-1,-2.6166272E-1,-1.9022885E-1,9.965797E-1,-2.0110004E0,-4.4360387E-1,5.594343E-1,-7.154419E-1,1.18557744E-1,1.267666E0,4.5714933E-1,1.8236588E0,7.426527E-1,-7.188711E-1,-1.0285521E-1,-1.1319853E0,7.266096E-1,-1.1874437E0,-8.146801E-2,-7.766842E-1,6.17449E-1,-9.907753E-2,6.9889015E-1,-4.923563E-2,-7.005154E-1,-1.5569538E0,-4.860964E-2,5.358514E-1,2.7260708E-2,-1.6444288E0,8.228453E-1,-1.0741878E0,-1.9210704E-1,2.5102043E-1,1.959367E-1,-1.0998298E0,1.5397986E0,2.850563E-1,-2.0192155E-1,-1.9261783E0,1.0136405E-1,9.067351E-1,-1.40588E0,7.1086353E-1,1.6257185E-1,-4.8288432E-1,1.5854457E-1,-9.355744E-1,1.5374205E0,-5.888198E-1,4.7922462E-1,-1.031334E0,2.8542674E-1,1.8432764E0,-1.1270503E0,-1.3296929E-1,4.8835576E-1,-3.2122794E-1],"categories":[],"categories_nodes":[],"categories_segments":[],"categories_sizes":[],"default_left":[0,0,0,0,0,0,0,0,0,0,0,0,0,0,0,0,0,0,0,0,0,0,0,0,0,0,0,0,0,0,0,0,0,0,0,0,0,0,0,0,0,0,0,0,0,0,0,0,0,0,0,0,0,0,0,0,0,0,0,0,0,0,0,0,0,0,0,0,0,0,0,0,0,0,0,0,0,0,0,0,0,0,0,0,0,0,0,0,0,0,0,0,0,0,0,0,0,0,0,0,0,0,0,0,0,0,0,0,0,0,0,0,0,0,0,0,0,0,0],"id":12,"left_children":[1,3,5,7,9,11,13,15,17,19,21,23,25,27,29,31,33,35,37,39,41,43,45,47,49,51,53,55,57,59,61,63,65,67,69,71,73,75,77,79,81,83,85,87,-1,89,91,93,95,97,99,-1,101,103,105,107,109,111,113,115,117,-1,-1,-1,-1,-1,-1,-1,-1,-1,-1,-1,-1,-1,-1,-1,-1,-1,-1,-1,-1,-1,-1,-1,-1,-1,-1,-1,-1,-1,-1,-1,-1,-1,-1,-1,-1,-1,-1,-1,-1,-1,-1,-1,-1,-1,-1,-1,-1,-1,-1,-1,-1,-1,-1,-1,-1,-1,-1],"loss_changes":[1.2253266E2,1.24752686E2,1.0240963E2,1.5385612E2,1.5714255E2,1.2755592E2,9.793964E1,1.184334E2,2.4050809E2,1.9510884E2,1.9655144E2,1.0698289E2,9.306674E1,1.4172597E2,3.389392E1,8.228227E1,5.535679E1,2.2538153E2,1.347482E2,1.4468454E2,6.8152985E1,1.0869609E2,2.014021E2,2.0823007E2,1.2260466E2,5.8814606E1,1.4221643E2,1.0897548E2,1.0464302E2,2.294027E1,8.878431E0,9.673988E1,9.182753E1,3.6040714E1,2.0880913E1,3.0341388E2,2.8828918E2,1.4855377E2,1.6870032E2,1.4529018E2,1.8760764E2,4.6556497E0,2.4288605E1,3.287311E0,0E0,1.5387445E2,2.4213257E2,1.0592105E2,6.875241E1,1.1516336E2,5.3276417E1,0E0,4.5902634E0,7.3165985E1,5.801371E1,9.052574E1,1.1473176E2,6.762169E1,6.685806E1,1.5001938E1,8.738915E0,0E0,0E0,0E0,0E0,0E0,0E0,0E0,0E0,0E0,0E0,0E0,0E0,0E0,0E0,0E0,0E0,0E0,0E0,0E0,0E0,0E0,0E0,0E0,0E0,0E0,0E0,0E0,0E0,0E0,0E0,0E0,0E0,0E0,0E0,0E0,0E0,0E0,0E0,0E0,0E0,0E0,0E0,0E0,0E0,0E0,0E0,0E0,0E0,0E0,0E0,0E0,0E0,0E0,0E0,0E0,0E0,0E0,0E0],"parents":[2147483647,0,0,1,1,2,2,3,3,4,4,5,5,6,6,7,7,8,8,9,9,10,10,11,11,12,12,13,13,14,14,15,15,16,16,17,17,18,18,19,19,20,20,21,21,22,22,23,23,24,24,25,25,26,26,27,27,28,28,29,29,30,30,31,31,32,32,33,33,34,34,35,35,36,36,37,37,38,38,39,39,40,40,41,41,42,42,43,43,45,45,46,46,47,47,48,48,49,49,50,50,52,52,53,53,54,54,55,55,56,56,57,57,58,58,59,59,60,60],"right_children":[2,4,6,8,10,12,14,16,18,20,22,24,26,28,30,32,34,36,38,40,42,44,46,48,50,52,54,56,58,60,62,64,66,68,70,72,74,76,78,80,82,84,86,88,-1,90,92,94,96,98,100,-1,102,104,106,108,110,112,114,116,118,-1,-1,-1,-1,-1,-1,-1,-1,-1,-1,-1,-1,-1,-1,-1,-1,-1,-1,-1,-1,-1,-1,-1,-1,-1,-1,-1,-1,-1,-1,-1,-1,-1,-1,-1,-1,-1,-1,-1,-1,-1,-1,-1,-1,-1,-1,-1,-1,-1,-1,-1,-1,-1,-1,-1,-1,-1,-1],"split_conditions":[2.4561424E2,1.2330985E1,2.511758E1,6.3509216E1,1.5905833E0,5.2000003E0,2.6E1,1.4392669E1,9.000001E-1,1.30725E0,1.6489167E0,3.1E1,1.0440001E1,1E1,3.2E1,9.6932955E0,1.5E1,1.0290583E1,1.0859333E1,3E-1,8E0,5.4000006E0,3.2E1,2.5E1,1.1305167E1,1.0197501E0,1.5048042E1,1.2333333E1,1.8218336E0,3.277341E2,4.2E1,3.1333334E1,9.904906E0,1.5721835E1,1.5E1,8.461416E0,1.055929E2,1.0990322E1,1.6173918E1,1.6705193E2,9E0,5E0,1.8642642E2,1.1E1,3.0819123E0,3.1E1,4.4E1,1.9E1,8.891343E0,3.5E1,5.1E1,-7.6295894E-1,1E1,3.5E1,7E0,8E0,2.2E1,1.3799999E1,2.6064596E1,2.8348713E1,1.5E1,5.938099E-1,-2.6166272E-1,-1.9022885E-1,9.965797E-1,-2.0110004E0,-4.4360387E-1,5.594343E-1,-7.154419E-1,1.18557744E-1,1.267666E0,4.5714933E-1,1.8236588E0,7.426527E-1,-7.188711E-1,-1.0285521E-1,-1.1319853E0,7.266096E-1,-1.1874437E0,-8.146801E-2,-7.766842E-1,6.17449E-1,-9.907753E-2,6.9889015E-1,-4.923563E-2,-7.005154E-1,-1.5569538E0,-4.860964E-2,5.358514E-1,2.7260708E-2,-1.6444288E0,8.228453E-1,-1.0741878E0,-1.9210704E-1,2.5102043E-1,1.959367E-1,-1.0998298E0,1.5397986E0,2.850563E-1,-2.0192155E-1,-1.9261783E0,1.0136405E-1,9.067351E-1,-1.40588E0,7.1086353E-1,1.6257185E-1,-4.8288432E-1,1.5854457E-1,-9.355744E-1,1.5374205E0,-5.888198E-1,4.7922462E-1,-1.031334E0,2.8542674E-1,1.8432764E0,-1.1270503E0,-1.3296929E-1,4.8835576E-1,-3.2122794E-1],"split_indices":[7,6,6,7,4,5,2,4,5,4,4,2,6,2,1,6,0,4,4,5,2,5,0,2,4,4,6,3,4,7,2,3,6,4,1,4,7,6,4,7,1,0,7,0,0,0,2,1,6,2,1,0,3,0,0,2,1,5,6,6,1,0,0,0,0,0,0,0,0,0,0,0,0,0,0,0,0,0,0,0,0,0,0,0,0,0,0,0,0,0,0,0,0,0,0,0,0,0,0,0,0,0,0,0,0,0,0,0,0,0,0,0,0,0,0,0,0,0,0],"split_type":[0,0,0,0,0,0,0,0,0,0,0,0,0,0,0,0,0,0,0,0,0,0,0,0,0,0,0,0,0,0,0,0,0,0,0,0,0,0,0,0,0,0,0,0,0,0,0,0,0,0,0,0,0,0,0,0,0,0,0,0,0,0,0,0,0,0,0,0,0,0,0,0,0,0,0,0,0,0,0,0,0,0,0,0,0,0,0,0,0,0,0,0,0,0,0,0,0,0,0,0,0,0,0,0,0,0,0,0,0,0,0,0,0,0,0,0,0,0,0],"sum_hessian":[1.947E3,1.444E3,5.03E2,4.69E2,9.75E2,4.12E2,9.1E1,1.05E2,3.64E2,3.52E2,6.23E2,3.05E2,1.07E2,7.6E1,1.5E1,9E1,1.5E1,2.59E2,1.05E2,3.32E2,2E1,5E0,6.18E2,2.59E2,4.6E1,9E0,9.8E1,3.4E1,4.2E1,1.2E1,3E0,5.8E1,3.2E1,6E0,9E0,2.1E2,4.9E1,7.6E1,2.9E1,1.09E2,2.23E2,2E0,1.8E1,3E0,2E0,5.62E2,5.6E1,2.31E2,2.8E1,3.5E1,1.1E1,2E0,7E0,1.9E1,7.9E1,2.6E1,8E0,3E1,1.2E1,9E0,3E0,2E0,1E0,5.2E1,6E0,3E0,2.9E1,3E0,3E0,2E0,7E0,1.95E2,1.5E1,1.9E1,3E1,6.1E1,1.5E1,2.5E1,4E0,6.1E1,4.8E1,3.9E1,1.84E2,1E0,1E0,8E0,1E1,1E0,2E0,5.58E2,4E0,5E1,6E0,1.63E2,6.8E1,4E0,2.4E1,8E0,2.7E1,1E1,1E0,1E0,6E0,1.8E1,1E0,1.5E1,6.4E1,1.2E1,1.4E1,5E0,3E0,2.8E1,2E0,4E0,8E0,7E0,2E0,1E0,2E0],"tree_param":{"num_deleted":"0","num_feature":"8","num_nodes":"119","size_leaf_vector":"1"}},{"base_weights":[2.2727927E-2,-6.4186014E-2,4.8572484E-1,-7.797693E-2,5.5992403E0,1.0823286E0,-4.8408058E-1,1.7202359E-2,-1.0886195E0,2.2267303E0,1.9448662E-2,1.5166508E0,-1.6119488E0,-1.9091727E0,6.291861E-1,-5.3817943E-2,1.6911366E0,8.7129533E-1,-1.7439809E0,9.092507E-1,5.2271533E0,-3.1885803E0,3.3482234E0,-2.3647125E0,1.3571146E0,3.044036E0,-7.0230436E-1,-9.208251E-2,1.8084874E0,-4.4453278E-1,2.595476E0,2.7708776E0,-9.7416663E-1,-2.0989993E0,1.8740966E0,2.4922064E-1,2.6025975E0,8.244155E0,4.806362E-1,-1.5919489E0,-5.584112E0,1.2227771E0,-1.5269624E-1,-8.1879056E-1,-3.7476914E0,9.8875426E-2,3.0018082E0,4.293606E0,4.843515E-1,1.02671266E-1,-4.3375287E0,-2.2794742E-2,-1.1540483E0,-9.498606E-1,7.512801E-1,7.0986223E-1,-5.771441E-1,2.1387242E-1,1.417435E0,2.633314E-1,1.5082618E0,-1.2639902E0,3.7993088E-1,-8.137185E-1,1.1945801E-1,1.3874505E0,-2.1916029E-1,-5.045605E-1,3.0549997E-1,1.9137528E0,5.24556E-1,-1.8211937E-1,2.9309843E0,6.472826E-1,-1.2454507E0,6.9950485E-1,-1.018371E0,-3.293766E-1,-2.0689566E0,-4.082841E-1,6.290066E-1,5.2268887E-1,-1.2186416E0,1.1699267E-1,-1.5982877E-1,2.846918E-1,1.0661219E0,-4.639044E-1,1.5715016E0,5.723031E-1,-1.635338E0,-1.6762424E-1,1.0839378E0,-1.6146253E0,-2.4077246E-1],"categories":[],"categories_nodes":[],"categories_segments":[],"categories_sizes":[],"default_left":[0,0,0,0,0,0,0,0,0,0,0,0,0,0,0,0,0,0,0,0,0,0,0,0,0,0,0,0,0,0,0,0,0,0,0,0,0,0,0,0,0,0,0,0,0,0,0,0,0,0,0,0,0,0,0,0,0,0,0,0,0,0,0,0,0,0,0,0,0,0,0,0,0,0,0,0,0,0,0,0,0,0,0,0,0,0,0,0,0,0,0,0,0,0,0],"id":13,"left_children":[1,3,5,7,9,11,13,15,17,-1,-1,19,21,23,25,27,29,31,33,35,37,39,41,43,45,47,49,51,53,55,57,59,61,63,65,67,69,71,73,75,77,-1,-1,79,81,83,85,87,89,91,93,-1,-1,-1,-1,-1,-1,-1,-1,-1,-1,-1,-1,-1,-1,-1,-1,-1,-1,-1,-1,-1,-1,-1,-1,-1,-1,-1,-1,-1,-1,-1,-1,-1,-1,-1,-1,-1,-1,-1,-1,-1,-1,-1,-1],"loss_changes":[7.8420425E1,1.28605E2,1.787295E2,1.575816E2,3.9880043E1,2.2594998E2,1.884091E2,1.7817822E2,1.8262732E2,0E0,0E0,3.6711752E2,2.2182588E2,8.058128E1,2.1756624E2,1.02638855E2,1.189673E2,1.2890114E2,1.4008905E2,1.5917673E2,3.2540332E2,7.143082E1,2.1722832E1,9.527838E1,1.4189119E1,7.468451E1,1.292011E2,8.494437E1,1.0830635E2,8.355174E1,1.69E2,7.248476E1,1.432305E2,1.496615E2,7.502517E1,1.5617606E2,1.1786554E2,1.9500262E2,8.6636986E1,1.0693455E2,3.9529907E1,0E0,0E0,3.9208332E1,4.850888E1,1.1271138E0,2.6670456E-2,9.63754E1,8.643203E1,8.792838E1,2.5220108E1,0E0,0E0,0E0,0E0,0E0,0E0,0E0,0E0,0E0,0E0,0E0,0E0,0E0,0E0,0E0,0E0,0E0,0E0,0E0,0E0,0E0,0E0,0E0,0E0,0E0,0E0,0E0,0E0,0E0,0E0,0E0,0E0,0E0,0E0,0E0,0E0,0E0,0E0,0E0,0E0,0E0,0E0,0E0,0E0],"parents":[2147483647,0,0,1,1,2,2,3,3,4,4,5,5,6,6,7,7,8,8,11,11,12,12,13,13,14,14,15,15,16,16,17,17,18,18,19,19,20,20,21,21,22,22,23,23,24,24,25,25,26,26,27,27,28,28,29,29,30,30,31,31,32,32,33,33,34,34,35,35,36,36,37,37,38,38,39,39,40,40,43,43,44,44,45,45,46,46,47,47,48,48,49,49,50,50],"right_children":[2,4,6,8,10,12,14,16,18,-1,-1,20,22,24,26,28,30,32,34,36,38,40,42,44,46,48,50,52,54,56,58,60,62,64,66,68,70,72,74,76,78,-1,-1,80,82,84,86,88,90,92,94,-1,-1,-1,-1,-1,-1,-1,-1,-1,-1,-1,-1,-1,-1,-1,-1,-1,-1,-1,-1,-1,-1,-1,-1,-1,-1,-1,-1,-1,-1,-1,-1,-1,-1,-1,-1,-1,-1,-1,-1,-1,-1,-1,-1],"split_conditions":[3.1E1,6.7E1,4.3E1,2.5666666E1,7.5E1,4.7E1,1.8165227E2,2.4E1,-2.4844167E0,2.2267303E0,1.9448662E-2,4E1,4.1666668E1,5.3E1,-1.5198332E0,1.700725E1,1.8E1,2.9666666E1,8.999999E0,1.9191748E1,7E-1,3.9E1,6.8E1,1.3083337E2,3.3E1,5.3E1,5.6E1,4.5E1,8.666667E0,2E1,1.2538134E1,2.7E1,2.3E1,4E1,2.8E1,2E1,1.4E1,6.849467E0,4.3E1,1.1177405E1,-2.3406665E0,1.2227771E0,-1.5269624E-1,5E1,8E0,6.8E1,7.4E1,4.4E1,-6.6865005E0,5.1E1,4.3E1,-2.2794742E-2,-1.1540483E0,-9.498606E-1,7.512801E-1,7.0986223E-1,-5.771441E-1,2.1387242E-1,1.417435E0,2.633314E-1,1.5082618E0,-1.2639902E0,3.7993088E-1,-8.137185E-1,1.1945801E-1,1.3874505E0,-2.1916029E-1,-5.045605E-1,3.0549997E-1,1.9137528E0,5.24556E-1,-1.8211937E-1,2.9309843E0,6.472826E-1,-1.2454507E0,6.9950485E-1,-1.018371E0,-3.293766E-1,-2.0689566E0,-4.082841E-1,6.290066E-1,5.2268887E-1,-1.2186416E0,1.1699267E-1,-1.5982877E-1,2.846918E-1,1.0661219E0,-4.639044E-1,1.5715016E0,5.723031E-1,-1.635338E0,-1.6762424E-1,1.0839378E0,-1.6146253E0,-2.4077246E-1],"split_indices":[1,0,1,3,0,0,7,3,4,0,0,0,3,0,4,4,0,3,5,6,5,3,0,7,2,0,2,0,3,1,6,2,1,0,0,2,2,6,2,6,4,0,0,2,2,1,0,1,4,2,0,0,0,0,0,0,0,0,0,0,0,0,0,0,0,0,0,0,0,0,0,0,0,0,0,0,0,0,0,0,0,0,0,0,0,0,0,0,0,0,0,0,0,0,0],"split_type":[0,0,0,0,0,0,0,0,0,0,0,0,0,0,0,0,0,0,0,0,0,0,0,0,0,0,0,0,0,0,0,0,0,0,0,0,0,0,0,0,0,0,0,0,0,0,0,0,0,0,0,0,0,0,0,0,0,0,0,0,0,0,0,0,0,0,0,0,0,0,0,0,0,0,0,0,0,0,0,0,0,0,0,0,0,0,0,0,0,0,0,0,0,0,0],"sum_hessian":[1.947E3,1.64E3,3.07E2,1.637E3,3E0,1.9E2,1.17E2,1.497E3,1.4E2,2E0,1E0,1.64E2,2.6E1,5.1E1,6.6E1,1.437E3,6E1,3.5E1,1.05E2,1.42E2,2.2E1,2E1,6E0,4.5E1,6E0,2.3E1,4.3E1,1.409E3,2.8E1,1.8E1,4.2E1,1.7E1,1.8E1,9.6E1,9E0,1.03E2,3.9E1,1.3E1,9E0,1.3E1,7E0,5E0,1E0,2.2E1,2.3E1,4E0,2E0,1.5E1,8E0,3.6E1,7E0,1.404E3,5E0,3E0,2.5E1,6E0,1.2E1,2.3E1,1.9E1,1E1,7E0,7E0,1.1E1,7.7E1,1.9E1,4E0,5E0,2.9E1,7.4E1,6E0,3.3E1,2E0,1.1E1,7E0,2E0,4E0,9E0,2E0,5E0,1.9E1,3E0,1E0,2.2E1,3E0,1E0,1E0,1E0,2E0,1.3E1,7E0,1E0,3.1E1,5E0,5E0,2E0],"tree_param":{"num_deleted":"0","num_feature":"8","num_nodes":"95","size_leaf_vector":"1"}},{"base_weights":[1.9337421E-2,3.279677E-2,-2.5923643E0,1.1120141E-1,-4.2074895E-1,-6.941593E-1,-1.1226424E0,-1.8055714E0,1.4772159E-1,-7.823244E-1,6.4497566E-1,3.319521E-2,-3.802749E-1,-4.0951457E0,-1.2077631E0,1.3160737E-1,4.4712543E0,6.2729573E-1,-1.015563E0,3.2431464E0,3.6389846E-1,-1.3761117E0,-2.4535204E-1,-1.3756727E0,4.4849655E-1,-3.194462E-1,2.808621E-1,1.207517E0,3.1184912E0,-7.956131E-1,2.0109985E0,-7.04126E-1,-2.4728847E0,1.0089796E0,1.3999581E0,-1.15768485E-1,2.0344617E0,-2.4423993E-1,-1.0377015E0,-1.4690468E-1,5.9339684E-1,2.0940858E-1,-2.8527306E-2,-5.187541E-1,7.12196E-1,6.9394994E-1,-7.256948E-1,1.2730618E0,-5.907779E-2,-5.414074E-1,-1.1592945E-1,-1.0505927E0,-2.6988792E-1,4.077718E-1,-6.2699323E-3,3.1953403E-1,-4.4428822E-1,1.3249179E0,1.2055705E-1],"categories":[],"categories_nodes":[],"categories_segments":[],"categories_sizes":[],"default_left":[0,0,0,0,0,0,0,0,0,0,0,0,0,0,0,0,0,0,0,0,0,0,0,0,0,0,0,0,0,0,0,0,0,0,0,0,0,0,0,0,0,0,0,0,0,0,0,0,0,0,0,0,0,0,0,0,0,0,0],"id":14,"left_children":[1,3,5,7,9,11,-1,13,15,17,19,-1,-1,21,23,25,27,29,31,33,35,-1,-1,37,-1,39,41,43,-1,45,47,49,51,53,-1,55,57,-1,-1,-1,-1,-1,-1,-1,-1,-1,-1,-1,-1,-1,-1,-1,-1,-1,-1,-1,-1,-1,-1],"loss_changes":[6.856074E1,6.89978E1,1.9227478E1,1.1604817E2,1.10711784E2,2.4477441E0,0E0,3.7484566E1,1.125562E2,7.0995514E1,5.2130745E1,0E0,0E0,5.9210434E0,1.3855881E1,1.0908385E2,1.03448586E2,6.263535E1,8.17697E1,1.7552055E1,5.392356E1,0E0,0E0,2.6430752E1,0E0,1.5858443E2,1.9093462E2,2.123289E1,0E0,8.634267E1,7.970415E1,5.2798065E1,4.865834E1,1.4713092E0,0E0,8.7020325E1,5.6556534E1,0E0,0E0,0E0,0E0,0E0,0E0,0E0,0E0,0E0,0E0,0E0,0E0,0E0,0E0,0E0,0E0,0E0,0E0,0E0,0E0,0E0,0E0],"parents":[2147483647,0,0,1,1,2,2,3,3,4,4,5,5,7,7,8,8,9,9,10,10,13,13,14,14,15,15,16,16,17,17,18,18,19,19,20,20,23,23,25,25,26,26,27,27,29,29,30,30,31,31,32,32,33,33,35,35,36,36],"right_children":[2,4,6,8,10,12,-1,14,16,18,20,-1,-1,22,24,26,28,30,32,34,36,-1,-1,38,-1,40,42,44,-1,46,48,50,52,54,-1,56,58,-1,-1,-1,-1,-1,-1,-1,-1,-1,-1,-1,-1,-1,-1,-1,-1,-1,-1,-1,-1,-1,-1],"split_conditions":[3.5809085E2,7.4999995E0,1.1E1,5.6666665E0,8.625999E0,1.2E1,-1.1226424E0,1E-1,7.4E0,-3.9691654E-1,1.024578E1,3.319521E-2,-3.802749E-1,1.0290583E1,1.2203083E1,-1.4114999E0,1.2E1,-2.2198331E0,2.6E1,8.373386E0,2.5E1,-1.3761117E0,-2.4535204E-1,9.661416E0,4.4849655E-1,4.0666668E1,5.8697495E0,9E0,3.1184912E0,1.9592731E1,1.1E1,8E0,2.5762648E1,1.1E1,1.3999581E0,1.3E1,1.7873556E1,-2.4423993E-1,-1.0377015E0,-1.4690468E-1,5.9339684E-1,2.0940858E-1,-2.8527306E-2,-5.187541E-1,7.12196E-1,6.9394994E-1,-7.256948E-1,1.2730618E0,-5.907779E-2,-5.414074E-1,-1.1592945E-1,-1.0505927E0,-2.6988792E-1,4.077718E-1,-6.2699323E-3,3.1953403E-1,-4.4428822E-1,1.3249179E0,1.2055705E-1],"split_indices":[7,5,2,3,4,0,0,5,5,4,6,0,0,4,4,4,1,4,2,6,3,0,0,4,0,3,4,3,0,6,1,0,6,0,0,0,6,0,0,0,0,0,0,0,0,0,0,0,0,0,0,0,0,0,0,0,0,0,0],"split_type":[0,0,0,0,0,0,0,0,0,0,0,0,0,0,0,0,0,0,0,0,0,0,0,0,0,0,0,0,0,0,0,0,0,0,0,0,0,0,0,0,0,0,0,0,0,0,0,0,0,0,0,0,0,0,0,0,0,0,0],"sum_hessian":[1.947E3,1.938E3,9E0,1.653E3,2.85E2,4E0,5E0,3E1,1.623E3,2.13E2,7.2E1,2E0,2E0,5E0,2.5E1,1.618E3,5E0,3E1,1.83E2,6E0,6.6E1,4E0,1E0,2.4E1,1E0,4.02E2,1.216E3,4E0,1E0,1.5E1,1.5E1,1.52E2,3.1E1,3E0,3E0,5.2E1,1.4E1,2E1,4E0,3.75E2,2.7E1,5.76E2,6.4E2,1E0,3E0,5E0,1E1,7E0,8E0,3.3E1,1.19E2,1.8E1,1.3E1,2E0,1E0,2.8E1,2.4E1,5E0,9E0],"tree_param":{"num_deleted":"0","num_feature":"8","num_nodes":"59","size_leaf_vector":"1"}},{"base_weights":[1.4738213E-2,1.8917227E0,-1.785325E-3,-7.489265E-1,2.7618399E0,-9.658312E-2,3.3156157E-1,-6.2373817E-1,8.309161E-1,3.8886833E0,7.990754E-1,5.8386244E-2,-6.7063653E-1,4.04519E-1,-4.867196E0,5.8838084E-2,3.1507418E-1,1.3043522E0,1.0118752E-1,-3.3651862E-1,4.3530065E-1,2.0692937E0,1.8601654E-2,-8.181694E-1,3.1842215E0,-7.838857E-1,6.3038135E-1,-5.5154804E-2,-1.7301288E0,4.974175E-2,-2.0117512E-1,-9.920615E-1,3.7681541E0,3.4286094E-1,-2.29534E-1,-1.8228771E-1,-2.4386687E0,4.431399E0,-2.034444E0,-1.3290862E0,1.4139651E0,3.1402104E0,4.3948945E-1,-6.8267405E-1,8.688355E-3,1.7787467E0,3.408401E-1,3.0715905E-2,1.2440886E0,-2.4980082E-1,7.627713E-2,5.605416E-4,-1.1194949E0,-9.948023E-1,-2.2404914E-1,1.9117886E0,-2.2080518E-2,-9.9653125E-1,8.103132E-2,-5.596669E-1,4.860467E-1,1.1878247E0,-1.3203275E-1,-2.4216354E-1,1.3287749E0,-2.699799E-1,1.974203E-1],"categories":[],"categories_nodes":[],"categories_segments":[],"categories_sizes":[],"default_left":[0,0,0,0,0,0,0,0,0,0,0,0,0,0,0,0,0,0,0,0,0,0,0,0,0,0,0,0,0,0,0,0,0,0,0,0,0,0,0,0,0,0,0,0,0,0,0,0,0,0,0,0,0,0,0,0,0,0,0,0,0,0,0,0,0,0,0],"id":15,"left_children":[1,3,5,7,9,11,13,-1,15,17,19,21,23,25,27,-1,-1,-1,-1,29,-1,31,33,35,37,39,41,-1,-1,-1,-1,43,45,47,49,51,53,55,57,59,61,63,65,-1,-1,-1,-1,-1,-1,-1,-1,-1,-1,-1,-1,-1,-1,-1,-1,-1,-1,-1,-1,-1,-1,-1,-1],"loss_changes":[6.041948E1,4.1128876E1,6.108429E1,1.2235117E1,2.5645111E1,1.3392499E2,1.6430408E2,0E0,2.1170521E-1,1.1578682E1,4.930234E0,9.4845215E1,1.8459508E2,1.1403408E2,2.4226974E1,0E0,0E0,0E0,0E0,6.146139E-1,0E0,1.23357E2,9.3734474E1,3.1796326E2,8.711866E1,8.3361595E1,1.6918163E2,0E0,0E0,0E0,0E0,1.1860417E1,7.858067E1,4.615442E2,1.927941E2,1.4576799E2,1.26658936E2,8.792143E1,9.797344E0,9.004237E1,6.781493E1,1.307849E2,9.779136E1,0E0,0E0,0E0,0E0,0E0,0E0,0E0,0E0,0E0,0E0,0E0,0E0,0E0,0E0,0E0,0E0,0E0,0E0,0E0,0E0,0E0,0E0,0E0,0E0],"parents":[2147483647,0,0,1,1,2,2,3,3,4,4,5,5,6,6,8,8,9,9,10,10,11,11,12,12,13,13,14,14,19,19,21,21,22,22,23,23,24,24,25,25,26,26,31,31,32,32,33,33,34,34,35,35,36,36,37,37,38,38,39,39,40,40,41,41,42,42],"right_children":[2,4,6,8,10,12,14,-1,16,18,20,22,24,26,28,-1,-1,-1,-1,30,-1,32,34,36,38,40,42,-1,-1,-1,-1,44,46,48,50,52,54,56,58,60,62,64,66,-1,-1,-1,-1,-1,-1,-1,-1,-1,-1,-1,-1,-1,-1,-1,-1,-1,-1,-1,-1,-1,-1,-1,-1],"split_conditions":[-1.1376083E1,9.227524E0,1.076975E1,1.6E1,1.9E1,6.1426673E0,5.0666668E1,-6.2373817E-1,2.7E1,4.6E1,2.9E1,1.5172982E1,3.4666668E1,9.028754E0,4.1E1,5.8838084E-2,3.1507418E-1,1.3043522E0,1.0118752E-1,2.4E1,4.3530065E-1,1E1,1.5617529E1,1.8E1,5.2E1,1.6000001E0,9.904906E0,-5.5154804E-2,-1.7301288E0,4.974175E-2,-2.0117512E-1,8.666667E0,6.349995E-2,1.5048042E1,2.0245097E2,3.2E1,2.8999999E0,9E-1,4.3E1,1.700725E1,1.4288617E2,1.1E1,1.1032987E1,-6.8267405E-1,8.688355E-3,1.7787467E0,3.408401E-1,3.0715905E-2,1.2440886E0,-2.4980082E-1,7.627713E-2,5.605416E-4,-1.1194949E0,-9.948023E-1,-2.2404914E-1,1.9117886E0,-2.2080518E-2,-9.9653125E-1,8.103132E-2,-5.596669E-1,4.860467E-1,1.1878247E0,-1.3203275E-1,-2.4216354E-1,1.3287749E0,-2.699799E-1,1.974203E-1],"split_indices":[4,6,4,2,2,4,3,0,0,0,2,7,3,6,2,0,0,0,0,0,0,3,6,2,3,5,6,0,0,0,0,3,4,6,7,0,5,5,0,4,7,0,6,0,0,0,0,0,0,0,0,0,0,0,0,0,0,0,0,0,0,0,0,0,0,0,0],"split_type":[0,0,0,0,0,0,0,0,0,0,0,0,0,0,0,0,0,0,0,0,0,0,0,0,0,0,0,0,0,0,0,0,0,0,0,0,0,0,0,0,0,0,0,0,0,0,0,0,0,0,0,0,0,0,0,0,0,0,0,0,0,0,0,0,0,0,0],"sum_hessian":[1.947E3,1.6E1,1.931E3,4E0,1.2E1,1.504E3,4.27E2,2E0,2E0,7E0,5E0,1.185E3,3.19E2,4.22E2,5E0,1E0,1E0,6E0,1E0,2E0,3E0,2.2E1,1.163E3,3.08E2,1.1E1,6.7E1,3.55E2,1E0,4E0,1E0,1E0,8E0,1.4E1,5.04E2,6.59E2,2.22E2,8.6E1,9E0,2E0,5.4E1,1.3E1,2.4E1,3.31E2,3E0,5E0,7E0,7E0,4.75E2,2.9E1,2.93E2,3.66E2,2.12E2,1E1,5.6E1,3E1,6E0,3E0,1E0,1E0,4.6E1,8E0,5E0,8E0,6E0,1.8E1,4.6E1,2.85E2],"tree_param":{"num_deleted":"0","num_feature":"8","num_nodes":"67","size_leaf_vector":"1"}},{"base_weights":[1.1771546E-2,1.1917151E-1,-2.9617432E-1,-3.0290958E-1,2.8723556E-1,-6.7702E-1,6.1000116E-2,-1.396016E-1,-1.5681822E0,5.105336E0,2.1130146E-1,7.665755E-1,-9.064287E-1,-7.749685E-1,6.196989E-1,-9.605267E-1,1.2762894E-1,-2.6686733E0,7.308114E-1,2.1051524E0,9.754784E0,8.119629E-1,-4.2829238E-2,5.3467917E0,-2.0748907E-1,-1.429922E0,-4.860102E-2,-2.527078E0,6.3391465E-1,1.0184133E0,-2.539183E-1,1.2181518E0,-1.7266126E0,7.3065333E0,2.2361618E-2,2.6095288E0,-3.304678E0,-1.8075724E0,2.9059513E0,7.1310377E0,-1.7855017E0,3.604554E0,-2.3207904E-1,1.6421524E0,3.2345667E-1,-6.877614E-1,2.4403764E-1,2.296431E0,2.2791104E0,-6.9947225E-1,1.2868569E0,-1.7734423E0,1.7549986E-1,2.2599938E0,-8.942758E-1,-2.9759583E0,1.0362648E0,4.9179883E0,-3.736428E-2,2.4919543E0,4.9646816E-1,-1.6904093E0,5.3731674E-1,-7.4537605E-1,6.248787E-1,4.5116946E-2,-8.333218E-1,2.9031491E0,2.9196454E-2,4.7099915E-1,-6.325458E-2,1.8350178E0,-1.7953369E-1,-1.3638455E-1,-1.3693427E0,-9.6374875E-1,-9.663575E-2,-4.6829483E-1,1.6198746E0,2.754417E0,-1.6055547E-1,1.025239E0,-9.6667194E-1,9.8748225E-1,-2.3880407E-1,-2.0465198E-1,4.13741E-1,-6.2970287E-1,-4.8249457E-2,4.9955758E-1,-6.1416114E-3,1.4739734E-1,8.1337935E-1,6.658107E-2,-7.7008516E-1,5.5903554E-1,-5.793722E-1,1.9418381E0,-1.13916405E-1,1.0307724E0,-4.3452874E-1,-1.1395769E0,-2.0243259E-1,7.5160164E-1,-9.93797E-1,-5.8595467E-2,5.1026577E-1,2.920577E0,2.4172898E-2,-7.074056E-1,1.7139474E-1,9.258352E-1,-1.0464329E0,8.448313E-1,3.902863E-2,-6.0736024E-1,5.984568E-1,1.5910913E0,6.678917E-2],"categories":[],"categories_nodes":[],"categories_segments":[],"categories_sizes":[],"default_left":[0,0,0,0,0,0,0,0,0,0,0,0,0,0,0,0,0,0,0,0,0,0,0,0,0,0,0,0,0,0,0,0,0,0,0,0,0,0,0,0,0,0,0,0,0,0,0,0,0,0,0,0,0,0,0,0,0,0,0,0,0,0,0,0,0,0,0,0,0,0,0,0,0,0,0,0,0,0,0,0,0,0,0,0,0,0,0,0,0,0,0,0,0,0,0,0,0,0,0,0,0,0,0,0,0,0,0,0,0,0,0,0,0,0,0,0,0,0,0],"id":16,"left_children":[1,3,5,7,9,11,13,15,17,19,21,23,25,27,29,31,33,35,37,39,41,43,45,47,49,51,53,55,57,59,61,63,65,67,69,71,73,75,77,79,81,-1,-1,83,85,87,89,-1,91,93,-1,95,97,99,101,103,105,107,109,111,113,115,117,-1,-1,-1,-1,-1,-1,-1,-1,-1,-1,-1,-1,-1,-1,-1,-1,-1,-1,-1,-1,-1,-1,-1,-1,-1,-1,-1,-1,-1,-1,-1,-1,-1,-1,-1,-1,-1,-1,-1,-1,-1,-1,-1,-1,-1,-1,-1,-1,-1,-1,-1,-1,-1,-1,-1,-1],"loss_changes":[6.446223E1,1.02590485E2,6.859958E1,8.491228E1,3.7721854E2,8.150114E1,1.2238151E2,8.04143E1,1.2086133E2,2.0265189E2,1.5558159E2,1.5279791E2,9.468361E1,2.6079626E2,5.4945435E1,1.5231822E2,2.0916663E2,1.160464E2,9.3594154E1,2.2782628E2,1.5208472E2,1.223513E2,1.3281978E2,2.5034775E1,6.716157E1,7.25571E1,1.60159E2,7.826105E1,1.6985646E2,8.182643E1,5.7738388E1,8.202426E1,1.3260657E2,6.741971E1,9.922431E1,4.866452E1,1.0204947E2,1.5660778E1,1.0867862E2,8.350603E1,6.3338974E1,0E0,0E0,4.530445E2,2.0477248E2,1.6400438E2,1.8686087E2,0E0,1.7582836E0,4.7028908E1,0E0,6.557956E1,8.637124E1,1.00914E2,3.568672E1,8.5812164E1,5.24343E0,1.8564046E2,7.479905E1,1.1025244E2,6.84716E1,2.6202744E1,4.8315796E1,0E0,0E0,0E0,0E0,0E0,0E0,0E0,0E0,0E0,0E0,0E0,0E0,0E0,0E0,0E0,0E0,0E0,0E0,0E0,0E0,0E0,0E0,0E0,0E0,0E0,0E0,0E0,0E0,0E0,0E0,0E0,0E0,0E0,0E0,0E0,0E0,0E0,0E0,0E0,0E0,0E0,0E0,0E0,0E0,0E0,0E0,0E0,0E0,0E0,0E0,0E0,0E0,0E0,0E0,0E0,0E0],"parents":[2147483647,0,0,1,1,2,2,3,3,4,4,5,5,6,6,7,7,8,8,9,9,10,10,11,11,12,12,13,13,14,14,15,15,16,16,17,17,18,18,19,19,20,20,21,21,22,22,23,23,24,24,25,25,26,26,27,27,28,28,29,29,30,30,31,31,32,32,33,33,34,34,35,35,36,36,37,37,38,38,39,39,40,40,43,43,44,44,45,45,46,46,48,48,49,49,51,51,52,52,53,53,54,54,55,55,56,56,57,57,58,58,59,59,60,60,61,61,62,62],"right_children":[2,4,6,8,10,12,14,16,18,20,22,24,26,28,30,32,34,36,38,40,42,44,46,48,50,52,54,56,58,60,62,64,66,68,70,72,74,76,78,80,82,-1,-1,84,86,88,90,-1,92,94,-1,96,98,100,102,104,106,108,110,112,114,116,118,-1,-1,-1,-1,-1,-1,-1,-1,-1,-1,-1,-1,-1,-1,-1,-1,-1,-1,-1,-1,-1,-1,-1,-1,-1,-1,-1,-1,-1,-1,-1,-1,-1,-1,-1,-1,-1,-1,-1,-1,-1,-1,-1,-1,-1,-1,-1,-1,-1,-1,-1,-1,-1,-1,-1,-1],"split_conditions":[2.4561424E2,1.4934499E2,3.0617374E2,1.3511044E2,1.5226587E2,8E0,1.2538134E1,-1.3156668E0,8.000001E-1,2.1666666E1,1.3237038E1,1.1304229E1,2.1626984E1,1.076975E1,7.9030833E0,4.1483334E1,-1.274E0,1E1,1.3994305E2,3.0308336E-1,4.7E1,1.5E1,1.5905833E0,9E0,2.1E1,3E1,3.7000003E0,3.6E1,1.1811417E1,1.6981165E1,9.930166E0,8.666667E0,-4.994833E0,2.4E1,6.5308326E-1,1.2E1,-5.1865E0,2.4E1,9E0,2E1,8E0,3.604554E0,-2.3207904E-1,9E-1,1.0594036E1,4E-1,3E-1,2.296431E0,1.1E1,9.333333E0,1.2868569E0,8.373386E0,2E-1,1.7E1,3.9E0,-4.70525E0,3.3184387E2,3.4468356E2,8.6193495E0,4.9999995E0,8E0,2.8E1,3.1752832E2,-7.4537605E-1,6.248787E-1,4.5116946E-2,-8.333218E-1,2.9031491E0,2.9196454E-2,4.7099915E-1,-6.325458E-2,1.8350178E0,-1.7953369E-1,-1.3638455E-1,-1.3693427E0,-9.6374875E-1,-9.663575E-2,-4.6829483E-1,1.6198746E0,2.754417E0,-1.6055547E-1,1.025239E0,-9.6667194E-1,9.8748225E-1,-2.3880407E-1,-2.0465198E-1,4.13741E-1,-6.2970287E-1,-4.8249457E-2,4.9955758E-1,-6.1416114E-3,1.4739734E-1,8.1337935E-1,6.658107E-2,-7.7008516E-1,5.5903554E-1,-5.793722E-1,1.9418381E0,-1.13916405E-1,1.0307724E0,-4.3452874E-1,-1.1395769E0,-2.0243259E-1,7.5160164E-1,-9.93797E-1,-5.8595467E-2,5.1026577E-1,2.920577E0,2.4172898E-2,-7.074056E-1,1.7139474E-1,9.258352E-1,-1.0464329E0,8.448313E-1,3.902863E-2,-6.0736024E-1,5.984568E-1,1.5910913E0,6.678917E-2],"split_indices":[7,7,7,7,7,2,6,4,5,3,6,6,6,4,4,7,4,0,7,4,0,1,4,1,1,2,5,2,4,6,4,3,4,0,4,2,4,0,1,0,1,0,0,5,6,5,5,0,0,3,0,6,5,3,5,4,7,7,6,5,0,0,7,0,0,0,0,0,0,0,0,0,0,0,0,0,0,0,0,0,0,0,0,0,0,0,0,0,0,0,0,0,0,0,0,0,0,0,0,0,0,0,0,0,0,0,0,0,0,0,0,0,0,0,0,0,0,0,0],"split_type":[0,0,0,0,0,0,0,0,0,0,0,0,0,0,0,0,0,0,0,0,0,0,0,0,0,0,0,0,0,0,0,0,0,0,0,0,0,0,0,0,0,0,0,0,0,0,0,0,0,0,0,0,0,0,0,0,0,0,0,0,0,0,0,0,0,0,0,0,0,0,0,0,0,0,0,0,0,0,0,0,0,0,0,0,0,0,0,0,0,0,0,0,0,0,0,0,0,0,0,0,0,0,0,0,0,0,0,0,0,0,0,0,0,0,0,0,0,0,0],"sum_hessian":[1.947E3,1.444E3,5.03E2,4.11E2,1.033E3,2.43E2,2.6E2,3.65E2,4.6E1,1.5E1,1.018E3,3.3E1,2.1E2,1.04E2,1.56E2,8.9E1,2.76E2,3.1E1,1.5E1,1E1,5E0,3.02E2,7.16E2,5E0,2.8E1,1.3E2,8E1,4.6E1,5.8E1,1.07E2,4.9E1,2.3E1,6.6E1,3E0,2.73E2,3E0,2.8E1,7E0,8E0,4E0,6E0,4E0,1E0,1.11E2,1.91E2,2.2E2,4.96E2,2E0,3E0,2.6E1,2E0,1.07E2,2.3E1,2.1E1,5.9E1,4.1E1,5E0,7E0,5.1E1,2.7E1,8E1,1.7E1,3.2E1,4E0,1.9E1,2.4E1,4.2E1,2E0,1E0,3.5E1,2.38E2,1E0,2E0,9E0,1.9E1,3E0,4E0,3E0,5E0,3E0,1E0,1E0,5E0,6.6E1,4.5E1,9.8E1,9.3E1,5.9E1,1.61E2,7.7E1,4.19E2,1E0,2E0,1.8E1,8E0,4E0,1.03E2,1E0,2.2E1,1.6E1,5E0,3E0,5.6E1,2E0,3.9E1,2E0,3E0,3E0,4E0,1E1,4.1E1,2.5E1,2E0,1E1,7E1,1.6E1,1E0,1E0,3.1E1],"tree_param":{"num_deleted":"0","num_feature":"8","num_nodes":"119","size_leaf_vector":"1"}},{"base_weights":[1.8200781E-2,6.857419E-3,2.2158587E0,5.6433386E-1,-3.0884165E-2,1.2010595E0,-3.7252045E-1,2.417545E0,-2.3030004E-1,-7.198274E-1,2.8845455E-2,1.2115141E0,-5.497145E-1,8.71273E-1,4.895615E0,4.342934E0,-3.889989E-1,2.6483743E0,-9.150959E-1,2.143594E0,1.2276776E-2,1.038045E-1,4.413769E-1,4.069866E0,2.2052792E-1,3.23082E0,2.9768777E0,5.673409E-4,1.9537531E0,3.1249252E-1,-1.4504269E0,-1.889444E0,5.04136E-1,3.2169719E0,7.639885E-1,3.5129104E-2,-1.3720133E0,2.4337465E-1,1.4656968E0,7.873729E-1,-1.498552E-1,4.3135738E-1,1.6360185E0,-2.79765E-1,7.053565E-1,-9.197355E-1,-4.991614E-2,-7.690278E-1,8.599937E-2,-2.8192806E-1,3.8060763E-1,1.0870379E0,1.16706856E-1,6.7714006E-2,4.219353E-1,5.365263E-3,9.446159E-1,-5.353425E-1,4.3372795E-1],"categories":[],"categories_nodes":[],"categories_segments":[],"categories_sizes":[],"default_left":[0,0,0,0,0,0,0,0,0,0,0,0,0,0,0,0,0,0,0,0,0,0,0,0,0,0,0,0,0,0,0,0,0,0,0,0,0,0,0,0,0,0,0,0,0,0,0,0,0,0,0,0,0,0,0,0,0,0,0],"id":17,"left_children":[1,3,5,7,9,-1,11,13,15,17,19,21,-1,23,25,27,29,-1,31,33,35,-1,-1,37,39,41,-1,-1,-1,43,45,47,49,51,53,55,57,-1,-1,-1,-1,-1,-1,-1,-1,-1,-1,-1,-1,-1,-1,-1,-1,-1,-1,-1,-1,-1,-1],"loss_changes":[4.8546165E1,4.0814075E1,4.7763145E1,1.8168958E2,7.479089E1,0E0,1.3782309E1,1.3751009E2,6.483113E1,2.784125E2,5.8593246E1,1.6534281E-1,0E0,4.905773E1,8.511304E1,2.8242355E1,6.3742775E1,0E0,1.9869664E2,1.679316E1,5.2592693E1,0E0,0E0,6.669899E0,3.7662518E1,3.997873E1,0E0,0E0,0E0,1.3418227E2,7.001215E1,1.2540079E2,6.63247E1,6.637085E0,2.1032958E0,8.773261E1,3.395995E1,0E0,0E0,0E0,0E0,0E0,0E0,0E0,0E0,0E0,0E0,0E0,0E0,0E0,0E0,0E0,0E0,0E0,0E0,0E0,0E0,0E0,0E0],"parents":[2147483647,0,0,1,1,2,2,3,3,4,4,6,6,7,7,8,8,9,9,10,10,11,11,13,13,14,14,15,15,16,16,18,18,19,19,20,20,23,23,24,24,25,25,29,29,30,30,31,31,32,32,33,33,34,34,35,35,36,36],"right_children":[2,4,6,8,10,-1,12,14,16,18,20,22,-1,24,26,28,30,-1,32,34,36,-1,-1,38,40,42,-1,-1,-1,44,46,48,50,52,54,56,58,-1,-1,-1,-1,-1,-1,-1,-1,-1,-1,-1,-1,-1,-1,-1,-1,-1,-1,-1,-1,-1,-1],"split_conditions":[2.0428083E1,7.9036193E0,3.3E1,7.0724994E-1,9.504273E0,1.2010595E0,1.2984975E1,-1.3156668E0,6E0,5E0,-1.1376083E1,3.8E1,-5.497145E-1,9E0,7.2805495E0,7E0,2.0563016E2,2.6483743E0,8.519752E0,1.5E1,5.6E1,1.038045E-1,4.413769E-1,1.1E1,8.73215E1,1.5957478E2,2.9768777E0,5.673409E-4,1.9537531E0,2.4E1,2E-1,1.1000001E0,1.5E1,4.6E1,1.9823697E2,5.4E1,3.4394836E2,2.4337465E-1,1.4656968E0,7.873729E-1,-1.498552E-1,4.3135738E-1,1.6360185E0,-2.79765E-1,7.053565E-1,-9.197355E-1,-4.991614E-2,-7.690278E-1,8.599937E-2,-2.8192806E-1,3.8060763E-1,1.0870379E0,1.16706856E-1,6.7714006E-2,4.219353E-1,5.365263E-3,9.446159E-1,-5.353425E-1,4.3372795E-1],"split_indices":[4,6,0,4,6,0,6,4,1,1,4,0,0,2,6,0,7,0,4,2,2,0,0,1,7,7,0,0,0,0,5,5,0,0,7,2,7,0,0,0,0,0,0,0,0,0,0,0,0,0,0,0,0,0,0,0,0,0,0],"split_type":[0,0,0,0,0,0,0,0,0,0,0,0,0,0,0,0,0,0,0,0,0,0,0,0,0,0,0,0,0,0,0,0,0,0,0,0,0,0,0,0,0,0,0,0,0,0,0,0,0,0,0,0,0,0,0,0,0,0,0],"sum_hessian":[1.947E3,1.938E3,9E0,1.22E2,1.816E3,5E0,4E0,3.6E1,8.6E1,1.44E2,1.672E3,2E0,2E0,2.3E1,1.3E1,2E0,8.4E1,2E0,1.42E2,1.2E1,1.66E3,1E0,1E0,3E0,2E1,1.1E1,2E0,1E0,1E0,5.1E1,3.3E1,8.4E1,5.8E1,6E0,6E0,1.634E3,2.6E1,1E0,2E0,4E0,1.6E1,7E0,4E0,3.2E1,1.9E1,1.4E1,1.9E1,6.4E1,2E1,2E1,3.8E1,5E0,1E0,4E0,2E0,1.626E3,8E0,2.3E1,3E0],"tree_param":{"num_deleted":"0","num_feature":"8","num_nodes":"59","size_leaf_vector":"1"}},{"base_weights":[2.0237185E-2,5.8151707E-2,-4.5161134E-1,-2.9215278E-2,8.664623E-1,1.0377958E0,-8.65729E-1,4.294743E-2,-7.1087307E-1,-1.3049481E0,1.076873E0,-1.1840327E0,3.6348033E0,-4.0759635E0,-6.8107635E-1,3.4847256E-2,1.7961761E0,-1.5572698E0,7.86505E-1,1.2726358E0,-2.5922713E0,2.4314272E0,5.938049E-1,-2.6542463E0,2.1987693E0,-2.387271E-1,4.62308E0,-1.0579777E-1,-1.8103791E0,-1.7315049E0,-4.7038022E-2,1.9550107E-1,-2.3433301E-1,1.416124E0,-2.140489E0,-1.7180876E0,1.8058115E0,1.0332694E0,-6.7421985E-1,-1.9452718E0,-1.0069185E0,6.5092206E0,-6.018411E-1,-1.4618546E0,9.9498695E-1,-3.561551E0,-4.902485E-1,9.920082E-2,7.5187665E-1,-1.1478282E-1,-1.8968966E-2,1.3488503E0,5.5646176E0,-6.736622E-2,1.9757224E-2,-3.0963578E0,3.7748495E-1,8.2216007E-1,-1.0777409E0,-1.0964324E-1,1.3670321E-1,-3.0864692E-1,-2.185422E-2,8.432234E-1,-2.933178E-1,-3.6201084E-1,-1.5814534E0,1.4849316E-1,-1.485096E0,1.5157925E0,1.3406579E-1,-3.7675726E-1,1.6060396E-1,-2.6192438E-2,-5.175436E-1,-8.933742E-1,2.1727378E0,-3.7361783E-1,1.3598003E0,-5.5281657E-1,8.661936E-1,-3.902376E-2,5.114364E-1,-3.7874183E-1,-1.2114233E0,6.819363E-2,-2.1794E-1,5.110718E-1,4.2702485E-2,1.8357068E0,1.6940661E-1,-5.978138E-1,-1.6948888E0,3.1327546E-1,-6.151707E-1,4.697601E-1,-2.18549E-1,-1.1302223E0,-5.2181356E-2],"categories":[],"categories_nodes":[],"categories_segments":[],"categories_sizes":[],"default_left":[0,0,0,0,0,0,0,0,0,0,0,0,0,0,0,0,0,0,0,0,0,0,0,0,0,0,0,0,0,0,0,0,0,0,0,0,0,0,0,0,0,0,0,0,0,0,0,0,0,0,0,0,0,0,0,0,0,0,0,0,0,0,0,0,0,0,0,0,0,0,0,0,0,0,0,0,0,0,0,0,0,0,0,0,0,0,0,0,0,0,0,0,0,0,0,0,0,0,0],"id":18,"left_children":[1,3,5,7,9,11,13,15,17,19,21,23,25,27,29,31,-1,33,35,37,39,41,43,45,47,49,51,53,-1,55,57,59,61,63,65,67,69,-1,71,-1,73,75,77,79,81,83,85,-1,-1,-1,-1,87,89,-1,-1,91,93,95,97,-1,-1,-1,-1,-1,-1,-1,-1,-1,-1,-1,-1,-1,-1,-1,-1,-1,-1,-1,-1,-1,-1,-1,-1,-1,-1,-1,-1,-1,-1,-1,-1,-1,-1,-1,-1,-1,-1,-1,-1],"loss_changes":[3.487581E1,1.27423195E2,9.033296E1,8.016148E1,8.1817505E1,1.8894711E2,6.4800674E1,7.076435E1,1.9893542E2,5.6389957E1,1.0390524E2,9.5358025E1,5.852545E1,4.601815E1,7.251386E1,6.374546E1,0E0,1.7644527E2,1.4862054E2,2.768887E1,6.134247E1,5.2341724E2,1.00417755E2,2.3778236E1,2.6177483E0,7.681143E-2,2.9487854E1,7.594395E-2,0E0,1.1918573E2,6.2702137E1,1.3488142E2,7.061764E1,5.9502842E1,2.3923013E2,1.2405365E2,1.7864223E2,0E0,3.486436E0,0E0,5.7937803E0,1.4678137E2,8.825299E1,3.844962E1,8.0877625E1,4.7621765E0,1.0126389E0,0E0,0E0,0E0,0E0,1.4694138E0,2.1492554E1,0E0,