{"learner":{"attributes":{"scikit_learn":"{\"_estimator_type\": \"regressor\"}"},"feature_names":["lag1","lag2","lag3","rolling","temperature_2m_mean","precipitation_sum","wind_speed_10m_max","wind_direction_10m_dominant"],"feature_types":["float","float","float","float","float","float","float","float"],"gradient_booster":{"model":{"gbtree_model_param":{"num_parallel_tree":"1","num_trees":"100"},"iteration_indptr":[0,1,2,3,4,5,6,7,8,9,10,11,12,13,14,15,16,17,18,19,20,21,22,23,24,25,26,27,28,29,30,31,32,33,34,35,36,37,38,39,40,41,42,43,44,45,46,47,48,49,50,51,52,53,54,55,56,57,58,59,60,61,62,63,64,65,66,67,68,69,70,71,72,73,74,75,76,77,78,79,80,81,82,83,84,85,86,87,88,89,90,91,92,93,94,95,96,97,98,99,100],"tree_info":[0,0,0,0,0,0,0,0,0,0,0,0,0,0,0,0,0,0,0,0,0,0,0,0,0,0,0,0,0,0,0,0,0,0,0,0,0,0,0,0,0,0,0,0,0,0,0,0,0,0,0,0,0,0,0,0,0,0,0,0,0,0,0,0,0,0,0,0,0,0,0,0,0,0,0,0,0,0,0,0,0,0,0,0,0,0,0,0,0,0,0,0,0,0,0,0,0,0,0,0],"trees":[{"base_weights":[4.2703257E-7,-4.0451894E0,1.9226276E1,1.0766888E1,-5.5296164E0,3.085251E1,1.4865129E1,1.419953E1,3.5489604E0,-9.388989E0,-1.5851164E0,2.548896E1,3.61264E1,2.0072687E1,9.541438E0,1.5416978E1,4.6787696E0,1.5883E1,1.1717213E0,-5.7856307E0,-1.0709535E1,2.4470692E0,-4.867834E0,2.6807636E1,1.3558858E1,1.4114E1,3.7362667E1,1.4973895E1,2.3830444E1,1.4576236E1,3.7724595E0,1.2575111E1,1.9147892E1,6.306E0,-2.2272E0,5.8640003E0,2.07216E1,-5.7268567E0,2.4451897E0,3.5548239E0,-6.5909047E0,-5.2838664E0,-1.1344274E1,6.397271E0,1.099602E0,5.266828E-1,-6.2551923E0,8.334732E0,3.0342002E0,1.6304002E0,4.7164803E0,6.228001E-1,5.2304006E0,3.785561E1,2.5728002E0,1.8580267E1,1.0575143E1,1.9603092E1,2.942262E1,1.2130264E1,2.17675E1,8.4434825E-1,1.1955E1,2.1648012E-1,4.0526886E0,4.953309E0,9.816481E0,-1.1772E0,2.2778184E0,2.1304002E0,3.2280007E-1,1.8228002E0,6.8592005E0,4.304001E-1,-2.66352E0,1.072543E0,-2.889599E-1,1.4825602E0,-1.3695999E0,-2.679062E0,-1.3711845E0,8.6775017E-1,-2.42208E0,-3.707613E0,-2.7162306E0,5.2738667E0,1.5021509E0,1.360444E-1,2.989977E0,-3.1336656E-1,2.5709145E0,-2.1430533E0,-3.5731187E-1,1.148946E1,3.0228002E0,5.9661336E0,1.5342002E0,3.4997761E0,3.342001E-1,-3.4079993E-1,6.344488E0,1.0313506E1,6.2036314E0,4.6757765E0,2.6198897E0,4.623273E0,8.938001E0,-9.861806E-2,5.3304E0,4.113772E0,-6.959992E-2],"categories":[],"categories_nodes":[],"categories_segments":[],"categories_sizes":[],"default_left":[0,0,0,0,0,0,0,0,0,0,0,0,0,0,0,0,0,0,0,0,0,0,0,0,0,0,0,0,0,0,0,0,0,0,0,0,0,0,0,0,0,0,0,0,0,0,0,0,0,0,0,0,0,0,0,0,0,0,0,0,0,0,0,0,0,0,0,0,0,0,0,0,0,0,0,0,0,0,0,0,0,0,0,0,0,0,0,0,0,0,0,0,0,0,0,0,0,0,0,0,0,0,0,0,0,0,0,0,0,0,0],"id":0,"left_children":[1,3,5,7,9,11,13,15,17,19,21,23,25,27,29,31,33,35,37,39,41,43,45,47,49,51,53,55,57,59,61,63,65,67,-1,69,71,73,75,77,79,81,83,85,87,89,91,-1,-1,-1,-1,-1,-1,93,-1,95,97,99,101,103,105,107,109,-1,-1,-1,-1,-1,-1,-1,-1,-1,-1,-1,-1,-1,-1,-1,-1,-1,-1,-1,-1,-1,-1,-1,-1,-1,-1,-1,-1,-1,-1,-1,-1,-1,-1,-1,-1,-1,-1,-1,-1,-1,-1,-1,-1,-1,-1,-1,-1],"loss_changes":[1.5570342E5,3.642678E4,1.7186266E4,3.6908691E3,2.2880953E4,1.7381328E3,6.877953E3,1.1101504E3,1.4474375E3,3.5544219E3,9.873125E3,4.231172E2,6.972578E2,2.0956445E3,3.6628525E3,7.134629E2,3.0283774E2,2.663119E2,3.917634E2,1.5728853E3,1.851418E3,1.7760925E3,3.0792705E3,4.3501758E2,3.7552002E1,1.2370239E2,2.7133984E2,7.077334E2,1.1253125E3,9.320498E2,1.4514285E3,5.87999E2,7.8403516E2,1.8775247E2,0E0,1.6056366E1,1.7961914E1,1.707265E2,1.4594249E2,2.1403241E2,8.5713574E2,1.3919458E3,1.0404258E3,1.23326E3,1.4334956E3,1.0831404E3,1.4625264E3,0E0,0E0,0E0,0E0,0E0,0E0,1.1819922E2,0E0,4.2624707E2,2.759641E2,1.4340508E3,5.457324E2,4.8610303E2,3.5712842E2,9.190657E2,3.4589355E2,0E0,0E0,0E0,0E0,0E0,0E0,0E0,0E0,0E0,0E0,0E0,0E0,0E0,0E0,0E0,0E0,0E0,0E0,0E0,0E0,0E0,0E0,0E0,0E0,0E0,0E0,0E0,0E0,0E0,0E0,0E0,0E0,0E0,0E0,0E0,0E0,0E0,0E0,0E0,0E0,0E0,0E0,0E0,0E0,0E0,0E0,0E0,0E0],"parents":[2147483647,0,0,1,1,2,2,3,3,4,4,5,5,6,6,7,7,8,8,9,9,10,10,11,11,12,12,13,13,14,14,15,15,16,16,17,17,18,18,19,19,20,20,21,21,22,22,23,23,24,24,25,25,26,26,27,27,28,28,29,29,30,30,31,31,32,32,33,33,35,35,36,36,37,37,38,38,39,39,40,40,41,41,42,42,43,43,44,44,45,45,46,46,53,53,55,55,56,56,57,57,58,58,59,59,60,60,61,61,62,62],"right_children":[2,4,6,8,10,12,14,16,18,20,22,24,26,28,30,32,34,36,38,40,42,44,46,48,50,52,54,56,58,60,62,64,66,68,-1,70,72,74,76,78,80,82,84,86,88,90,92,-1,-1,-1,-1,-1,-1,94,-1,96,98,100,102,104,106,108,110,-1,-1,-1,-1,-1,-1,-1,-1,-1,-1,-1,-1,-1,-1,-1,-1,-1,-1,-1,-1,-1,-1,-1,-1,-1,-1,-1,-1,-1,-1,-1,-1,-1,-1,-1,-1,-1,-1,-1,-1,-1,-1,-1,-1,-1,-1,-1,-1],"split_conditions":[3.9E1,-3.7833328E0,-8.870833E0,1.1000001E0,1.8E1,5.6E1,7.0000005E-1,1.9020386E2,-7.7291675E0,1.02781334E2,1.9588385E2,-9.414583E0,3.6E1,4.6E1,1.0887463E2,4.6588135E1,5.7E1,2.6E1,1.6E1,-8.708332E-1,7.8954163E0,7.7500004E-1,6E-1,6.1E1,2.9574804E1,6.4E1,7.3E1,5.0627647E1,4.981697E1,5.6E1,2.706636E2,1.1E1,8E-1,1.9588385E2,-2.2272E0,2.5E1,2.5E1,9.906544E0,1.7709658E1,1.3339445E1,1.2E1,1.6791668E0,1.4E1,1.2E1,2.205625E1,1.6674997E1,2.856243E2,8.334732E0,3.0342002E0,1.6304002E0,4.7164803E0,6.228001E-1,5.2304006E0,6.2E0,2.5728002E0,3E-1,5.5E1,2.6E1,4.1791663E0,4.2E1,1.4174356E1,1.7000002E1,3.5680844E2,2.1648012E-1,4.0526886E0,4.953309E0,9.816481E0,-1.1772E0,2.2778184E0,2.1304002E0,3.2280007E-1,1.8228002E0,6.8592005E0,4.304001E-1,-2.66352E0,1.072543E0,-2.889599E-1,1.4825602E0,-1.3695999E0,-2.679062E0,-1.3711845E0,8.6775017E-1,-2.42208E0,-3.707613E0,-2.7162306E0,5.2738667E0,1.5021509E0,1.360444E-1,2.989977E0,-3.1336656E-1,2.5709145E0,-2.1430533E0,-3.5731187E-1,1.148946E1,3.0228002E0,5.9661336E0,1.5342002E0,3.4997761E0,3.342001E-1,-3.4079993E-1,6.344488E0,1.0313506E1,6.2036314E0,4.6757765E0,2.6198897E0,4.623273E0,8.938001E0,-9.861806E-2,5.3304E0,4.113772E0,-6.959992E-2],"split_indices":[0,4,4,5,0,0,5,7,4,7,7,4,3,0,7,7,2,2,1,4,6,4,5,1,7,0,2,7,7,0,7,1,5,7,0,0,0,6,6,6,0,4,0,1,4,4,7,0,0,0,0,0,0,5,0,5,1,1,4,1,6,4,7,0,0,0,0,0,0,0,0,0,0,0,0,0,0,0,0,0,0,0,0,0,0,0,0,0,0,0,0,0,0,0,0,0,0,0,0,0,0,0,0,0,0,0,0,0,0,0,0],"split_type":[0,0,0,0,0,0,0,0,0,0,0,0,0,0,0,0,0,0,0,0,0,0,0,0,0,0,0,0,0,0,0,0,0,0,0,0,0,0,0,0,0,0,0,0,0,0,0,0,0,0,0,0,0,0,0,0,0,0,0,0,0,0,0,0,0,0,0,0,0,0,0,0,0,0,0,0,0,0,0,0,0,0,0,0,0,0,0,0,0,0,0,0,0,0,0,0,0,0,0,0,0,0,0,0,0,0,0,0,0,0,0],"sum_hessian":[2E3,1.653E3,3.47E2,1.5E2,1.503E3,9.3E1,2.54E2,1.01E2,4.9E1,7.59E2,7.44E2,4.9E1,4.4E1,1.27E2,1.27E2,8.9E1,1.2E1,7E0,4.2E1,2.05E2,5.54E2,3.34E2,4.1E2,4.3E1,6E0,3E0,4.1E1,5.6E1,7.1E1,6.7E1,6E1,5.3E1,3.6E1,1.1E1,1E0,3E0,4E0,6E0,3.6E1,1.6E1,1.89E2,5.9E1,4.95E2,8.4E1,2.5E2,8.4E1,3.26E2,4E1,3E0,2E0,4E0,1E0,2E0,4E1,1E0,2.9E1,2.7E1,4.3E1,2.8E1,5.2E1,1.5E1,4.5E1,1.5E1,4E0,4.9E1,3.2E1,4E0,1E0,1E1,2E0,1E0,1E0,3E0,2E0,4E0,2.7E1,9E0,1.4E1,2E0,8.6E1,1.03E2,1.5E1,4.4E1,3.4E2,1.55E2,8E0,7.6E1,2.34E2,1.6E1,7.1E1,1.3E1,2.77E2,4.9E1,3.9E1,1E0,2.6E1,3E0,2.4E1,3E0,3E0,4E1,1.6E1,1.2E1,2.4E1,2.8E1,1E1,5E0,4.3E1,2E0,1.3E1,2E0],"tree_param":{"num_deleted":"0","num_feature":"8","num_nodes":"111","size_leaf_vector":"1"}},{"base_weights":[6.495983E-2,-2.816311E0,1.37590885E1,7.71959E0,-3.8722317E0,2.0296726E1,9.620473E0,1.0997492E1,3.6647284E0,-6.5879703E0,-1.096616E0,1.5733414E1,2.4367477E1,1.4673839E1,6.331812E0,1.1691481E1,1.4272626E-1,6.9319425E0,2.9280788E-1,-3.9254084E0,-7.462399E0,1.6823721E0,-3.4719276E0,2.099745E1,1.2988236E1,2.1231653E1,3.0101664E1,7.9615026E0,1.40608225E1,9.674251E0,2.4020548E0,1.0347424E1,1.979633E1,-2.0063906E0,2.96064E0,1.8846691E1,4.7865977E0,-1.7572737E0,2.5668516E0,3.379115E-1,-5.289649E0,-7.790007E0,-1.2948644E0,3.667448E0,-3.8546291E-3,-4.0557494E0,4.78692E0,2.1656458E1,1.1725903E0,1.1431453E1,7.942979E0,2.3737944E1,1.1734623E1,1.3382401E0,3.1110237E1,1.2170467E1,1.7095938E1,7.1578E0,1.3510028E1,1.1006442E0,1.2470188E1,3.222867E0,-5.8013767E-1,6.3840775E0,9.66144E-1,-8.105021E-1,1.1918736E-2,1.1161441E0,2.16144E-1,1.5148969E0,6.310061E0,-7.819879E-1,1.999571E0,1.0783797E-1,-1.9210321E0,-3.6512604E-1,1.4224387E0,3.8543722E-1,-1.9039683E0,-1.667389E0,5.4237175E-1,-2.8553252E0,-1.9600999E0,-2.5075104E0,1.1635476E0,1.9719896E0,2.035174E-1,-2.4517183E-1,2.813232E0,-1.480119E0,9.044822E-2,-1.0907083E0,1.7973702E0,2.493507E0,6.8032355E0,3.5307279E0,-4.124073E-1,8.017984E0,4.273237E0,6.016132E0,2.0200129E0,2.7057345E0,9.529152E0,2.7342024E-1,3.8444686E0,5.769386E0,3.5560315E0,2.4916573E0,-5.059967E-1,-1.0309773E-1,4.3896213E0,2.9037745E0,-9.672191E-2,1.2501236E0,4.4874053E0],"categories":[],"categories_nodes":[],"categories_segments":[],"categories_sizes":[],"default_left":[0,0,0,0,0,0,0,0,0,0,0,0,0,0,0,0,0,0,0,0,0,0,0,0,0,0,0,0,0,0,0,0,0,0,0,0,0,0,0,0,0,0,0,0,0,0,0,0,0,0,0,0,0,0,0,0,0,0,0,0,0,0,0,0,0,0,0,0,0,0,0,0,0,0,0,0,0,0,0,0,0,0,0,0,0,0,0,0,0,0,0,0,0,0,0,0,0,0,0,0,0,0,0,0,0,0,0,0,0,0,0,0,0,0,0],"id":1,"left_children":[1,3,5,7,9,11,13,15,17,19,21,23,25,27,29,31,33,35,37,39,41,43,45,47,49,51,53,-1,55,57,59,61,63,65,67,69,71,73,75,77,79,81,83,85,87,89,91,93,-1,95,-1,97,99,-1,101,103,105,107,109,111,113,-1,-1,-1,-1,-1,-1,-1,-1,-1,-1,-1,-1,-1,-1,-1,-1,-1,-1,-1,-1,-1,-1,-1,-1,-1,-1,-1,-1,-1,-1,-1,-1,-1,-1,-1,-1,-1,-1,-1,-1,-1,-1,-1,-1,-1,-1,-1,-1,-1,-1,-1,-1,-1,-1],"loss_changes":[7.899119E4,1.843077E4,9.220492E3,1.9667041E3,1.1329697E4,2.1058164E3,3.4801309E3,6.235781E2,7.581284E2,1.7401562E3,4.9235586E3,6.810283E2,6.016094E2,2.3779492E2,1.7105781E3,6.448418E2,4.227636E1,8.04432E2,1.676798E2,1.1068645E3,1.1436387E3,1.1514812E3,1.9577354E3,1.5184863E2,6.632622E2,8.639551E2,4.301582E2,0E0,2.624043E2,5.886284E2,7.986468E2,3.5589404E2,1.7744165E2,5.797863E0,2.4259586E0,4.4647705E1,4.479389E2,1.89161E2,1.4565683E2,3.0563516E2,2.8427832E2,1.1143008E3,1.1286786E3,1.3678899E3,1.434586E3,1.4399033E3,2.9565613E2,8.4009766E1,0E0,2.0210498E2,0E0,6.691367E2,3.642439E2,0E0,1.6732422E1,3.801255E2,9.668555E1,4.7080322E2,4.2472754E2,6.867567E2,8.226575E1,0E0,0E0,0E0,0E0,0E0,0E0,0E0,0E0,0E0,0E0,0E0,0E0,0E0,0E0,0E0,0E0,0E0,0E0,0E0,0E0,0E0,0E0,0E0,0E0,0E0,0E0,0E0,0E0,0E0,0E0,0E0,0E0,0E0,0E0,0E0,0E0,0E0,0E0,0E0,0E0,0E0,0E0,0E0,0E0,0E0,0E0,0E0,0E0,0E0,0E0,0E0,0E0,0E0,0E0],"parents":[2147483647,0,0,1,1,2,2,3,3,4,4,5,5,6,6,7,7,8,8,9,9,10,10,11,11,12,12,13,13,14,14,15,15,16,16,17,17,18,18,19,19,20,20,21,21,22,22,23,23,24,24,25,25,26,26,28,28,29,29,30,30,31,31,32,32,33,33,34,34,35,35,36,36,37,37,38,38,39,39,40,40,41,41,42,42,43,43,44,44,45,45,46,46,47,47,49,49,51,51,52,52,54,54,55,55,56,56,57,57,58,58,59,59,60,60],"right_children":[2,4,6,8,10,12,14,16,18,20,22,24,26,28,30,32,34,36,38,40,42,44,46,48,50,52,54,-1,56,58,60,62,64,66,68,70,72,74,76,78,80,82,84,86,88,90,92,94,-1,96,-1,98,100,-1,102,104,106,108,110,112,114,-1,-1,-1,-1,-1,-1,-1,-1,-1,-1,-1,-1,-1,-1,-1,-1,-1,-1,-1,-1,-1,-1,-1,-1,-1,-1,-1,-1,-1,-1,-1,-1,-1,-1,-1,-1,-1,-1,-1,-1,-1,-1,-1,-1,-1,-1,-1,-1,-1,-1,-1,-1,-1,-1],"split_conditions":[3.9E1,-3.7833328E0,-6.0749993E0,-6.766667E0,1.8E1,5.3E1,2E-1,7.8E0,7E-1,7.405455E1,2.0621133E2,-1.2175E1,4.564367E1,6.6189632E0,1.2069947E2,1.5778516E1,1.3896187E1,2.3685242E1,2E0,1.9395833E0,2.2800003E1,5E-1,1.6831251E1,4.9E1,2.433535E2,3.8308773E1,1.3E1,7.9615026E0,5.1E1,5.2E1,2.475638E1,6.9E1,4.9E0,2.7E1,2.1E1,2.2E1,1.1E1,1.4336861E1,-4.7875E0,1.3627795E1,6.629491E1,1.1E1,2.3162878E2,7.025E0,1.8891668E1,2.856243E2,2.298334E2,1.7E1,1.1725903E0,5.5999994E0,7.942979E0,2E-1,3.6E1,1.3382401E0,3.4247334E0,1.3E1,5.2E1,4.8E1,1.7E1,8.000001E-1,1.7E1,3.222867E0,-5.8013767E-1,6.3840775E0,9.66144E-1,-8.105021E-1,1.1918736E-2,1.1161441E0,2.16144E-1,1.5148969E0,6.310061E0,-7.819879E-1,1.999571E0,1.0783797E-1,-1.9210321E0,-3.6512604E-1,1.4224387E0,3.8543722E-1,-1.9039683E0,-1.667389E0,5.4237175E-1,-2.8553252E0,-1.9600999E0,-2.5075104E0,1.1635476E0,1.9719896E0,2.035174E-1,-2.4517183E-1,2.813232E0,-1.480119E0,9.044822E-2,-1.0907083E0,1.7973702E0,2.493507E0,6.8032355E0,3.5307279E0,-4.124073E-1,8.017984E0,4.273237E0,6.016132E0,2.0200129E0,2.7057345E0,9.529152E0,2.7342024E-1,3.8444686E0,5.769386E0,3.5560315E0,2.4916573E0,-5.059967E-1,-1.0309773E-1,4.3896213E0,2.9037745E0,-9.672191E-2,1.2501236E0,4.4874053E0],"split_indices":[0,4,4,4,0,0,5,5,5,7,7,4,7,7,7,6,6,7,5,4,5,5,4,0,7,7,1,0,0,0,6,2,5,0,0,2,1,6,4,6,7,0,7,4,4,7,7,2,0,5,0,5,3,0,6,2,1,0,1,5,5,0,0,0,0,0,0,0,0,0,0,0,0,0,0,0,0,0,0,0,0,0,0,0,0,0,0,0,0,0,0,0,0,0,0,0,0,0,0,0,0,0,0,0,0,0,0,0,0,0,0,0,0,0,0],"split_type":[0,0,0,0,0,0,0,0,0,0,0,0,0,0,0,0,0,0,0,0,0,0,0,0,0,0,0,0,0,0,0,0,0,0,0,0,0,0,0,0,0,0,0,0,0,0,0,0,0,0,0,0,0,0,0,0,0,0,0,0,0,0,0,0,0,0,0,0,0,0,0,0,0,0,0,0,0,0,0,0,0,0,0,0,0,0,0,0,0,0,0,0,0,0,0,0,0,0,0,0,0,0,0,0,0,0,0,0,0,0,0,0,0,0,0],"sum_hessian":[2E3,1.653E3,3.47E2,1.5E2,1.503E3,1.33E2,2.14E2,8.2E1,6.8E1,7.59E2,7.44E2,6.5E1,6.8E1,8.3E1,1.31E2,7.7E1,5E0,3.4E1,3.4E1,1.89E2,5.7E2,3.43E2,4.01E2,2E1,4.5E1,4.7E1,2.1E1,2E0,8.1E1,7E1,6.1E1,6.8E1,9E0,3E0,2E0,4E0,3E1,1.8E1,1.6E1,4.6E1,1.43E2,5.41E2,2.9E1,1.57E2,1.86E2,3.75E2,2.6E1,1.9E1,1E0,4.2E1,3E0,3.6E1,1.1E1,1E0,2E1,5.3E1,2.8E1,4.4E1,2.6E1,5.5E1,6E0,6.6E1,2E0,8E0,1E0,2E0,1E0,1E0,1E0,1E0,3E0,6E0,2.4E1,1.3E1,5E0,6E0,1E1,4.1E1,5E0,1.38E2,5E0,2.25E2,3.16E2,1.2E1,1.7E1,7.9E1,7.8E1,1.72E2,1.4E1,3.12E2,6.3E1,3E0,2.3E1,2E0,1.7E1,4.1E1,1E0,2.6E1,1E1,3E0,8E0,1E0,1.9E1,3E0,5E1,1.8E1,1E1,3.9E1,5E0,2E0,2.4E1,7E0,4.8E1,2E0,4E0],"tree_param":{"num_deleted":"0","num_feature":"8","num_nodes":"115","size_leaf_vector":"1"}},{"base_weights":[9.830753E-2,-1.96291E0,9.8947315E0,3.3454955E0,-3.0657806E0,1.4621373E1,6.9028034E0,5.3762584E0,-1.8353921E0,-4.2222676E0,1.1086373E0,1.1809985E1,1.810164E1,9.477191E0,3.5511847E0,7.1035104E0,2.4127283E0,5.846326E0,-3.2560723E0,-4.6042485E0,1.4025533E0,5.4971476E0,-3.9196995E-1,1.6132727E1,1.0115764E1,1.0595453E1,1.9632973E1,7.894755E0,1.32941675E1,2.104109E0,1.1128649E1,6.3211346E0,1.4204912E1,5.9059834E0,7.1944344E-1,7.63883E0,1.4505527E0,-1.5909356E0,-7.2561107E0,-2.004872E0,-5.11987E0,7.032011E-1,7.3437757E0,7.2023396E0,4.1353364E0,-9.663878E-1,8.252296E0,5.2359114E0,1.9464668E0,9.249009E0,6.8769813E0,5.189594E0,6.4389844E0,7.6997356E0,2.0870268E1,4.7367983E0,1.2541467E1,1.4787233E1,-7.0632567E0,7.4245358E0,-4.036626E-1,1.2757884E1,3.5907745E-1,2.5774755E0,1.2395494E0,6.0154934E0,6.0274774E-1,8.009714E-1,2.6063268E0,-5.9000796E-1,6.471229E-1,2.6615362E0,-3.3372402E-1,8.533615E-1,-6.188084E-1,-7.2259784E-1,1.8750931E0,-2.772339E0,-3.2526332E-1,1.4445323E-1,-1.3855243E0,-2.056117E0,-1.3792286E0,-1.265886E0,6.1728877E-1,6.16956E-1,2.5424118E0,-4.428217E-1,7.1978354E-1,2.8691406E0,-1.3195914E0,2.1073787E0,3.870517E0,1.5576935E-2,2.4769328E0,-5.7129174E-1,3.89335E0,7.291577E0,3.9200819E0,2.9999727E-1,1.8445175E0,4.082971E0,2.5758162E-1,4.76188E0,-2.996504E-1,-2.9411495E0,-2.3731615E-1,9.8590714E-1,3.5935645E0,-1.7247485E0,5.634798E-1,4.3652806E0,1.5257359E0,-6.0400033E-1,7.655852E-1],"categories":[],"categories_nodes":[],"categories_segments":[],"categories_sizes":[],"default_left":[0,0,0,0,0,0,0,0,0,0,0,0,0,0,0,0,0,0,0,0,0,0,0,0,0,0,0,0,0,0,0,0,0,0,0,0,0,0,0,0,0,0,0,0,0,0,0,0,0,0,0,0,0,0,0,0,0,0,0,0,0,0,0,0,0,0,0,0,0,0,0,0,0,0,0,0,0,0,0,0,0,0,0,0,0,0,0,0,0,0,0,0,0,0,0,0,0,0,0,0,0,0,0,0,0,0,0,0,0,0,0,0,0,0,0],"id":2,"left_children":[1,3,5,7,9,11,13,15,17,19,21,23,25,27,29,31,33,35,37,39,41,43,45,47,49,51,53,55,57,59,61,63,65,67,69,71,73,75,77,79,81,83,-1,-1,85,87,89,-1,-1,91,-1,-1,93,95,97,99,101,103,105,107,109,111,113,-1,-1,-1,-1,-1,-1,-1,-1,-1,-1,-1,-1,-1,-1,-1,-1,-1,-1,-1,-1,-1,-1,-1,-1,-1,-1,-1,-1,-1,-1,-1,-1,-1,-1,-1,-1,-1,-1,-1,-1,-1,-1,-1,-1,-1,-1,-1,-1,-1,-1,-1,-1],"loss_changes":[4.042474E4,9.693573E3,4.8204062E3,3.0083962E3,6.618577E3,1.0973281E3,1.8214443E3,1.032208E3,9.030105E2,2.311875E3,1.9646128E3,4.0072852E2,4.586582E2,6.259004E2,1.0182748E3,6.2692773E2,4.5121182E2,9.13522E1,4.4803815E2,1.3367305E3,1.0963593E3,1.8165286E3,1.1152638E3,1.4143555E2,4.3183838E2,2.2295349E2,5.3325586E2,1.2319155E3,1.137875E3,1.0837325E3,2.5861145E2,5.5104443E2,8.1537646E2,2.0185535E2,2.0891125E2,1.0697827E2,3.0354492E1,3.3565347E2,2.3500745E2,1.0939325E3,7.2758203E2,4.6207965E2,0E0,0E0,6.320659E2,3.6378143E2,2.7435248E2,0E0,0E0,3.643789E2,0E0,0E0,1.0404523E2,3.2886017E2,8.081875E2,2.7869373E2,4.2519824E2,5.643003E2,4.3812958E1,4.5061243E2,6.93889E2,1.04831055E2,2.0745121E1,0E0,0E0,0E0,0E0,0E0,0E0,0E0,0E0,0E0,0E0,0E0,0E0,0E0,0E0,0E0,0E0,0E0,0E0,0E0,0E0,0E0,0E0,0E0,0E0,0E0,0E0,0E0,0E0,0E0,0E0,0E0,0E0,0E0,0E0,0E0,0E0,0E0,0E0,0E0,0E0,0E0,0E0,0E0,0E0,0E0,0E0,0E0,0E0,0E0,0E0,0E0,0E0],"parents":[2147483647,0,0,1,1,2,2,3,3,4,4,5,5,6,6,7,7,8,8,9,9,10,10,11,11,12,12,13,13,14,14,15,15,16,16,17,17,18,18,19,19,20,20,21,21,22,22,23,23,24,24,25,25,26,26,27,27,28,28,29,29,30,30,31,31,32,32,33,33,34,34,35,35,36,36,37,37,38,38,39,39,40,40,41,41,44,44,45,45,46,46,49,49,52,52,53,53,54,54,55,55,56,56,57,57,58,58,59,59,60,60,61,61,62,62],"right_children":[2,4,6,8,10,12,14,16,18,20,22,24,26,28,30,32,34,36,38,40,42,44,46,48,50,52,54,56,58,60,62,64,66,68,70,72,74,76,78,80,82,84,-1,-1,86,88,90,-1,-1,92,-1,-1,94,96,98,100,102,104,106,108,110,112,114,-1,-1,-1,-1,-1,-1,-1,-1,-1,-1,-1,-1,-1,-1,-1,-1,-1,-1,-1,-1,-1,-1,-1,-1,-1,-1,-1,-1,-1,-1,-1,-1,-1,-1,-1,-1,-1,-1,-1,-1,-1,-1,-1,-1,-1,-1,-1,-1,-1,-1,-1,-1],"split_conditions":[3.9E1,-8.708332E-1,-6.0749993E0,2.15791E2,2.6E1,5.6E1,6.629491E1,1.1000001E0,7.9932976E0,1.76E1,1E-1,-1.2649999E1,4.3666668E1,1.4395834E0,2.006458E1,1.7053778E2,9.1641035E0,7.0911775E0,2.7666666E1,4.142607E1,1.8089775E1,9E0,1.8891668E1,5.8E1,2.4519734E2,-1.1870831E1,-1.5631251E1,4.9E1,6.2E1,8.000001E-1,4.7E1,-6.766667E0,1.0041354E1,6.9153743E0,2.1999998E0,-1.5458332E0,2.3E1,-1.1979169E0,2.579694E2,7.025E0,1E1,7.289445E0,7.3437757E0,7.2023396E0,1.0495713E1,2.6748868E2,3.9E1,5.2359114E0,1.9464668E0,4.7E1,6.8769813E0,5.189594E0,2.9574804E1,3.9E1,6E-1,2.4859842E1,2.2916682E-1,6.2E1,7.1E1,4.5E1,2.2786243E2,1.50038395E1,4.4E1,2.5774755E0,1.2395494E0,6.0154934E0,6.0274774E-1,8.009714E-1,2.6063268E0,-5.9000796E-1,6.471229E-1,2.6615362E0,-3.3372402E-1,8.533615E-1,-6.188084E-1,-7.2259784E-1,1.8750931E0,-2.772339E0,-3.2526332E-1,1.4445323E-1,-1.3855243E0,-2.056117E0,-1.3792286E0,-1.265886E0,6.1728877E-1,6.16956E-1,2.5424118E0,-4.428217E-1,7.1978354E-1,2.8691406E0,-1.3195914E0,2.1073787E0,3.870517E0,1.5576935E-2,2.4769328E0,-5.7129174E-1,3.89335E0,7.291577E0,3.9200819E0,2.9999727E-1,1.8445175E0,4.082971E0,2.5758162E-1,4.76188E0,-2.996504E-1,-2.9411495E0,-2.3731615E-1,9.8590714E-1,3.5935645E0,-1.7247485E0,5.634798E-1,4.3652806E0,1.5257359E0,-6.0400033E-1,7.655852E-1],"split_indices":[0,4,4,7,0,0,7,5,6,4,5,4,3,4,4,7,6,6,3,7,6,1,4,1,7,4,4,3,0,5,1,4,6,6,5,4,0,4,7,4,0,6,0,0,6,7,1,0,0,2,0,0,7,2,5,7,4,2,0,0,7,6,0,0,0,0,0,0,0,0,0,0,0,0,0,0,0,0,0,0,0,0,0,0,0,0,0,0,0,0,0,0,0,0,0,0,0,0,0,0,0,0,0,0,0,0,0,0,0,0,0,0,0,0,0],"split_type":[0,0,0,0,0,0,0,0,0,0,0,0,0,0,0,0,0,0,0,0,0,0,0,0,0,0,0,0,0,0,0,0,0,0,0,0,0,0,0,0,0,0,0,0,0,0,0,0,0,0,0,0,0,0,0,0,0,0,0,0,0,0,0,0,0,0,0,0,0,0,0,0,0,0,0,0,0,0,0,0,0,0,0,0,0,0,0,0,0,0,0,0,0,0,0,0,0,0,0,0,0,0,0,0,0,0,0,0,0,0,0,0,0,0,0],"sum_hessian":[2E3,1.653E3,3.47E2,2.84E2,1.369E3,1.33E2,2.14E2,2.04E2,8E1,1.072E3,2.97E2,7.6E1,5.7E1,1.2E2,9.4E1,1.28E2,7.6E1,1.2E1,6.8E1,1.004E3,6.8E1,7.5E1,2.22E2,1.9E1,5.7E1,1.1E1,4.6E1,8.7E1,3.3E1,8E1,1.4E1,1.17E2,1.1E1,2.4E1,5.2E1,8E0,4E0,4.9E1,1.9E1,1.67E2,8.37E2,6.7E1,1E0,4E0,7.1E1,2.09E2,1.3E1,1.6E1,3E0,5.5E1,2E0,3E0,8E0,5E0,4.1E1,5.3E1,3.4E1,3.1E1,2E0,2.5E1,5.5E1,1.2E1,2E0,5.6E1,6.1E1,7E0,4E0,1.2E1,1.2E1,1.8E1,3.4E1,7E0,1E0,3E0,1E0,4.5E1,4E0,1.4E1,5E0,8.6E1,8.1E1,1.91E2,6.46E2,1.4E1,5.3E1,4.9E1,2.2E1,1.82E2,2.7E1,1.2E1,1E0,3.6E1,1.9E1,2E0,6E0,2E0,3E0,2.7E1,1.4E1,1.5E1,3.8E1,3.1E1,3E0,2.9E1,2E0,1E0,1E0,1.4E1,1.1E1,1.6E1,3.9E1,9E0,3E0,1E0,1E0],"tree_param":{"num_deleted":"0","num_feature":"8","num_nodes":"115","size_leaf_vector":"1"}},{"base_weights":[1.129016E-1,-1.434575E0,6.8046145E0,2.3543315E0,-2.2008173E0,1.1677824E1,5.11553E0,3.7479625E0,-1.6076324E0,-3.187239E0,1.573004E-1,9.851763E0,1.5366765E1,7.15697E0,3.0954208E0,9.4086075E0,3.2788744E0,-2.8493829E0,5.537473E0,-1.3588582E0,-3.9447875E0,2.0001311E0,-1.041566E0,1.0692387E1,1.1189291E0,1.1875146E1,2.1162489E1,5.2148433E0,9.484856E0,2.4524367E0,1.2396249E1,1.1363706E1,-6.599056E-1,1.9734417E0,5.1520567E0,-3.355049E0,2.46412E0,6.8849E0,4.3747503E-1,-1.5123353E0,6.24221E0,-4.3238864E0,-5.5813813E-1,1.2689638E0,5.839182E0,1.9585588E0,-1.8686082E0,1.1632109E1,3.9704268E0,1.3530347E0,-7.655969E-1,1.5166722E1,8.682889E0,7.281433E0,1.7453346E0,7.5207E0,3.05933E0,7.2978525E0,1.5316374E1,1.8336569E0,1.2046357E1,3.938322E0,4.790648E0,7.29673E-1,3.8299487E0,7.790416E-1,-1.2128727E0,2.5441704E0,6.067854E-1,1.0065728E-1,-1.5626172E0,2.8128555E0,1.0544678E0,-2.069637E0,-3.413791E-1,-1.3799311E0,9.251404E-2,-1.6226201E0,7.787903E-2,7.990386E-1,-4.3700185E-1,3.282032E0,8.3856344E-1,5.9876385E0,2.583955E-1,-7.834687E-1,3.8828108E-1,4.064553E0,1.7621987E0,1.9629728E0,1.8105766E-1,5.658307E0,1.7500775E0,1.2550718E0,3.0653234E0,1.5282242E0,3.8379745E0,7.667408E-1,3.5555928E0,2.4488237E0,-2.4324493E0,-9.2170376E-1,5.0241337E0,1.4277012E0,-6.915445E-2,5.1073027E0,1.6964096E0,-8.117524E-2,1.6294458E0],"categories":[],"categories_nodes":[],"categories_segments":[],"categories_sizes":[],"default_left":[0,0,0,0,0,0,0,0,0,0,0,0,0,0,0,0,0,0,0,0,0,0,0,0,0,0,0,0,0,0,0,0,0,0,0,0,0,0,0,0,0,0,0,0,0,0,0,0,0,0,0,0,0,0,0,0,0,0,0,0,0,0,0,0,0,0,0,0,0,0,0,0,0,0,0,0,0,0,0,0,0,0,0,0,0,0,0,0,0,0,0,0,0,0,0,0,0,0,0,0,0,0,0,0,0,0,0,0,0],"id":3,"left_children":[1,3,5,7,9,11,13,15,17,19,21,23,25,27,29,31,33,35,37,39,41,43,45,47,49,51,53,55,57,59,61,63,-1,65,67,69,-1,71,-1,73,-1,75,77,79,81,83,85,87,89,-1,-1,91,93,-1,-1,95,97,99,101,103,105,107,-1,-1,-1,-1,-1,-1,-1,-1,-1,-1,-1,-1,-1,-1,-1,-1,-1,-1,-1,-1,-1,-1,-1,-1,-1,-1,-1,-1,-1,-1,-1,-1,-1,-1,-1,-1,-1,-1,-1,-1,-1,-1,-1,-1,-1,-1,-1],"loss_changes":[2.0730654E4,4.7258184E3,3.0352188E3,1.5189207E3,3.147712E3,4.952881E2,1.1366709E3,5.0818433E2,6.5459393E2,1.3160137E3,8.858064E2,4.7988525E2,3.5578613E2,5.7896387E2,8.247798E2,3.6542688E2,4.5199695E2,3.7440042E2,5.0421112E1,9.874318E2,8.6291895E2,4.3609442E2,6.065985E2,3.3913867E2,9.865116E1,8.896777E1,3.35854E2,3.6467554E2,6.7894336E2,7.7934174E2,2.0905884E2,1.318252E2,0E0,4.3429068E2,7.849076E2,4.1221503E2,0E0,3.4208893E1,0E0,5.5683014E2,0E0,7.758662E2,2.7509268E2,5.131997E2,3.5759668E2,1.0295903E3,4.5220587E2,5.052627E2,7.4012726E1,0E0,0E0,2.0028687E2,4.7028687E1,0E0,0E0,4.082256E2,1.5565686E2,6.9243945E2,4.724038E2,7.7401465E2,1.5827307E2,2.6608013E1,0E0,0E0,0E0,0E0,0E0,0E0,0E0,0E0,0E0,0E0,0E0,0E0,0E0,0E0,0E0,0E0,0E0,0E0,0E0,0E0,0E0,0E0,0E0,0E0,0E0,0E0,0E0,0E0,0E0,0E0,0E0,0E0,0E0,0E0,0E0,0E0,0E0,0E0,0E0,0E0,0E0,0E0,0E0,0E0,0E0,0E0,0E0],"parents":[2147483647,0,0,1,1,2,2,3,3,4,4,5,5,6,6,7,7,8,8,9,9,10,10,11,11,12,12,13,13,14,14,15,15,16,16,17,17,18,18,19,19,20,20,21,21,22,22,23,23,24,24,25,25,26,26,27,27,28,28,29,29,30,30,31,31,33,33,34,34,35,35,37,37,39,39,41,41,42,42,43,43,44,44,45,45,46,46,47,47,48,48,51,51,52,52,55,55,56,56,57,57,58,58,59,59,60,60,61,61],"right_children":[2,4,6,8,10,12,14,16,18,20,22,24,26,28,30,32,34,36,38,40,42,44,46,48,50,52,54,56,58,60,62,64,-1,66,68,70,-1,72,-1,74,-1,76,78,80,82,84,86,88,90,-1,-1,92,94,-1,-1,96,98,100,102,104,106,108,-1,-1,-1,-1,-1,-1,-1,-1,-1,-1,-1,-1,-1,-1,-1,-1,-1,-1,-1,-1,-1,-1,-1,-1,-1,-1,-1,-1,-1,-1,-1,-1,-1,-1,-1,-1,-1,-1,-1,-1,-1,-1,-1,-1,-1,-1,-1],"split_conditions":[3.8E1,-8.708332E-1,-8.870833E0,2.2003015E2,2.3E1,4.225501E1,8.000001E-1,-1.1870831E1,3.3497015E2,5E-1,6.212362E1,4.0588444E1,5.2333332E1,4.8E1,2.006458E1,5.2E1,4.564367E1,1.8584509E1,9.028754E0,2.1578989E1,1.5099999E1,1.4693999E1,9.422101E0,1.4277983E1,3.1E1,-1.2649999E1,6.1E1,3.8E1,5.998839E1,2.475638E1,4.3E1,1.7E1,-6.599056E-1,4.330291E1,2.3333334E1,1.5E0,2.46412E0,1.9E1,4.3747503E-1,6E0,6.24221E0,2.2104116E1,8E-1,3.421014E1,2.2333334E1,8E0,2.5982153E2,1E-1,4.8E1,1.3530347E0,-7.655969E-1,5.0198162E1,5.119951E1,7.281433E0,1.7453346E0,3.3E1,8E-1,5.870582E1,5.0816135E0,-1.9333335E0,2.2810936E2,2.2E1,4.790648E0,7.29673E-1,3.8299487E0,7.790416E-1,-1.2128727E0,2.5441704E0,6.067854E-1,1.0065728E-1,-1.5626172E0,2.8128555E0,1.0544678E0,-2.069637E0,-3.413791E-1,-1.3799311E0,9.251404E-2,-1.6226201E0,7.787903E-2,7.990386E-1,-4.3700185E-1,3.282032E0,8.3856344E-1,5.9876385E0,2.583955E-1,-7.834687E-1,3.8828108E-1,4.064553E0,1.7621987E0,1.9629728E0,1.8105766E-1,5.658307E0,1.7500775E0,1.2550718E0,3.0653234E0,1.5282242E0,3.8379745E0,7.667408E-1,3.5555928E0,2.4488237E0,-2.4324493E0,-9.2170376E-1,5.0241337E0,1.4277012E0,-6.915445E-2,5.1073027E0,1.6964096E0,-8.117524E-2,1.6294458E0],"split_indices":[0,4,4,7,0,7,5,4,7,5,7,7,3,0,4,2,7,6,6,6,4,6,6,6,2,4,2,1,7,6,0,0,0,7,3,5,0,1,0,0,0,6,5,7,3,1,7,5,1,0,0,7,7,0,0,1,5,7,6,4,7,1,0,0,0,0,0,0,0,0,0,0,0,0,0,0,0,0,0,0,0,0,0,0,0,0,0,0,0,0,0,0,0,0,0,0,0,0,0,0,0,0,0,0,0,0,0,0,0],"split_type":[0,0,0,0,0,0,0,0,0,0,0,0,0,0,0,0,0,0,0,0,0,0,0,0,0,0,0,0,0,0,0,0,0,0,0,0,0,0,0,0,0,0,0,0,0,0,0,0,0,0,0,0,0,0,0,0,0,0,0,0,0,0,0,0,0,0,0,0,0,0,0,0,0,0,0,0,0,0,0,0,0,0,0,0,0,0,0,0,0,0,0,0,0,0,0,0,0,0,0,0,0,0,0,0,0,0,0,0,0],"sum_hessian":[2E3,1.625E3,3.75E2,2.73E2,1.352E3,9.5E1,2.8E2,2.02E2,7.1E1,9.53E2,3.99E2,6.6E1,2.9E1,1.38E2,1.42E2,1.4E1,1.88E2,6.1E1,1E1,2.8E2,6.73E2,1.57E2,2.42E2,6E1,6E0,2E1,9E0,7.7E1,6.1E1,1.34E2,8E0,1.2E1,2E0,1.12E2,7.6E1,5.9E1,2E0,7E0,3E0,2.79E2,1E0,6.05E2,6.8E1,1.33E2,2.4E1,5.2E1,1.9E2,5.2E1,8E0,3E0,3E0,8E0,1.2E1,7E0,2E0,3.6E1,4.1E1,4.6E1,1.5E1,1.27E2,7E0,3E0,5E0,2E0,1E1,1.02E2,1E1,3.6E1,4E1,2E1,3.9E1,3E0,4E0,1.7E1,2.62E2,5.71E2,3.4E1,9E0,5.9E1,8.8E1,4.5E1,8E0,1.6E1,2E0,5E1,1.54E2,3.6E1,3.8E1,1.4E1,4E0,4E0,5E0,3E0,4E0,8E0,2.6E1,1E1,4E1,1E0,4.4E1,2E0,1E0,1.4E1,5.2E1,7.5E1,3E0,4E0,1E0,2E0],"tree_param":{"num_deleted":"0","num_feature":"8","num_nodes":"109","size_leaf_vector":"1"}},{"base_weights":[1.1945017E-1,-9.898998E-1,4.916481E0,-2.4884045E0,2.8682213E-2,8.479828E0,3.6816134E0,7.746833E0,-2.722939E0,1.9444923E0,-9.0576E-1,7.0239687E0,1.1448587E1,5.8573103E0,2.574182E0,4.214798E0,6.141012E0,-1.861234E-1,-3.0722065E0,3.2870584E0,1.46744E-1,7.1525126E0,-1.0937982E0,7.672218E0,1.284102E0,8.871116E0,1.5716419E1,-2.20114E0,6.4317627E0,2.2293508E0,1.0054218E1,4.552276E0,8.426923E-1,2.4245136E0,-2.5436969E0,-3.3292344E0,-1.6312788E-1,1.1058564E1,2.7224672E0,-1.12269066E-1,5.305878E0,9.480602E0,-1.5960144E0,-1.3390764E0,3.7521057E0,5.0005107E0,9.437709E0,3.6367958E0,-1.9777908E0,9.850301E0,3.767662E0,6.336781E0,2.5775592E0,9.05201E-1,-4.891998E0,1.0518428E1,4.3493457E0,1.8260134E0,8.943818E0,1.20440645E1,-5.8120656E-1,-1.4669712E0,7.979775E-1,-1.8471694E-1,1.3302143E0,-1.1096298E0,6.307586E-1,-1.0901301E0,-2.0654507E-1,3.0694277E0,-3.3131394E-1,4.1654205E0,5.8051145E-1,5.3078737E0,7.5909895E-1,-2.0640428E-1,1.9478512E0,1.0316352E0,5.5379267E0,-3.610407E-2,-5.6154186E-1,1.5258403E0,-1.2606207E0,2.1812828E0,5.237285E-1,3.370838E0,1.1454155E0,2.166567E-1,1.2554702E0,-1.5107003E-1,-6.90403E-1,3.2765489E0,1.5282803E0,1.2597905E0,3.0616552E-1,-2.2813108E0,-1.646883E-1,7.036335E0,2.6074562E0,6.2089453E0,1.1164463E0,4.4474417E-1,2.6049385E0,1.8495324E0,5.092832E0,9.470564E-1,3.8997371E0],"categories":[],"categories_nodes":[],"categories_segments":[],"categories_sizes":[],"default_left":[0,0,0,0,0,0,0,0,0,0,0,0,0,0,0,0,0,0,0,0,0,0,0,0,0,0,0,0,0,0,0,0,0,0,0,0,0,0,0,0,0,0,0,0,0,0,0,0,0,0,0,0,0,0,0,0,0,0,0,0,0,0,0,0,0,0,0,0,0,0,0,0,0,0,0,0,0,0,0,0,0,0,0,0,0,0,0,0,0,0,0,0,0,0,0,0,0,0,0,0,0,0,0,0,0,0,0],"id":4,"left_children":[1,3,5,7,9,11,13,15,17,19,21,23,25,27,29,31,-1,33,35,37,39,41,43,45,47,49,51,53,55,57,59,-1,61,63,65,67,69,71,73,75,-1,77,-1,79,81,83,85,87,89,91,93,-1,-1,-1,95,97,99,101,103,105,-1,-1,-1,-1,-1,-1,-1,-1,-1,-1,-1,-1,-1,-1,-1,-1,-1,-1,-1,-1,-1,-1,-1,-1,-1,-1,-1,-1,-1,-1,-1,-1,-1,-1,-1,-1,-1,-1,-1,-1,-1,-1,-1,-1,-1,-1,-1],"loss_changes":[1.0653361E4,2.4819163E3,1.6232793E3,1.600633E3,1.7364785E3,3.3450684E2,6.619734E2,5.8780505E2,5.700303E2,7.6704114E2,9.957745E2,2.3944629E2,1.9058398E2,4.49302E2,4.6250354E2,4.6764655E2,0E0,4.9239395E2,4.226631E2,7.684592E2,6.2437164E2,4.859959E2,7.63348E2,2.3581909E2,6.858671E1,6.7829346E1,2.0368408E2,1.1305605E2,7.0314404E2,4.7385187E2,2.142248E2,0E0,1.2759885E2,2.3488954E2,2.3317856E2,4.156787E2,4.7114236E2,2.8254834E2,4.470923E2,5.216559E2,0E0,6.4177625E2,0E0,3.9452075E2,3.5031625E2,1.7943854E2,3.108269E2,4.965248E0,7.49074E-1,3.099707E1,1.6432037E0,0E0,0E0,0E0,5.4725113E1,4.8149976E2,5.387992E2,3.9229828E2,1.18534546E2,1.8378357E1,0E0,0E0,0E0,0E0,0E0,0E0,0E0,0E0,0E0,0E0,0E0,0E0,0E0,0E0,0E0,0E0,0E0,0E0,0E0,0E0,0E0,0E0,0E0,0E0,0E0,0E0,0E0,0E0,0E0,0E0,0E0,0E0,0E0,0E0,0E0,0E0,0E0,0E0,0E0,0E0,0E0,0E0,0E0,0E0,0E0,0E0,0E0],"parents":[2147483647,0,0,1,1,2,2,3,3,4,4,5,5,6,6,7,7,8,8,9,9,10,10,11,11,12,12,13,13,14,14,15,15,17,17,18,18,19,19,20,20,21,21,22,22,23,23,24,24,25,25,26,26,27,27,28,28,29,29,30,30,32,32,33,33,34,34,35,35,36,36,37,37,38,38,39,39,41,41,43,43,44,44,45,45,46,46,47,47,48,48,49,49,50,50,54,54,55,55,56,56,57,57,58,58,59,59],"right_children":[2,4,6,8,10,12,14,16,18,20,22,24,26,28,30,32,-1,34,36,38,40,42,44,46,48,50,52,54,56,58,60,-1,62,64,66,68,70,72,74,76,-1,78,-1,80,82,84,86,88,90,92,94,-1,-1,-1,96,98,100,102,104,106,-1,-1,-1,-1,-1,-1,-1,-1,-1,-1,-1,-1,-1,-1,-1,-1,-1,-1,-1,-1,-1,-1,-1,-1,-1,-1,-1,-1,-1,-1,-1,-1,-1,-1,-1,-1,-1,-1,-1,-1,-1,-1,-1,-1,-1,-1,-1],"split_conditions":[3.8E1,1.6E1,-8.870833E0,-5.545833E0,4E-1,4.225501E1,1E-1,-6.0749993E0,7.653705E0,7.025E0,-7.7291675E0,4.0171078E1,5.2333332E1,-7.352083E0,6.7333336E1,1.2E1,6.141012E0,5.7749996E0,1.9453327E1,9E0,1.9878391E1,4.6E1,1.76E1,4.8333332E1,3.1E1,-9.702084E0,6.3333332E1,9.1641035E0,-2.0729165E0,2.475638E1,7.9E1,4.552276E0,4.978554E0,1.7053778E2,2.2E1,2.7301273E2,7E0,2.504535E2,1.2E1,3.4E1,5.305878E0,3E1,-1.5960144E0,6.212362E1,1.1999999E1,-1.1870831E1,6.2E1,2.5E1,5.6E1,4.3E1,5.3E1,6.336781E0,2.5775592E0,9.05201E-1,4.5E1,1.339966E1,7E0,2.0504168E1,5.8E1,6.6E1,-5.8120656E-1,-1.4669712E0,7.979775E-1,-1.8471694E-1,1.3302143E0,-1.1096298E0,6.307586E-1,-1.0901301E0,-2.0654507E-1,3.0694277E0,-3.3131394E-1,4.1654205E0,5.8051145E-1,5.3078737E0,7.5909895E-1,-2.0640428E-1,1.9478512E0,1.0316352E0,5.5379267E0,-3.610407E-2,-5.6154186E-1,1.5258403E0,-1.2606207E0,2.1812828E0,5.237285E-1,3.370838E0,1.1454155E0,2.166567E-1,1.2554702E0,-1.5107003E-1,-6.90403E-1,3.2765489E0,1.5282803E0,1.2597905E0,3.0616552E-1,-2.2813108E0,-1.646883E-1,7.036335E0,2.6074562E0,6.2089453E0,1.1164463E0,4.4474417E-1,2.6049385E0,1.8495324E0,5.092832E0,9.470564E-1,3.8997371E0],"split_indices":[0,0,4,4,5,7,5,4,6,4,4,7,3,4,3,2,0,4,6,1,6,2,4,3,2,4,3,6,4,6,2,0,6,7,2,7,2,7,3,0,0,1,0,7,5,4,1,1,0,2,0,0,0,0,1,7,2,4,1,0,0,0,0,0,0,0,0,0,0,0,0,0,0,0,0,0,0,0,0,0,0,0,0,0,0,0,0,0,0,0,0,0,0,0,0,0,0,0,0,0,0,0,0,0,0,0,0],"split_type":[0,0,0,0,0,0,0,0,0,0,0,0,0,0,0,0,0,0,0,0,0,0,0,0,0,0,0,0,0,0,0,0,0,0,0,0,0,0,0,0,0,0,0,0,0,0,0,0,0,0,0,0,0,0,0,0,0,0,0,0,0,0,0,0,0,0,0,0,0,0,0,0,0,0,0,0,0,0,0,0,0,0,0,0,0,0,0,0,0,0,0,0,0,0,0,0,0,0,0,0,0,0,0,0,0,0,0],"sum_hessian":[2E3,1.625E3,3.75E2,6.57E2,9.68E2,9.5E1,2.8E2,1.4E1,6.43E2,3.17E2,6.51E2,6.6E1,2.9E1,9.3E1,1.87E2,1.2E1,2E0,7.8E1,5.65E2,1.81E2,1.36E2,1.4E1,6.37E2,5.9E1,7E0,2E1,9E0,6E0,8.7E1,1.8E2,7E0,2E0,1E1,3.7E1,4.1E1,5.19E2,4.6E1,1.1E1,1.7E2,1.35E2,1E0,1.2E1,2E0,6.07E2,3E1,2.5E1,3.4E1,4E0,3E0,1.6E1,4E0,4E0,5E0,2E0,4E0,2.8E1,5.9E1,1.71E2,9E0,6E0,1E0,2E0,8E0,1.5E1,2.2E1,3.3E1,8E0,4.65E2,5.4E1,3E0,4.3E1,8E0,3E0,1E0,1.69E2,1.25E2,1E1,8E0,4E0,1.85E2,4.22E2,2.6E1,4E0,1.4E1,1.1E1,2.5E1,9E0,1E0,3E0,1E0,2E0,1.2E1,4E0,3E0,1E0,2E0,2E0,2E0,2.6E1,1E0,5.8E1,1.64E2,7E0,8E0,1E0,1E0,5E0],"tree_param":{"num_deleted":"0","num_feature":"8","num_nodes":"107","size_leaf_vector":"1"}},{"base_weights":[1.2732176E-1,-6.366665E-1,3.7580955E0,1.8438408E0,-9.98682E-1,5.7646775E0,2.4900022E0,2.0661316E0,-1.8286356E0,-2.170264E0,-2.818195E-1,4.005737E0,7.3635964E0,3.9438846E0,6.120045E-1,8.849458E-1,4.45023E0,-2.3898807E0,2.1560369E0,1.3116444E0,-7.379956E-1,3.3969593E0,3.777765E0,5.91267E0,1.0398443E1,3.5720747E0,5.2133155E0,5.26346E0,-1.2391031E-1,3.6720963E0,-2.3876381E-1,1.5532032E1,3.6998081E0,-6.9747645E-1,-2.7696302E0,5.150799E0,9.182437E-1,8.834498E0,9.930202E-1,-8.6207545E-1,1.1633607E1,5.513242E0,1.4297408E0,5.4105844E0,4.5019193E0,5.175503E0,1.2142586E1,3.9882371E0,-2.70071E0,8.12002E0,-6.965077E0,-5.5256333E0,8.668828E-1,6.7830366E-1,3.000405E0,-2.5629988E-1,5.947625E-1,5.498744E0,1.0711036E0,2.2127535E0,7.0468265E-1,1.8963374E0,-3.4428903E-1,-1.498244E-1,-9.90357E-1,-2.6162523E-1,2.109405E0,7.795386E-1,5.5085216E0,1.1891094E-2,1.186125E0,-3.1890276E-1,4.7416773E-1,4.4225316E0,-1.0523067E0,2.3953168E0,6.35628E-1,-2.1861047E-1,1.4917529E0,2.3002822E0,1.0573747E0,1.4138089E-1,2.5757582E0,3.9999516E0,8.8075566E-1,7.5711995E-1,1.9994332E0,-2.2322357E0,2.3039033E0,1.4309485E0,4.6391764E0,-2.9387596E0,-1.9552518E-1,6.3270783E-1,-2.40808E0,1.0075978E0,-1.9423415E-1],"categories":[],"categories_nodes":[],"categories_segments":[],"categories_sizes":[],"default_left":[0,0,0,0,0,0,0,0,0,0,0,0,0,0,0,0,0,0,0,0,0,0,0,0,0,0,0,0,0,0,0,0,0,0,0,0,0,0,0,0,0,0,0,0,0,0,0,0,0,0,0,0,0,0,0,0,0,0,0,0,0,0,0,0,0,0,0,0,0,0,0,0,0,0,0,0,0,0,0,0,0,0,0,0,0,0,0,0,0,0,0,0,0,0,0,0,0],"id":5,"left_children":[1,3,5,7,9,11,13,15,-1,17,19,21,23,25,27,29,31,33,35,37,39,41,-1,43,45,47,-1,49,51,53,55,57,59,61,63,-1,65,67,69,71,73,75,77,79,-1,81,83,85,87,89,91,93,95,-1,-1,-1,-1,-1,-1,-1,-1,-1,-1,-1,-1,-1,-1,-1,-1,-1,-1,-1,-1,-1,-1,-1,-1,-1,-1,-1,-1,-1,-1,-1,-1,-1,-1,-1,-1,-1,-1,-1,-1,-1,-1,-1,-1],"loss_changes":[5.552904E3,1.4871038E3,8.7114355E2,3.849737E2,1.212151E3,3.4736523E2,5.846196E2,5.761709E2,0E0,5.258225E2,6.5299756E2,3.0223584E2,2.4234814E2,5.423003E2,3.2584433E2,4.362175E2,5.080244E2,3.3355225E2,4.8598483E2,4.7061987E2,1.0815051E3,2.543985E2,0E0,1.4253247E2,1.2845654E2,3.214203E2,0E0,5.1066666E2,4.4900525E2,3.3463123E2,1.3843042E2,6.839148E1,3.0545374E2,3.1372083E2,5.1242896E2,0E0,2.90688E2,4.275855E2,5.446264E2,3.4131885E2,3.81141E2,2.3473083E2,2.6361676E2,1.7729883E2,0E0,1.0825554E2,1.2527661E2,4.2219788E2,4.507734E2,1.9687793E2,4.7230606E1,2.6518454E2,2.700839E2,0E0,0E0,0E0,0E0,0E0,0E0,0E0,0E0,0E0,0E0,0E0,0E0,0E0,0E0,0E0,0E0,0E0,0E0,0E0,0E0,0E0,0E0,0E0,0E0,0E0,0E0,0E0,0E0,0E0,0E0,0E0,0E0,0E0,0E0,0E0,0E0,0E0,0E0,0E0,0E0,0E0,0E0,0E0,0E0],"parents":[2147483647,0,0,1,1,2,2,3,3,4,4,5,5,6,6,7,7,9,9,10,10,11,11,12,12,13,13,14,14,15,15,16,16,17,17,18,18,19,19,20,20,21,21,23,23,24,24,25,25,27,27,28,28,29,29,30,30,31,31,32,32,33,33,34,34,36,36,37,37,38,38,39,39,40,40,41,41,42,42,43,43,45,45,46,46,47,47,48,48,49,49,50,50,51,51,52,52],"right_children":[2,4,6,8,10,12,14,16,-1,18,20,22,24,26,28,30,32,34,36,38,40,42,-1,44,46,48,-1,50,52,54,56,58,60,62,64,-1,66,68,70,72,74,76,78,80,-1,82,84,86,88,90,92,94,96,-1,-1,-1,-1,-1,-1,-1,-1,-1,-1,-1,-1,-1,-1,-1,-1,-1,-1,-1,-1,-1,-1,-1,-1,-1,-1,-1,-1,-1,-1,-1,-1,-1,-1,-1,-1,-1,-1,-1,-1,-1,-1,-1,-1],"split_conditions":[3.9E1,-2.4041662E0,-6.0749993E0,6.9E1,1.5E1,5.3E1,6.629491E1,3.2E1,-1.8286356E0,2.24E1,1E-1,2.433535E2,4.6052677E1,5.998839E1,2.8333334E1,7.729527E0,2.3333334E1,1E-1,6E0,8E0,2.205625E1,4.5E1,3.777765E0,-6.5729175E0,3.5E1,5.635965E1,5.2133155E0,1.7E1,2.1E1,7.289444E0,1.5077082E1,3.4E1,3.0633005E1,4.5208344E-1,8.2203674E1,5.150799E0,1.8E1,1.4E1,2.7666666E1,2.0501833E1,2.4E1,4.4E1,4.7E1,-1.1870831E1,4.5019193E0,4.1E1,6.1E1,4.0588444E1,1.1337499E1,2.7666666E1,4E1,6E-1,3.3E1,6.7830366E-1,3.000405E0,-2.5629988E-1,5.947625E-1,5.498744E0,1.0711036E0,2.2127535E0,7.0468265E-1,1.8963374E0,-3.4428903E-1,-1.498244E-1,-9.90357E-1,-2.6162523E-1,2.109405E0,7.795386E-1,5.5085216E0,1.1891094E-2,1.186125E0,-3.1890276E-1,4.7416773E-1,4.4225316E0,-1.0523067E0,2.3953168E0,6.35628E-1,-2.1861047E-1,1.4917529E0,2.3002822E0,1.0573747E0,1.4138089E-1,2.5757582E0,3.9999516E0,8.8075566E-1,7.5711995E-1,1.9994332E0,-2.2322357E0,2.3039033E0,1.4309485E0,4.6391764E0,-2.9387596E0,-1.9552518E-1,6.3270783E-1,-2.40808E0,1.0075978E0,-1.9423415E-1],"split_indices":[0,4,4,2,0,0,7,1,0,5,5,7,7,7,3,6,3,5,1,1,4,0,0,4,1,7,0,2,2,6,6,1,7,4,7,0,3,3,3,6,2,1,2,4,0,2,2,7,4,3,0,5,2,0,0,0,0,0,0,0,0,0,0,0,0,0,0,0,0,0,0,0,0,0,0,0,0,0,0,0,0,0,0,0,0,0,0,0,0,0,0,0,0,0,0,0,0],"split_type":[0,0,0,0,0,0,0,0,0,0,0,0,0,0,0,0,0,0,0,0,0,0,0,0,0,0,0,0,0,0,0,0,0,0,0,0,0,0,0,0,0,0,0,0,0,0,0,0,0,0,0,0,0,0,0,0,0,0,0,0,0,0,0,0,0,0,0,0,0,0,0,0,0,0,0,0,0,0,0,0,0,0,0,0,0,0,0,0,0,0,0,0,0,0,0,0,0],"sum_hessian":[2E3,1.653E3,3.47E2,2.1E2,1.443E3,1.33E2,2.14E2,2.05E2,5E0,5.47E2,8.96E2,6.5E1,6.8E1,1.2E2,9.4E1,1.38E2,6.7E1,5.21E2,2.6E1,1.99E2,6.97E2,6.2E1,3E0,4.8E1,2E1,1.18E2,2E0,1.2E1,8.2E1,3.9E1,9.9E1,3E0,6.4E1,9.6E1,4.25E2,1E0,2.5E1,7E0,1.92E2,6.91E2,6E0,2.9E1,3.3E1,4.7E1,1E0,6E0,1.4E1,1.11E2,7E0,1E1,2E0,1.2E1,7E1,3.3E1,6E0,7.8E1,2.1E1,2E0,1E0,1.6E1,4.8E1,5E0,9.1E1,8.1E1,3.44E2,2E1,5E0,5E0,2E0,1.46E2,4.6E1,6.39E2,5.2E1,5E0,1E0,1.6E1,1.3E1,2.1E1,1.2E1,2E1,2.7E1,3E0,3E0,1.2E1,2E0,7.3E1,3.8E1,5E0,2E0,8E0,2E0,1E0,1E0,3E0,9E0,2.6E1,4.4E1],"tree_param":{"num_deleted":"0","num_feature":"8","num_nodes":"97","size_leaf_vector":"1"}},{"base_weights":[1.2093587E-1,-4.786258E-1,2.5445518E0,2.6671782E-1,-1.1360292E0,4.185869E0,1.3221625E0,1.6489494E0,-4.5704925E-1,-1.6914757E0,8.78726E-1,2.9920285E0,5.7148647E0,4.748819E-1,3.4991379E0,4.3857512E0,7.468869E-1,6.9484935E0,-5.77515E-1,-1.9274583E0,2.9198354E-1,6.163939E-1,8.602234E0,6.5202255E0,1.8073153E0,9.882227E0,4.7330523E0,2.988099E0,-1.2436129E-1,1.2393047E0,6.360377E0,1.3651307E0,7.557214E0,2.091566E-2,4.332111E0,-5.355072E-2,1.116043E1,-3.6186705E0,-3.6330387E-1,-2.3699958E0,-7.806658E-1,5.3588796E0,-1.4962204E0,-1.4823067E-1,2.3121383E0,7.513913E-1,1.1024873E1,-2.0527682E0,9.491933E0,2.2179914E0,-5.9340115E0,3.1861904E0,1.3668977E1,5.8675985E0,2.113852E0,5.2791333E0,-1.270219E0,1.5473596E0,-1.2930114E0,-1.1277205E-1,8.24383E0,1.2813472E1,2.0634642E0,2.1673708E0,-2.1469243E-1,4.470923E0,1.4381129E0,2.0221086E0,-9.648292E-2,1.8427439E0,-9.808834E-1,5.7245755E-1,-4.0305865E-1,4.246622E0,1.3335931E0,6.2361133E-1,-1.2839202E0,-2.6738897E-1,1.9538294E-1,-6.450616E-1,-1.7560153E0,2.84113E0,-2.8836715E-1,6.461756E-1,3.1636188E0,3.1942673E0,-6.504148E-1,1.0829203E-1,-1.0213225E0,1.6351551E0,3.6334034E-2,3.8516126E0,8.375053E-1,-1.8691618E0,-9.541493E-2,3.0141153E0,8.240605E-3,9.4828314E-1,-3.6628997E-1,-2.442903E0,1.0394783E-1,1.1554158E0,-2.0967865E-2,1.0278643E0,4.3928313E0,-4.519375E-1,1.9420383E0,-5.268786E-1,1.1693759E0,-1.5407933E0,1.9937327E0,-1.7290167E0,5.090369E-1,2.010114E0,2.732345E-1,-7.3764646E-1,6.982079E-1,6.0787433E-1,-1.5063721E0,2.9421842E0,6.398621E-2,4.44467E0,7.60809E-1,-1.0281279E0,1.1630962E0],"categories":[],"categories_nodes":[],"categories_segments":[],"categories_sizes":[],"default_left":[0,0,0,0,0,0,0,0,0,0,0,0,0,0,0,0,0,0,0,0,0,0,0,0,0,0,0,0,0,0,0,0,0,0,0,0,0,0,0,0,0,0,0,0,0,0,0,0,0,0,0,0,0,0,0,0,0,0,0,0,0,0,0,0,0,0,0,0,0,0,0,0,0,0,0,0,0,0,0,0,0,0,0,0,0,0,0,0,0,0,0,0,0,0,0,0,0,0,0,0,0,0,0,0,0,0,0,0,0,0,0,0,0,0,0,0,0,0,0,0,0,0,0,0,0],"id":6,"left_children":[1,3,5,7,9,11,13,15,17,19,21,23,25,27,29,31,33,35,37,39,41,43,45,47,49,51,53,55,57,59,61,63,65,67,69,71,73,75,77,79,81,83,85,87,89,-1,91,93,95,97,99,101,103,105,107,109,111,113,115,117,119,121,123,-1,-1,-1,-1,-1,-1,-1,-1,-1,-1,-1,-1,-1,-1,-1,-1,-1,-1,-1,-1,-1,-1,-1,-1,-1,-1,-1,-1,-1,-1,-1,-1,-1,-1,-1,-1,-1,-1,-1,-1,-1,-1,-1,-1,-1,-1,-1,-1,-1,-1,-1,-1,-1,-1,-1,-1,-1,-1,-1,-1,-1,-1],"loss_changes":[2.9088857E3,7.8673944E2,7.909783E2,7.540652E2,9.560691E2,2.9138965E2,4.2073087E2,6.3613477E2,4.456095E2,3.136963E2,3.6953058E2,3.9366638E2,2.5191138E2,2.5037228E2,4.0593652E2,6.027898E2,5.1005228E2,2.3653497E2,3.1659265E2,3.0163403E2,6.603844E2,2.3373215E2,6.1020355E1,6.309189E2,2.4842067E2,2.8607886E2,1.6886475E2,3.1889612E2,2.6574442E2,3.5134384E2,7.499547E2,4.1970343E2,5.57869E2,3.79627E2,4.7422675E2,1.2686129E1,3.7632996E1,1.2941864E2,2.4539125E2,3.173943E2,3.2005746E2,2.931151E2,4.6364572E2,2.0848627E2,3.8441077E2,0E0,2.3892944E1,4.8749176E1,9.4293945E1,2.3409634E2,5.8315994E1,1.3264767E1,2.9625366E1,1.973938E2,1.4493665E2,3.3304083E2,1.6975453E2,1.7759416E2,3.4337576E2,3.4615225E2,7.324039E1,1.8876794E2,1.9251732E2,0E0,0E0,0E0,0E0,0E0,0E0,0E0,0E0,0E0,0E0,0E0,0E0,0E0,0E0,0E0,0E0,0E0,0E0,0E0,0E0,0E0,0E0,0E0,0E0,0E0,0E0,0E0,0E0,0E0,0E0,0E0,0E0,0E0,0E0,0E0,0E0,0E0,0E0,0E0,0E0,0E0,0E0,0E0,0E0,0E0,0E0,0E0,0E0,0E0,0E0,0E0,0E0,0E0,0E0,0E0,0E0,0E0,0E0,0E0,0E0,0E0,0E0],"parents":[2147483647,0,0,1,1,2,2,3,3,4,4,5,5,6,6,7,7,8,8,9,9,10,10,11,11,12,12,13,13,14,14,15,15,16,16,17,17,18,18,19,19,20,20,21,21,22,22,23,23,24,24,25,25,26,26,27,27,28,28,29,29,30,30,31,31,32,32,33,33,34,34,35,35,36,36,37,37,38,38,39,39,40,40,41,41,42,42,43,43,44,44,46,46,47,47,48,48,49,49,50,50,51,51,52,52,53,53,54,54,55,55,56,56,57,57,58,58,59,59,60,60,61,61,62,62],"right_children":[2,4,6,8,10,12,14,16,18,20,22,24,26,28,30,32,34,36,38,40,42,44,46,48,50,52,54,56,58,60,62,64,66,68,70,72,74,76,78,80,82,84,86,88,90,-1,92,94,96,98,100,102,104,106,108,110,112,114,116,118,120,122,124,-1,-1,-1,-1,-1,-1,-1,-1,-1,-1,-1,-1,-1,-1,-1,-1,-1,-1,-1,-1,-1,-1,-1,-1,-1,-1,-1,-1,-1,-1,-1,-1,-1,-1,-1,-1,-1,-1,-1,-1,-1,-1,-1,-1,-1,-1,-1,-1,-1,-1,-1,-1,-1,-1,-1,-1,-1,-1,-1,-1,-1,-1],"split_conditions":[3.7E1,4.1791663E0,1E-1,8E-1,1.5531249E1,4.5666668E1,5.3E1,1.4E1,-8.870833E0,2.7E1,1.8089775E1,3.1333334E1,7.491114E0,1.7E1,4.9E1,8.464426E1,4.2E1,2.5E1,8E0,2.4672708E2,2.2E1,2.3333334E1,1.4E1,3.022691E1,5.1E1,5.6920996E0,5.6666668E1,2.9E1,1.0495713E1,1.84E1,5.8E1,3.3274895E1,2.15791E2,-1.1870831E1,5.7E1,2.3E1,3.3E1,8E0,9.3E0,2.4247484E2,2.4790305E2,2E1,6.763786E0,2.0666666E1,2.6333334E1,7.513913E-1,2.2E1,4.9164977E0,3.6E1,6.9374995E0,4.4E1,5.1919937E0,3.8E1,-1.5631251E1,5.8333332E1,3.8E1,9E0,2.4E1,1.2599999E1,1.4693999E1,6.5E1,-1.1979169E0,2.3153101E1,2.1673708E0,-2.1469243E-1,4.470923E0,1.4381129E0,2.0221086E0,-9.648292E-2,1.8427439E0,-9.808834E-1,5.7245755E-1,-4.0305865E-1,4.246622E0,1.3335931E0,6.2361133E-1,-1.2839202E0,-2.6738897E-1,1.9538294E-1,-6.450616E-1,-1.7560153E0,2.84113E0,-2.8836715E-1,6.461756E-1,3.1636188E0,3.1942673E0,-6.504148E-1,1.0829203E-1,-1.0213225E0,1.6351551E0,3.6334034E-2,3.8516126E0,8.375053E-1,-1.8691618E0,-9.541493E-2,3.0141153E0,8.240605E-3,9.4828314E-1,-3.6628997E-1,-2.442903E0,1.0394783E-1,1.1554158E0,-2.0967865E-2,1.0278643E0,4.3928313E0,-4.519375E-1,1.9420383E0,-5.268786E-1,1.1693759E0,-1.5407933E0,1.9937327E0,-1.7290167E0,5.090369E-1,2.010114E0,2.732345E-1,-7.3764646E-1,6.982079E-1,6.0787433E-1,-1.5063721E0,2.9421842E0,6.398621E-2,4.44467E0,7.60809E-1,-1.0281279E0,1.1630962E0],"split_indices":[0,4,5,5,4,3,0,1,4,0,6,3,6,2,2,7,2,0,0,7,3,3,0,7,1,6,3,1,6,5,2,7,7,4,2,1,0,2,5,7,7,3,6,3,3,0,0,7,1,4,0,6,2,4,3,0,2,2,5,6,0,4,7,0,0,0,0,0,0,0,0,0,0,0,0,0,0,0,0,0,0,0,0,0,0,0,0,0,0,0,0,0,0,0,0,0,0,0,0,0,0,0,0,0,0,0,0,0,0,0,0,0,0,0,0,0,0,0,0,0,0,0,0,0,0],"split_type":[0,0,0,0,0,0,0,0,0,0,0,0,0,0,0,0,0,0,0,0,0,0,0,0,0,0,0,0,0,0,0,0,0,0,0,0,0,0,0,0,0,0,0,0,0,0,0,0,0,0,0,0,0,0,0,0,0,0,0,0,0,0,0,0,0,0,0,0,0,0,0,0,0,0,0,0,0,0,0,0,0,0,0,0,0,0,0,0,0,0,0,0,0,0,0,0,0,0,0,0,0,0,0,0,0,0,0,0,0,0,0,0,0,0,0,0,0,0,0,0,0,0,0,0,0],"sum_hessian":[2E3,1.604E3,3.96E2,7.52E2,8.52E2,1.68E2,2.28E2,2.58E2,4.94E2,6.68E2,1.84E2,9.6E1,7.2E1,1.65E2,6.3E1,6.3E1,1.95E2,7E0,4.87E2,5.97E2,7.1E1,1.79E2,5E0,2.3E1,7.3E1,1.2E1,6E1,3.1E1,1.34E2,3.6E1,2.7E1,3.3E1,3E1,1.63E2,3.2E1,3E0,4E0,3.1E1,4.56E2,4.3E2,1.67E2,1.8E1,5.3E1,1.24E2,5.5E1,2E0,3E0,6E0,1.7E1,7E1,3E0,5E0,7E0,4.1E1,1.9E1,2E1,1.1E1,5.5E1,7.9E1,3.1E1,5E0,1E1,1.7E1,8E0,2.5E1,7E0,2.3E1,7E0,1.56E2,2.6E1,6E0,1E0,2E0,2E0,2E0,3E0,2.8E1,3E2,1.56E2,4.06E2,2.4E1,2E0,1.65E2,1.2E1,6E0,2E0,5.1E1,1.08E2,1.6E1,2.2E1,3.3E1,2E0,1E0,1E0,5E0,1.6E1,1E0,5.5E1,1.5E1,2E0,1E0,4E0,1E0,1E0,6E0,3E0,3.8E1,6E0,1.3E1,2E0,1.8E1,4E0,7E0,5E0,5E1,6E1,1.9E1,2.2E1,9E0,4E0,1E0,8E0,2E0,4E0,1.3E1],"tree_param":{"num_deleted":"0","num_feature":"8","num_nodes":"125","size_leaf_vector":"1"}},{"base_weights":[1.0728591E-1,-5.975136E-1,1.1975262E0,1.3434666E0,-8.5744244E-1,3.3373477E0,7.993402E-1,4.0565147E0,5.003396E-1,5.5562776E-1,-1.0788335E0,2.4697356E0,6.0644445E0,1.4469157E0,5.067918E-2,2.3660972E0,1.3387718E1,-2.8379893E0,1.357432E0,-1.2012057E0,2.328916E0,-1.4775395E0,-1.0169951E-1,3.0095141E-2,3.2045574E0,1.944892E0,7.5411835E0,8.3952296E-1,3.1068106E0,-2.724125E-1,4.996416E0,-3.1372328E0,3.5922525E0,-7.7558905E-2,5.059174E0,-4.172626E0,1.363408E0,4.0452895E0,-2.2251065E-1,-1.7249438E0,4.058136E0,-3.0237126E-1,4.17173E0,-1.7443186E0,6.743415E-2,4.4351454E0,-4.823877E-1,9.756376E-1,-4.705141E0,7.8944206E0,2.5875351E0,-1.2796574E0,3.770443E0,8.777322E0,2.9879506E0,5.0776327E-1,4.2648625E0,2.3594978E0,9.22302E0,-1.6099435E0,1.0487739E0,5.8123136E0,-1.2924747E0,-2.036534E0,8.330389E-1,3.5547352E-1,1.9645265E0,-3.8248807E-1,-1.9282616E0,6.824193E-1,3.089007E0,3.0747163E-1,-1.3570122E0,6.7427874E-1,-8.1143194E-1,-7.8242606E-1,2.173873E0,2.3615335E-1,-1.4920067E0,3.8617858E-1,2.5522647E0,-3.579908E-1,-7.281641E-1,1.4998288E0,-2.652373E-1,3.938732E0,6.770272E-1,-3.9497748E-1,4.2268836E-1,9.114566E-1,-1.1060204E-1,-2.628977E-1,-1.7067914E0,8.0540127E-1,2.7550676E0,8.610942E-1,-7.539342E-1,2.882824E-2,-5.310818E-1,1.8485093E0,3.1031743E-1,1.1554315E0,3.0294993E0,1.0248688E0,1.2698364E-1,2.591699E-1,-1.1797742E0,-3.6916882E-1,2.0238063E0,2.1488528E0,3.9780906E-1,3.4042988E0,1.4488983E-1,2.422079E0,-5.6141454E-1,2.8992376E0,2.0320779E-1,1.8948996E0,4.064354E-1,-6.8771124E-1,1.0609761E-1],"categories":[],"categories_nodes":[],"categories_segments":[],"categories_sizes":[],"default_left":[0,0,0,0,0,0,0,0,0,0,0,0,0,0,0,0,0,0,0,0,0,0,0,0,0,0,0,0,0,0,0,0,0,0,0,0,0,0,0,0,0,0,0,0,0,0,0,0,0,0,0,0,0,0,0,0,0,0,0,0,0,0,0,0,0,0,0,0,0,0,0,0,0,0,0,0,0,0,0,0,0,0,0,0,0,0,0,0,0,0,0,0,0,0,0,0,0,0,0,0,0,0,0,0,0,0,0,0,0,0,0,0,0,0,0,0,0,0,0,0,0],"id":7,"left_children":[1,3,5,7,9,11,13,15,17,19,21,23,25,27,29,31,33,35,37,39,41,43,45,47,49,51,53,55,57,59,61,63,65,-1,-1,67,-1,69,71,73,75,77,79,81,83,85,87,89,91,93,95,97,99,101,103,105,107,109,111,113,115,117,119,-1,-1,-1,-1,-1,-1,-1,-1,-1,-1,-1,-1,-1,-1,-1,-1,-1,-1,-1,-1,-1,-1,-1,-1,-1,-1,-1,-1,-1,-1,-1,-1,-1,-1,-1,-1,-1,-1,-1,-1,-1,-1,-1,-1,-1,-1,-1,-1,-1,-1,-1,-1,-1,-1,-1,-1,-1,-1],"loss_changes":[1.5382856E3,6.1464435E2,6.6704126E2,3.2736237E2,3.3627783E2,2.7604822E2,3.218436E2,5.0462677E2,3.214518E2,4.5764188E2,3.6138855E2,1.702102E2,1.6175476E2,3.5631378E2,4.9512033E2,2.1370784E2,2.4154486E2,2.4558693E2,3.7885297E2,2.1083434E2,3.5523642E2,2.717356E2,4.6846274E2,1.0756996E2,1.9081659E2,5.780409E1,9.1970825E1,2.9556854E2,4.1245685E2,5.1592267E2,1.0500305E2,1.4841043E2,1.7015338E2,0E0,0E0,1.224848E2,0E0,3.4183728E2,3.104391E2,2.7076315E2,1.6766724E2,1.6168217E2,5.268293E2,2.0857617E2,4.643421E2,3.68086E2,3.9629767E2,5.6574295E1,1.0087036E1,2.9073853E1,1.02408875E2,2.8699713E0,3.2881966E1,6.522095E1,5.144348E0,3.829257E2,3.2190683E2,4.1741455E2,1.8021442E2,3.8219763E2,4.6383444E2,2.963617E1,5.7486033E0,0E0,0E0,0E0,0E0,0E0,0E0,0E0,0E0,0E0,0E0,0E0,0E0,0E0,0E0,0E0,0E0,0E0,0E0,0E0,0E0,0E0,0E0,0E0,0E0,0E0,0E0,0E0,0E0,0E0,0E0,0E0,0E0,0E0,0E0,0E0,0E0,0E0,0E0,0E0,0E0,0E0,0E0,0E0,0E0,0E0,0E0,0E0,0E0,0E0,0E0,0E0,0E0,0E0,0E0,0E0,0E0,0E0,0E0],"parents":[2147483647,0,0,1,1,2,2,3,3,4,4,5,5,6,6,7,7,8,8,9,9,10,10,11,11,12,12,13,13,14,14,15,15,16,16,17,17,18,18,19,19,20,20,21,21,22,22,23,23,24,24,25,25,26,26,27,27,28,28,29,29,30,30,31,31,32,32,35,35,37,37,38,38,39,39,40,40,41,41,42,42,43,43,44,44,45,45,46,46,47,47,48,48,49,49,50,50,51,51,52,52,53,53,54,54,55,55,56,56,57,57,58,58,59,59,60,60,61,61,62,62],"right_children":[2,4,6,8,10,12,14,16,18,20,22,24,26,28,30,32,34,36,38,40,42,44,46,48,50,52,54,56,58,60,62,64,66,-1,-1,68,-1,70,72,74,76,78,80,82,84,86,88,90,92,94,96,98,100,102,104,106,108,110,112,114,116,118,120,-1,-1,-1,-1,-1,-1,-1,-1,-1,-1,-1,-1,-1,-1,-1,-1,-1,-1,-1,-1,-1,-1,-1,-1,-1,-1,-1,-1,-1,-1,-1,-1,-1,-1,-1,-1,-1,-1,-1,-1,-1,-1,-1,-1,-1,-1,-1,-1,-1,-1,-1,-1,-1,-1,-1,-1,-1,-1],"split_conditions":[2.6E1,-8.708332E-1,-8.870833E0,7.491114E0,3.3690117E1,4.981697E1,6.629491E1,7.2E0,9.801326E0,2.3685242E1,2.4960298E2,8.669949E0,2.9E1,4.564367E1,2.006458E1,1.2E1,1.3E1,4.6E0,4.9377285E1,1.7395832E1,1.5E1,1.833616E1,2.5166934E2,8.404285E0,9.3876505E0,1E-1,5.8E1,1.6299694E1,5.8E1,2.3667496E2,4.7E1,3E-1,4.981697E1,-7.7558905E-2,5.059174E0,1.2E1,1.363408E0,4.6588135E1,3.6E1,9.39583E-1,1.5E1,2.3E1,1.9E1,1.2599998E1,2.0228491E2,8.666667E0,1.1250001E1,-1.1870831E1,1.7E1,4.4E1,6.7666664E1,2.8E1,3.3E1,-1.3456249E1,-1.1870831E1,4.1672516E1,2E0,1.6E1,1.5E0,8E0,2.3806332E2,2.9728787E2,4.4E1,-2.036534E0,8.330389E-1,3.5547352E-1,1.9645265E0,-3.8248807E-1,-1.9282616E0,6.824193E-1,3.089007E0,3.0747163E-1,-1.3570122E0,6.7427874E-1,-8.1143194E-1,-7.8242606E-1,2.173873E0,2.3615335E-1,-1.4920067E0,3.8617858E-1,2.5522647E0,-3.579908E-1,-7.281641E-1,1.4998288E0,-2.652373E-1,3.938732E0,6.770272E-1,-3.9497748E-1,4.2268836E-1,9.114566E-1,-1.1060204E-1,-2.628977E-1,-1.7067914E0,8.0540127E-1,2.7550676E0,8.610942E-1,-7.539342E-1,2.882824E-2,-5.310818E-1,1.8485093E0,3.1031743E-1,1.1554315E0,3.0294993E0,1.0248688E0,1.2698364E-1,2.591699E-1,-1.1797742E0,-3.6916882E-1,2.0238063E0,2.1488528E0,3.9780906E-1,3.4042988E0,1.4488983E-1,2.422079E0,-5.6141454E-1,2.8992376E0,2.0320779E-1,1.8948996E0,4.064354E-1,-6.8771124E-1,1.0609761E-1],"split_indices":[0,4,4,6,7,7,7,6,6,7,7,6,1,7,4,0,0,5,7,4,2,6,7,6,6,5,2,6,1,7,1,5,7,0,0,0,0,7,2,4,0,0,0,6,7,3,4,4,1,0,3,0,0,4,4,7,5,2,5,1,7,7,0,0,0,0,0,0,0,0,0,0,0,0,0,0,0,0,0,0,0,0,0,0,0,0,0,0,0,0,0,0,0,0,0,0,0,0,0,0,0,0,0,0,0,0,0,0,0,0,0,0,0,0,0,0,0,0,0,0,0],"split_type":[0,0,0,0,0,0,0,0,0,0,0,0,0,0,0,0,0,0,0,0,0,0,0,0,0,0,0,0,0,0,0,0,0,0,0,0,0,0,0,0,0,0,0,0,0,0,0,0,0,0,0,0,0,0,0,0,0,0,0,0,0,0,0,0,0,0,0,0,0,0,0,0,0,0,0,0,0,0,0,0,0,0,0,0,0,0,0,0,0,0,0,0,0,0,0,0,0,0,0,0,0,0,0,0,0,0,0,0,0,0,0,0,0,0,0,0,0,0,0,0,0],"sum_hessian":[2E3,1.215E3,7.85E2,1.43E2,1.072E3,1.22E2,6.63E2,3.3E1,1.1E2,1.45E2,9.27E2,9.4E1,2.8E1,3.55E2,3.08E2,2.9E1,4E0,2.2E1,8.8E1,7.3E1,7.2E1,6.58E2,2.69E2,2.2E1,7.2E1,8E0,2E1,2.61E2,9.4E1,2.9E2,1.8E1,5E0,2.4E1,1E0,3E0,1.9E1,3E0,3.2E1,5.6E1,6.7E1,6E0,3E1,4.2E1,5.61E2,9.7E1,2E1,2.49E2,1.9E1,3E0,7E0,6.5E1,3E0,5E0,1.5E1,5E0,2.39E2,2.2E1,8.5E1,9E0,1.44E2,1.46E2,1.6E1,2E0,3E0,2E0,1.4E1,1E1,9E0,1E1,2.6E1,6E0,4.4E1,1.2E1,1.3E1,5.4E1,2E0,4E0,2.5E1,5E0,2.6E1,1.6E1,3.12E2,2.49E2,1.5E1,8.2E1,3E0,1.7E1,1.73E2,7.6E1,7E0,1.2E1,1E0,2E0,2E0,5E0,6.2E1,3E0,1E0,2E0,2E0,3E0,4E0,1.1E1,4E0,1E0,2.22E2,1.7E1,7E0,1.5E1,1.4E1,7.1E1,7E0,2E0,3E0,1.41E2,5E0,1.41E2,1.4E1,2E0,1E0,1E0],"tree_param":{"num_deleted":"0","num_feature":"8","num_nodes":"121","size_leaf_vector":"1"}},{"base_weights":[9.439356E-2,-9.590399E-2,2.226543E0,5.923425E-1,-4.676151E-1,-8.8808006E-1,2.793116E0,-8.123266E-2,1.1930699E0,-5.5098087E-1,4.4535027E0,-2.4989672E0,3.8413231E0,6.8085475E0,2.2889194E0,5.812522E-1,-1.5744833E0,-4.4143653E0,1.3933613E0,-7.5561E-1,8.8517123E-1,1.0719127E1,2.2171512E0,-4.638319E0,4.846753E0,-1.36276E0,5.9957213E0,3.5563471E0,4.4589033E0,3.3847005E0,-3.089138E-1,-6.526916E-1,1.7313882E0,-2.5074472E0,2.2402399E0,7.041467E-1,-5.242427E0,1.5914108E0,-3.5584137E0,1.0624948E0,-9.4813067E-1,-1.0991147E0,1.8885297E0,9.586796E-1,4.400884E0,-9.6798706E-1,4.802035E0,2.9249432E0,-5.92771E0,1.9806527E0,4.4272387E-1,3.7918654E-1,2.0067852E0,9.831151E-1,5.965727E0,-2.6284008E0,3.778603E0,-4.713518E0,1.9052697E0,-2.9302686E-1,2.283629E0,7.746101E-1,-5.3656775E-1,-1.1115971E0,-2.5028878E-1,1.8027614E0,-3.1413504E-1,-5.9469226E-3,-1.7288115E0,2.870915E-1,8.4485453E-1,-2.2822852E0,-2.7404302E-1,7.793439E-1,-3.8011348E-1,-3.589587E-1,2.126528E-1,8.994973E-1,-9.3465215E-1,9.271155E-1,1.2130081E-1,-8.638168E-1,2.2641964E-1,2.8008643E-1,1.5506654E0,1.2149197E0,1.0130482E-1,-2.3379421E0,-6.424837E-1,-6.0310537E-1,1.1192408E0,6.7873615E-1,2.1755252E0,-1.4104466E0,3.0355495E-1,7.392213E-1,1.738991E0,-3.3712173E-1,-2.6142912E0,2.509811E-1,1.2615578E0],"categories":[],"categories_nodes":[],"categories_segments":[],"categories_sizes":[],"default_left":[0,0,0,0,0,0,0,0,0,0,0,0,0,0,0,0,0,0,0,0,0,0,0,0,0,0,0,0,0,0,0,0,0,0,0,0,0,0,0,0,0,0,0,0,0,0,0,0,0,0,0,0,0,0,0,0,0,0,0,0,0,0,0,0,0,0,0,0,0,0,0,0,0,0,0,0,0,0,0,0,0,0,0,0,0,0,0,0,0,0,0,0,0,0,0,0,0,0,0,0,0],"id":8,"left_children":[1,3,5,7,9,11,13,15,17,19,21,23,25,27,29,31,33,35,37,39,41,43,45,47,49,-1,51,53,-1,55,57,59,61,63,65,-1,67,69,71,73,75,77,79,-1,-1,81,83,85,87,-1,-1,-1,-1,89,91,93,95,97,99,-1,-1,-1,-1,-1,-1,-1,-1,-1,-1,-1,-1,-1,-1,-1,-1,-1,-1,-1,-1,-1,-1,-1,-1,-1,-1,-1,-1,-1,-1,-1,-1,-1,-1,-1,-1,-1,-1,-1,-1,-1,-1],"loss_changes":[8.121049E2,4.7049042E2,2.9188507E2,2.6108655E2,4.9229544E2,2.0768123E2,2.6583057E2,3.0263828E2,3.8913504E2,3.4597617E2,2.5647687E2,3.367824E2,1.536709E2,3.4006287E2,3.5687775E2,3.0200116E2,3.4016318E2,7.949226E1,3.292926E2,3.611808E2,2.9474536E2,1.0172974E2,1.363797E2,1.7337021E2,1.9844574E1,0E0,1.12357025E1,6.853372E1,0E0,2.1836627E2,3.7957938E2,2.833026E2,3.3398315E2,1.4922995E2,2.41701E2,0E0,2.9775024E1,2.4440454E2,1.3227914E2,3.573734E2,3.8403772E2,4.2244354E2,1.735615E2,0E0,0E0,2.8515644E1,7.946335E0,7.3628407E0,8.218796E1,0E0,0E0,0E0,0E0,6.507599E1,1.2168228E1,5.003655E1,2.0589673E2,1.769126E2,6.0386017E1,0E0,0E0,0E0,0E0,0E0,0E0,0E0,0E0,0E0,0E0,0E0,0E0,0E0,0E0,0E0,0E0,0E0,0E0,0E0,0E0,0E0,0E0,0E0,0E0,0E0,0E0,0E0,0E0,0E0,0E0,0E0,0E0,0E0,0E0,0E0,0E0,0E0,0E0,0E0,0E0,0E0,0E0],"parents":[2147483647,0,0,1,1,2,2,3,3,4,4,5,5,6,6,7,7,8,8,9,9,10,10,11,11,12,12,13,13,14,14,15,15,16,16,17,17,18,18,19,19,20,20,21,21,22,22,23,23,24,24,26,26,27,27,29,29,30,30,31,31,32,32,33,33,34,34,36,36,37,37,38,38,39,39,40,40,41,41,42,42,45,45,46,46,47,47,48,48,53,53,54,54,55,55,56,56,57,57,58,58],"right_children":[2,4,6,8,10,12,14,16,18,20,22,24,26,28,30,32,34,36,38,40,42,44,46,48,50,-1,52,54,-1,56,58,60,62,64,66,-1,68,70,72,74,76,78,80,-1,-1,82,84,86,88,-1,-1,-1,-1,90,92,94,96,98,100,-1,-1,-1,-1,-1,-1,-1,-1,-1,-1,-1,-1,-1,-1,-1,-1,-1,-1,-1,-1,-1,-1,-1,-1,-1,-1,-1,-1,-1,-1,-1,-1,-1,-1,-1,-1,-1,-1,-1,-1,-1,-1],"split_conditions":[4.9E1,5.799481E1,3.1E1,9.585739E0,2.1681252E1,1.1E1,4.0333332E1,3.3274895E1,9.666667E0,2.8711627E2,1.3E1,3.6E1,5.1E1,1.457889E1,1.5E0,1.950253E1,4.981697E1,1.4791666E0,2.0501833E1,7.7879906E0,1.4E1,1E1,1.7585776E2,1.3E1,2.7E1,-1.36276E0,9E0,3.6E1,4.4589033E0,4.1666668E1,5.4E1,4.7E1,3.6E1,2.8E1,4.5208344E-1,7.041467E-1,6.6666665E0,3.3E1,1.3000001E0,6.3291664E0,1.9453327E1,2.9728787E2,2.4E1,9.586796E-1,4.400884E0,8.896694E1,2.4E1,6.7E1,-1.3354167E0,1.9806527E0,4.4272387E-1,3.7918654E-1,2.0067852E0,5.2E1,1.9E1,5.3E1,4.9377285E1,2.9999993E0,1.44E1,-2.9302686E-1,2.283629E0,7.746101E-1,-5.3656775E-1,-1.1115971E0,-2.5028878E-1,1.8027614E0,-3.1413504E-1,-5.9469226E-3,-1.7288115E0,2.870915E-1,8.4485453E-1,-2.2822852E0,-2.7404302E-1,7.793439E-1,-3.8011348E-1,-3.589587E-1,2.126528E-1,8.994973E-1,-9.3465215E-1,9.271155E-1,1.2130081E-1,-8.638168E-1,2.2641964E-1,2.8008643E-1,1.5506654E0,1.2149197E0,1.0130482E-1,-2.3379421E0,-6.424837E-1,-6.0310537E-1,1.1192408E0,6.7873615E-1,2.1755252E0,-1.4104466E0,3.0355495E-1,7.392213E-1,1.738991E0,-3.3712173E-1,-2.6142912E0,2.509811E-1,1.2615578E0],"split_indices":[0,7,1,6,4,5,3,7,3,7,1,2,0,6,5,7,7,4,6,6,2,1,7,1,1,0,1,1,0,3,0,0,1,0,4,0,3,1,5,4,6,7,1,0,0,7,0,0,4,0,0,0,0,0,2,0,7,5,6,0,0,0,0,0,0,0,0,0,0,0,0,0,0,0,0,0,0,0,0,0,0,0,0,0,0,0,0,0,0,0,0,0,0,0,0,0,0,0,0,0,0],"split_type":[0,0,0,0,0,0,0,0,0,0,0,0,0,0,0,0,0,0,0,0,0,0,0,0,0,0,0,0,0,0,0,0,0,0,0,0,0,0,0,0,0,0,0,0,0,0,0,0,0,0,0,0,0,0,0,0,0,0,0,0,0,0,0,0,0,0,0,0,0,0,0,0,0,0,0,0,0,0,0,0,0,0,0,0,0,0,0,0,0,0,0,0,0,0,0,0,0,0,0,0,0],"sum_hessian":[2E3,1.837E3,1.63E2,6.44E2,1.193E3,2.5E1,1.38E2,3.04E2,3.4E2,1.174E3,1.9E1,1.9E1,6E0,1.4E1,1.24E2,2.11E2,9.3E1,1.1E1,3.29E2,1.028E3,1.46E2,4E0,1.5E1,1.5E1,4E0,1E0,5E0,1.1E1,3E0,8.7E1,3.7E1,1.02E2,1.09E2,7.5E1,1.8E1,1E0,1E1,3.17E2,1.2E1,9.8E1,9.3E2,4.9E1,9.7E1,2E0,2E0,7E0,8E0,2E0,1.3E1,2E0,2E0,1E0,4E0,6E0,5E0,5E0,8.2E1,1.2E1,2.5E1,9.9E1,3E0,8.8E1,2.1E1,4.3E1,3.2E1,8E0,1E1,1E0,9E0,2.1E2,1.07E2,4E0,8E0,5.9E1,3.9E1,8.09E2,1.21E2,1.6E1,3.3E1,5.3E1,4.4E1,3E0,4E0,1E0,7E0,1E0,1E0,8E0,5E0,3E0,3E0,2E0,3E0,3E0,2E0,5.1E1,3.1E1,7E0,5E0,1.8E1,7E0],"tree_param":{"num_deleted":"0","num_feature":"8","num_nodes":"101","size_leaf_vector":"1"}},{"base_weights":[7.4702926E-2,-5.480214E-2,1.9390012E0,6.544808E-1,-2.8700194E-1,4.3271575E0,1.1474861E0,-6.079081E-1,9.244583E-1,-3.5984656E-1,4.5517535E0,2.8824196E0,1.0107285E1,5.042059E0,6.532413E-1,1.7273618E0,-1.9182891E0,9.297986E0,7.656872E-1,2.2103002E0,-4.8546803E-1,-5.7347584E-1,6.18923E0,1.2108088E0,6.091107E0,3.6834686E0,-1.12114914E-1,-1.2307091E0,6.5727525E0,-3.8953018E-1,2.4345968E0,5.8900547E0,-3.3712828E-1,-5.765214E0,-1.3974591E0,7.941945E-1,2.989564E0,3.2154722E0,4.3871063E-1,1.1166153E0,6.1146803E0,-4.3653718E-1,-3.8309968E0,6.072531E-1,-7.1350396E-1,1.0442676E1,3.9011917E0,-3.184105E-1,2.618947E0,-4.4628054E-1,7.2243958E0,2.8007355E-1,-8.3389264E-1,8.568599E0,1.9357948E0,-8.041444E-1,4.083287E0,3.7207727E0,-2.874167E0,3.504643E-1,3.1134758E0,4.6247938E-1,-7.673661E-1,-2.012831E0,-1.5661556E-1,-5.087665E-2,-8.9042217E-1,3.7644386E0,6.679629E-1,-1.1605362E-2,5.614087E-1,7.144749E-1,-5.635234E-1,2.8349023E0,7.296678E-1,-2.528578E-1,-2.4223218E-2,-1.4638793E0,2.256574E0,6.2882423E-1,3.6015913E0,2.9173338E-1,1.5732031E0,3.1877062E-1,-5.73571E-1,1.0819415E0,2.7303854E-1,4.6472484E-1,3.0959303E0,2.851754E0,5.8235496E-1,-3.4606364E-2,7.9738885E-1,7.661511E-1,-4.6471378E-1,1.4831456E0,9.617386E-2,2.0472512E0,5.3698605E-1,-1.2499334E0,7.1305275E-2],"categories":[],"categories_nodes":[],"categories_segments":[],"categories_sizes":[],"default_left":[0,0,0,0,0,0,0,0,0,0,0,0,0,0,0,0,0,0,0,0,0,0,0,0,0,0,0,0,0,0,0,0,0,0,0,0,0,0,0,0,0,0,0,0,0,0,0,0,0,0,0,0,0,0,0,0,0,0,0,0,0,0,0,0,0,0,0,0,0,0,0,0,0,0,0,0,0,0,0,0,0,0,0,0,0,0,0,0,0,0,0,0,0,0,0,0,0,0,0,0,0],"id":9,"left_children":[1,3,5,7,9,11,13,15,17,19,21,23,25,27,29,31,33,35,37,39,41,43,45,47,49,-1,-1,51,53,55,57,59,61,63,65,-1,-1,67,69,71,73,75,77,-1,-1,79,81,83,85,-1,87,-1,-1,89,91,93,95,97,99,-1,-1,-1,-1,-1,-1,-1,-1,-1,-1,-1,-1,-1,-1,-1,-1,-1,-1,-1,-1,-1,-1,-1,-1,-1,-1,-1,-1,-1,-1,-1,-1,-1,-1,-1,-1,-1,-1,-1,-1,-1,-1],"loss_changes":[4.8321985E2,3.0849756E2,2.4076868E2,1.5801924E2,4.989834E2,2.3809113E2,1.8726868E2,2.5424124E2,4.994103E2,4.501791E2,1.7979071E2,1.3744409E2,1.411106E2,1.137077E2,1.6627E2,2.5980087E2,9.813382E1,4.6814575E0,2.9897275E2,2.7073276E2,2.1555707E2,3.2944756E1,1.14973816E2,4.1747597E1,8.8046814E1,0E0,0E0,1.2652025E1,6.6704865E1,1.0898968E2,2.3601828E2,1.9980154E2,9.155937E1,2.6201569E1,9.206519E1,0E0,0E0,3.781519E2,2.2714081E2,2.0148145E2,1.4894977E2,1.8916966E2,2.628927E2,0E0,0E0,4.0049072E1,4.2093796E1,2.4037333E1,1.3592651E1,0E0,1.2455139E2,0E0,0E0,1.8816528E1,6.2317066E0,1.3652838E2,1.4604759E1,1.4957178E2,2.913992E1,0E0,0E0,0E0,0E0,0E0,0E0,0E0,0E0,0E0,0E0,0E0,0E0,0E0,0E0,0E0,0E0,0E0,0E0,0E0,0E0,0E0,0E0,0E0,0E0,0E0,0E0,0E0,0E0,0E0,0E0,0E0,0E0,0E0,0E0,0E0,0E0,0E0,0E0,0E0,0E0,0E0,0E0],"parents":[2147483647,0,0,1,1,2,2,3,3,4,4,5,5,6,6,7,7,8,8,9,9,10,10,11,11,12,12,13,13,14,14,15,15,16,16,17,17,18,18,19,19,20,20,21,21,22,22,23,23,24,24,27,27,28,28,29,29,30,30,31,31,32,32,33,33,34,34,37,37,38,38,39,39,40,40,41,41,42,42,45,45,46,46,47,47,48,48,50,50,53,53,54,54,55,55,56,56,57,57,58,58],"right_children":[2,4,6,8,10,12,14,16,18,20,22,24,26,28,30,32,34,36,38,40,42,44,46,48,50,-1,-1,52,54,56,58,60,62,64,66,-1,-1,68,70,72,74,76,78,-1,-1,80,82,84,86,-1,88,-1,-1,90,92,94,96,98,100,-1,-1,-1,-1,-1,-1,-1,-1,-1,-1,-1,-1,-1,-1,-1,-1,-1,-1,-1,-1,-1,-1,-1,-1,-1,-1,-1,-1,-1,-1,-1,-1,-1,-1,-1,-1,-1,-1,-1,-1,-1,-1],"split_conditions":[4.9333332E1,1E-1,5.1E1,1.4333333E1,2.0504168E1,5E1,4.1E1,9E0,7E0,-6.766667E0,3E-1,6.816222E1,6.1E1,-1.5631251E1,6.5E1,6.8229175E0,7E0,8.534353E0,1.7E1,1.5778516E1,4.5666668E1,2.205625E1,1.0000001E0,6E1,3E1,3.6834686E0,-1.12114914E-1,6.1E1,5.4333332E1,2.442307E2,-1.1979169E0,2.8916671E0,1.1E1,2.2E1,1.3E1,7.941945E-1,2.989564E0,6.0347E0,3.6E1,3.5E1,3.4E1,3.5E0,2.504535E2,6.072531E-1,-7.1350396E-1,9.255571E0,1.6E1,5.9E1,1.2031756E1,-4.4628054E-1,5.0333332E1,2.8007355E-1,-8.3389264E-1,-2.4041662E0,2.9E1,-1.2175E1,6.1E1,5.8E1,1.3979872E1,3.504643E-1,3.1134758E0,4.6247938E-1,-7.673661E-1,-2.012831E0,-1.5661556E-1,-5.087665E-2,-8.9042217E-1,3.7644386E0,6.679629E-1,-1.1605362E-2,5.614087E-1,7.144749E-1,-5.635234E-1,2.8349023E0,7.296678E-1,-2.528578E-1,-2.4223218E-2,-1.4638793E0,2.256574E0,6.2882423E-1,3.6015913E0,2.9173338E-1,1.5732031E0,3.1877062E-1,-5.73571E-1,1.0819415E0,2.7303854E-1,4.6472484E-1,3.0959303E0,2.851754E0,5.8235496E-1,-3.4606364E-2,7.9738885E-1,7.661511E-1,-4.6471378E-1,1.4831456E0,9.617386E-2,2.0472512E0,5.3698605E-1,-1.2499334E0,7.1305275E-2],"split_indices":[3,5,1,3,4,1,2,1,2,4,5,7,2,4,1,4,2,6,3,6,3,4,5,2,0,0,0,1,3,7,4,4,0,0,1,0,0,6,2,2,1,5,7,0,0,6,1,0,6,0,3,0,0,4,2,4,0,2,6,0,0,0,0,0,0,0,0,0,0,0,0,0,0,0,0,0,0,0,0,0,0,0,0,0,0,0,0,0,0,0,0,0,0,0,0,0,0,0,0,0,0],"split_type":[0,0,0,0,0,0,0,0,0,0,0,0,0,0,0,0,0,0,0,0,0,0,0,0,0,0,0,0,0,0,0,0,0,0,0,0,0,0,0,0,0,0,0,0,0,0,0,0,0,0,0,0,0,0,0,0,0,0,0,0,0,0,0,0,0,0,0,0,0,0,0,0,0,0,0,0,0,0,0,0,0,0,0,0,0,0,0,0,0,0,0,0,0,0,0,0,0,0,0,0,0],"sum_hessian":[2E3,1.871E3,1.29E2,4.61E2,1.41E3,3.1E1,9.8E1,8.1E1,3.8E2,1.39E3,2E1,2.6E1,5E0,1E1,8.8E1,2.9E1,5.2E1,6E0,3.74E2,6.4E1,1.326E3,5E0,1.5E1,1.8E1,8E0,4E0,1E0,2E0,8E0,5.6E1,3.2E1,9E0,2E1,5E0,4.7E1,1E0,5E0,4.3E1,3.31E2,5.1E1,1.3E1,1.308E3,1.8E1,2E0,3E0,4E0,1.1E1,9E0,9E0,1E0,7E0,1E0,1E0,5E0,3E0,5.2E1,4E0,2.6E1,6E0,5E0,4E0,1.1E1,9E0,4E0,1E0,2.7E1,2E1,3E0,4E1,2.49E2,8.2E1,3.6E1,1.5E1,6E0,7E0,6.1E2,6.98E2,1.7E1,1E0,1E0,3E0,4E0,7E0,5E0,4E0,5E0,4E0,3E0,4E0,4E0,1E0,1E0,2E0,9E0,4.3E1,3E0,1E0,9E0,1.7E1,4E0,2E0],"tree_param":{"num_deleted":"0","num_feature":"8","num_nodes":"101","size_leaf_vector":"1"}},{"base_weights":[6.915848E-2,-1.7703141E-1,7.157277E-1,-2.3358259E-1,3.5042706E0,-1.3333137E0,1.101964E0,5.7578333E-2,-7.187771E-1,5.194551E0,-8.598374E-1,3.1213422E0,-1.8803167E0,3.7083113E0,7.648251E-1,-2.2049725E-1,7.9509485E-1,-1.1018678E0,1.0263637E0,6.9930463E0,-1.6074792E-1,-1.6454693E0,3.9801822E0,3.5134888E0,-4.9018335E-1,-3.5358274E-1,-3.2168782E0,6.726864E0,1.1698588E0,-2.1422963E0,9.1045356E-1,-3.5381073E-1,2.7536027E0,-1.352167E0,1.3388091E0,-4.0273347E0,-9.382611E-1,3.1043012E0,-4.8629928E-1,6.3258237E-1,8.20188E0,5.2722704E-1,-2.0253365E0,-8.2639766E-1,2.1430047E0,2.2789803E0,-1.759535E0,-1.2193246E0,3.6546059E0,-4.408843E0,-1.0043827E0,1.2130366E1,1.2215644E0,2.1408794E0,-1.7030987E0,1.0768305E0,-3.5988383E0,7.9366386E-1,4.2722387E0,-1.5428929E-1,5.4685676E-1,1.7302219E0,-7.285607E-2,-7.9684615E-2,-1.8817503E0,1.7539832E-1,8.446182E-1,6.953753E-1,-1.4226063E0,7.25747E-1,-3.8119772E-1,2.105757E-1,1.8405049E0,-5.514703E-1,2.3751499E-1,-4.1279987E-2,3.2594204E-1,3.227031E0,1.4117482E0,-8.0733263E-1,-1.0406885E-1,8.7232023E-1,-1.2971821E-1,-1.0091809E-1,-1.297378E0,-5.5180933E-2,1.5680431E0,-6.540103E-1,-1.8968204E0,4.129117E-1,-1.0671554E0,1.6766422E0,5.3221374E0,-1.2296897E0,1.9102756E0,-2.9618007E-1,1.3059553E0,6.5828E-1,-3.4335196E-1,-1.2971681E0,8.7403166E-1,3.5766947E-1,8.2046597E-4,-9.0593916E-1,1.761777E0],"categories":[],"categories_nodes":[],"categories_segments":[],"categories_sizes":[],"default_left":[0,0,0,0,0,0,0,0,0,0,0,0,0,0,0,0,0,0,0,0,0,0,0,0,0,0,0,0,0,0,0,0,0,0,0,0,0,0,0,0,0,0,0,0,0,0,0,0,0,0,0,0,0,0,0,0,0,0,0,0,0,0,0,0,0,0,0,0,0,0,0,0,0,0,0,0,0,0,0,0,0,0,0,0,0,0,0,0,0,0,0,0,0,0,0,0,0,0,0,0,0,0,0,0,0],"id":10,"left_children":[1,3,5,7,9,11,13,15,17,19,21,23,25,27,29,31,33,35,37,39,41,-1,43,-1,45,47,49,51,53,55,57,59,61,63,65,67,69,71,73,75,77,-1,79,-1,-1,81,-1,83,85,87,89,91,93,95,-1,97,99,101,103,-1,-1,-1,-1,-1,-1,-1,-1,-1,-1,-1,-1,-1,-1,-1,-1,-1,-1,-1,-1,-1,-1,-1,-1,-1,-1,-1,-1,-1,-1,-1,-1,-1,-1,-1,-1,-1,-1,-1,-1,-1,-1,-1,-1,-1,-1],"loss_changes":[3.186435E2,3.026823E2,4.3832993E2,2.0191577E2,1.6675092E2,2.2029964E2,4.0575977E2,1.835216E2,3.594722E2,1.5522778E2,1.7852856E2,3.1598126E2,1.600679E2,3.9824048E2,1.7679794E2,2.5869122E2,2.8784705E2,2.0681677E2,3.0640186E2,8.707666E1,2.1442375E1,0E0,1.04891174E2,0E0,1.3243903E2,1.3631828E2,1.0633493E2,6.991316E2,2.1160689E2,9.765121E1,1.5130228E2,2.1856781E2,2.5426106E2,2.6564377E2,2.1661246E2,1.1529358E2,4.6956134E2,2.9421207E2,9.993963E1,1.1982354E0,3.8700745E1,0E0,2.4188404E0,0E0,0E0,1.1486004E1,0E0,8.6280846E1,4.3206215E1,1.01390076E2,1.02137535E2,3.4123706E2,3.820348E2,1.911489E2,0E0,1.9886768E1,7.870204E1,1.2041791E2,1.694417E2,0E0,0E0,0E0,0E0,0E0,0E0,0E0,0E0,0E0,0E0,0E0,0E0,0E0,0E0,0E0,0E0,0E0,0E0,0E0,0E0,0E0,0E0,0E0,0E0,0E0,0E0,0E0,0E0,0E0,0E0,0E0,0E0,0E0,0E0,0E0,0E0,0E0,0E0,0E0,0E0,0E0,0E0,0E0,0E0,0E0,0E0],"parents":[2147483647,0,0,1,1,2,2,3,3,4,4,5,5,6,6,7,7,8,8,9,9,10,10,11,11,12,12,13,13,14,14,15,15,16,16,17,17,18,18,19,19,20,20,22,22,24,24,25,25,26,26,27,27,28,28,29,29,30,30,31,31,32,32,33,33,34,34,35,35,36,36,37,37,38,38,39,39,40,40,42,42,45,45,47,47,48,48,49,49,50,50,51,51,52,52,53,53,55,55,56,56,57,57,58,58],"right_children":[2,4,6,8,10,12,14,16,18,20,22,24,26,28,30,32,34,36,38,40,42,-1,44,-1,46,48,50,52,54,56,58,60,62,64,66,68,70,72,74,76,78,-1,80,-1,-1,82,-1,84,86,88,90,92,94,96,-1,98,100,102,104,-1,-1,-1,-1,-1,-1,-1,-1,-1,-1,-1,-1,-1,-1,-1,-1,-1,-1,-1,-1,-1,-1,-1,-1,-1,-1,-1,-1,-1,-1,-1,-1,-1,-1,-1,-1,-1,-1,-1,-1,-1,-1,-1,-1,-1,-1],"split_conditions":[3.2E1,2.475638E1,2.1E1,1.2979984E1,2.2E1,-5.545833E0,3E1,3.6999998E0,1.3083335E1,2.2000002E1,2.5E1,3.4E1,1.0883676E1,3.5E1,3.1666666E1,4.2E1,1E1,3.6835102E1,1.6666666E1,1.1E1,1.3E1,-1.6454693E0,6E0,3.5134888E0,1.9E1,7.1999993E0,2.3162878E2,4E-1,2.7E1,3E-1,7.8E1,3.113477E2,4.7E1,2E1,2.4583119E2,9E0,4.8080612E1,1.2E1,1.5778516E1,1.2E1,5.660417E0,5.2722704E-1,8E0,-8.2639766E-1,2.1430047E0,2.8E1,-1.759535E0,4.9E1,2.3685242E1,3.9604166E0,2.4583119E2,1.6791668E0,3.4E1,1.2000002E0,-1.7030987E0,2.4E1,2.9E1,1.3551501E1,-1.1197915E1,-1.5428929E-1,5.4685676E-1,1.7302219E0,-7.285607E-2,-7.9684615E-2,-1.8817503E0,1.7539832E-1,8.446182E-1,6.953753E-1,-1.4226063E0,7.25747E-1,-3.8119772E-1,2.105757E-1,1.8405049E0,-5.514703E-1,2.3751499E-1,-4.1279987E-2,3.2594204E-1,3.227031E0,1.4117482E0,-8.0733263E-1,-1.0406885E-1,8.7232023E-1,-1.2971821E-1,-1.0091809E-1,-1.297378E0,-5.5180933E-2,1.5680431E0,-6.540103E-1,-1.8968204E0,4.129117E-1,-1.0671554E0,1.6766422E0,5.3221374E0,-1.2296897E0,1.9102756E0,-2.9618007E-1,1.3059553E0,6.5828E-1,-3.4335196E-1,-1.2971681E0,8.7403166E-1,3.5766947E-1,8.2046597E-4,-9.0593916E-1,1.761777E0],"split_indices":[1,6,0,6,1,4,3,5,4,5,1,1,6,1,3,2,1,7,3,1,2,0,0,0,0,5,7,5,2,5,0,7,2,0,7,2,7,1,6,0,4,0,0,0,0,2,0,2,7,4,7,4,1,5,0,2,2,6,4,0,0,0,0,0,0,0,0,0,0,0,0,0,0,0,0,0,0,0,0,0,0,0,0,0,0,0,0,0,0,0,0,0,0,0,0,0,0,0,0,0,0,0,0,0,0],"split_type":[0,0,0,0,0,0,0,0,0,0,0,0,0,0,0,0,0,0,0,0,0,0,0,0,0,0,0,0,0,0,0,0,0,0,0,0,0,0,0,0,0,0,0,0,0,0,0,0,0,0,0,0,0,0,0,0,0,0,0,0,0,0,0,0,0,0,0,0,0,0,0,0,0,0,0,0,0,0,0,0,0,0,0,0,0,0,0,0,0,0,0,0,0,0,0,0,0,0,0,0,0,0,0,0,0],"sum_hessian":[2E3,1.449E3,5.51E2,1.428E3,2.1E1,8.7E1,4.64E2,8.93E2,5.35E2,1.5E1,6E0,9E0,7.8E1,5.2E1,4.12E2,6.49E2,2.44E2,4.39E2,9.6E1,1.1E1,4E0,3E0,3E0,2E0,7E0,3.7E1,4.1E1,2.3E1,2.9E1,1.9E1,3.93E2,6.22E2,2.7E1,4.9E1,1.95E2,2.2E1,4.17E2,4E1,5.6E1,2E0,9E0,2E0,2E0,1E0,2E0,5E0,2E0,3.1E1,6E0,2.6E1,1.5E1,1.1E1,1.2E1,2.6E1,3E0,6E0,1.3E1,3.81E2,1.2E1,5.8E2,4.2E1,1.3E1,1.4E1,4.1E1,8E0,1.3E2,6.5E1,2E0,2E1,3.7E1,3.8E2,2.3E1,1.7E1,2.7E1,2.9E1,1E0,1E0,4E0,5E0,1E0,1E0,4E0,1E0,2.5E1,6E0,2E0,4E0,1.3E1,1.3E1,8E0,7E0,6E0,5E0,6E0,6E0,1.1E1,1.5E1,4E0,2E0,1.2E1,1E0,2.53E2,1.28E2,2E0,1E1],"tree_param":{"num_deleted":"0","num_feature":"8","num_nodes":"105","size_leaf_vector":"1"}},{"base_weights":[5.54932E-2,-5.7151717E-1,2.0283155E-1,-7.5029474E-1,3.0755136E0,4.8964432E-1,-1.4965945E-1,-8.262648E-1,4.8696055E0,1.0648459E1,1.5121044E-1,1.752188E0,2.5488174E-1,-1.1331302E0,1.6832142E-1,-6.2214804E-1,-3.2242863E0,1.6855454E0,2.8111354E-1,-8.2120216E-1,4.403774E0,3.4538157E0,-2.0673275E0,1.180312E0,4.214247E0,-1.1208502E0,4.6179587E-1,5.059441E0,-1.4543067E0,-3.0492315E-1,1.0202681E0,-7.128817E-1,2.7234716E0,1.2591158E0,-3.617591E0,1.8026725E0,1.7410157E0,5.0201666E-1,-3.3751593E0,9.241292E-1,5.0008287E0,1.3949609E0,8.585609E0,-4.3320346E-1,-5.2649055E0,5.2351594E-1,-2.3073611E0,2.419658E0,-7.145457E-1,-1.8084223E0,3.8286753E0,-8.929544E-1,1.1424247E0,1.2793416E0,-1.4741752E0,-8.116595E-2,-4.0002424E-1,-8.490625E-1,1.7916039E0,-3.2654515E-1,8.931473E-1,-7.881546E-3,-1.174732E0,1.3613635E-1,5.848127E-1,-5.267874E-1,-1.4846325E0,6.93346E-1,-4.9380437E-2,1.9707814E-1,1.9821013E0,2.1056232E0,-4.5995328E-1,-9.9281315E-3,3.2233267E0,-3.872268E-1,5.5077654E-1,-2.2814324E0,1.4034377E-1,5.3691214E-1,7.139947E-2,-8.7823653E-1,2.9967272E-1,-1.1020435E-1,-7.43795E-1,-5.594498E-1,1.590331E0,3.9390433E-1,-3.519932E-1,9.341446E-1,6.301626E-2,2.991474E-1,2.1559117E0,-1.1620948E0,1.8691401E-1],"categories":[],"categories_nodes":[],"categories_segments":[],"categories_sizes":[],"default_left":[0,0,0,0,0,0,0,0,0,0,0,0,0,0,0,0,0,0,0,0,0,0,0,0,0,0,0,0,0,0,0,0,0,0,0,0,0,0,0,0,0,0,0,0,0,0,0,0,0,0,0,0,0,0,0,0,0,0,0,0,0,0,0,0,0,0,0,0,0,0,0,0,0,0,0,0,0,0,0,0,0,0,0,0,0,0,0,0,0,0,0,0,0,0,0],"id":11,"left_children":[1,3,5,7,9,11,13,15,17,19,21,23,25,27,29,31,33,-1,-1,-1,-1,35,37,39,41,43,45,47,49,51,53,55,57,59,61,-1,63,-1,65,67,69,71,73,75,77,79,-1,-1,81,83,85,87,89,91,93,-1,-1,-1,-1,-1,-1,-1,-1,-1,-1,-1,-1,-1,-1,-1,-1,-1,-1,-1,-1,-1,-1,-1,-1,-1,-1,-1,-1,-1,-1,-1,-1,-1,-1,-1,-1,-1,-1,-1,-1],"loss_changes":[1.8497366E2,2.5072232E2,1.6395462E2,1.594312E2,3.9701044E2,2.645332E2,2.2785446E2,1.7420546E2,9.460281E0,3.0995856E2,1.0971754E2,1.9214484E2,2.1543468E2,3.6138373E2,2.224628E2,1.0302707E2,5.392856E1,0E0,0E0,0E0,0E0,1.5796577E1,4.9677998E1,1.0793495E2,3.0845056E2,2.7983417E2,3.346313E2,1.6197704E2,3.2495752E2,3.031556E2,1.2919608E2,8.884497E1,1.7927426E2,1.534041E1,2.7739655E1,0E0,4.5643234E-1,0E0,9.146164E0,1.6498088E2,4.4499176E1,2.9070367E2,1.864173E2,1.697166E2,1.9135092E2,2.3564658E2,0E0,0E0,1.8091139E1,1.5377856E2,1.02101715E2,1.580102E2,1.8866678E2,2.9120325E2,9.802583E1,0E0,0E0,0E0,0E0,0E0,0E0,0E0,0E0,0E0,0E0,0E0,0E0,0E0,0E0,0E0,0E0,0E0,0E0,0E0,0E0,0E0,0E0,0E0,0E0,0E0,0E0,0E0,0E0,0E0,0E0,0E0,0E0,0E0,0E0,0E0,0E0,0E0,0E0,0E0,0E0],"parents":[2147483647,0,0,1,1,2,2,3,3,4,4,5,5,6,6,7,7,8,8,9,9,10,10,11,11,12,12,13,13,14,14,15,15,16,16,21,21,22,22,23,23,24,24,25,25,26,26,27,27,28,28,29,29,30,30,31,31,32,32,33,33,34,34,36,36,38,38,39,39,40,40,41,41,42,42,43,43,44,44,45,45,48,48,49,49,50,50,51,51,52,52,53,53,54,54],"right_children":[2,4,6,8,10,12,14,16,18,20,22,24,26,28,30,32,34,-1,-1,-1,-1,36,38,40,42,44,46,48,50,52,54,56,58,60,62,-1,64,-1,66,68,70,72,74,76,78,80,-1,-1,82,84,86,88,90,92,94,-1,-1,-1,-1,-1,-1,-1,-1,-1,-1,-1,-1,-1,-1,-1,-1,-1,-1,-1,-1,-1,-1,-1,-1,-1,-1,-1,-1,-1,-1,-1,-1,-1,-1,-1,-1,-1,-1,-1,-1],"split_conditions":[1.2E1,2.24E1,2.1417145E2,3.1333334E1,1.6791668E0,1.4E1,2.298334E2,3.5E1,5.7E1,2.2162402E2,2.4200005E1,1.3E1,1.9E1,7.289444E0,1.0391667E1,2.1710716E1,-4.370834E0,1.6855454E0,2.8111354E-1,-8.2120216E-1,4.403774E0,1.1384198E1,2.4208333E0,2.205625E1,1.2346741E1,1.5489416E1,2.24E1,4.6416674E0,3.5499996E1,3E1,1.4699999E1,1.2346741E1,2.3806332E2,9E0,7E0,1.8026725E0,8E0,5.0201666E-1,2E1,3.0874999E0,4.9377285E1,2.5695461E1,3.301606E1,2.2666666E1,1.7339897E1,1.8E1,-2.3073611E0,2.419658E0,1.4E1,1.7E1,1.4174356E1,2E-1,2.9E1,1.2599999E1,1.4329165E1,-8.116595E-2,-4.0002424E-1,-8.490625E-1,1.7916039E0,-3.2654515E-1,8.931473E-1,-7.881546E-3,-1.174732E0,1.3613635E-1,5.848127E-1,-5.267874E-1,-1.4846325E0,6.93346E-1,-4.9380437E-2,1.9707814E-1,1.9821013E0,2.1056232E0,-4.5995328E-1,-9.9281315E-3,3.2233267E0,-3.872268E-1,5.5077654E-1,-2.2814324E0,1.4034377E-1,5.3691214E-1,7.139947E-2,-8.7823653E-1,2.9967272E-1,-1.1020435E-1,-7.43795E-1,-5.594498E-1,1.590331E0,3.9390433E-1,-3.519932E-1,9.341446E-1,6.301626E-2,2.991474E-1,2.1559117E0,-1.1620948E0,1.8691401E-1],"split_indices":[0,5,7,3,4,1,7,2,2,7,5,1,1,6,4,6,4,0,0,0,0,6,4,4,6,6,5,4,5,2,5,6,7,0,1,0,1,0,1,4,7,7,7,3,6,2,0,0,0,1,6,5,3,5,4,0,0,0,0,0,0,0,0,0,0,0,0,0,0,0,0,0,0,0,0,0,0,0,0,0,0,0,0,0,0,0,0,0,0,0,0,0,0,0,0],"split_type":[0,0,0,0,0,0,0,0,0,0,0,0,0,0,0,0,0,0,0,0,0,0,0,0,0,0,0,0,0,0,0,0,0,0,0,0,0,0,0,0,0,0,0,0,0,0,0,0,0,0,0,0,0,0,0,0,0,0,0,0,0,0,0,0,0,0,0,0,0,0,0,0,0,0,0,0,0,0,0,0,0,0,0,0,0,0,0,0,0,0,0,0,0,0,0],"sum_hessian":[2E3,3.8E2,1.62E3,3.63E2,1.7E1,8.93E2,7.27E2,3.59E2,4E0,4E0,1.3E1,1.39E2,7.54E2,1.77E2,5.5E2,3.32E2,2.7E1,3E0,1E0,1E0,3E0,5E0,8E0,1.14E2,2.5E1,9.8E1,6.56E2,8E0,1.69E2,3.54E2,1.96E2,3.24E2,8E0,2E0,2.5E1,1E0,4E0,2E0,6E0,1.08E2,6E0,1.6E1,9E0,8.5E1,1.3E1,6.52E2,4E0,5E0,3E0,1.59E2,1E1,2.52E2,1.02E2,1.78E2,1.8E1,1.9E2,1.34E2,3E0,5E0,1E0,1E0,2E0,2.3E1,1E0,3E0,4E0,2E0,4.7E1,6.1E1,2E0,4E0,5E0,1.1E1,2E0,7E0,6.2E1,2.3E1,9E0,4E0,1.19E2,5.33E2,1E0,2E0,5.1E1,1.08E2,2E0,8E0,2.8E1,2.24E2,3.2E1,7E1,1.71E2,7E0,8E0,1E1],"tree_param":{"num_deleted":"0","num_feature":"8","num_nodes":"95","size_leaf_vector":"1"}},{"base_weights":[4.6317242E-2,-2.491312E-2,1.0716782E0,-1.250642E-1,7.1247095E-1,2.8124783E0,4.9817023E-1,2.5338975E-3,-1.0391086E0,-1.0711148E0,1.0826181E0,1.7602524E0,7.078749E0,1.1513194E0,-1.1180973E0,5.1045024E-1,-3.15558E-1,-2.4813573E0,-7.3032804E-2,2.433529E0,-1.4307665E0,1.3027128E0,-1.3373069E0,5.377733E-1,4.1454577E0,2.6122131E0,-1.5965825E-1,2.6117215E0,-3.4106392E-1,-2.1302958E0,2.3674257E0,4.2231607E-1,4.854731E0,-2.3724379E-1,-5.204437E0,4.150502E0,-2.7896402E0,4.155557E0,-6.596607E-1,2.5683498E-1,1.0748649E0,-2.1875594E0,1.0826743E0,1.0746323E0,5.815522E0,2.4980097E0,-2.4145346E0,1.2857018E0,-1.2970219E0,-4.4244134E-1,5.032341E0,1.7406353E0,2.7435758E0,-1.8967685E0,2.5572417E0,-3.205522E0,1.4504328E0,1.0163958E0,-1.2264951E-1,1.4439476E-1,-2.3165956E0,-3.2485157E-1,2.1650023E0,7.172583E-1,-1.02812774E-1,-2.343135E-1,-2.2725282E0,-1.1082259E-1,1.7340827E0,-9.60295E-1,2.1589616E-1,1.4346124E-1,1.4053557E0,-5.140678E-1,6.0400915E-1,-7.7350134E-1,5.7851183E-1,9.8250663E-1,-1.6780101E-1,1.2662264E0,2.722427E-1,-8.157006E-2,2.3669941E0,-3.0894157E-1,1.2051649E0,-1.2665608E0,1.1930018E-1,-4.2656633E-1,5.566372E-1,-7.815125E-1,2.474499E-3,2.6675436E-1,2.2021203E0,-7.181469E-4,1.149729E0,-8.8589007E-1,3.270411E-1,8.9889795E-1,-4.0676653E-1,-1.8205453E0,9.95149E-2,7.779441E-1,-1.6699906E-1,-2.2632809E-1,1.7113581E-1],"categories":[],"categories_nodes":[],"categories_segments":[],"categories_sizes":[],"default_left":[0,0,0,0,0,0,0,0,0,0,0,0,0,0,0,0,0,0,0,0,0,0,0,0,0,0,0,0,0,0,0,0,0,0,0,0,0,0,0,0,0,0,0,0,0,0,0,0,0,0,0,0,0,0,0,0,0,0,0,0,0,0,0,0,0,0,0,0,0,0,0,0,0,0,0,0,0,0,0,0,0,0,0,0,0,0,0,0,0,0,0,0,0,0,0,0,0,0,0,0,0,0,0,0,0],"id":12,"left_children":[1,3,5,7,9,11,13,15,17,19,21,23,25,27,29,31,33,35,37,39,41,43,45,47,49,-1,-1,51,53,55,57,59,61,63,65,67,69,71,73,-1,-1,75,77,79,81,83,85,87,89,-1,91,93,-1,95,97,99,101,-1,103,-1,-1,-1,-1,-1,-1,-1,-1,-1,-1,-1,-1,-1,-1,-1,-1,-1,-1,-1,-1,-1,-1,-1,-1,-1,-1,-1,-1,-1,-1,-1,-1,-1,-1,-1,-1,-1,-1,-1,-1,-1,-1,-1,-1,-1,-1],"loss_changes":[1.4617337E2,1.3833595E2,1.283861E2,1.9232603E2,1.4904198E2,1.3119023E2,1.05798004E2,2.3410585E2,2.812697E2,5.2639404E1,1.0080806E2,7.649899E1,7.900638E1,1.5563382E2,1.0735651E2,2.1159665E2,3.3990118E2,1.771821E2,3.0537552E2,4.184654E0,7.0845955E1,1.6975793E2,7.213567E1,2.7741198E1,5.2282364E1,0E0,0E0,1.8896709E2,1.6717114E2,9.3201546E1,1.820443E1,2.6703735E2,1.6208072E2,2.4417839E2,1.4089233E2,3.1600998E1,1.1489844E2,2.69375E1,3.0769653E2,0E0,0E0,5.0007675E1,3.4230568E1,8.2416626E1,1.03170105E2,2.5574871E1,6.775256E1,2.4235554E1,1.0265403E1,0E0,6.9974335E1,1.2032911E2,0E0,7.893348E1,2.6399231E1,1.8429868E2,1.5204733E1,0E0,1.7440239E0,0E0,0E0,0E0,0E0,0E0,0E0,0E0,0E0,0E0,0E0,0E0,0E0,0E0,0E0,0E0,0E0,0E0,0E0,0E0,0E0,0E0,0E0,0E0,0E0,0E0,0E0,0E0,0E0,0E0,0E0,0E0,0E0,0E0,0E0,0E0,0E0,0E0,0E0,0E0,0E0,0E0,0E0,0E0,0E0,0E0,0E0],"parents":[2147483647,0,0,1,1,2,2,3,3,4,4,5,5,6,6,7,7,8,8,9,9,10,10,11,11,12,12,13,13,14,14,15,15,16,16,17,17,18,18,19,19,20,20,21,21,22,22,23,23,24,24,27,27,28,28,29,29,30,30,31,31,32,32,33,33,34,34,35,35,36,36,37,37,38,38,41,41,42,42,43,43,44,44,45,45,46,46,47,47,48,48,50,50,51,51,53,53,54,54,55,55,56,56,58,58],"right_children":[2,4,6,8,10,12,14,16,18,20,22,24,26,28,30,32,34,36,38,40,42,44,46,48,50,-1,-1,52,54,56,58,60,62,64,66,68,70,72,74,-1,-1,76,78,80,82,84,86,88,90,-1,92,94,-1,96,98,100,102,-1,104,-1,-1,-1,-1,-1,-1,-1,-1,-1,-1,-1,-1,-1,-1,-1,-1,-1,-1,-1,-1,-1,-1,-1,-1,-1,-1,-1,-1,-1,-1,-1,-1,-1,-1,-1,-1,-1,-1,-1,-1,-1,-1,-1,-1,-1,-1],"split_conditions":[4.9333332E1,1.5531249E1,5.1E1,1.2277083E1,7.42159E0,5E1,-5.7083327E-1,8.000001E-1,1.1457958E1,1.5779166E1,1.4E1,6.816222E1,6.1E1,5.8E1,2.442307E2,1.8584509E1,4.6666668E1,5.1919937E0,6.992348E1,1.9E1,3E1,1.1E1,3.702333E1,5.9E1,3E1,2.6122131E0,-1.5965825E-1,-2.7145832E0,6.2E1,1.9453327E1,5.7E1,1.8204042E1,4.7161026E1,7E0,2.4859842E1,1.2E1,3.062427E2,8E0,2.4651262E2,2.5683498E-1,1.0748649E0,3.3761987E2,3.6E1,8.133928E0,1.5E1,9E0,2.356096E2,2.240316E1,-1.1197915E1,-4.4244134E-1,5.0333332E1,4.8E1,2.7435758E0,7.7E1,7.9E1,5.4E1,4.9E1,1.0163958E0,3.5E1,1.4439476E-1,-2.3165956E0,-3.2485157E-1,2.1650023E0,7.172583E-1,-1.02812774E-1,-2.343135E-1,-2.2725282E0,-1.1082259E-1,1.7340827E0,-9.60295E-1,2.1589616E-1,1.4346124E-1,1.4053557E0,-5.140678E-1,6.0400915E-1,-7.7350134E-1,5.7851183E-1,9.8250663E-1,-1.6780101E-1,1.2662264E0,2.722427E-1,-8.157006E-2,2.3669941E0,-3.0894157E-1,1.2051649E0,-1.2665608E0,1.1930018E-1,-4.2656633E-1,5.566372E-1,-7.815125E-1,2.474499E-3,2.6675436E-1,2.2021203E0,-7.181469E-4,1.149729E0,-8.8589007E-1,3.270411E-1,8.9889795E-1,-4.0676653E-1,-1.8205453E0,9.95149E-2,7.779441E-1,-1.6699906E-1,-2.2632809E-1,1.7113581E-1],"split_indices":[3,4,1,4,6,1,4,5,6,4,5,7,2,2,7,6,3,6,7,1,0,5,7,0,0,0,0,4,0,6,1,6,7,2,7,0,7,1,7,0,0,7,0,6,0,0,7,7,4,0,3,2,0,2,2,2,2,0,0,0,0,0,0,0,0,0,0,0,0,0,0,0,0,0,0,0,0,0,0,0,0,0,0,0,0,0,0,0,0,0,0,0,0,0,0,0,0,0,0,0,0,0,0,0,0],"split_type":[0,0,0,0,0,0,0,0,0,0,0,0,0,0,0,0,0,0,0,0,0,0,0,0,0,0,0,0,0,0,0,0,0,0,0,0,0,0,0,0,0,0,0,0,0,0,0,0,0,0,0,0,0,0,0,0,0,0,0,0,0,0,0,0,0,0,0,0,0,0,0,0,0,0,0,0,0,0,0,0,0,0,0,0,0,0,0,0,0,0,0,0,0,0,0,0,0,0,0,0,0,0,0,0,0],"sum_hessian":[2E3,1.871E3,1.29E2,1.648E3,2.23E2,3.1E1,9.8E1,1.447E3,2.01E2,3.8E1,1.85E2,2.6E1,5E0,7E1,2.8E1,5.57E2,8.9E2,8E1,1.21E2,3E0,3.5E1,1.7E2,1.5E1,1.8E1,8E0,4E0,1E0,3.5E1,3.5E1,2.2E1,6E0,5.47E2,1E1,8.77E2,1.3E1,3E0,7.7E1,1.4E1,1.07E2,2E0,1E0,2.7E1,8E0,1.63E2,7E0,3E0,1.2E1,1.3E1,5E0,1E0,7E0,3.2E1,3E0,2.3E1,1.2E1,1.7E1,5E0,4E0,2E0,5.44E2,3E0,3E0,7E0,3.3E1,8.44E2,5E0,8E0,1E0,2E0,6.9E1,8E0,2E0,1.2E1,7.7E1,3E1,2.5E1,2E0,3E0,5E0,7E0,1.56E2,2E0,5E0,1E0,2E0,7E0,5E0,2E0,1.1E1,2E0,3E0,3E0,4E0,1.8E1,1.4E1,1.7E1,6E0,1.1E1,1E0,9E0,8E0,3E0,2E0,1E0,1E0],"tree_param":{"num_deleted":"0","num_feature":"8","num_nodes":"105","size_leaf_vector":"1"}},{"base_weights":[3.9081313E-2,-3.0780823E0,5.9435282E-2,1.3367775E-1,-5.8501163E0,5.386468E-1,-5.778244E-2,2.103871E0,-9.583612E-1,-4.079278E-1,-1.9115648E0,8.446193E-1,-9.2714334E-1,-2.274244E0,-9.130539E-4,2.6882097E-1,7.831147E-1,3.8465574E-1,2.393352E0,-1.8065207E0,8.719219E-1,-3.4223185E0,6.897895E-1,-4.7934078E-2,1.7423277E0,1.9016773E0,-2.0092753E-1,-1.9949653E0,3.3612716E0,-2.475935E0,3.0688972E0,1.513831E0,-1.1736249E0,-3.3904612E-1,-4.3879485E0,-3.2579203E0,2.367684E0,-7.252289E-3,-2.9514935E0,-6.715372E-2,3.841051E0,-7.1775004E-2,1.1132579E0,-2.9558071E-1,3.2042825E-1,-1.8373264E0,2.9390043E-1,1.6018815E0,2.0168224E-1,-9.7182965E-1,7.5531125E-1,2.2955434E0,-3.4065372E-1,8.1000763E-1,-3.7328276E-1,-9.794591E-1,1.0208962E0,-4.2021957E-1,-1.7984631E0,-1.4190412E0,1.7380944E-1,-3.3438265E-1,8.82689E-1,-4.082627E-2,1.9597657E-1,-1.7573022E0,-3.239995E-1,3.5329872E-1,-6.403158E-1,1.6612829E0,-6.0505044E-1],"categories":[],"categories_nodes":[],"categories_segments":[],"categories_sizes":[],"default_left":[0,0,0,0,0,0,0,0,0,0,0,0,0,0,0,0,0,0,0,0,0,0,0,0,0,0,0,0,0,0,0,0,0,0,0,0,0,0,0,0,0,0,0,0,0,0,0,0,0,0,0,0,0,0,0,0,0,0,0,0,0,0,0,0,0,0,0,0,0,0,0],"id":13,"left_children":[1,3,5,7,9,11,13,15,-1,-1,-1,17,19,21,23,-1,-1,25,27,29,31,33,35,37,39,41,43,45,47,49,51,53,-1,55,57,59,61,63,65,67,69,-1,-1,-1,-1,-1,-1,-1,-1,-1,-1,-1,-1,-1,-1,-1,-1,-1,-1,-1,-1,-1,-1,-1,-1,-1,-1,-1,-1,-1,-1],"loss_changes":[1.27139694E2,1.16522446E2,1.117574E2,5.2621487E1,7.736191E0,1.7614325E2,2.0154996E2,7.19738E-1,0E0,0E0,0E0,2.2988422E2,1.0915504E2,1.3847794E2,1.2795511E2,0E0,0E0,2.2335605E2,3.210234E2,1.577274E2,7.655284E1,8.4854004E1,8.71998E1,1.7952403E2,1.559596E2,2.720207E2,1.8220538E2,1.7797054E2,3.2091394E2,1.6447371E2,1.2429939E2,7.206424E1,0E0,9.869833E1,9.720813E1,2.533773E1,2.1288227E1,1.2773387E2,1.0789067E2,6.1700035E1,1.9999509E2,0E0,0E0,0E0,0E0,0E0,0E0,0E0,0E0,0E0,0E0,0E0,0E0,0E0,0E0,0E0,0E0,0E0,0E0,0E0,0E0,0E0,0E0,0E0,0E0,0E0,0E0,0E0,0E0,0E0,0E0],"parents":[2147483647,0,0,1,1,2,2,3,3,4,4,5,5,6,6,7,7,11,11,12,12,13,13,14,14,17,17,18,18,19,19,20,20,21,21,22,22,23,23,24,24,25,25,26,26,27,27,28,28,29,29,30,30,31,31,33,33,34,34,35,35,36,36,37,37,38,38,39,39,40,40],"right_children":[2,4,6,8,10,12,14,16,-1,-1,-1,18,20,22,24,-1,-1,26,28,30,32,34,36,38,40,42,44,46,48,50,52,54,-1,56,58,60,62,64,66,68,70,-1,-1,-1,-1,-1,-1,-1,-1,-1,-1,-1,-1,-1,-1,-1,-1,-1,-1,-1,-1,-1,-1,-1,-1,-1,-1,-1,-1,-1,-1],"split_conditions":[6E0,5E0,3.3690117E1,1.0000001E0,5E0,1.14862E1,3.6379707E1,1E-1,-9.583612E-1,-4.079278E-1,-1.9115648E0,9.885262E0,3.6E1,3.9E1,6E1,2.6882097E-1,7.831147E-1,6.763786E0,1.4578223E1,3.267933E1,3.3274895E1,6.763786E0,-1.0570834E1,5.5E1,1.4654254E1,5.6920996E0,1E0,2E-1,8E-1,1.0300004E1,1E-1,6.4E1,-1.1736249E0,2.1E1,2.0333334E1,5.4333332E1,3.421014E1,3.2666668E1,1.2883334E2,-1.5458332E0,7.4999995E0,-7.1775004E-2,1.1132579E0,-2.9558071E-1,3.2042825E-1,-1.8373264E0,2.9390043E-1,1.6018815E0,2.0168224E-1,-9.7182965E-1,7.5531125E-1,2.2955434E0,-3.4065372E-1,8.1000763E-1,-3.7328276E-1,-9.794591E-1,1.0208962E0,-4.2021957E-1,-1.7984631E0,-1.4190412E0,1.7380944E-1,-3.3438265E-1,8.82689E-1,-4.082627E-2,1.9597657E-1,-1.7573022E0,-3.239995E-1,3.5329872E-1,-6.403158E-1,1.6612829E0,-6.0505044E-1],"split_indices":[3,3,7,5,2,6,7,5,0,0,0,6,3,0,1,0,0,6,7,7,7,6,4,1,6,6,5,5,5,5,5,0,0,2,3,3,7,3,7,4,5,0,0,0,0,0,0,0,0,0,0,0,0,0,0,0,0,0,0,0,0,0,0,0,0,0,0,0,0,0,0],"split_type":[0,0,0,0,0,0,0,0,0,0,0,0,0,0,0,0,0,0,0,0,0,0,0,0,0,0,0,0,0,0,0,0,0,0,0,0,0,0,0,0,0,0,0,0,0,0,0,0,0,0,0,0,0,0,0,0,0,0,0,0,0,0,0,0,0,0,0,0,0,0,0],"sum_hessian":[2E3,1.2E1,1.988E3,6E0,6E0,3.9E2,1.598E3,4E0,2E0,1E0,5E0,3.23E2,6.7E1,3.9E1,1.559E3,2E0,2E0,2.5E2,7.3E1,4.5E1,2.2E1,2.8E1,1.1E1,1.519E3,4E1,6.9E1,1.81E2,1.3E1,6E1,4E1,5E0,2E1,2E0,7E0,2.1E1,3E0,8E0,1.499E3,2E1,2.2E1,1.8E1,3.2E1,3.7E1,1.12E2,6.9E1,5E0,8E0,3.4E1,2.6E1,3.5E1,5E0,2E0,3E0,1.4E1,6E0,4E0,3E0,8E0,1.3E1,2E0,1E0,1E0,7E0,1.255E3,2.44E2,7E0,1.3E1,1.4E1,8E0,1.4E1,4E0],"tree_param":{"num_deleted":"0","num_feature":"8","num_nodes":"71","size_leaf_vector":"1"}},{"base_weights":[2.539333E-2,-4.3374468E-3,1.7455338E0,-1.4532388E0,2.8013071E-2,4.5753846E0,6.9883406E-1,1.0681207E0,-3.4938202E0,9.042131E-3,2.0384305E0,1.3558617E0,5.9591694E0,-2.4927838E0,1.7809587E0,4.8991156E0,-1.9582272E-1,-1.2624545E0,-4.5305996E0,-4.0843923E-2,7.4008495E-1,2.2712994E-1,6.702386E0,1.4251042E-2,5.32844E-1,2.007529E0,3.4442997E-1,-5.375328E-1,-1.1474516E0,6.106714E0,3.1785017E-1,9.859848E-1,2.1537623E0,1.287497E0,-9.871042E-1,3.9594316E-1,-2.1576438E0,-1.5506077E0,-1.3241496E0,-1.9874705E-2,-3.7671835E0,2.4626734E0,-1.6224588E-1,7.586464E-1,-1.0023878E0,5.122216E-1,2.257284E0,-2.8228226E-1,-2.6824953E-2,2.9325286E-1,2.1433914E0,-2.3681068E0,3.2998204E0,3.9211094E-1,5.1582243E-2,6.583549E-1,8.560753E-2,-9.333427E-1,-5.082398E-2,2.1813346E-1,-8.963428E-2,-7.1861243E-1,-1.4534841E-1,-4.510461E-1,-1.17920645E-1,3.954276E-1,-1.6607152E-2,1.789012E-1,-1.7167366E0,2.578628E-1,1.7918309E0,-1.1611522E-1,1.7435092E0,6.079866E-1,-8.614984E-2,6.3674927E-1,-1.4901476E0,1.5333468E-1,1.461246E0],"categories":[],"categories_nodes":[],"categories_segments":[],"categories_sizes":[],"default_left":[0,0,0,0,0,0,0,0,0,0,0,0,0,0,0,0,0,0,0,0,0,0,0,0,0,0,0,0,0,0,0,0,0,0,0,0,0,0,0,0,0,0,0,0,0,0,0,0,0,0,0,0,0,0,0,0,0,0,0,0,0,0,0,0,0,0,0,0,0,0,0,0,0,0,0,0,0,0,0],"id":14,"left_children":[1,3,5,7,9,11,13,15,17,19,21,23,25,27,29,31,33,35,37,39,41,43,45,-1,-1,-1,-1,47,-1,49,51,53,-1,55,57,59,61,-1,63,65,67,69,71,73,-1,-1,-1,-1,-1,-1,-1,75,77,-1,-1,-1,-1,-1,-1,-1,-1,-1,-1,-1,-1,-1,-1,-1,-1,-1,-1,-1,-1,-1,-1,-1,-1,-1,-1],"loss_changes":[1.02340935E2,9.22862E1,9.7510704E1,2.249685E2,7.343826E1,3.2016327E1,9.423647E1,9.780258E1,4.9802734E1,6.964925E1,1.5053851E2,2.1151586E0,1.3464554E1,1.6175533E1,1.24639946E2,3.7532913E1,2.0050468E1,1.4215526E1,2.589209E1,1.3963664E2,1.900296E2,2.9088316E1,7.6797333E0,0E0,0E0,0E0,0E0,6.389593E-1,0E0,1.9634674E1,1.3596542E2,5.5931735E-1,0E0,4.827531E0,1.8577803E1,1.1375296E0,1.2260094E0,0E0,7.693672E-2,8.452985E1,8.87312E1,2.3120618E2,1.1103009E2,1.782082E1,0E0,0E0,0E0,0E0,0E0,0E0,0E0,1.1558461E2,3.255889E1,0E0,0E0,0E0,0E0,0E0,0E0,0E0,0E0,0E0,0E0,0E0,0E0,0E0,0E0,0E0,0E0,0E0,0E0,0E0,0E0,0E0,0E0,0E0,0E0,0E0,0E0],"parents":[2147483647,0,0,1,1,2,2,3,3,4,4,5,5,6,6,7,7,8,8,9,9,10,10,11,11,12,12,13,13,14,14,15,15,16,16,17,17,18,18,19,19,20,20,21,21,22,22,27,27,29,29,30,30,31,31,33,33,34,34,35,35,36,36,38,38,39,39,40,40,41,41,42,42,43,43,51,51,52,52],"right_children":[2,4,6,8,10,12,14,16,18,20,22,24,26,28,30,32,34,36,38,40,42,44,46,-1,-1,-1,-1,48,-1,50,52,54,-1,56,58,60,62,-1,64,66,68,70,72,74,-1,-1,-1,-1,-1,-1,-1,76,78,-1,-1,-1,-1,-1,-1,-1,-1,-1,-1,-1,-1,-1,-1,-1,-1,-1,-1,-1,-1,-1,-1,-1,-1,-1,-1],"split_conditions":[2.475638E1,6E0,1.3E1,8.270834E0,2.365E1,9E0,2.3E1,8.707237E0,2.298334E2,5.3E1,1E-1,7E0,2.2E1,1.4333333E1,2.7E1,7E0,9.39583E-1,1.1250001E1,1.2049999E1,5.2E1,5.8E1,1.1457958E1,9.255571E0,1.4251042E-2,5.32844E-1,2.007529E0,3.4442997E-1,1.2E1,-1.1474516E0,1.8E1,2.7E1,5E0,2.1537623E0,1.4333333E1,1.8666667E0,1.5E1,1.3E1,-1.5506077E0,1.3083335E1,-1.1870831E1,-1.9333335E0,1.7053778E2,2.3372986E1,2.4E1,-1.0023878E0,5.122216E-1,2.257284E0,-2.8228226E-1,-2.6824953E-2,2.9325286E-1,2.1433914E0,1.11E1,2.6758923E1,3.9211094E-1,5.1582243E-2,6.583549E-1,8.560753E-2,-9.333427E-1,-5.082398E-2,2.1813346E-1,-8.963428E-2,-7.1861243E-1,-1.4534841E-1,-4.510461E-1,-1.17920645E-1,3.954276E-1,-1.6607152E-2,1.789012E-1,-1.7167366E0,2.578628E-1,1.7918309E0,-1.1611522E-1,1.7435092E0,6.079866E-1,-8.614984E-2,6.3674927E-1,-1.4901476E0,1.5333468E-1,1.461246E0],"split_indices":[6,0,2,4,4,1,2,6,7,2,5,0,0,3,2,1,4,4,4,2,2,6,6,0,0,0,0,0,0,1,0,0,0,3,4,1,1,0,4,4,4,7,6,1,0,0,0,0,0,0,0,5,6,0,0,0,0,0,0,0,0,0,0,0,0,0,0,0,0,0,0,0,0,0,0,0,0,0,0],"split_type":[0,0,0,0,0,0,0,0,0,0,0,0,0,0,0,0,0,0,0,0,0,0,0,0,0,0,0,0,0,0,0,0,0,0,0,0,0,0,0,0,0,0,0,0,0,0,0,0,0,0,0,0,0,0,0,0,0,0,0,0,0,0,0,0,0,0,0,0,0,0,0,0,0,0,0,0,0,0,0],"sum_hessian":[2E3,1.967E3,3.3E1,4.2E1,1.925E3,8E0,2.5E1,1.9E1,2.3E1,1.908E3,1.7E1,3E0,5E0,6E0,1.9E1,4E0,1.5E1,8E0,1.5E1,1.787E3,1.21E2,1.3E1,4E0,1E0,2E0,4E0,1E0,3E0,3E0,4E0,1.5E1,2E0,2E0,5E0,1E1,3E0,5E0,1.2E1,3E0,1.778E3,9E0,4.1E1,8E1,1.2E1,1E0,1E0,3E0,1E0,2E0,1E0,3E0,8E0,7E0,1E0,1E0,2E0,3E0,2E0,8E0,2E0,1E0,4E0,1E0,2E0,1E0,4.5E1,1.733E3,3E0,6E0,2.9E1,1.2E1,7.8E1,2E0,5E0,7E0,3E0,5E0,3E0,4E0],"tree_param":{"num_deleted":"0","num_feature":"8","num_nodes":"79","size_leaf_vector":"1"}},{"base_weights":[2.224775E-2,-3.478425E-2,6.831769E-1,-7.594045E-2,1.4425961E0,3.8528583E0,1.7291476E-1,-2.2397917E-2,-1.3561884E0,3.886246E0,9.432959E-1,8.182656E0,7.9421264E-1,-4.1647077E-1,2.8535962E0,4.096357E-1,-1.4412159E-1,2.7883613E0,-1.9178252E0,2.020575E0,-1.8942288E0,4.252207E-1,2.6553416E0,1.5830026E0,-1.4190085E0,-7.236205E-2,-6.598367E0,2.8645284E0,1.8562878E0,-3.624961E0,4.9530002E-1,-2.5986023E0,-1.01342164E-1,-1.7674417E0,5.3608365E0,3.603509E-1,-2.8171191E0,3.4018974E0,-6.849874E-1,-3.001895E0,1.6254106E0,-1.1637739E0,2.9331002E0,2.6522882E0,-7.527023E-1,2.5390722E-2,-2.3855686E0,2.285051E0,-7.5160074E-1,3.6697158E-1,-1.6334702E0,5.444261E-1,4.846822E-2,-1.993021E0,-4.1922376E-1,-6.946327E-3,-3.516771E-1,-6.931477E-1,-2.0743562E-2,-1.3594237E-1,1.9842781E0,-1.7394462E-1,2.5925016E0,1.4088993E0,-9.2653435E-1,1.4703928E-1,1.881846E0,-1.1752746E0,5.475246E-1,1.0840845E-2,-1.2437022E0,-1.7857333E-1,7.6921314E-1,7.8385025E-2,-1.0296005E0,-2.0481263E-1,1.2191155E0,1.919808E0,-1.3022904E-1,1.1605197E-1,-6.389472E-1,1.0880814E-1,1.0609195E0,-6.3154817E-1,4.9636176E-1],"categories":[],"categories_nodes":[],"categories_segments":[],"categories_sizes":[],"default_left":[0,0,0,0,0,0,0,0,0,0,0,0,0,0,0,0,0,0,0,0,0,0,0,0,0,0,0,0,0,0,0,0,0,0,0,0,0,0,0,0,0,0,0,0,0,0,0,0,0,0,0,0,0,0,0,0,0,0,0,0,0,0,0,0,0,0,0,0,0,0,0,0,0,0,0,0,0,0,0,0,0,0,0,0,0],"id":15,"left_children":[1,3,5,7,9,11,13,15,17,-1,19,21,23,25,27,29,31,33,35,37,39,-1,-1,41,-1,43,45,-1,47,49,51,53,55,57,59,61,63,65,67,69,71,73,75,77,79,-1,-1,81,83,-1,-1,-1,-1,-1,-1,-1,-1,-1,-1,-1,-1,-1,-1,-1,-1,-1,-1,-1,-1,-1,-1,-1,-1,-1,-1,-1,-1,-1,-1,-1,-1,-1,-1,-1,-1],"loss_changes":[7.544968E1,1.1217016E2,2.5649533E2,1.2294423E2,2.7516656E2,2.8485422E2,2.192222E2,9.0669395E1,1.7294427E2,0E0,1.5361093E2,2.8156433E1,6.8492165E1,2.4202837E2,1.4919566E2,1.3278584E2,1.4096336E2,1.1495218E2,1.3213513E2,1.3687141E2,5.945952E1,0E0,0E0,5.1622887E1,0E0,2.0404851E2,5.4946777E1,0E0,2.7435287E1,7.7247856E1,1.6351831E2,1.0246361E2,1.1075085E2,3.5292835E0,4.6721466E1,1.5294113E2,1.0828058E2,1.975524E2,1.1263237E2,3.8372993E1,9.863753E0,1.7058496E1,3.9567238E1,2.5720587E2,1.3892128E2,0E0,0E0,4.6828087E1,1.6510485E1,0E0,0E0,0E0,0E0,0E0,0E0,0E0,0E0,0E0,0E0,0E0,0E0,0E0,0E0,0E0,0E0,0E0,0E0,0E0,0E0,0E0,0E0,0E0,0E0,0E0,0E0,0E0,0E0,0E0,0E0,0E0,0E0,0E0,0E0,0E0,0E0],"parents":[2147483647,0,0,1,1,2,2,3,3,4,4,5,5,6,6,7,7,8,8,10,10,11,11,12,12,13,13,14,14,15,15,16,16,17,17,18,18,19,19,20,20,23,23,25,25,26,26,28,28,29,29,30,30,31,31,32,32,33,33,34,34,35,35,36,36,37,37,38,38,39,39,40,40,41,41,42,42,43,43,44,44,47,47,48,48],"right_children":[2,4,6,8,10,12,14,16,18,-1,20,22,24,26,28,30,32,34,36,38,40,-1,-1,42,-1,44,46,-1,48,50,52,54,56,58,60,62,64,66,68,70,72,74,76,78,80,-1,-1,82,84,-1,-1,-1,-1,-1,-1,-1,-1,-1,-1,-1,-1,-1,-1,-1,-1,-1,-1,-1,-1,-1,-1,-1,-1,-1,-1,-1,-1,-1,-1,-1,-1,-1,-1,-1,-1],"split_conditions":[1.9453327E1,2.4200005E1,1.1E1,1.7917007E1,6E0,1.04000025E1,3.9E1,-2.0729165E0,4.1870224E1,3.886246E0,5.3916664E0,1.2E1,2.4E1,3.8E1,3.1E1,8E0,-1.7041665E0,-1.0420835E1,1.5E1,3E1,1.6674997E1,4.252207E-1,2.6553416E0,1.1E1,-1.4190085E0,2.0380579E1,1.4E1,2.8645284E0,6.3333332E1,5E0,2.3333334E1,5.904439E0,4.3E1,5.6E1,3E1,1.2527084E1,7E0,1.8E1,3.4E1,1E1,1.4E1,9E0,2.206642E2,2.2003015E2,4.902083E0,2.5390722E-2,-2.3855686E0,5.0666668E1,6.9E1,3.6697158E-1,-1.6334702E0,5.444261E-1,4.846822E-2,-1.993021E0,-4.1922376E-1,-6.946327E-3,-3.516771E-1,-6.931477E-1,-2.0743562E-2,-1.3594237E-1,1.9842781E0,-1.7394462E-1,2.5925016E0,1.4088993E0,-9.2653435E-1,1.4703928E-1,1.881846E0,-1.1752746E0,5.475246E-1,1.0840845E-2,-1.2437022E0,-1.7857333E-1,7.6921314E-1,7.8385025E-2,-1.0296005E0,-2.0481263E-1,1.2191155E0,1.919808E0,-1.3022904E-1,1.1605197E-1,-6.389472E-1,1.0880814E-1,1.0609195E0,-6.3154817E-1,4.9636176E-1],"split_indices":[6,5,2,6,1,5,1,4,7,0,4,0,1,1,2,1,4,4,1,0,4,0,0,1,0,6,2,0,3,1,3,6,1,0,0,4,2,3,0,1,2,1,7,7,4,0,0,3,2,0,0,0,0,0,0,0,0,0,0,0,0,0,0,0,0,0,0,0,0,0,0,0,0,0,0,0,0,0,0,0,0,0,0,0,0],"split_type":[0,0,0,0,0,0,0,0,0,0,0,0,0,0,0,0,0,0,0,0,0,0,0,0,0,0,0,0,0,0,0,0,0,0,0,0,0,0,0,0,0,0,0,0,0,0,0,0,0,0,0,0,0,0,0,0,0,0,0,0,0,0,0,0,0,0,0,0,0,0,0,0,0,0,0,0,0,0,0,0,0,0,0,0,0],"sum_hessian":[2E3,1.842E3,1.58E2,1.793E3,4.9E1,2.1E1,1.37E2,1.722E3,7.1E1,1E0,4.8E1,8E0,1.3E1,1.13E2,2.4E1,3.78E2,1.344E3,8E0,6.3E1,3.5E1,1.3E1,1E0,7E0,1.2E1,1E0,1.08E2,5E0,2E0,2.2E1,7E0,3.71E2,2.2E1,1.322E3,3E0,5E0,1.8E1,4.5E1,2.3E1,1.2E1,1E1,3E0,4E0,8E0,2.1E1,8.7E1,1E0,4E0,1.9E1,3E0,2E0,5E0,7.4E1,2.97E2,4E0,1.8E1,1.233E3,8.9E1,2E0,1E0,1E0,4E0,1.7E1,1E0,1E0,4.4E1,1.2E1,1.1E1,5E0,7E0,3E0,7E0,1E0,2E0,3E0,1E0,2E0,6E0,9E0,1.2E1,4.8E1,3.9E1,8E0,1.1E1,2E0,1E0],"tree_param":{"num_deleted":"0","num_feature":"8","num_nodes":"85","size_leaf_vector":"1"}},{"base_weights":[2.045412E-2,-4.164508E-3,1.4448366E0,-1.21599905E-1,3.0661207E-1,2.7035117E0,3.0885562E-1,6.472728E-2,-7.497262E-1,1.2406983E0,-1.6782688E-3,1.5509204E0,4.929029E0,-9.3536663E-1,2.5754318E0,-8.643258E-2,8.3520144E-1,-8.449401E-1,5.551042E0,9.0162075E-1,1.2035313E1,-1.6671337E0,5.53479E-1,2.7610357E0,-6.954483E-1,6.413845E-1,1.8231301E0,1.1408825E0,-1.9849087E0,7.4668884E-2,1.3297011E0,3.2886047E-2,-2.4708407E0,-1.01323314E-1,2.0731933E0,-3.2417772E0,-6.503767E-1,2.3514268E0,-5.3957176E-1,4.0602565E0,4.5817426E-1,4.448469E0,5.4848444E-1,-1.0428816E0,-3.8897374E0,1.8003459E0,1.1902303E-1,6.861415E-1,1.1606232E0,-4.5405352E-1,1.0632935E-1,-7.1152765E-1,1.281969E0,-3.2720382E0,4.420128E-1,9.018936E-2,-9.048271E-2,5.217762E-1,-9.440426E-3,1.3847561E-1,-1.4801286E0,2.0564285E-1,-6.47936E-1,4.1187975E-1,2.1867938E0,6.444618E-1,-1.1488265E0,4.8577875E-1,-2.8687525E-1,3.7516946E-1,3.6530073E0,1.2215004E0,5.66281E-2,-1.3119199E0,-2.0063062E-1,-1.5150455E0,1.3917828E-2,3.0308297E-1,1.2241611E0,-7.4540657E-1,1.6240703E-1,3.5562518E-4,2.7421954E-1,-2.717578E-1,-1.2685989E0,1.635111E-1,1.9941045E-2],"categories":[],"categories_nodes":[],"categories_segments":[],"categories_sizes":[],"default_left":[0,0,0,0,0,0,0,0,0,0,0,0,0,0,0,0,0,0,0,0,0,0,0,0,0,0,0,0,0,0,0,0,0,0,0,0,0,0,0,0,0,0,0,0,0,0,0,0,0,0,0,0,0,0,0,0,0,0,0,0,0,0,0,0,0,0,0,0,0,0,0,0,0,0,0,0,0,0,0,0,0,0,0,0,0,0,0],"id":16,"left_children":[1,3,5,7,9,11,13,15,17,19,21,23,25,27,29,31,33,35,37,39,41,43,45,47,49,-1,-1,51,53,55,-1,57,59,61,63,65,67,-1,-1,69,71,-1,-1,73,75,77,79,81,-1,-1,-1,-1,-1,83,85,-1,-1,-1,-1,-1,-1,-1,-1,-1,-1,-1,-1,-1,-1,-1,-1,-1,-1,-1,-1,-1,-1,-1,-1,-1,-1,-1,-1,-1,-1,-1,-1],"loss_changes":[7.0173775E1,7.186175E1,4.7779266E1,1.672944E2,1.5550575E2,3.3397263E1,5.599134E1,1.2853282E2,2.0086452E2,4.79617E2,3.772307E2,3.4540543E1,3.0292664E0,3.0592987E1,3.2174793E1,2.6267874E2,2.1006331E2,1.4851842E2,9.814194E1,1.8162955E2,8.691943E1,1.3746487E2,1.6554861E2,1.573251E1,4.8307753E0,0E0,0E0,6.514913E1,2.9560143E1,4.3077162E-1,0E0,9.668913E1,3.2006012E2,1.6991866E2,2.748985E2,8.4243805E1,2.0981555E2,0E0,0E0,3.4964703E2,1.1216038E2,0E0,0E0,9.799053E1,1.00720215E2,1.3819669E2,2.5206192E2,6.233871E-1,0E0,0E0,0E0,0E0,0E0,9.750702E0,1.1853117E-1,0E0,0E0,0E0,0E0,0E0,0E0,0E0,0E0,0E0,0E0,0E0,0E0,0E0,0E0,0E0,0E0,0E0,0E0,0E0,0E0,0E0,0E0,0E0,0E0,0E0,0E0,0E0,0E0,0E0,0E0,0E0,0E0],"parents":[2147483647,0,0,1,1,2,2,3,3,4,4,5,5,6,6,7,7,8,8,9,9,10,10,11,11,12,12,13,13,14,14,15,15,16,16,17,17,18,18,19,19,20,20,21,21,22,22,23,23,24,24,27,27,28,28,29,29,31,31,32,32,33,33,34,34,35,35,36,36,39,39,40,40,43,43,44,44,45,45,46,46,47,47,53,53,54,54],"right_children":[2,4,6,8,10,12,14,16,18,20,22,24,26,28,30,32,34,36,38,40,42,44,46,48,50,-1,-1,52,54,56,-1,58,60,62,64,66,68,-1,-1,70,72,-1,-1,74,76,78,80,82,-1,-1,-1,-1,-1,84,86,-1,-1,-1,-1,-1,-1,-1,-1,-1,-1,-1,-1,-1,-1,-1,-1,-1,-1,-1,-1,-1,-1,-1,-1,-1,-1,-1,-1,-1,-1,-1,-1],"split_conditions":[2.475638E1,3.2E1,2.2E1,2.4E1,3.0633005E1,2.3E1,3.4E1,2.7E1,3E1,3.022691E1,4.4565742E1,1.3E1,2E1,2.7E1,2.6758923E1,2.5E1,3.2354171E0,-7.7291675E0,3E1,3.4E1,2.7E1,4.142607E1,5.9407825E1,3.7250001E0,1.2E1,6.413845E-1,1.8231301E0,2.4E1,2.8916671E0,5.2E1,1.3297011E0,-3.4416664E0,2.4770834E0,2.246062E2,2.6429846E2,-1.5631251E1,1.4E1,2.3514268E0,-5.3957176E-1,9.885262E0,5.1919937E0,4.448469E0,5.4848444E-1,3.1643723E1,1.4494192E1,1.4395834E0,9.233428E1,7E0,1.1606232E0,-4.5405352E-1,1.0632935E-1,-7.1152765E-1,1.281969E0,-1.6666532E-2,2.1E1,9.018936E-2,-9.048271E-2,5.217762E-1,-9.440426E-3,1.3847561E-1,-1.4801286E0,2.0564285E-1,-6.47936E-1,4.1187975E-1,2.1867938E0,6.444618E-1,-1.1488265E0,4.8577875E-1,-2.8687525E-1,3.7516946E-1,3.6530073E0,1.2215004E0,5.66281E-2,-1.3119199E0,-2.0063062E-1,-1.5150455E0,1.3917828E-2,3.0308297E-1,1.2241611E0,-7.4540657E-1,1.6240703E-1,3.5562518E-4,2.7421954E-1,-2.717578E-1,-1.2685989E0,1.635111E-1,1.9941045E-2],"split_indices":[6,1,1,1,7,2,0,0,5,7,7,2,0,2,6,0,4,4,0,1,0,7,7,4,0,0,0,1,4,0,0,4,4,7,7,4,2,0,0,6,6,0,0,7,6,4,7,0,0,0,0,0,0,4,0,0,0,0,0,0,0,0,0,0,0,0,0,0,0,0,0,0,0,0,0,0,0,0,0,0,0,0,0,0,0,0,0],"split_type":[0,0,0,0,0,0,0,0,0,0,0,0,0,0,0,0,0,0,0,0,0,0,0,0,0,0,0,0,0,0,0,0,0,0,0,0,0,0,0,0,0,0,0,0,0,0,0,0,0,0,0,0,0,0,0,0,0,0,0,0,0,0,0,0,0,0,0,0,0,0,0,0,0,0,0,0,0,0,0,0,0,0,0,0,0,0,0],"sum_hessian":[2E3,1.967E3,3.3E1,1.428E3,5.39E2,1.5E1,1.8E1,1.102E3,3.26E2,1.33E2,4.06E2,1.1E1,4E0,1.2E1,6E0,9.22E2,1.8E2,3.22E2,4E0,1.3E2,3E0,1.01E2,3.05E2,7E0,4E0,2E0,2E0,4E0,8E0,3E0,3E0,8.79E2,4.3E1,1.03E2,7.7E1,2.3E1,2.99E2,3E0,1E0,1.5E1,1.15E2,2E0,1E0,8E1,2.1E1,7.8E1,2.27E2,3E0,4E0,2E0,2E0,2E0,2E0,5E0,3E0,2E0,1E0,3.1E1,8.48E2,2E1,2.3E1,7.5E1,2.8E1,6.9E1,8E0,2E0,2.1E1,3.5E1,2.64E2,1.2E1,3E0,7E0,1.08E2,7E0,7.3E1,1.6E1,5E0,5.9E1,1.9E1,3.1E1,1.96E2,1E0,2E0,2E0,3E0,2E0,1E0],"tree_param":{"num_deleted":"0","num_feature":"8","num_nodes":"87","size_leaf_vector":"1"}},{"base_weights":[2.1895371E-2,1.6348226E-1,-1.4871912E-1,1.3660316E-2,1.1760117E0,-2.6455346E-1,1.0058337E0,7.4552894E-1,-2.1720962E-1,8.093642E0,7.542426E-1,2.3024368E0,-3.1810194E-1,-4.68792E0,1.5103849E0,4.75781E-1,3.881142E0,-4.1156834E-1,7.2968966E-1,-1.3584486E0,1.1470748E1,-3.2270646E-1,2.4587142E0,3.3874667E-1,5.059316E0,-5.4317665E-1,2.9177168E-1,2.9523817E-1,-6.740231E0,8.2238847E-1,4.8341837E0,1.560269E0,-3.370402E-1,-8.6436826E-1,5.772828E0,2.3841353E-2,-1.387857E0,-8.604103E-1,1.554624E0,9.83325E-2,-7.096344E-1,1.3078481E1,5.1481247E-1,7.9444714E0,-8.418607E-1,-2.4037871E-1,4.446062E0,2.1353552E0,-3.339157E0,-1.3617526E-1,6.053841E0,-4.2146942E-1,-4.1914277E0,-3.4254458E0,4.1256395E-1,-9.1180044E-1,1.0446577E0,-2.2203782E0,-6.14417E-1,-2.0783417E0,1.7341744E0,-1.277955E0,6.06166E0,-1.00261785E-1,7.4923706E-1,-1.3105116E0,1.8571034E-2,9.780448E-2,-1.0224427E0,2.1838486E0,1.688859E-1,-9.192803E-3,1.7011797E0,6.0645368E-2,-6.917538E-1,3.591899E-1,-5.375984E-1,9.980163E-1,1.8725985E-1,1.0610275E0,4.3739166E0,2.678335E0,6.0168386E-1,-4.2413864E-1,1.3232352E0,-4.5465174E-1,8.6720955E-1,1.4751438E0,-1.3823056E0,8.909335E-1,-5.5584097E-1,-1.3079201E0,-4.1614152E-2,1.9756993E0,5.092089E-1,1.1558182E-1,-1.8799151E-1,-2.2747927E0,-4.7439983E-1,-1.433576E0,-3.6478317E-1,-8.034788E-2,3.4668434E-1,-9.950444E-1,1.318194E0,9.803949E-1,-1.09947085E-1,-9.777446E-2,-4.7730532E-1,2.9310706E0,7.640178E-1],"categories":[],"categories_nodes":[],"categories_segments":[],"categories_sizes":[],"default_left":[0,0,0,0,0,0,0,0,0,0,0,0,0,0,0,0,0,0,0,0,0,0,0,0,0,0,0,0,0,0,0,0,0,0,0,0,0,0,0,0,0,0,0,0,0,0,0,0,0,0,0,0,0,0,0,0,0,0,0,0,0,0,0,0,0,0,0,0,0,0,0,0,0,0,0,0,0,0,0,0,0,0,0,0,0,0,0,0,0,0,0,0,0,0,0,0,0,0,0,0,0,0,0,0,0,0,0,0,0,0,0],"id":17,"left_children":[1,3,5,7,9,11,13,15,17,19,21,23,25,27,29,31,33,35,37,39,41,43,45,47,49,51,53,55,57,59,61,63,65,67,69,71,73,75,77,-1,-1,79,-1,81,83,85,87,89,91,-1,93,95,97,99,101,-1,-1,-1,-1,103,105,107,109,-1,-1,-1,-1,-1,-1,-1,-1,-1,-1,-1,-1,-1,-1,-1,-1,-1,-1,-1,-1,-1,-1,-1,-1,-1,-1,-1,-1,-1,-1,-1,-1,-1,-1,-1,-1,-1,-1,-1,-1,-1,-1,-1,-1,-1,-1,-1,-1],"loss_changes":[4.836202E1,1.6594278E2,1.2169918E2,1.6135594E2,4.0528308E2,1.1427312E2,2.4552219E2,1.918474E2,1.3391199E2,2.7094806E2,2.4676778E2,9.031833E1,1.1134487E2,7.357889E1,1.7210507E2,1.8740277E2,1.6657611E2,2.5635965E2,1.6399188E2,5.8694134E0,7.165454E1,3.629192E2,2.7999866E2,7.9815575E1,4.1129288E1,2.6109238E2,9.974664E1,4.2464935E1,3.5012817E-1,1.7551912E2,1.0527905E2,1.6240321E2,1.9647987E2,1.92795E1,9.7946106E1,1.2877486E2,2.719536E2,8.457354E1,1.3312524E2,0E0,0E0,2.005719E1,0E0,1.129303E1,2.435653E2,9.620886E1,1.5060883E2,3.212491E1,1.2460434E1,0E0,2.7230072E0,9.5249E1,1.5618576E2,1.5117882E1,1.0799469E2,0E0,0E0,0E0,0E0,1.4282678E2,1.6229854E2,3.7560844E-1,1.1850723E2,0E0,0E0,0E0,0E0,0E0,0E0,0E0,0E0,0E0,0E0,0E0,0E0,0E0,0E0,0E0,0E0,0E0,0E0,0E0,0E0,0E0,0E0,0E0,0E0,0E0,0E0,0E0,0E0,0E0,0E0,0E0,0E0,0E0,0E0,0E0,0E0,0E0,0E0,0E0,0E0,0E0,0E0,0E0,0E0,0E0,0E0,0E0,0E0],"parents":[2147483647,0,0,1,1,2,2,3,3,4,4,5,5,6,6,7,7,8,8,9,9,10,10,11,11,12,12,13,13,14,14,15,15,16,16,17,17,18,18,19,19,20,20,21,21,22,22,23,23,24,24,25,25,26,26,27,27,28,28,29,29,30,30,31,31,32,32,33,33,34,34,35,35,36,36,37,37,38,38,41,41,43,43,44,44,45,45,46,46,47,47,48,48,50,50,51,51,52,52,53,53,54,54,59,59,60,60,61,61,62,62],"right_children":[2,4,6,8,10,12,14,16,18,20,22,24,26,28,30,32,34,36,38,40,42,44,46,48,50,52,54,56,58,60,62,64,66,68,70,72,74,76,78,-1,-1,80,-1,82,84,86,88,90,92,-1,94,96,98,100,102,-1,-1,-1,-1,104,106,108,110,-1,-1,-1,-1,-1,-1,-1,-1,-1,-1,-1,-1,-1,-1,-1,-1,-1,-1,-1,-1,-1,-1,-1,-1,-1,-1,-1,-1,-1,-1,-1,-1,-1,-1,-1,-1,-1,-1,-1,-1,-1,-1,-1,-1,-1,-1,-1,-1],"split_conditions":[4.902083E0,3.0874999E0,2.8252875E2,8.350138E0,3.1520834E0,5.6002855E0,7.2875E0,8.133928E0,4.6E1,1.7163464E1,1.4277983E1,3.1E1,1.5099999E1,1E-1,1.1901798E1,2.4E1,2.1E1,3.3E1,3.2E1,3.2E1,4.3E1,1.1333333E1,1.8E1,2E1,1.2E1,4.3E1,8.666667E0,8E0,2.7E1,1.1E1,9E0,5.6920996E0,2.6E1,3E1,4.9E1,3.94E1,-6.34375E0,6E-1,5.1E1,9.83325E-2,-7.096344E-1,3E1,5.1481247E-1,9E0,1.6E1,2.13E1,5.8E1,2.5E1,3E1,-1.3617526E-1,4.5E1,1E-1,1E-1,1.0464797E1,8E-1,-9.1180044E-1,1.0446577E0,-2.2203782E0,-6.14417E-1,1.6831251E1,1.3566666E1,5E0,1.370839E1,-1.00261785E-1,7.4923706E-1,-1.3105116E0,1.8571034E-2,9.780448E-2,-1.0224427E0,2.1838486E0,1.688859E-1,-9.192803E-3,1.7011797E0,6.0645368E-2,-6.917538E-1,3.591899E-1,-5.375984E-1,9.980163E-1,1.8725985E-1,1.0610275E0,4.3739166E0,2.678335E0,6.0168386E-1,-4.2413864E-1,1.3232352E0,-4.5465174E-1,8.6720955E-1,1.4751438E0,-1.3823056E0,8.909335E-1,-5.5584097E-1,-1.3079201E0,-4.1614152E-2,1.9756993E0,